{"model":{"acc":{"ccp_alpha":0.0,"class_weight":{"0":1,"1":4},"classes_":[0,1],"criterion":"entropy","feature_importances_":[0.5824187031,0.1294814652,0.0421183203,0.0462665047,0.0231729965,0.0505181724,0.0824300599,0.0435937779],"max_depth":50,"max_features":null,"max_features_":8,"max_leaf_nodes":null,"min_impurity_decrease":0.0,"min_samples_leaf":1,"min_samples_split":2,"min_weight_fraction_leaf":0.0,"n_classes_":2,"n_features_":8,"n_features_in_":8,"n_outputs_":1,"random_state":null,"splitter":"best","tree_":{"capacity":483,"children_left":[1,2,3,4,5,6,7,-1,9,10,-1,12,-1,14,-1,-1,17,18,19,20,-1,22,23,-1,25,26,-1,28,-1,-1,-1,-1,-1,-1,35,36,37,38,39,-1,-1,42,43,-1,-1,-1,-1,-1,-1,-1,51,-1,-1,-1,55,56,57,58,-1,60,61,-1,63,64,65,-1,67,68,-1,70,-1,-1,-1,74,-1,-1,-1,78,-1,80,-1,-1,-1,84,-1,86,-1,88,-1,90,91,-1,-1,-1,-1,96,-1,98,99,100,-1,-1,103,104,105,106,-1,-1,109,-1,111,-1,113,-1,115,116,-1,118,119,-1,121,-1,123,-1,125,-1,127,128,-1,130,-1,-1,-1,-1,-1,-1,137,138,-1,140,141,142,143,-1,145,-1,-1,148,-1,-1,-1,-1,-1,154,-1,156,157,158,159,-1,161,162,163,164,-1,166,-1,168,169,-1,171,172,173,-1,175,176,177,-1,179,180,181,-1,183,-1,-1,-1,-1,-1,189,-1,191,-1,193,194,-1,-1,-1,-1,-1,-1,-1,202,203,204,-1,206,-1,-1,-1,-1,-1,-1,-1,-1,215,216,217,218,219,-1,221,222,223,224,225,226,227,-1,-1,230,-1,-1,233,-1,235,-1,-1,-1,239,240,241,-1,-1,-1,245,-1,247,-1,249,-1,-1,-1,253,254,-1,256,-1,258,-1,-1,-1,-1,263,264,265,266,267,268,-1,270,-1,272,-1,274,-1,276,-1,278,279,280,281,-1,-1,-1,285,-1,-1,288,-1,290,291,292,-1,-1,-1,296,297,298,299,-1,301,-1,-1,304,-1,-1,-1,-1,309,310,311,-1,313,314,-1,316,317,-1,319,-1,321,-1,-1,324,325,-1,-1,-1,329,-1,-1,-1,333,334,-1,336,337,338,339,-1,341,-1,-1,-1,345,346,347,348,349,350,351,352,-1,-1,-1,-1,-1,-1,-1,-1,361,362,363,-1,-1,-1,367,-1,-1,370,-1,372,373,374,-1,-1,-1,378,-1,-1,381,382,-1,-1,-1,-1,387,388,-1,390,391,392,393,-1,-1,396,397,398,-1,400,-1,-1,403,-1,405,-1,-1,-1,-1,410,-1,412,413,414,415,-1,417,-1,-1,-1,-1,422,423,-1,-1,-1,427,-1,-1,-1,431,-1,433,434,435,436,437,-1,439,-1,-1,-1,-1,-1,445,446,447,-1,449,450,-1,452,-1,454,455,456,-1,458,459,460,461,-1,-1,-1,-1,-1,-1,-1,469,-1,-1,472,473,-1,475,-1,-1,478,-1,-1,-1,-1,-1],"children_right":[214,95,54,53,50,49,8,-1,16,11,-1,13,-1,15,-1,-1,34,33,32,21,-1,31,24,-1,30,27,-1,29,-1,-1,-1,-1,-1,-1,48,47,46,41,40,-1,-1,45,44,-1,-1,-1,-1,-1,-1,-1,52,-1,-1,-1,94,83,82,59,-1,77,62,-1,76,73,66,-1,72,69,-1,71,-1,-1,-1,75,-1,-1,-1,79,-1,81,-1,-1,-1,85,-1,87,-1,89,-1,93,92,-1,-1,-1,-1,97,-1,153,102,101,-1,-1,136,135,108,107,-1,-1,110,-1,112,-1,114,-1,134,117,-1,133,120,-1,122,-1,124,-1,126,-1,132,129,-1,131,-1,-1,-1,-1,-1,-1,152,139,-1,151,150,147,144,-1,146,-1,-1,149,-1,-1,-1,-1,-1,155,-1,213,212,211,160,-1,210,201,200,165,-1,167,-1,199,170,-1,198,197,174,-1,188,187,178,-1,186,185,182,-1,184,-1,-1,-1,-1,-1,190,-1,192,-1,196,195,-1,-1,-1,-1,-1,-1,-1,209,208,205,-1,207,-1,-1,-1,-1,-1,-1,-1,-1,482,481,262,261,220,-1,252,251,238,237,232,229,228,-1,-1,231,-1,-1,234,-1,236,-1,-1,-1,244,243,242,-1,-1,-1,246,-1,248,-1,250,-1,-1,-1,260,255,-1,257,-1,259,-1,-1,-1,-1,430,429,386,385,308,269,-1,271,-1,273,-1,275,-1,277,-1,287,284,283,282,-1,-1,-1,286,-1,-1,289,-1,295,294,293,-1,-1,-1,307,306,303,300,-1,302,-1,-1,305,-1,-1,-1,-1,332,331,312,-1,328,315,-1,323,318,-1,320,-1,322,-1,-1,327,326,-1,-1,-1,330,-1,-1,-1,380,335,-1,369,344,343,340,-1,342,-1,-1,-1,360,359,358,357,356,355,354,353,-1,-1,-1,-1,-1,-1,-1,-1,366,365,364,-1,-1,-1,368,-1,-1,371,-1,377,376,375,-1,-1,-1,379,-1,-1,384,383,-1,-1,-1,-1,426,389,-1,409,408,395,394,-1,-1,407,402,399,-1,401,-1,-1,404,-1,406,-1,-1,-1,-1,411,-1,421,420,419,416,-1,418,-1,-1,-1,-1,425,424,-1,-1,-1,428,-1,-1,-1,432,-1,444,443,442,441,438,-1,440,-1,-1,-1,-1,-1,480,471,448,-1,468,451,-1,453,-1,467,466,457,-1,465,464,463,462,-1,-1,-1,-1,-1,-1,-1,470,-1,-1,477,474,-1,476,-1,-1,479,-1,-1,-1,-1,-1],"feature":[0,0,0,0,3,1,3,-2,2,5,-2,7,-2,7,-2,-2,6,3,3,3,-2,7,2,-2,5,7,-2,2,-2,-2,-2,-2,-2,-2,6,6,6,4,7,-2,-2,2,4,-2,-2,-2,-2,-2,-2,-2,6,-2,-2,-2,5,6,4,6,-2,2,4,-2,3,6,2,-2,3,7,-2,3,-2,-2,-2,5,-2,-2,-2,5,-2,3,-2,-2,-2,5,-2,5,-2,3,-2,6,7,-2,-2,-2,-2,0,-2,0,6,3,-2,-2,3,2,5,7,-2,-2,2,-2,7,-2,7,-2,7,6,-2,2,5,-2,4,-2,6,-2,5,-2,5,6,-2,6,-2,-2,-2,-2,-2,-2,5,7,-2,2,7,5,7,-2,5,-2,-2,4,-2,-2,-2,-2,-2,0,-2,0,1,6,5,-2,5,7,7,4,-2,6,-2,6,6,-2,6,2,6,-2,5,5,6,-2,7,6,2,-2,6,-2,-2,-2,-2,-2,6,-2,3,-2,7,4,-2,-2,-2,-2,-2,-2,-2,4,7,3,-2,3,-2,-2,-2,-2,-2,-2,-2,-2,0,0,0,0,1,-2,5,5,4,4,5,3,4,-2,-2,5,-2,-2,6,-2,5,-2,-2,-2,7,5,4,-2,-2,-2,2,-2,2,-2,2,-2,-2,-2,7,2,-2,6,-2,6,-2,-2,-2,-2,1,6,0,0,2,6,-2,3,-2,2,-2,2,-2,7,-2,7,3,2,2,-2,-2,-2,7,-2,-2,7,-2,4,5,7,-2,-2,-2,3,3,4,5,-2,2,-2,-2,4,-2,-2,-2,-2,0,5,3,-2,2,6,-2,5,3,-2,2,-2,7,-2,-2,6,2,-2,-2,-2,7,-2,-2,-2,6,7,-2,5,7,7,7,-2,5,-2,-2,-2,3,4,2,5,7,6,4,7,-2,-2,-2,-2,-2,-2,-2,-2,6,2,2,-2,-2,-2,4,-2,-2,3,-2,7,7,7,-2,-2,-2,5,-2,-2,7,3,-2,-2,-2,-2,6,5,-2,3,6,3,5,-2,-2,5,5,4,-2,7,-2,-2,6,-2,3,-2,-2,-2,-2,2,-2,5,7,5,2,-2,2,-2,-2,-2,-2,3,3,-2,-2,-2,6,-2,-2,-2,0,-2,7,4,2,7,4,-2,6,-2,-2,-2,-2,-2,6,5,6,-2,6,7,-2,2,-2,7,2,2,-2,6,7,4,2,-2,-2,-2,-2,-2,-2,-2,4,-2,-2,2,3,-2,3,-2,-2,7,-2,-2,-2,-2,-2],"impurity":[0.9925439047,0.7989928742,0.9847010803,0.7478061583,0.9156901528,0.9999867128,0.9220583384,0.0,0.8284715284,0.3054005709,0.0,0.1350362028,0.0,0.5032583348,0.0,0.0,0.9526092095,0.9957274521,0.9456603046,0.999249248,0.0,0.8865408928,0.7219280949,0.0,0.5032583348,0.3227569589,0.0,0.7219280949,0.0,0.0,0.0,0.0,0.0,0.0,0.7219280949,0.5586293735,0.7219280949,0.5916727786,0.985228136,0.0,0.0,0.2761954276,0.7219280949,0.0,0.0,0.0,0.0,0.0,0.0,0.0,0.394814846,0.0,0.0,0.0,0.624274101,0.4394969869,0.2992611749,0.2659427971,0.0,0.3227569589,0.4889085914,0.0,0.426228657,0.6193821947,0.3650551896,0.0,0.2761954276,0.165427034,0.0,0.7219280949,0.0,0.0,0.0,0.9910760598,0.0,0.0,0.0,0.0857426825,0.0,0.7219280949,0.0,0.0,0.0,0.901170196,0.0,0.9672947789,0.0,0.8256265262,0.0,0.4394969869,0.9182958341,0.0,0.0,0.0,0.0,0.6791431616,0.0,0.9405112436,0.7431697526,0.5225593745,0.0,0.0,0.5381411852,0.6451006442,0.6057892521,0.9612366047,0.0,0.0,0.5484866088,0.0,0.512709142,0.0,0.5787946246,0.0,0.4394969869,0.41116649,0.0,0.4725472219,0.4394969869,0.0,0.5435644432,0.0,0.4586858162,0.0,0.353359335,0.0,0.289986047,0.2163969325,0.0,0.5916727786,0.0,0.0,0.0,0.0,0.0,0.0,0.3227569589,0.4798320236,0.0,0.6292492239,0.7793498373,0.6500224216,0.3227569589,0.0,0.7219280949,0.0,0.0,0.985228136,0.0,0.0,0.0,0.0,0.0,0.78902862,0.0,0.9276748743,0.9997182449,0.6042221834,0.7002719042,0.0,0.6687649831,0.6338724226,0.7219280949,0.6789538995,0.0,0.6550239909,0.0,0.6292492239,0.6014353864,0.0,0.6559420758,0.7219280949,0.6912898694,0.0,0.6572729785,0.8812908992,0.6722948171,0.0,0.5435644432,0.4586858162,0.6292492239,0.0,0.3227569589,0.0,0.0,0.0,0.0,0.0,0.4394969869,0.0,0.7793498373,0.0,0.5586293735,0.8453509366,0.0,0.0,0.0,0.0,0.0,0.0,0.0,0.289986047,0.2163969325,0.1274185118,0.0,0.5032583348,0.0,0.0,0.0,0.0,0.0,0.0,0.0,0.0,0.9244416559,0.8667486989,0.9185324785,0.55989958,0.8119524535,0.0,0.2850191415,0.4507913884,0.4220005169,0.583675328,0.4394969869,0.7219280949,0.9709505945,0.0,0.0,0.2422921891,0.0,0.0,0.1350362028,0.0,0.5032583348,0.0,0.0,0.0,0.2546947047,0.0922772477,0.7219280949,0.0,0.0,0.0,0.5435644432,0.0,0.2163969325,0.0,0.7219280949,0.0,0.0,0.0,0.0934735441,0.0672215448,0.0,0.0377501852,0.0,0.1792560669,0.0,0.0,0.0,0.0,0.9970590569,0.9530990721,0.9081783473,0.9978122433,0.9577009405,0.6255388072,0.0,0.5604094281,0.0,0.5232091927,0.0,0.5688428787,0.0,0.5373760853,0.0,0.5149459065,0.2498822928,0.0922772477,0.2422921891,0.0,0.0,0.0,0.8453509366,0.0,0.0,0.6559420758,0.0,0.5349436991,0.9494520154,0.5916727786,0.0,0.0,0.0,0.3912435636,0.5665095066,0.4798320236,0.2580186687,0.0,0.1537421803,0.0,0.0,0.9182958341,0.0,0.0,0.0,0.0,0.9959872294,0.7807536251,0.9910760598,0.0,0.985228136,0.8256265262,0.0,0.6500224216,0.9182958341,0.0,0.7219280949,0.0,0.3912435636,0.0,0.0,0.353359335,0.9182958341,0.0,0.0,0.0,0.666578358,0.0,0.0,0.0,0.9006267231,0.8332661971,0.0,0.7918583526,0.6409441848,0.996791632,0.8453509366,0.0,0.985228136,0.0,0.0,0.0,0.5373760853,0.3776463214,0.3342681326,0.2863969571,0.4689955936,0.7219280949,0.5032583348,0.3227569589,0.0,0.0,0.0,0.0,0.0,0.0,0.0,0.0,0.8112781245,0.4394969869,0.9182958341,0.0,0.0,0.0,0.9709505945,0.0,0.0,0.9995256893,0.0,0.8631205686,0.3227569589,0.7219280949,0.0,0.0,0.0,0.9456603046,0.0,0.0,0.9043814577,0.9182958341,0.0,0.0,0.0,0.0,0.3311970075,0.2301627406,0.0,0.3033748361,0.5916727786,0.5225593745,0.1792560669,0.0,0.0,0.7706290694,0.6631968402,0.9182958341,0.0,0.7219280949,0.0,0.0,0.3227569589,0.0,0.7219280949,0.0,0.0,0.0,0.0,0.176776697,0.0,0.1537421803,0.2974722489,0.2422921891,0.1792560669,0.0,0.5032583348,0.0,0.0,0.0,0.0,0.0581007479,0.2422921891,0.0,0.0,0.0,0.8366407419,0.0,0.0,0.0,0.7099085284,0.0,0.9957274521,0.6500224216,0.9819407869,0.9612366047,0.7219280949,0.0,0.5032583348,0.0,0.0,0.0,0.0,0.0,0.9751190649,0.9526092095,0.9986359642,0.0,0.985228136,0.8865408928,0.0,0.9494520154,0.0,0.8739810481,0.9612366047,0.7918583526,0.0,0.6292492239,0.5032583348,0.3227569589,0.7219280949,0.0,0.0,0.0,0.0,0.0,0.0,0.0,0.7871265862,0.0,0.0,0.6136190196,1.0,0.0,0.7219280949,0.0,0.0,0.2422921891,0.0,0.0,0.0,0.0,0.0],"max_depth":26,"max_n_classes":2,"n_classes":[2],"n_features":8,"n_leaves":242,"n_node_samples":[4700,2930,617,504,291,146,88,18,70,16,2,14,11,3,1,2,54,34,32,19,8,11,8,2,6,5,3,2,1,1,1,3,13,2,20,16,12,10,4,3,1,6,2,1,1,4,2,4,4,58,145,142,3,213,113,91,71,69,14,55,31,2,29,19,13,1,12,11,9,2,1,1,1,6,5,1,10,24,22,2,1,1,2,20,2,18,6,12,5,7,3,1,2,4,22,2313,1330,983,120,31,1,30,89,59,56,7,2,5,49,2,47,6,41,6,35,34,5,29,28,6,22,2,20,2,18,1,17,16,11,5,2,3,1,1,1,3,30,19,5,14,11,9,5,3,2,1,1,4,3,1,2,3,11,863,326,537,320,105,89,4,85,81,64,60,2,58,2,56,54,5,49,44,42,2,40,19,13,2,11,10,7,2,5,4,1,3,1,6,21,10,11,3,8,5,3,2,3,2,5,2,4,17,16,15,12,3,1,2,1,1,4,16,215,217,1770,1518,1408,391,257,124,133,68,66,33,28,14,7,6,1,7,6,1,14,11,3,2,1,5,33,22,2,1,1,20,11,3,8,6,2,1,1,2,65,64,1,63,53,10,1,9,1,134,1017,700,603,472,355,101,8,93,4,89,8,81,3,78,2,76,27,22,7,6,1,15,5,3,2,49,7,42,10,5,3,2,5,32,21,19,13,1,12,11,1,6,4,2,2,11,254,157,66,22,44,24,6,18,9,3,6,2,4,3,1,9,3,1,2,6,20,19,1,91,97,78,6,72,48,9,5,1,4,1,3,4,39,25,24,23,13,8,6,5,4,1,1,2,5,10,1,1,14,7,3,1,2,4,7,1,6,24,11,13,5,2,1,1,3,8,7,1,19,6,4,2,13,117,131,119,33,86,25,23,10,1,9,13,11,6,2,4,2,2,5,3,2,1,1,2,2,61,1,60,22,21,20,14,6,2,4,1,1,38,7,6,1,31,12,11,1,97,317,215,102,42,13,7,4,1,3,1,2,3,6,29,60,54,42,6,36,22,2,20,4,16,14,9,2,7,6,5,2,1,1,3,1,1,5,2,14,13,1,12,5,3,2,1,1,7,6,1,6,110,252],"n_outputs":1,"node_count":483,"threshold":[0.3052310944,-0.9349800944,-1.0477266014,-1.4423393011,-0.5033921301,0.3895468414,-0.9142864645,-2.0,-0.3384258896,-0.5069679469,-2.0,-0.8258672357,-2.0,-0.7992542386,-2.0,-2.0,1.0708014369,-0.5076361299,-0.7472280264,-0.8106948137,-2.0,-0.1766627356,-0.2396534383,-2.0,1.5383712053,-0.9127010703,-2.0,-0.111656718,-2.0,-2.0,-2.0,-2.0,-2.0,-2.0,1.4284905195,1.298802495,1.2861673236,-0.2236573771,-0.0220668167,-2.0,-2.0,-0.2334713861,0.7306620479,-2.0,-2.0,-2.0,-2.0,-2.0,-2.0,-2.0,1.9118924141,-2.0,-2.0,-2.0,0.0054022695,-0.4461294413,1.8363201618,-1.5417695045,-2.0,-0.7492518127,0.1105001643,-2.0,-0.6191370189,-1.1859970689,-0.9771449864,-2.0,-0.6444079876,-0.7848274708,-2.0,-0.7796366215,-2.0,-2.0,-2.0,-0.5202911496,-2.0,-2.0,-2.0,-0.4013302475,-2.0,-0.2535761073,-2.0,-2.0,-2.0,-1.5005709529,-2.0,-0.8585613072,-2.0,-0.490853101,-2.0,-0.299831152,-0.9713371098,-2.0,-2.0,-2.0,-2.0,-0.2585012689,-2.0,-0.0893815653,-0.4212140143,-0.5068644881,-2.0,-2.0,0.4711797684,0.6899034679,-1.1201854348,-0.6406144202,-2.0,-2.0,-0.5784021914,-2.0,-0.5086969435,-2.0,-0.3557950854,-2.0,1.1546982527,-0.2801685482,-2.0,0.3417411149,-0.6446911097,-2.0,-0.3559912294,-2.0,-0.1991756484,-2.0,-0.6261783242,-2.0,0.1683747172,0.0090917992,-2.0,0.1485046409,-2.0,-2.0,-2.0,-2.0,-2.0,-2.0,0.2172265351,0.0520342989,-2.0,0.918358624,0.5716164708,-0.247888647,0.5075703859,-2.0,-0.4096635133,-2.0,-2.0,-0.2718105763,-2.0,-2.0,-2.0,-2.0,-2.0,0.0797381429,-2.0,0.1924846172,0.3895468414,-0.143949993,-1.1186884642,-2.0,1.1613789201,0.3413346857,0.1776127443,0.2360715792,-2.0,-1.4791615605,-2.0,-0.2298407927,-1.1857841015,-2.0,-0.4138316661,-0.0397200286,-1.1620754004,-2.0,-0.3005827516,-0.5461392254,-1.0475780368,-2.0,-0.5431791097,-0.7442628145,-0.6645295024,-2.0,-0.7886988819,-2.0,-2.0,-2.0,-2.0,-2.0,-0.8158148229,-2.0,-0.6307115257,-2.0,-0.4450333714,0.8871307969,-2.0,-2.0,-2.0,-2.0,-2.0,-2.0,-2.0,0.720285207,1.7658686042,1.0408374965,-2.0,1.3954026699,-2.0,-2.0,-2.0,-2.0,-2.0,-2.0,-2.0,-2.0,1.3763226271,1.2072029114,0.7562170029,0.5307240486,0.3895468414,-2.0,0.579398632,0.5575924516,-0.1160413921,-0.234150812,0.2569466978,-0.0529516395,-0.3453812003,-2.0,-2.0,0.2463679537,-2.0,-2.0,0.95743981,-2.0,0.3753587008,-2.0,-2.0,-2.0,0.6012350619,-0.81729424,0.8217217326,-2.0,-2.0,-2.0,-0.3385663778,-2.0,0.01465399,-2.0,0.2610933483,-2.0,-2.0,-2.0,4.12322402,-0.822453022,-2.0,0.9068991244,-2.0,0.91747576,-2.0,-2.0,-2.0,-2.0,0.3895468414,1.5500863194,1.0944564342,0.9817099571,-0.4335452914,-1.7791404724,-2.0,-0.9594269693,-2.0,-0.7996917963,-2.0,-0.7915427387,-2.0,-1.048006624,-2.0,-0.507822603,0.0645294174,-0.7193250358,-0.7423672378,-2.0,-2.0,-2.0,-0.5315393507,-2.0,-2.0,-0.4459077418,-2.0,0.482783854,-0.6660481989,-0.1168790869,-2.0,-2.0,-2.0,-0.3965210319,-0.438382104,1.0194646716,-1.3363011479,-2.0,-0.4520914704,-2.0,-2.0,1.1851443052,-2.0,-2.0,-2.0,-2.0,0.86896348,0.2350906283,-0.353116706,-2.0,-0.0190663317,-1.4500579834,-2.0,-0.2679483294,-0.197246924,-2.0,-0.1883704439,-2.0,0.4874603599,-2.0,-2.0,-1.2017555237,-0.2511745468,-2.0,-2.0,-2.0,1.7823172808,-2.0,-2.0,-2.0,0.4084485322,-0.5620869398,-2.0,1.0457612872,-0.3912608922,-0.4930133224,-0.5441081226,-2.0,-1.2133482099,-2.0,-2.0,-2.0,0.6164396107,-0.0092415642,1.2083534002,-0.0405553617,0.2066302225,-0.0117775369,-0.2997930646,0.1437317021,-2.0,-2.0,-2.0,-2.0,-2.0,-2.0,-2.0,-2.0,-0.149344787,0.3515762091,-0.0682418048,-2.0,-2.0,-2.0,-1.2476998568,-2.0,-2.0,0.7638214231,-2.0,0.4388792962,-0.0782984197,-0.1140374579,-2.0,-2.0,-2.0,1.8137178421,-2.0,-2.0,0.1877770573,0.4304761514,-2.0,-2.0,-2.0,-2.0,0.8527382314,0.0520584974,-2.0,-0.1426539272,0.17079366,-0.2983307838,0.0605913457,-2.0,-2.0,0.9468101859,0.5391295552,-0.3072550595,-2.0,-0.1599954516,-2.0,-2.0,-0.2473738715,-2.0,-0.2240611613,-2.0,-2.0,-2.0,-2.0,-0.5266976953,-2.0,0.5460656285,1.202131778,0.541574657,0.0445807772,-2.0,0.2263895199,-2.0,-2.0,-2.0,-2.0,-0.014948739,-0.0325033804,-2.0,-2.0,-2.0,1.5381609797,-2.0,-2.0,-2.0,0.9817099571,-2.0,-0.1679192409,-0.3178650886,-0.056018183,-0.3417508453,-0.7247771025,-2.0,0.418244347,-2.0,-2.0,-2.0,-2.0,-2.0,1.4693064094,1.2283942103,0.7256056368,-2.0,1.2629555464,-0.0519039938,-2.0,-0.214363195,-2.0,0.9070388079,0.0711355284,-0.1358229518,-2.0,1.2147573233,0.5946228206,-0.8234153688,-0.1231778264,-2.0,-2.0,-2.0,-2.0,-2.0,-2.0,-2.0,0.214151971,-2.0,-2.0,0.1056988612,-0.237950556,-2.0,-0.0741715413,-2.0,-2.0,2.07167238,-2.0,-2.0,-2.0,-2.0,-2.0],"value":[[[3904.0,3184.0]],[[2713.0,868.0]],[[520.0,388.0]],[[472.0,128.0]],[[259.0,128.0]],[[117.0,116.0]],[[59.0,116.0]],[[18.0,0.0]],[[41.0,116.0]],[[3.0,52.0]],[[2.0,0.0]],[[1.0,52.0]],[[0.0,44.0]],[[1.0,8.0]],[[1.0,0.0]],[[0.0,8.0]],[[38.0,64.0]],[[28.0,24.0]],[[28.0,16.0]],[[15.0,16.0]],[[8.0,0.0]],[[7.0,16.0]],[[4.0,16.0]],[[2.0,0.0]],[[2.0,16.0]],[[1.0,16.0]],[[0.0,12.0]],[[1.0,4.0]],[[0.0,4.0]],[[1.0,0.0]],[[1.0,0.0]],[[3.0,0.0]],[[13.0,0.0]],[[0.0,8.0]],[[10.0,40.0]],[[6.0,40.0]],[[6.0,24.0]],[[4.0,24.0]],[[3.0,4.0]],[[3.0,0.0]],[[0.0,4.0]],[[1.0,20.0]],[[1.0,4.0]],[[1.0,0.0]],[[0.0,4.0]],[[0.0,16.0]],[[2.0,0.0]],[[0.0,16.0]],[[4.0,0.0]],[[58.0,0.0]],[[142.0,12.0]],[[142.0,0.0]],[[0.0,12.0]],[[213.0,0.0]],[[48.0,260.0]],[[26.0,260.0]],[[13.0,232.0]],[[11.0,232.0]],[[0.0,56.0]],[[11.0,176.0]],[[10.0,84.0]],[[2.0,0.0]],[[8.0,84.0]],[[8.0,44.0]],[[3.0,40.0]],[[1.0,0.0]],[[2.0,40.0]],[[1.0,40.0]],[[0.0,36.0]],[[1.0,4.0]],[[0.0,4.0]],[[1.0,0.0]],[[1.0,0.0]],[[5.0,4.0]],[[5.0,0.0]],[[0.0,4.0]],[[0.0,40.0]],[[1.0,92.0]],[[0.0,88.0]],[[1.0,4.0]],[[1.0,0.0]],[[0.0,4.0]],[[2.0,0.0]],[[13.0,28.0]],[[0.0,8.0]],[[13.0,20.0]],[[6.0,0.0]],[[7.0,20.0]],[[5.0,0.0]],[[2.0,20.0]],[[2.0,4.0]],[[0.0,4.0]],[[2.0,0.0]],[[0.0,16.0]],[[22.0,0.0]],[[2193.0,480.0]],[[1330.0,0.0]],[[863.0,480.0]],[[62.0,232.0]],[[30.0,4.0]],[[0.0,4.0]],[[30.0,0.0]],[[32.0,228.0]],[[26.0,132.0]],[[23.0,132.0]],[[5.0,8.0]],[[0.0,8.0]],[[5.0,0.0]],[[18.0,124.0]],[[2.0,0.0]],[[16.0,124.0]],[[0.0,24.0]],[[16.0,100.0]],[[6.0,0.0]],[[10.0,100.0]],[[9.0,100.0]],[[0.0,20.0]],[[9.0,80.0]],[[8.0,80.0]],[[0.0,24.0]],[[8.0,56.0]],[[2.0,0.0]],[[6.0,56.0]],[[2.0,0.0]],[[4.0,56.0]],[[1.0,0.0]],[[3.0,56.0]],[[2.0,56.0]],[[0.0,44.0]],[[2.0,12.0]],[[2.0,0.0]],[[0.0,12.0]],[[1.0,0.0]],[[1.0,0.0]],[[1.0,0.0]],[[3.0,0.0]],[[6.0,96.0]],[[6.0,52.0]],[[0.0,20.0]],[[6.0,32.0]],[[6.0,20.0]],[[4.0,20.0]],[[1.0,16.0]],[[0.0,12.0]],[[1.0,4.0]],[[1.0,0.0]],[[0.0,4.0]],[[3.0,4.0]],[[3.0,0.0]],[[0.0,4.0]],[[2.0,0.0]],[[0.0,12.0]],[[0.0,44.0]],[[801.0,248.0]],[[326.0,0.0]],[[475.0,248.0]],[[258.0,248.0]],[[43.0,248.0]],[[43.0,184.0]],[[4.0,0.0]],[[39.0,184.0]],[[35.0,184.0]],[[32.0,128.0]],[[28.0,128.0]],[[2.0,0.0]],[[26.0,128.0]],[[2.0,0.0]],[[24.0,128.0]],[[22.0,128.0]],[[0.0,20.0]],[[22.0,108.0]],[[22.0,88.0]],[[20.0,88.0]],[[2.0,0.0]],[[18.0,88.0]],[[12.0,28.0]],[[6.0,28.0]],[[2.0,0.0]],[[4.0,28.0]],[[3.0,28.0]],[[3.0,16.0]],[[2.0,0.0]],[[1.0,16.0]],[[0.0,16.0]],[[1.0,0.0]],[[0.0,12.0]],[[1.0,0.0]],[[6.0,0.0]],[[6.0,60.0]],[[0.0,40.0]],[[6.0,20.0]],[[3.0,0.0]],[[3.0,20.0]],[[3.0,8.0]],[[3.0,0.0]],[[0.0,8.0]],[[0.0,12.0]],[[2.0,0.0]],[[0.0,20.0]],[[2.0,0.0]],[[4.0,0.0]],[[3.0,56.0]],[[2.0,56.0]],[[1.0,56.0]],[[0.0,48.0]],[[1.0,8.0]],[[1.0,0.0]],[[0.0,8.0]],[[1.0,0.0]],[[1.0,0.0]],[[4.0,0.0]],[[0.0,64.0]],[[215.0,0.0]],[[217.0,0.0]],[[1191.0,2316.0]],[[939.0,2316.0]],[[939.0,1876.0]],[[147.0,976.0]],[[147.0,440.0]],[[124.0,0.0]],[[23.0,440.0]],[[20.0,192.0]],[[18.0,192.0]],[[13.0,80.0]],[[8.0,80.0]],[[7.0,28.0]],[[6.0,4.0]],[[6.0,0.0]],[[0.0,4.0]],[[1.0,24.0]],[[0.0,24.0]],[[1.0,0.0]],[[1.0,52.0]],[[0.0,44.0]],[[1.0,8.0]],[[0.0,8.0]],[[1.0,0.0]],[[5.0,0.0]],[[5.0,112.0]],[[1.0,84.0]],[[1.0,4.0]],[[1.0,0.0]],[[0.0,4.0]],[[0.0,80.0]],[[4.0,28.0]],[[3.0,0.0]],[[1.0,28.0]],[[0.0,24.0]],[[1.0,4.0]],[[1.0,0.0]],[[0.0,4.0]],[[2.0,0.0]],[[3.0,248.0]],[[2.0,248.0]],[[1.0,0.0]],[[1.0,248.0]],[[0.0,212.0]],[[1.0,36.0]],[[1.0,0.0]],[[0.0,36.0]],[[1.0,0.0]],[[0.0,536.0]],[[792.0,900.0]],[[493.0,828.0]],[[396.0,828.0]],[[369.0,412.0]],[[252.0,412.0]],[[43.0,232.0]],[[8.0,0.0]],[[35.0,232.0]],[[4.0,0.0]],[[31.0,232.0]],[[0.0,32.0]],[[31.0,200.0]],[[3.0,0.0]],[[28.0,200.0]],[[2.0,0.0]],[[26.0,200.0]],[[4.0,92.0]],[[1.0,84.0]],[[1.0,24.0]],[[0.0,24.0]],[[1.0,0.0]],[[0.0,60.0]],[[3.0,8.0]],[[3.0,0.0]],[[0.0,8.0]],[[22.0,108.0]],[[7.0,0.0]],[[15.0,108.0]],[[7.0,12.0]],[[2.0,12.0]],[[0.0,12.0]],[[2.0,0.0]],[[5.0,0.0]],[[8.0,96.0]],[[8.0,52.0]],[[6.0,52.0]],[[2.0,44.0]],[[1.0,0.0]],[[1.0,44.0]],[[0.0,44.0]],[[1.0,0.0]],[[4.0,8.0]],[[4.0,0.0]],[[0.0,8.0]],[[2.0,0.0]],[[0.0,44.0]],[[209.0,180.0]],[[146.0,44.0]],[[55.0,44.0]],[[22.0,0.0]],[[33.0,44.0]],[[14.0,40.0]],[[6.0,0.0]],[[8.0,40.0]],[[6.0,12.0]],[[3.0,0.0]],[[3.0,12.0]],[[2.0,0.0]],[[1.0,12.0]],[[0.0,12.0]],[[1.0,0.0]],[[2.0,28.0]],[[2.0,4.0]],[[0.0,4.0]],[[2.0,0.0]],[[0.0,24.0]],[[19.0,4.0]],[[19.0,0.0]],[[0.0,4.0]],[[91.0,0.0]],[[63.0,136.0]],[[46.0,128.0]],[[6.0,0.0]],[[40.0,128.0]],[[21.0,108.0]],[[7.0,8.0]],[[3.0,8.0]],[[0.0,4.0]],[[3.0,4.0]],[[0.0,4.0]],[[3.0,0.0]],[[4.0,0.0]],[[14.0,100.0]],[[6.0,76.0]],[[5.0,76.0]],[[4.0,76.0]],[[4.0,36.0]],[[4.0,16.0]],[[2.0,16.0]],[[1.0,16.0]],[[0.0,16.0]],[[1.0,0.0]],[[1.0,0.0]],[[2.0,0.0]],[[0.0,20.0]],[[0.0,40.0]],[[1.0,0.0]],[[1.0,0.0]],[[8.0,24.0]],[[2.0,20.0]],[[2.0,4.0]],[[0.0,4.0]],[[2.0,0.0]],[[0.0,16.0]],[[6.0,4.0]],[[0.0,4.0]],[[6.0,0.0]],[[19.0,20.0]],[[11.0,0.0]],[[8.0,20.0]],[[1.0,16.0]],[[1.0,4.0]],[[0.0,4.0]],[[1.0,0.0]],[[0.0,12.0]],[[7.0,4.0]],[[7.0,0.0]],[[0.0,4.0]],[[17.0,8.0]],[[4.0,8.0]],[[4.0,0.0]],[[0.0,8.0]],[[13.0,0.0]],[[117.0,0.0]],[[27.0,416.0]],[[16.0,412.0]],[[0.0,132.0]],[[16.0,280.0]],[[10.0,60.0]],[[8.0,60.0]],[[1.0,36.0]],[[1.0,0.0]],[[0.0,36.0]],[[7.0,24.0]],[[5.0,24.0]],[[4.0,8.0]],[[2.0,0.0]],[[2.0,8.0]],[[2.0,0.0]],[[0.0,8.0]],[[1.0,16.0]],[[0.0,12.0]],[[1.0,4.0]],[[1.0,0.0]],[[0.0,4.0]],[[2.0,0.0]],[[2.0,0.0]],[[6.0,220.0]],[[1.0,0.0]],[[5.0,220.0]],[[4.0,72.0]],[[3.0,72.0]],[[2.0,72.0]],[[0.0,56.0]],[[2.0,16.0]],[[2.0,0.0]],[[0.0,16.0]],[[1.0,0.0]],[[1.0,0.0]],[[1.0,148.0]],[[1.0,24.0]],[[0.0,24.0]],[[1.0,0.0]],[[0.0,124.0]],[[11.0,4.0]],[[11.0,0.0]],[[0.0,4.0]],[[97.0,0.0]],[[299.0,72.0]],[[215.0,0.0]],[[84.0,72.0]],[[40.0,8.0]],[[11.0,8.0]],[[5.0,8.0]],[[2.0,8.0]],[[1.0,0.0]],[[1.0,8.0]],[[1.0,0.0]],[[0.0,8.0]],[[3.0,0.0]],[[6.0,0.0]],[[29.0,0.0]],[[44.0,64.0]],[[38.0,64.0]],[[33.0,36.0]],[[6.0,0.0]],[[27.0,36.0]],[[14.0,32.0]],[[0.0,8.0]],[[14.0,24.0]],[[4.0,0.0]],[[10.0,24.0]],[[10.0,16.0]],[[5.0,16.0]],[[2.0,0.0]],[[3.0,16.0]],[[2.0,16.0]],[[1.0,16.0]],[[1.0,4.0]],[[0.0,4.0]],[[1.0,0.0]],[[0.0,12.0]],[[1.0,0.0]],[[1.0,0.0]],[[5.0,0.0]],[[0.0,8.0]],[[13.0,4.0]],[[13.0,0.0]],[[0.0,4.0]],[[5.0,28.0]],[[4.0,4.0]],[[3.0,0.0]],[[1.0,4.0]],[[0.0,4.0]],[[1.0,0.0]],[[1.0,24.0]],[[0.0,24.0]],[[1.0,0.0]],[[6.0,0.0]],[[0.0,440.0]],[[252.0,0.0]]],"weighted_n_node_samples":[7088.0,3581.0,908.0,600.0,387.0,233.0,175.0,18.0,157.0,55.0,2.0,53.0,44.0,9.0,1.0,8.0,102.0,52.0,44.0,31.0,8.0,23.0,20.0,2.0,18.0,17.0,12.0,5.0,4.0,1.0,1.0,3.0,13.0,8.0,50.0,46.0,30.0,28.0,7.0,3.0,4.0,21.0,5.0,1.0,4.0,16.0,2.0,16.0,4.0,58.0,154.0,142.0,12.0,213.0,308.0,286.0,245.0,243.0,56.0,187.0,94.0,2.0,92.0,52.0,43.0,1.0,42.0,41.0,36.0,5.0,4.0,1.0,1.0,9.0,5.0,4.0,40.0,93.0,88.0,5.0,1.0,4.0,2.0,41.0,8.0,33.0,6.0,27.0,5.0,22.0,6.0,4.0,2.0,16.0,22.0,2673.0,1330.0,1343.0,294.0,34.0,4.0,30.0,260.0,158.0,155.0,13.0,8.0,5.0,142.0,2.0,140.0,24.0,116.0,6.0,110.0,109.0,20.0,89.0,88.0,24.0,64.0,2.0,62.0,2.0,60.0,1.0,59.0,58.0,44.0,14.0,2.0,12.0,1.0,1.0,1.0,3.0,102.0,58.0,20.0,38.0,26.0,24.0,17.0,12.0,5.0,1.0,4.0,7.0,3.0,4.0,2.0,12.0,44.0,1049.0,326.0,723.0,506.0,291.0,227.0,4.0,223.0,219.0,160.0,156.0,2.0,154.0,2.0,152.0,150.0,20.0,130.0,110.0,108.0,2.0,106.0,40.0,34.0,2.0,32.0,31.0,19.0,2.0,17.0,16.0,1.0,12.0,1.0,6.0,66.0,40.0,26.0,3.0,23.0,11.0,3.0,8.0,12.0,2.0,20.0,2.0,4.0,59.0,58.0,57.0,48.0,9.0,1.0,8.0,1.0,1.0,4.0,64.0,215.0,217.0,3507.0,3255.0,2815.0,1123.0,587.0,124.0,463.0,212.0,210.0,93.0,88.0,35.0,10.0,6.0,4.0,25.0,24.0,1.0,53.0,44.0,9.0,8.0,1.0,5.0,117.0,85.0,5.0,1.0,4.0,80.0,32.0,3.0,29.0,24.0,5.0,1.0,4.0,2.0,251.0,250.0,1.0,249.0,212.0,37.0,1.0,36.0,1.0,536.0,1692.0,1321.0,1224.0,781.0,664.0,275.0,8.0,267.0,4.0,263.0,32.0,231.0,3.0,228.0,2.0,226.0,96.0,85.0,25.0,24.0,1.0,60.0,11.0,3.0,8.0,130.0,7.0,123.0,19.0,14.0,12.0,2.0,5.0,104.0,60.0,58.0,46.0,1.0,45.0,44.0,1.0,12.0,4.0,8.0,2.0,44.0,389.0,190.0,99.0,22.0,77.0,54.0,6.0,48.0,18.0,3.0,15.0,2.0,13.0,12.0,1.0,30.0,6.0,4.0,2.0,24.0,23.0,19.0,4.0,91.0,199.0,174.0,6.0,168.0,129.0,15.0,11.0,4.0,7.0,4.0,3.0,4.0,114.0,82.0,81.0,80.0,40.0,20.0,18.0,17.0,16.0,1.0,1.0,2.0,20.0,40.0,1.0,1.0,32.0,22.0,6.0,4.0,2.0,16.0,10.0,4.0,6.0,39.0,11.0,28.0,17.0,5.0,4.0,1.0,12.0,11.0,7.0,4.0,25.0,12.0,4.0,8.0,13.0,117.0,443.0,428.0,132.0,296.0,70.0,68.0,37.0,1.0,36.0,31.0,29.0,12.0,2.0,10.0,2.0,8.0,17.0,12.0,5.0,1.0,4.0,2.0,2.0,226.0,1.0,225.0,76.0,75.0,74.0,56.0,18.0,2.0,16.0,1.0,1.0,149.0,25.0,24.0,1.0,124.0,15.0,11.0,4.0,97.0,371.0,215.0,156.0,48.0,19.0,13.0,10.0,1.0,9.0,1.0,8.0,3.0,6.0,29.0,108.0,102.0,69.0,6.0,63.0,46.0,8.0,38.0,4.0,34.0,26.0,21.0,2.0,19.0,18.0,17.0,5.0,4.0,1.0,12.0,1.0,1.0,5.0,8.0,17.0,13.0,4.0,33.0,8.0,3.0,5.0,4.0,1.0,25.0,24.0,1.0,6.0,440.0,252.0]}},"f1":{"ccp_alpha":0.0,"class_weight":{"0":1,"1":4},"classes_":[0,1],"criterion":"entropy","feature_importances_":[0.5824187031,0.1294814652,0.0421183203,0.0462665047,0.0231729965,0.0505181724,0.0824300599,0.0435937779],"max_depth":50,"max_features":null,"max_features_":8,"max_leaf_nodes":null,"min_impurity_decrease":0.0,"min_samples_leaf":1,"min_samples_split":2,"min_weight_fraction_leaf":0.0,"n_classes_":2,"n_features_":8,"n_features_in_":8,"n_outputs_":1,"random_state":null,"splitter":"best","tree_":{"capacity":483,"children_left":[1,2,3,4,5,6,7,-1,9,10,-1,12,-1,14,-1,-1,17,18,19,20,-1,22,23,-1,25,26,-1,28,-1,-1,-1,-1,-1,-1,35,36,37,38,39,-1,-1,42,43,-1,-1,-1,-1,-1,-1,-1,51,-1,-1,-1,55,56,57,58,-1,60,61,-1,63,64,65,-1,67,68,-1,70,-1,-1,-1,74,-1,-1,-1,78,-1,80,-1,-1,-1,84,-1,86,-1,88,-1,90,91,-1,-1,-1,-1,96,-1,98,99,100,-1,-1,103,104,105,106,-1,-1,109,-1,111,-1,113,-1,115,116,-1,118,119,-1,121,-1,123,-1,125,-1,127,128,-1,130,-1,-1,-1,-1,-1,-1,137,138,-1,140,141,142,143,-1,145,-1,-1,148,-1,-1,-1,-1,-1,154,-1,156,157,158,159,-1,161,162,163,164,-1,166,-1,168,169,-1,171,172,173,-1,175,176,177,-1,179,180,181,-1,183,-1,-1,-1,-1,-1,189,-1,191,-1,193,194,-1,-1,-1,-1,-1,-1,-1,202,203,204,-1,206,-1,-1,-1,-1,-1,-1,-1,-1,215,216,217,218,219,-1,221,222,223,224,225,226,227,-1,-1,230,-1,-1,233,-1,235,-1,-1,-1,239,240,241,-1,-1,-1,245,-1,247,-1,249,-1,-1,-1,253,254,-1,256,-1,258,-1,-1,-1,-1,263,264,265,266,267,268,-1,270,-1,272,-1,274,-1,276,-1,278,279,280,281,-1,-1,-1,285,-1,-1,288,-1,290,291,292,-1,-1,-1,296,297,298,299,-1,301,-1,-1,304,-1,-1,-1,-1,309,310,311,-1,313,314,-1,316,317,-1,319,-1,321,-1,-1,324,325,-1,-1,-1,329,-1,-1,-1,333,334,-1,336,337,338,339,-1,341,-1,-1,-1,345,346,347,348,349,350,351,352,-1,-1,-1,-1,-1,-1,-1,-1,361,362,363,-1,-1,-1,367,-1,-1,370,-1,372,373,374,-1,-1,-1,378,-1,-1,381,382,-1,-1,-1,-1,387,388,-1,390,391,392,393,-1,-1,396,397,398,-1,400,-1,-1,403,-1,405,-1,-1,-1,-1,410,-1,412,413,414,415,-1,417,-1,-1,-1,-1,422,423,-1,-1,-1,427,-1,-1,-1,431,-1,433,434,435,436,437,-1,439,-1,-1,-1,-1,-1,445,446,447,-1,449,450,-1,452,-1,454,455,456,-1,458,459,460,461,-1,-1,-1,-1,-1,-1,-1,469,-1,-1,472,473,-1,475,-1,-1,478,-1,-1,-1,-1,-1],"children_right":[214,95,54,53,50,49,8,-1,16,11,-1,13,-1,15,-1,-1,34,33,32,21,-1,31,24,-1,30,27,-1,29,-1,-1,-1,-1,-1,-1,48,47,46,41,40,-1,-1,45,44,-1,-1,-1,-1,-1,-1,-1,52,-1,-1,-1,94,83,82,59,-1,77,62,-1,76,73,66,-1,72,69,-1,71,-1,-1,-1,75,-1,-1,-1,79,-1,81,-1,-1,-1,85,-1,87,-1,89,-1,93,92,-1,-1,-1,-1,97,-1,153,102,101,-1,-1,136,135,108,107,-1,-1,110,-1,112,-1,114,-1,134,117,-1,133,120,-1,122,-1,124,-1,126,-1,132,129,-1,131,-1,-1,-1,-1,-1,-1,152,139,-1,151,150,147,144,-1,146,-1,-1,149,-1,-1,-1,-1,-1,155,-1,213,212,211,160,-1,210,201,200,165,-1,167,-1,199,170,-1,198,197,174,-1,188,187,178,-1,186,185,182,-1,184,-1,-1,-1,-1,-1,190,-1,192,-1,196,195,-1,-1,-1,-1,-1,-1,-1,209,208,205,-1,207,-1,-1,-1,-1,-1,-1,-1,-1,482,481,262,261,220,-1,252,251,238,237,232,229,228,-1,-1,231,-1,-1,234,-1,236,-1,-1,-1,244,243,242,-1,-1,-1,246,-1,248,-1,250,-1,-1,-1,260,255,-1,257,-1,259,-1,-1,-1,-1,430,429,386,385,308,269,-1,271,-1,273,-1,275,-1,277,-1,287,284,283,282,-1,-1,-1,286,-1,-1,289,-1,295,294,293,-1,-1,-1,307,306,303,300,-1,302,-1,-1,305,-1,-1,-1,-1,332,331,312,-1,328,315,-1,323,318,-1,320,-1,322,-1,-1,327,326,-1,-1,-1,330,-1,-1,-1,380,335,-1,369,344,343,340,-1,342,-1,-1,-1,360,359,358,357,356,355,354,353,-1,-1,-1,-1,-1,-1,-1,-1,366,365,364,-1,-1,-1,368,-1,-1,371,-1,377,376,375,-1,-1,-1,379,-1,-1,384,383,-1,-1,-1,-1,426,389,-1,409,408,395,394,-1,-1,407,402,399,-1,401,-1,-1,404,-1,406,-1,-1,-1,-1,411,-1,421,420,419,416,-1,418,-1,-1,-1,-1,425,424,-1,-1,-1,428,-1,-1,-1,432,-1,444,443,442,441,438,-1,440,-1,-1,-1,-1,-1,480,471,448,-1,468,451,-1,453,-1,467,466,457,-1,465,464,463,462,-1,-1,-1,-1,-1,-1,-1,470,-1,-1,477,474,-1,476,-1,-1,479,-1,-1,-1,-1,-1],"feature":[0,0,0,0,3,1,3,-2,2,5,-2,7,-2,7,-2,-2,6,3,3,3,-2,7,2,-2,5,7,-2,2,-2,-2,-2,-2,-2,-2,6,6,6,4,7,-2,-2,2,4,-2,-2,-2,-2,-2,-2,-2,6,-2,-2,-2,5,6,4,6,-2,2,4,-2,3,6,2,-2,3,7,-2,3,-2,-2,-2,5,-2,-2,-2,5,-2,3,-2,-2,-2,5,-2,5,-2,3,-2,6,7,-2,-2,-2,-2,0,-2,0,6,3,-2,-2,3,2,5,7,-2,-2,2,-2,7,-2,7,-2,7,6,-2,2,5,-2,4,-2,6,-2,5,-2,5,6,-2,6,-2,-2,-2,-2,-2,-2,5,7,-2,2,7,5,7,-2,5,-2,-2,4,-2,-2,-2,-2,-2,0,-2,0,1,6,5,-2,5,7,7,4,-2,6,-2,6,6,-2,6,2,6,-2,5,5,6,-2,7,6,2,-2,6,-2,-2,-2,-2,-2,6,-2,3,-2,7,4,-2,-2,-2,-2,-2,-2,-2,4,7,3,-2,3,-2,-2,-2,-2,-2,-2,-2,-2,0,0,0,0,1,-2,5,5,4,4,5,3,4,-2,-2,5,-2,-2,6,-2,5,-2,-2,-2,7,5,4,-2,-2,-2,2,-2,2,-2,2,-2,-2,-2,7,2,-2,6,-2,6,-2,-2,-2,-2,1,6,0,0,2,6,-2,3,-2,2,-2,2,-2,7,-2,7,3,2,2,-2,-2,-2,7,-2,-2,7,-2,4,5,7,-2,-2,-2,3,3,4,5,-2,2,-2,-2,4,-2,-2,-2,-2,0,5,3,-2,2,6,-2,5,3,-2,2,-2,7,-2,-2,6,2,-2,-2,-2,7,-2,-2,-2,6,7,-2,5,7,7,7,-2,5,-2,-2,-2,3,4,2,5,7,6,4,7,-2,-2,-2,-2,-2,-2,-2,-2,6,2,2,-2,-2,-2,4,-2,-2,3,-2,7,7,7,-2,-2,-2,5,-2,-2,7,3,-2,-2,-2,-2,6,5,-2,3,6,3,5,-2,-2,5,5,4,-2,7,-2,-2,6,-2,3,-2,-2,-2,-2,2,-2,5,7,5,2,-2,2,-2,-2,-2,-2,3,3,-2,-2,-2,6,-2,-2,-2,0,-2,7,4,2,7,4,-2,6,-2,-2,-2,-2,-2,6,5,6,-2,6,7,-2,2,-2,7,2,2,-2,6,7,4,2,-2,-2,-2,-2,-2,-2,-2,4,-2,-2,2,3,-2,3,-2,-2,7,-2,-2,-2,-2,-2],"impurity":[0.9925439047,0.7989928742,0.9847010803,0.7478061583,0.9156901528,0.9999867128,0.9220583384,0.0,0.8284715284,0.3054005709,0.0,0.1350362028,0.0,0.5032583348,0.0,0.0,0.9526092095,0.9957274521,0.9456603046,0.999249248,0.0,0.8865408928,0.7219280949,0.0,0.5032583348,0.3227569589,0.0,0.7219280949,0.0,0.0,0.0,0.0,0.0,0.0,0.7219280949,0.5586293735,0.7219280949,0.5916727786,0.985228136,0.0,0.0,0.2761954276,0.7219280949,0.0,0.0,0.0,0.0,0.0,0.0,0.0,0.394814846,0.0,0.0,0.0,0.624274101,0.4394969869,0.2992611749,0.2659427971,0.0,0.3227569589,0.4889085914,0.0,0.426228657,0.6193821947,0.3650551896,0.0,0.2761954276,0.165427034,0.0,0.7219280949,0.0,0.0,0.0,0.9910760598,0.0,0.0,0.0,0.0857426825,0.0,0.7219280949,0.0,0.0,0.0,0.901170196,0.0,0.9672947789,0.0,0.8256265262,0.0,0.4394969869,0.9182958341,0.0,0.0,0.0,0.0,0.6791431616,0.0,0.9405112436,0.7431697526,0.5225593745,0.0,0.0,0.5381411852,0.6451006442,0.6057892521,0.9612366047,0.0,0.0,0.5484866088,0.0,0.512709142,0.0,0.5787946246,0.0,0.4394969869,0.41116649,0.0,0.4725472219,0.4394969869,0.0,0.5435644432,0.0,0.4586858162,0.0,0.353359335,0.0,0.289986047,0.2163969325,0.0,0.5916727786,0.0,0.0,0.0,0.0,0.0,0.0,0.3227569589,0.4798320236,0.0,0.6292492239,0.7793498373,0.6500224216,0.3227569589,0.0,0.7219280949,0.0,0.0,0.985228136,0.0,0.0,0.0,0.0,0.0,0.78902862,0.0,0.9276748743,0.9997182449,0.6042221834,0.7002719042,0.0,0.6687649831,0.6338724226,0.7219280949,0.6789538995,0.0,0.6550239909,0.0,0.6292492239,0.6014353864,0.0,0.6559420758,0.7219280949,0.6912898694,0.0,0.6572729785,0.8812908992,0.6722948171,0.0,0.5435644432,0.4586858162,0.6292492239,0.0,0.3227569589,0.0,0.0,0.0,0.0,0.0,0.4394969869,0.0,0.7793498373,0.0,0.5586293735,0.8453509366,0.0,0.0,0.0,0.0,0.0,0.0,0.0,0.289986047,0.2163969325,0.1274185118,0.0,0.5032583348,0.0,0.0,0.0,0.0,0.0,0.0,0.0,0.0,0.9244416559,0.8667486989,0.9185324785,0.55989958,0.8119524535,0.0,0.2850191415,0.4507913884,0.4220005169,0.583675328,0.4394969869,0.7219280949,0.9709505945,0.0,0.0,0.2422921891,0.0,0.0,0.1350362028,0.0,0.5032583348,0.0,0.0,0.0,0.2546947047,0.0922772477,0.7219280949,0.0,0.0,0.0,0.5435644432,0.0,0.2163969325,0.0,0.7219280949,0.0,0.0,0.0,0.0934735441,0.0672215448,0.0,0.0377501852,0.0,0.1792560669,0.0,0.0,0.0,0.0,0.9970590569,0.9530990721,0.9081783473,0.9978122433,0.9577009405,0.6255388072,0.0,0.5604094281,0.0,0.5232091927,0.0,0.5688428787,0.0,0.5373760853,0.0,0.5149459065,0.2498822928,0.0922772477,0.2422921891,0.0,0.0,0.0,0.8453509366,0.0,0.0,0.6559420758,0.0,0.5349436991,0.9494520154,0.5916727786,0.0,0.0,0.0,0.3912435636,0.5665095066,0.4798320236,0.2580186687,0.0,0.1537421803,0.0,0.0,0.9182958341,0.0,0.0,0.0,0.0,0.9959872294,0.7807536251,0.9910760598,0.0,0.985228136,0.8256265262,0.0,0.6500224216,0.9182958341,0.0,0.7219280949,0.0,0.3912435636,0.0,0.0,0.353359335,0.9182958341,0.0,0.0,0.0,0.666578358,0.0,0.0,0.0,0.9006267231,0.8332661971,0.0,0.7918583526,0.6409441848,0.996791632,0.8453509366,0.0,0.985228136,0.0,0.0,0.0,0.5373760853,0.3776463214,0.3342681326,0.2863969571,0.4689955936,0.7219280949,0.5032583348,0.3227569589,0.0,0.0,0.0,0.0,0.0,0.0,0.0,0.0,0.8112781245,0.4394969869,0.9182958341,0.0,0.0,0.0,0.9709505945,0.0,0.0,0.9995256893,0.0,0.8631205686,0.3227569589,0.7219280949,0.0,0.0,0.0,0.9456603046,0.0,0.0,0.9043814577,0.9182958341,0.0,0.0,0.0,0.0,0.3311970075,0.2301627406,0.0,0.3033748361,0.5916727786,0.5225593745,0.1792560669,0.0,0.0,0.7706290694,0.6631968402,0.9182958341,0.0,0.7219280949,0.0,0.0,0.3227569589,0.0,0.7219280949,0.0,0.0,0.0,0.0,0.176776697,0.0,0.1537421803,0.2974722489,0.2422921891,0.1792560669,0.0,0.5032583348,0.0,0.0,0.0,0.0,0.0581007479,0.2422921891,0.0,0.0,0.0,0.8366407419,0.0,0.0,0.0,0.7099085284,0.0,0.9957274521,0.6500224216,0.9819407869,0.9612366047,0.7219280949,0.0,0.5032583348,0.0,0.0,0.0,0.0,0.0,0.9751190649,0.9526092095,0.9986359642,0.0,0.985228136,0.8865408928,0.0,0.9494520154,0.0,0.8739810481,0.9612366047,0.7918583526,0.0,0.6292492239,0.5032583348,0.3227569589,0.7219280949,0.0,0.0,0.0,0.0,0.0,0.0,0.0,0.7871265862,0.0,0.0,0.6136190196,1.0,0.0,0.7219280949,0.0,0.0,0.2422921891,0.0,0.0,0.0,0.0,0.0],"max_depth":26,"max_n_classes":2,"n_classes":[2],"n_features":8,"n_leaves":242,"n_node_samples":[4700,2930,617,504,291,146,88,18,70,16,2,14,11,3,1,2,54,34,32,19,8,11,8,2,6,5,3,2,1,1,1,3,13,2,20,16,12,10,4,3,1,6,2,1,1,4,2,4,4,58,145,142,3,213,113,91,71,69,14,55,31,2,29,19,13,1,12,11,9,2,1,1,1,6,5,1,10,24,22,2,1,1,2,20,2,18,6,12,5,7,3,1,2,4,22,2313,1330,983,120,31,1,30,89,59,56,7,2,5,49,2,47,6,41,6,35,34,5,29,28,6,22,2,20,2,18,1,17,16,11,5,2,3,1,1,1,3,30,19,5,14,11,9,5,3,2,1,1,4,3,1,2,3,11,863,326,537,320,105,89,4,85,81,64,60,2,58,2,56,54,5,49,44,42,2,40,19,13,2,11,10,7,2,5,4,1,3,1,6,21,10,11,3,8,5,3,2,3,2,5,2,4,17,16,15,12,3,1,2,1,1,4,16,215,217,1770,1518,1408,391,257,124,133,68,66,33,28,14,7,6,1,7,6,1,14,11,3,2,1,5,33,22,2,1,1,20,11,3,8,6,2,1,1,2,65,64,1,63,53,10,1,9,1,134,1017,700,603,472,355,101,8,93,4,89,8,81,3,78,2,76,27,22,7,6,1,15,5,3,2,49,7,42,10,5,3,2,5,32,21,19,13,1,12,11,1,6,4,2,2,11,254,157,66,22,44,24,6,18,9,3,6,2,4,3,1,9,3,1,2,6,20,19,1,91,97,78,6,72,48,9,5,1,4,1,3,4,39,25,24,23,13,8,6,5,4,1,1,2,5,10,1,1,14,7,3,1,2,4,7,1,6,24,11,13,5,2,1,1,3,8,7,1,19,6,4,2,13,117,131,119,33,86,25,23,10,1,9,13,11,6,2,4,2,2,5,3,2,1,1,2,2,61,1,60,22,21,20,14,6,2,4,1,1,38,7,6,1,31,12,11,1,97,317,215,102,42,13,7,4,1,3,1,2,3,6,29,60,54,42,6,36,22,2,20,4,16,14,9,2,7,6,5,2,1,1,3,1,1,5,2,14,13,1,12,5,3,2,1,1,7,6,1,6,110,252],"n_outputs":1,"node_count":483,"threshold":[0.3052310944,-0.9349800944,-1.0477266014,-1.4423393011,-0.5033921301,0.3895468414,-0.9142864645,-2.0,-0.3384258896,-0.5069679469,-2.0,-0.8258672357,-2.0,-0.7992542386,-2.0,-2.0,1.0708014369,-0.5076361299,-0.7472280264,-0.8106948137,-2.0,-0.1766627356,-0.2396534383,-2.0,1.5383712053,-0.9127010703,-2.0,-0.111656718,-2.0,-2.0,-2.0,-2.0,-2.0,-2.0,1.4284905195,1.298802495,1.2861673236,-0.2236573771,-0.0220668167,-2.0,-2.0,-0.2334713861,0.7306620479,-2.0,-2.0,-2.0,-2.0,-2.0,-2.0,-2.0,1.9118924141,-2.0,-2.0,-2.0,0.0054022695,-0.4461294413,1.8363201618,-1.5417695045,-2.0,-0.7492518127,0.1105001643,-2.0,-0.6191370189,-1.1859970689,-0.9771449864,-2.0,-0.6444079876,-0.7848274708,-2.0,-0.7796366215,-2.0,-2.0,-2.0,-0.5202911496,-2.0,-2.0,-2.0,-0.4013302475,-2.0,-0.2535761073,-2.0,-2.0,-2.0,-1.5005709529,-2.0,-0.8585613072,-2.0,-0.490853101,-2.0,-0.299831152,-0.9713371098,-2.0,-2.0,-2.0,-2.0,-0.2585012689,-2.0,-0.0893815653,-0.4212140143,-0.5068644881,-2.0,-2.0,0.4711797684,0.6899034679,-1.1201854348,-0.6406144202,-2.0,-2.0,-0.5784021914,-2.0,-0.5086969435,-2.0,-0.3557950854,-2.0,1.1546982527,-0.2801685482,-2.0,0.3417411149,-0.6446911097,-2.0,-0.3559912294,-2.0,-0.1991756484,-2.0,-0.6261783242,-2.0,0.1683747172,0.0090917992,-2.0,0.1485046409,-2.0,-2.0,-2.0,-2.0,-2.0,-2.0,0.2172265351,0.0520342989,-2.0,0.918358624,0.5716164708,-0.247888647,0.5075703859,-2.0,-0.4096635133,-2.0,-2.0,-0.2718105763,-2.0,-2.0,-2.0,-2.0,-2.0,0.0797381429,-2.0,0.1924846172,0.3895468414,-0.143949993,-1.1186884642,-2.0,1.1613789201,0.3413346857,0.1776127443,0.2360715792,-2.0,-1.4791615605,-2.0,-0.2298407927,-1.1857841015,-2.0,-0.4138316661,-0.0397200286,-1.1620754004,-2.0,-0.3005827516,-0.5461392254,-1.0475780368,-2.0,-0.5431791097,-0.7442628145,-0.6645295024,-2.0,-0.7886988819,-2.0,-2.0,-2.0,-2.0,-2.0,-0.8158148229,-2.0,-0.6307115257,-2.0,-0.4450333714,0.8871307969,-2.0,-2.0,-2.0,-2.0,-2.0,-2.0,-2.0,0.720285207,1.7658686042,1.0408374965,-2.0,1.3954026699,-2.0,-2.0,-2.0,-2.0,-2.0,-2.0,-2.0,-2.0,1.3763226271,1.2072029114,0.7562170029,0.5307240486,0.3895468414,-2.0,0.579398632,0.5575924516,-0.1160413921,-0.234150812,0.2569466978,-0.0529516395,-0.3453812003,-2.0,-2.0,0.2463679537,-2.0,-2.0,0.95743981,-2.0,0.3753587008,-2.0,-2.0,-2.0,0.6012350619,-0.81729424,0.8217217326,-2.0,-2.0,-2.0,-0.3385663778,-2.0,0.01465399,-2.0,0.2610933483,-2.0,-2.0,-2.0,4.12322402,-0.822453022,-2.0,0.9068991244,-2.0,0.91747576,-2.0,-2.0,-2.0,-2.0,0.3895468414,1.5500863194,1.0944564342,0.9817099571,-0.4335452914,-1.7791404724,-2.0,-0.9594269693,-2.0,-0.7996917963,-2.0,-0.7915427387,-2.0,-1.048006624,-2.0,-0.507822603,0.0645294174,-0.7193250358,-0.7423672378,-2.0,-2.0,-2.0,-0.5315393507,-2.0,-2.0,-0.4459077418,-2.0,0.482783854,-0.6660481989,-0.1168790869,-2.0,-2.0,-2.0,-0.3965210319,-0.438382104,1.0194646716,-1.3363011479,-2.0,-0.4520914704,-2.0,-2.0,1.1851443052,-2.0,-2.0,-2.0,-2.0,0.86896348,0.2350906283,-0.353116706,-2.0,-0.0190663317,-1.4500579834,-2.0,-0.2679483294,-0.197246924,-2.0,-0.1883704439,-2.0,0.4874603599,-2.0,-2.0,-1.2017555237,-0.2511745468,-2.0,-2.0,-2.0,1.7823172808,-2.0,-2.0,-2.0,0.4084485322,-0.5620869398,-2.0,1.0457612872,-0.3912608922,-0.4930133224,-0.5441081226,-2.0,-1.2133482099,-2.0,-2.0,-2.0,0.6164396107,-0.0092415642,1.2083534002,-0.0405553617,0.2066302225,-0.0117775369,-0.2997930646,0.1437317021,-2.0,-2.0,-2.0,-2.0,-2.0,-2.0,-2.0,-2.0,-0.149344787,0.3515762091,-0.0682418048,-2.0,-2.0,-2.0,-1.2476998568,-2.0,-2.0,0.7638214231,-2.0,0.4388792962,-0.0782984197,-0.1140374579,-2.0,-2.0,-2.0,1.8137178421,-2.0,-2.0,0.1877770573,0.4304761514,-2.0,-2.0,-2.0,-2.0,0.8527382314,0.0520584974,-2.0,-0.1426539272,0.17079366,-0.2983307838,0.0605913457,-2.0,-2.0,0.9468101859,0.5391295552,-0.3072550595,-2.0,-0.1599954516,-2.0,-2.0,-0.2473738715,-2.0,-0.2240611613,-2.0,-2.0,-2.0,-2.0,-0.5266976953,-2.0,0.5460656285,1.202131778,0.541574657,0.0445807772,-2.0,0.2263895199,-2.0,-2.0,-2.0,-2.0,-0.014948739,-0.0325033804,-2.0,-2.0,-2.0,1.5381609797,-2.0,-2.0,-2.0,0.9817099571,-2.0,-0.1679192409,-0.3178650886,-0.056018183,-0.3417508453,-0.7247771025,-2.0,0.418244347,-2.0,-2.0,-2.0,-2.0,-2.0,1.4693064094,1.2283942103,0.7256056368,-2.0,1.2629555464,-0.0519039938,-2.0,-0.214363195,-2.0,0.9070388079,0.0711355284,-0.1358229518,-2.0,1.2147573233,0.5946228206,-0.8234153688,-0.1231778264,-2.0,-2.0,-2.0,-2.0,-2.0,-2.0,-2.0,0.214151971,-2.0,-2.0,0.1056988612,-0.237950556,-2.0,-0.0741715413,-2.0,-2.0,2.07167238,-2.0,-2.0,-2.0,-2.0,-2.0],"value":[[[3904.0,3184.0]],[[2713.0,868.0]],[[520.0,388.0]],[[472.0,128.0]],[[259.0,128.0]],[[117.0,116.0]],[[59.0,116.0]],[[18.0,0.0]],[[41.0,116.0]],[[3.0,52.0]],[[2.0,0.0]],[[1.0,52.0]],[[0.0,44.0]],[[1.0,8.0]],[[1.0,0.0]],[[0.0,8.0]],[[38.0,64.0]],[[28.0,24.0]],[[28.0,16.0]],[[15.0,16.0]],[[8.0,0.0]],[[7.0,16.0]],[[4.0,16.0]],[[2.0,0.0]],[[2.0,16.0]],[[1.0,16.0]],[[0.0,12.0]],[[1.0,4.0]],[[0.0,4.0]],[[1.0,0.0]],[[1.0,0.0]],[[3.0,0.0]],[[13.0,0.0]],[[0.0,8.0]],[[10.0,40.0]],[[6.0,40.0]],[[6.0,24.0]],[[4.0,24.0]],[[3.0,4.0]],[[3.0,0.0]],[[0.0,4.0]],[[1.0,20.0]],[[1.0,4.0]],[[1.0,0.0]],[[0.0,4.0]],[[0.0,16.0]],[[2.0,0.0]],[[0.0,16.0]],[[4.0,0.0]],[[58.0,0.0]],[[142.0,12.0]],[[142.0,0.0]],[[0.0,12.0]],[[213.0,0.0]],[[48.0,260.0]],[[26.0,260.0]],[[13.0,232.0]],[[11.0,232.0]],[[0.0,56.0]],[[11.0,176.0]],[[10.0,84.0]],[[2.0,0.0]],[[8.0,84.0]],[[8.0,44.0]],[[3.0,40.0]],[[1.0,0.0]],[[2.0,40.0]],[[1.0,40.0]],[[0.0,36.0]],[[1.0,4.0]],[[0.0,4.0]],[[1.0,0.0]],[[1.0,0.0]],[[5.0,4.0]],[[5.0,0.0]],[[0.0,4.0]],[[0.0,40.0]],[[1.0,92.0]],[[0.0,88.0]],[[1.0,4.0]],[[1.0,0.0]],[[0.0,4.0]],[[2.0,0.0]],[[13.0,28.0]],[[0.0,8.0]],[[13.0,20.0]],[[6.0,0.0]],[[7.0,20.0]],[[5.0,0.0]],[[2.0,20.0]],[[2.0,4.0]],[[0.0,4.0]],[[2.0,0.0]],[[0.0,16.0]],[[22.0,0.0]],[[2193.0,480.0]],[[1330.0,0.0]],[[863.0,480.0]],[[62.0,232.0]],[[30.0,4.0]],[[0.0,4.0]],[[30.0,0.0]],[[32.0,228.0]],[[26.0,132.0]],[[23.0,132.0]],[[5.0,8.0]],[[0.0,8.0]],[[5.0,0.0]],[[18.0,124.0]],[[2.0,0.0]],[[16.0,124.0]],[[0.0,24.0]],[[16.0,100.0]],[[6.0,0.0]],[[10.0,100.0]],[[9.0,100.0]],[[0.0,20.0]],[[9.0,80.0]],[[8.0,80.0]],[[0.0,24.0]],[[8.0,56.0]],[[2.0,0.0]],[[6.0,56.0]],[[2.0,0.0]],[[4.0,56.0]],[[1.0,0.0]],[[3.0,56.0]],[[2.0,56.0]],[[0.0,44.0]],[[2.0,12.0]],[[2.0,0.0]],[[0.0,12.0]],[[1.0,0.0]],[[1.0,0.0]],[[1.0,0.0]],[[3.0,0.0]],[[6.0,96.0]],[[6.0,52.0]],[[0.0,20.0]],[[6.0,32.0]],[[6.0,20.0]],[[4.0,20.0]],[[1.0,16.0]],[[0.0,12.0]],[[1.0,4.0]],[[1.0,0.0]],[[0.0,4.0]],[[3.0,4.0]],[[3.0,0.0]],[[0.0,4.0]],[[2.0,0.0]],[[0.0,12.0]],[[0.0,44.0]],[[801.0,248.0]],[[326.0,0.0]],[[475.0,248.0]],[[258.0,248.0]],[[43.0,248.0]],[[43.0,184.0]],[[4.0,0.0]],[[39.0,184.0]],[[35.0,184.0]],[[32.0,128.0]],[[28.0,128.0]],[[2.0,0.0]],[[26.0,128.0]],[[2.0,0.0]],[[24.0,128.0]],[[22.0,128.0]],[[0.0,20.0]],[[22.0,108.0]],[[22.0,88.0]],[[20.0,88.0]],[[2.0,0.0]],[[18.0,88.0]],[[12.0,28.0]],[[6.0,28.0]],[[2.0,0.0]],[[4.0,28.0]],[[3.0,28.0]],[[3.0,16.0]],[[2.0,0.0]],[[1.0,16.0]],[[0.0,16.0]],[[1.0,0.0]],[[0.0,12.0]],[[1.0,0.0]],[[6.0,0.0]],[[6.0,60.0]],[[0.0,40.0]],[[6.0,20.0]],[[3.0,0.0]],[[3.0,20.0]],[[3.0,8.0]],[[3.0,0.0]],[[0.0,8.0]],[[0.0,12.0]],[[2.0,0.0]],[[0.0,20.0]],[[2.0,0.0]],[[4.0,0.0]],[[3.0,56.0]],[[2.0,56.0]],[[1.0,56.0]],[[0.0,48.0]],[[1.0,8.0]],[[1.0,0.0]],[[0.0,8.0]],[[1.0,0.0]],[[1.0,0.0]],[[4.0,0.0]],[[0.0,64.0]],[[215.0,0.0]],[[217.0,0.0]],[[1191.0,2316.0]],[[939.0,2316.0]],[[939.0,1876.0]],[[147.0,976.0]],[[147.0,440.0]],[[124.0,0.0]],[[23.0,440.0]],[[20.0,192.0]],[[18.0,192.0]],[[13.0,80.0]],[[8.0,80.0]],[[7.0,28.0]],[[6.0,4.0]],[[6.0,0.0]],[[0.0,4.0]],[[1.0,24.0]],[[0.0,24.0]],[[1.0,0.0]],[[1.0,52.0]],[[0.0,44.0]],[[1.0,8.0]],[[0.0,8.0]],[[1.0,0.0]],[[5.0,0.0]],[[5.0,112.0]],[[1.0,84.0]],[[1.0,4.0]],[[1.0,0.0]],[[0.0,4.0]],[[0.0,80.0]],[[4.0,28.0]],[[3.0,0.0]],[[1.0,28.0]],[[0.0,24.0]],[[1.0,4.0]],[[1.0,0.0]],[[0.0,4.0]],[[2.0,0.0]],[[3.0,248.0]],[[2.0,248.0]],[[1.0,0.0]],[[1.0,248.0]],[[0.0,212.0]],[[1.0,36.0]],[[1.0,0.0]],[[0.0,36.0]],[[1.0,0.0]],[[0.0,536.0]],[[792.0,900.0]],[[493.0,828.0]],[[396.0,828.0]],[[369.0,412.0]],[[252.0,412.0]],[[43.0,232.0]],[[8.0,0.0]],[[35.0,232.0]],[[4.0,0.0]],[[31.0,232.0]],[[0.0,32.0]],[[31.0,200.0]],[[3.0,0.0]],[[28.0,200.0]],[[2.0,0.0]],[[26.0,200.0]],[[4.0,92.0]],[[1.0,84.0]],[[1.0,24.0]],[[0.0,24.0]],[[1.0,0.0]],[[0.0,60.0]],[[3.0,8.0]],[[3.0,0.0]],[[0.0,8.0]],[[22.0,108.0]],[[7.0,0.0]],[[15.0,108.0]],[[7.0,12.0]],[[2.0,12.0]],[[0.0,12.0]],[[2.0,0.0]],[[5.0,0.0]],[[8.0,96.0]],[[8.0,52.0]],[[6.0,52.0]],[[2.0,44.0]],[[1.0,0.0]],[[1.0,44.0]],[[0.0,44.0]],[[1.0,0.0]],[[4.0,8.0]],[[4.0,0.0]],[[0.0,8.0]],[[2.0,0.0]],[[0.0,44.0]],[[209.0,180.0]],[[146.0,44.0]],[[55.0,44.0]],[[22.0,0.0]],[[33.0,44.0]],[[14.0,40.0]],[[6.0,0.0]],[[8.0,40.0]],[[6.0,12.0]],[[3.0,0.0]],[[3.0,12.0]],[[2.0,0.0]],[[1.0,12.0]],[[0.0,12.0]],[[1.0,0.0]],[[2.0,28.0]],[[2.0,4.0]],[[0.0,4.0]],[[2.0,0.0]],[[0.0,24.0]],[[19.0,4.0]],[[19.0,0.0]],[[0.0,4.0]],[[91.0,0.0]],[[63.0,136.0]],[[46.0,128.0]],[[6.0,0.0]],[[40.0,128.0]],[[21.0,108.0]],[[7.0,8.0]],[[3.0,8.0]],[[0.0,4.0]],[[3.0,4.0]],[[0.0,4.0]],[[3.0,0.0]],[[4.0,0.0]],[[14.0,100.0]],[[6.0,76.0]],[[5.0,76.0]],[[4.0,76.0]],[[4.0,36.0]],[[4.0,16.0]],[[2.0,16.0]],[[1.0,16.0]],[[0.0,16.0]],[[1.0,0.0]],[[1.0,0.0]],[[2.0,0.0]],[[0.0,20.0]],[[0.0,40.0]],[[1.0,0.0]],[[1.0,0.0]],[[8.0,24.0]],[[2.0,20.0]],[[2.0,4.0]],[[0.0,4.0]],[[2.0,0.0]],[[0.0,16.0]],[[6.0,4.0]],[[0.0,4.0]],[[6.0,0.0]],[[19.0,20.0]],[[11.0,0.0]],[[8.0,20.0]],[[1.0,16.0]],[[1.0,4.0]],[[0.0,4.0]],[[1.0,0.0]],[[0.0,12.0]],[[7.0,4.0]],[[7.0,0.0]],[[0.0,4.0]],[[17.0,8.0]],[[4.0,8.0]],[[4.0,0.0]],[[0.0,8.0]],[[13.0,0.0]],[[117.0,0.0]],[[27.0,416.0]],[[16.0,412.0]],[[0.0,132.0]],[[16.0,280.0]],[[10.0,60.0]],[[8.0,60.0]],[[1.0,36.0]],[[1.0,0.0]],[[0.0,36.0]],[[7.0,24.0]],[[5.0,24.0]],[[4.0,8.0]],[[2.0,0.0]],[[2.0,8.0]],[[2.0,0.0]],[[0.0,8.0]],[[1.0,16.0]],[[0.0,12.0]],[[1.0,4.0]],[[1.0,0.0]],[[0.0,4.0]],[[2.0,0.0]],[[2.0,0.0]],[[6.0,220.0]],[[1.0,0.0]],[[5.0,220.0]],[[4.0,72.0]],[[3.0,72.0]],[[2.0,72.0]],[[0.0,56.0]],[[2.0,16.0]],[[2.0,0.0]],[[0.0,16.0]],[[1.0,0.0]],[[1.0,0.0]],[[1.0,148.0]],[[1.0,24.0]],[[0.0,24.0]],[[1.0,0.0]],[[0.0,124.0]],[[11.0,4.0]],[[11.0,0.0]],[[0.0,4.0]],[[97.0,0.0]],[[299.0,72.0]],[[215.0,0.0]],[[84.0,72.0]],[[40.0,8.0]],[[11.0,8.0]],[[5.0,8.0]],[[2.0,8.0]],[[1.0,0.0]],[[1.0,8.0]],[[1.0,0.0]],[[0.0,8.0]],[[3.0,0.0]],[[6.0,0.0]],[[29.0,0.0]],[[44.0,64.0]],[[38.0,64.0]],[[33.0,36.0]],[[6.0,0.0]],[[27.0,36.0]],[[14.0,32.0]],[[0.0,8.0]],[[14.0,24.0]],[[4.0,0.0]],[[10.0,24.0]],[[10.0,16.0]],[[5.0,16.0]],[[2.0,0.0]],[[3.0,16.0]],[[2.0,16.0]],[[1.0,16.0]],[[1.0,4.0]],[[0.0,4.0]],[[1.0,0.0]],[[0.0,12.0]],[[1.0,0.0]],[[1.0,0.0]],[[5.0,0.0]],[[0.0,8.0]],[[13.0,4.0]],[[13.0,0.0]],[[0.0,4.0]],[[5.0,28.0]],[[4.0,4.0]],[[3.0,0.0]],[[1.0,4.0]],[[0.0,4.0]],[[1.0,0.0]],[[1.0,24.0]],[[0.0,24.0]],[[1.0,0.0]],[[6.0,0.0]],[[0.0,440.0]],[[252.0,0.0]]],"weighted_n_node_samples":[7088.0,3581.0,908.0,600.0,387.0,233.0,175.0,18.0,157.0,55.0,2.0,53.0,44.0,9.0,1.0,8.0,102.0,52.0,44.0,31.0,8.0,23.0,20.0,2.0,18.0,17.0,12.0,5.0,4.0,1.0,1.0,3.0,13.0,8.0,50.0,46.0,30.0,28.0,7.0,3.0,4.0,21.0,5.0,1.0,4.0,16.0,2.0,16.0,4.0,58.0,154.0,142.0,12.0,213.0,308.0,286.0,245.0,243.0,56.0,187.0,94.0,2.0,92.0,52.0,43.0,1.0,42.0,41.0,36.0,5.0,4.0,1.0,1.0,9.0,5.0,4.0,40.0,93.0,88.0,5.0,1.0,4.0,2.0,41.0,8.0,33.0,6.0,27.0,5.0,22.0,6.0,4.0,2.0,16.0,22.0,2673.0,1330.0,1343.0,294.0,34.0,4.0,30.0,260.0,158.0,155.0,13.0,8.0,5.0,142.0,2.0,140.0,24.0,116.0,6.0,110.0,109.0,20.0,89.0,88.0,24.0,64.0,2.0,62.0,2.0,60.0,1.0,59.0,58.0,44.0,14.0,2.0,12.0,1.0,1.0,1.0,3.0,102.0,58.0,20.0,38.0,26.0,24.0,17.0,12.0,5.0,1.0,4.0,7.0,3.0,4.0,2.0,12.0,44.0,1049.0,326.0,723.0,506.0,291.0,227.0,4.0,223.0,219.0,160.0,156.0,2.0,154.0,2.0,152.0,150.0,20.0,130.0,110.0,108.0,2.0,106.0,40.0,34.0,2.0,32.0,31.0,19.0,2.0,17.0,16.0,1.0,12.0,1.0,6.0,66.0,40.0,26.0,3.0,23.0,11.0,3.0,8.0,12.0,2.0,20.0,2.0,4.0,59.0,58.0,57.0,48.0,9.0,1.0,8.0,1.0,1.0,4.0,64.0,215.0,217.0,3507.0,3255.0,2815.0,1123.0,587.0,124.0,463.0,212.0,210.0,93.0,88.0,35.0,10.0,6.0,4.0,25.0,24.0,1.0,53.0,44.0,9.0,8.0,1.0,5.0,117.0,85.0,5.0,1.0,4.0,80.0,32.0,3.0,29.0,24.0,5.0,1.0,4.0,2.0,251.0,250.0,1.0,249.0,212.0,37.0,1.0,36.0,1.0,536.0,1692.0,1321.0,1224.0,781.0,664.0,275.0,8.0,267.0,4.0,263.0,32.0,231.0,3.0,228.0,2.0,226.0,96.0,85.0,25.0,24.0,1.0,60.0,11.0,3.0,8.0,130.0,7.0,123.0,19.0,14.0,12.0,2.0,5.0,104.0,60.0,58.0,46.0,1.0,45.0,44.0,1.0,12.0,4.0,8.0,2.0,44.0,389.0,190.0,99.0,22.0,77.0,54.0,6.0,48.0,18.0,3.0,15.0,2.0,13.0,12.0,1.0,30.0,6.0,4.0,2.0,24.0,23.0,19.0,4.0,91.0,199.0,174.0,6.0,168.0,129.0,15.0,11.0,4.0,7.0,4.0,3.0,4.0,114.0,82.0,81.0,80.0,40.0,20.0,18.0,17.0,16.0,1.0,1.0,2.0,20.0,40.0,1.0,1.0,32.0,22.0,6.0,4.0,2.0,16.0,10.0,4.0,6.0,39.0,11.0,28.0,17.0,5.0,4.0,1.0,12.0,11.0,7.0,4.0,25.0,12.0,4.0,8.0,13.0,117.0,443.0,428.0,132.0,296.0,70.0,68.0,37.0,1.0,36.0,31.0,29.0,12.0,2.0,10.0,2.0,8.0,17.0,12.0,5.0,1.0,4.0,2.0,2.0,226.0,1.0,225.0,76.0,75.0,74.0,56.0,18.0,2.0,16.0,1.0,1.0,149.0,25.0,24.0,1.0,124.0,15.0,11.0,4.0,97.0,371.0,215.0,156.0,48.0,19.0,13.0,10.0,1.0,9.0,1.0,8.0,3.0,6.0,29.0,108.0,102.0,69.0,6.0,63.0,46.0,8.0,38.0,4.0,34.0,26.0,21.0,2.0,19.0,18.0,17.0,5.0,4.0,1.0,12.0,1.0,1.0,5.0,8.0,17.0,13.0,4.0,33.0,8.0,3.0,5.0,4.0,1.0,25.0,24.0,1.0,6.0,440.0,252.0]}},"precision":{"ccp_alpha":0.0,"class_weight":{"0":1,"1":4},"classes_":[0,1],"criterion":"entropy","feature_importances_":[0.5824187031,0.1294814652,0.0421183203,0.0462665047,0.0231729965,0.0505181724,0.0824300599,0.0435937779],"max_depth":50,"max_features":null,"max_features_":8,"max_leaf_nodes":null,"min_impurity_decrease":0.0,"min_samples_leaf":1,"min_samples_split":2,"min_weight_fraction_leaf":0.0,"n_classes_":2,"n_features_":8,"n_features_in_":8,"n_outputs_":1,"random_state":null,"splitter":"best","tree_":{"capacity":483,"children_left":[1,2,3,4,5,6,7,-1,9,10,-1,12,-1,14,-1,-1,17,18,19,20,-1,22,23,-1,25,26,-1,28,-1,-1,-1,-1,-1,-1,35,36,37,38,39,-1,-1,42,43,-1,-1,-1,-1,-1,-1,-1,51,-1,-1,-1,55,56,57,58,-1,60,61,-1,63,64,65,-1,67,68,-1,70,-1,-1,-1,74,-1,-1,-1,78,-1,80,-1,-1,-1,84,-1,86,-1,88,-1,90,91,-1,-1,-1,-1,96,-1,98,99,100,-1,-1,103,104,105,106,-1,-1,109,-1,111,-1,113,-1,115,116,-1,118,119,-1,121,-1,123,-1,125,-1,127,128,-1,130,-1,-1,-1,-1,-1,-1,137,138,-1,140,141,142,143,-1,145,-1,-1,148,-1,-1,-1,-1,-1,154,-1,156,157,158,159,-1,161,162,163,164,-1,166,-1,168,169,-1,171,172,173,-1,175,176,177,-1,179,180,181,-1,183,-1,-1,-1,-1,-1,189,-1,191,-1,193,194,-1,-1,-1,-1,-1,-1,-1,202,203,204,-1,206,-1,-1,-1,-1,-1,-1,-1,-1,215,216,217,218,219,-1,221,222,223,224,225,226,227,-1,-1,230,-1,-1,233,-1,235,-1,-1,-1,239,240,241,-1,-1,-1,245,-1,247,-1,249,-1,-1,-1,253,254,-1,256,-1,258,-1,-1,-1,-1,263,264,265,266,267,268,-1,270,-1,272,-1,274,-1,276,-1,278,279,280,281,-1,-1,-1,285,-1,-1,288,-1,290,291,292,-1,-1,-1,296,297,298,299,-1,301,-1,-1,304,-1,-1,-1,-1,309,310,311,-1,313,314,-1,316,317,-1,319,-1,321,-1,-1,324,325,-1,-1,-1,329,-1,-1,-1,333,334,-1,336,337,338,339,-1,341,-1,-1,-1,345,346,347,348,349,350,351,352,-1,-1,-1,-1,-1,-1,-1,-1,361,362,363,-1,-1,-1,367,-1,-1,370,-1,372,373,374,-1,-1,-1,378,-1,-1,381,382,-1,-1,-1,-1,387,388,-1,390,391,392,393,-1,-1,396,397,398,-1,400,-1,-1,403,-1,405,-1,-1,-1,-1,410,-1,412,413,414,415,-1,417,-1,-1,-1,-1,422,423,-1,-1,-1,427,-1,-1,-1,431,-1,433,434,435,436,437,-1,439,-1,-1,-1,-1,-1,445,446,447,-1,449,450,-1,452,-1,454,455,456,-1,458,459,460,461,-1,-1,-1,-1,-1,-1,-1,469,-1,-1,472,473,-1,475,-1,-1,478,-1,-1,-1,-1,-1],"children_right":[214,95,54,53,50,49,8,-1,16,11,-1,13,-1,15,-1,-1,34,33,32,21,-1,31,24,-1,30,27,-1,29,-1,-1,-1,-1,-1,-1,48,47,46,41,40,-1,-1,45,44,-1,-1,-1,-1,-1,-1,-1,52,-1,-1,-1,94,83,82,59,-1,77,62,-1,76,73,66,-1,72,69,-1,71,-1,-1,-1,75,-1,-1,-1,79,-1,81,-1,-1,-1,85,-1,87,-1,89,-1,93,92,-1,-1,-1,-1,97,-1,153,102,101,-1,-1,136,135,108,107,-1,-1,110,-1,112,-1,114,-1,134,117,-1,133,120,-1,122,-1,124,-1,126,-1,132,129,-1,131,-1,-1,-1,-1,-1,-1,152,139,-1,151,150,147,144,-1,146,-1,-1,149,-1,-1,-1,-1,-1,155,-1,213,212,211,160,-1,210,201,200,165,-1,167,-1,199,170,-1,198,197,174,-1,188,187,178,-1,186,185,182,-1,184,-1,-1,-1,-1,-1,190,-1,192,-1,196,195,-1,-1,-1,-1,-1,-1,-1,209,208,205,-1,207,-1,-1,-1,-1,-1,-1,-1,-1,482,481,262,261,220,-1,252,251,238,237,232,229,228,-1,-1,231,-1,-1,234,-1,236,-1,-1,-1,244,243,242,-1,-1,-1,246,-1,248,-1,250,-1,-1,-1,260,255,-1,257,-1,259,-1,-1,-1,-1,430,429,386,385,308,269,-1,271,-1,273,-1,275,-1,277,-1,287,284,283,282,-1,-1,-1,286,-1,-1,289,-1,295,294,293,-1,-1,-1,307,306,303,300,-1,302,-1,-1,305,-1,-1,-1,-1,332,331,312,-1,328,315,-1,323,318,-1,320,-1,322,-1,-1,327,326,-1,-1,-1,330,-1,-1,-1,380,335,-1,369,344,343,340,-1,342,-1,-1,-1,360,359,358,357,356,355,354,353,-1,-1,-1,-1,-1,-1,-1,-1,366,365,364,-1,-1,-1,368,-1,-1,371,-1,377,376,375,-1,-1,-1,379,-1,-1,384,383,-1,-1,-1,-1,426,389,-1,409,408,395,394,-1,-1,407,402,399,-1,401,-1,-1,404,-1,406,-1,-1,-1,-1,411,-1,421,420,419,416,-1,418,-1,-1,-1,-1,425,424,-1,-1,-1,428,-1,-1,-1,432,-1,444,443,442,441,438,-1,440,-1,-1,-1,-1,-1,480,471,448,-1,468,451,-1,453,-1,467,466,457,-1,465,464,463,462,-1,-1,-1,-1,-1,-1,-1,470,-1,-1,477,474,-1,476,-1,-1,479,-1,-1,-1,-1,-1],"feature":[0,0,0,0,3,1,3,-2,2,5,-2,7,-2,7,-2,-2,6,3,3,3,-2,7,2,-2,5,7,-2,2,-2,-2,-2,-2,-2,-2,6,6,6,4,7,-2,-2,2,4,-2,-2,-2,-2,-2,-2,-2,6,-2,-2,-2,5,6,4,6,-2,2,4,-2,3,6,2,-2,3,7,-2,3,-2,-2,-2,5,-2,-2,-2,5,-2,3,-2,-2,-2,5,-2,5,-2,3,-2,6,7,-2,-2,-2,-2,0,-2,0,6,3,-2,-2,3,2,5,7,-2,-2,2,-2,7,-2,7,-2,7,6,-2,2,5,-2,4,-2,6,-2,5,-2,5,6,-2,6,-2,-2,-2,-2,-2,-2,5,7,-2,2,7,5,7,-2,5,-2,-2,4,-2,-2,-2,-2,-2,0,-2,0,1,6,5,-2,5,7,7,4,-2,6,-2,6,6,-2,6,2,6,-2,5,5,6,-2,7,6,2,-2,6,-2,-2,-2,-2,-2,6,-2,3,-2,7,4,-2,-2,-2,-2,-2,-2,-2,4,7,3,-2,3,-2,-2,-2,-2,-2,-2,-2,-2,0,0,0,0,1,-2,5,5,4,4,5,3,4,-2,-2,5,-2,-2,6,-2,5,-2,-2,-2,7,5,4,-2,-2,-2,2,-2,2,-2,2,-2,-2,-2,7,2,-2,6,-2,6,-2,-2,-2,-2,1,6,0,0,2,6,-2,3,-2,2,-2,2,-2,7,-2,7,3,2,2,-2,-2,-2,7,-2,-2,7,-2,4,5,7,-2,-2,-2,3,3,4,5,-2,2,-2,-2,4,-2,-2,-2,-2,0,5,3,-2,2,6,-2,5,3,-2,2,-2,7,-2,-2,6,2,-2,-2,-2,7,-2,-2,-2,6,7,-2,5,7,7,7,-2,5,-2,-2,-2,3,4,2,5,7,6,4,7,-2,-2,-2,-2,-2,-2,-2,-2,6,2,2,-2,-2,-2,4,-2,-2,3,-2,7,7,7,-2,-2,-2,5,-2,-2,7,3,-2,-2,-2,-2,6,5,-2,3,6,3,5,-2,-2,5,5,4,-2,7,-2,-2,6,-2,3,-2,-2,-2,-2,2,-2,5,7,5,2,-2,2,-2,-2,-2,-2,3,3,-2,-2,-2,6,-2,-2,-2,0,-2,7,4,2,7,4,-2,6,-2,-2,-2,-2,-2,6,5,6,-2,6,7,-2,2,-2,7,2,2,-2,6,7,4,2,-2,-2,-2,-2,-2,-2,-2,4,-2,-2,2,3,-2,3,-2,-2,7,-2,-2,-2,-2,-2],"impurity":[0.9925439047,0.7989928742,0.9847010803,0.7478061583,0.9156901528,0.9999867128,0.9220583384,0.0,0.8284715284,0.3054005709,0.0,0.1350362028,0.0,0.5032583348,0.0,0.0,0.9526092095,0.9957274521,0.9456603046,0.999249248,0.0,0.8865408928,0.7219280949,0.0,0.5032583348,0.3227569589,0.0,0.7219280949,0.0,0.0,0.0,0.0,0.0,0.0,0.7219280949,0.5586293735,0.7219280949,0.5916727786,0.985228136,0.0,0.0,0.2761954276,0.7219280949,0.0,0.0,0.0,0.0,0.0,0.0,0.0,0.394814846,0.0,0.0,0.0,0.624274101,0.4394969869,0.2992611749,0.2659427971,0.0,0.3227569589,0.4889085914,0.0,0.426228657,0.6193821947,0.3650551896,0.0,0.2761954276,0.165427034,0.0,0.7219280949,0.0,0.0,0.0,0.9910760598,0.0,0.0,0.0,0.0857426825,0.0,0.7219280949,0.0,0.0,0.0,0.901170196,0.0,0.9672947789,0.0,0.8256265262,0.0,0.4394969869,0.9182958341,0.0,0.0,0.0,0.0,0.6791431616,0.0,0.9405112436,0.7431697526,0.5225593745,0.0,0.0,0.5381411852,0.6451006442,0.6057892521,0.9612366047,0.0,0.0,0.5484866088,0.0,0.512709142,0.0,0.5787946246,0.0,0.4394969869,0.41116649,0.0,0.4725472219,0.4394969869,0.0,0.5435644432,0.0,0.4586858162,0.0,0.353359335,0.0,0.289986047,0.2163969325,0.0,0.5916727786,0.0,0.0,0.0,0.0,0.0,0.0,0.3227569589,0.4798320236,0.0,0.6292492239,0.7793498373,0.6500224216,0.3227569589,0.0,0.7219280949,0.0,0.0,0.985228136,0.0,0.0,0.0,0.0,0.0,0.78902862,0.0,0.9276748743,0.9997182449,0.6042221834,0.7002719042,0.0,0.6687649831,0.6338724226,0.7219280949,0.6789538995,0.0,0.6550239909,0.0,0.6292492239,0.6014353864,0.0,0.6559420758,0.7219280949,0.6912898694,0.0,0.6572729785,0.8812908992,0.6722948171,0.0,0.5435644432,0.4586858162,0.6292492239,0.0,0.3227569589,0.0,0.0,0.0,0.0,0.0,0.4394969869,0.0,0.7793498373,0.0,0.5586293735,0.8453509366,0.0,0.0,0.0,0.0,0.0,0.0,0.0,0.289986047,0.2163969325,0.1274185118,0.0,0.5032583348,0.0,0.0,0.0,0.0,0.0,0.0,0.0,0.0,0.9244416559,0.8667486989,0.9185324785,0.55989958,0.8119524535,0.0,0.2850191415,0.4507913884,0.4220005169,0.583675328,0.4394969869,0.7219280949,0.9709505945,0.0,0.0,0.2422921891,0.0,0.0,0.1350362028,0.0,0.5032583348,0.0,0.0,0.0,0.2546947047,0.0922772477,0.7219280949,0.0,0.0,0.0,0.5435644432,0.0,0.2163969325,0.0,0.7219280949,0.0,0.0,0.0,0.0934735441,0.0672215448,0.0,0.0377501852,0.0,0.1792560669,0.0,0.0,0.0,0.0,0.9970590569,0.9530990721,0.9081783473,0.9978122433,0.9577009405,0.6255388072,0.0,0.5604094281,0.0,0.5232091927,0.0,0.5688428787,0.0,0.5373760853,0.0,0.5149459065,0.2498822928,0.0922772477,0.2422921891,0.0,0.0,0.0,0.8453509366,0.0,0.0,0.6559420758,0.0,0.5349436991,0.9494520154,0.5916727786,0.0,0.0,0.0,0.3912435636,0.5665095066,0.4798320236,0.2580186687,0.0,0.1537421803,0.0,0.0,0.9182958341,0.0,0.0,0.0,0.0,0.9959872294,0.7807536251,0.9910760598,0.0,0.985228136,0.8256265262,0.0,0.6500224216,0.9182958341,0.0,0.7219280949,0.0,0.3912435636,0.0,0.0,0.353359335,0.9182958341,0.0,0.0,0.0,0.666578358,0.0,0.0,0.0,0.9006267231,0.8332661971,0.0,0.7918583526,0.6409441848,0.996791632,0.8453509366,0.0,0.985228136,0.0,0.0,0.0,0.5373760853,0.3776463214,0.3342681326,0.2863969571,0.4689955936,0.7219280949,0.5032583348,0.3227569589,0.0,0.0,0.0,0.0,0.0,0.0,0.0,0.0,0.8112781245,0.4394969869,0.9182958341,0.0,0.0,0.0,0.9709505945,0.0,0.0,0.9995256893,0.0,0.8631205686,0.3227569589,0.7219280949,0.0,0.0,0.0,0.9456603046,0.0,0.0,0.9043814577,0.9182958341,0.0,0.0,0.0,0.0,0.3311970075,0.2301627406,0.0,0.3033748361,0.5916727786,0.5225593745,0.1792560669,0.0,0.0,0.7706290694,0.6631968402,0.9182958341,0.0,0.7219280949,0.0,0.0,0.3227569589,0.0,0.7219280949,0.0,0.0,0.0,0.0,0.176776697,0.0,0.1537421803,0.2974722489,0.2422921891,0.1792560669,0.0,0.5032583348,0.0,0.0,0.0,0.0,0.0581007479,0.2422921891,0.0,0.0,0.0,0.8366407419,0.0,0.0,0.0,0.7099085284,0.0,0.9957274521,0.6500224216,0.9819407869,0.9612366047,0.7219280949,0.0,0.5032583348,0.0,0.0,0.0,0.0,0.0,0.9751190649,0.9526092095,0.9986359642,0.0,0.985228136,0.8865408928,0.0,0.9494520154,0.0,0.8739810481,0.9612366047,0.7918583526,0.0,0.6292492239,0.5032583348,0.3227569589,0.7219280949,0.0,0.0,0.0,0.0,0.0,0.0,0.0,0.7871265862,0.0,0.0,0.6136190196,1.0,0.0,0.7219280949,0.0,0.0,0.2422921891,0.0,0.0,0.0,0.0,0.0],"max_depth":26,"max_n_classes":2,"n_classes":[2],"n_features":8,"n_leaves":242,"n_node_samples":[4700,2930,617,504,291,146,88,18,70,16,2,14,11,3,1,2,54,34,32,19,8,11,8,2,6,5,3,2,1,1,1,3,13,2,20,16,12,10,4,3,1,6,2,1,1,4,2,4,4,58,145,142,3,213,113,91,71,69,14,55,31,2,29,19,13,1,12,11,9,2,1,1,1,6,5,1,10,24,22,2,1,1,2,20,2,18,6,12,5,7,3,1,2,4,22,2313,1330,983,120,31,1,30,89,59,56,7,2,5,49,2,47,6,41,6,35,34,5,29,28,6,22,2,20,2,18,1,17,16,11,5,2,3,1,1,1,3,30,19,5,14,11,9,5,3,2,1,1,4,3,1,2,3,11,863,326,537,320,105,89,4,85,81,64,60,2,58,2,56,54,5,49,44,42,2,40,19,13,2,11,10,7,2,5,4,1,3,1,6,21,10,11,3,8,5,3,2,3,2,5,2,4,17,16,15,12,3,1,2,1,1,4,16,215,217,1770,1518,1408,391,257,124,133,68,66,33,28,14,7,6,1,7,6,1,14,11,3,2,1,5,33,22,2,1,1,20,11,3,8,6,2,1,1,2,65,64,1,63,53,10,1,9,1,134,1017,700,603,472,355,101,8,93,4,89,8,81,3,78,2,76,27,22,7,6,1,15,5,3,2,49,7,42,10,5,3,2,5,32,21,19,13,1,12,11,1,6,4,2,2,11,254,157,66,22,44,24,6,18,9,3,6,2,4,3,1,9,3,1,2,6,20,19,1,91,97,78,6,72,48,9,5,1,4,1,3,4,39,25,24,23,13,8,6,5,4,1,1,2,5,10,1,1,14,7,3,1,2,4,7,1,6,24,11,13,5,2,1,1,3,8,7,1,19,6,4,2,13,117,131,119,33,86,25,23,10,1,9,13,11,6,2,4,2,2,5,3,2,1,1,2,2,61,1,60,22,21,20,14,6,2,4,1,1,38,7,6,1,31,12,11,1,97,317,215,102,42,13,7,4,1,3,1,2,3,6,29,60,54,42,6,36,22,2,20,4,16,14,9,2,7,6,5,2,1,1,3,1,1,5,2,14,13,1,12,5,3,2,1,1,7,6,1,6,110,252],"n_outputs":1,"node_count":483,"threshold":[0.3052310944,-0.9349800944,-1.0477266014,-1.4423393011,-0.5033921301,0.3895468414,-0.9142864645,-2.0,-0.3384258896,-0.5069679469,-2.0,-0.8258672357,-2.0,-0.7992542386,-2.0,-2.0,1.0708014369,-0.5076361299,-0.7472280264,-0.8106948137,-2.0,-0.1766627356,-0.2396534383,-2.0,1.5383712053,-0.9127010703,-2.0,-0.111656718,-2.0,-2.0,-2.0,-2.0,-2.0,-2.0,1.4284905195,1.298802495,1.2861673236,-0.2236573771,-0.0220668167,-2.0,-2.0,-0.2334713861,0.7306620479,-2.0,-2.0,-2.0,-2.0,-2.0,-2.0,-2.0,1.9118924141,-2.0,-2.0,-2.0,0.0054022695,-0.4461294413,1.8363201618,-1.5417695045,-2.0,-0.7492518127,0.1105001643,-2.0,-0.6191370189,-1.1859970689,-0.9771449864,-2.0,-0.6444079876,-0.7848274708,-2.0,-0.7796366215,-2.0,-2.0,-2.0,-0.5202911496,-2.0,-2.0,-2.0,-0.4013302475,-2.0,-0.2535761073,-2.0,-2.0,-2.0,-1.5005709529,-2.0,-0.8585613072,-2.0,-0.490853101,-2.0,-0.299831152,-0.9713371098,-2.0,-2.0,-2.0,-2.0,-0.2585012689,-2.0,-0.0893815653,-0.4212140143,-0.5068644881,-2.0,-2.0,0.4711797684,0.6899034679,-1.1201854348,-0.6406144202,-2.0,-2.0,-0.5784021914,-2.0,-0.5086969435,-2.0,-0.3557950854,-2.0,1.1546982527,-0.2801685482,-2.0,0.3417411149,-0.6446911097,-2.0,-0.3559912294,-2.0,-0.1991756484,-2.0,-0.6261783242,-2.0,0.1683747172,0.0090917992,-2.0,0.1485046409,-2.0,-2.0,-2.0,-2.0,-2.0,-2.0,0.2172265351,0.0520342989,-2.0,0.918358624,0.5716164708,-0.247888647,0.5075703859,-2.0,-0.4096635133,-2.0,-2.0,-0.2718105763,-2.0,-2.0,-2.0,-2.0,-2.0,0.0797381429,-2.0,0.1924846172,0.3895468414,-0.143949993,-1.1186884642,-2.0,1.1613789201,0.3413346857,0.1776127443,0.2360715792,-2.0,-1.4791615605,-2.0,-0.2298407927,-1.1857841015,-2.0,-0.4138316661,-0.0397200286,-1.1620754004,-2.0,-0.3005827516,-0.5461392254,-1.0475780368,-2.0,-0.5431791097,-0.7442628145,-0.6645295024,-2.0,-0.7886988819,-2.0,-2.0,-2.0,-2.0,-2.0,-0.8158148229,-2.0,-0.6307115257,-2.0,-0.4450333714,0.8871307969,-2.0,-2.0,-2.0,-2.0,-2.0,-2.0,-2.0,0.720285207,1.7658686042,1.0408374965,-2.0,1.3954026699,-2.0,-2.0,-2.0,-2.0,-2.0,-2.0,-2.0,-2.0,1.3763226271,1.2072029114,0.7562170029,0.5307240486,0.3895468414,-2.0,0.579398632,0.5575924516,-0.1160413921,-0.234150812,0.2569466978,-0.0529516395,-0.3453812003,-2.0,-2.0,0.2463679537,-2.0,-2.0,0.95743981,-2.0,0.3753587008,-2.0,-2.0,-2.0,0.6012350619,-0.81729424,0.8217217326,-2.0,-2.0,-2.0,-0.3385663778,-2.0,0.01465399,-2.0,0.2610933483,-2.0,-2.0,-2.0,4.12322402,-0.822453022,-2.0,0.9068991244,-2.0,0.91747576,-2.0,-2.0,-2.0,-2.0,0.3895468414,1.5500863194,1.0944564342,0.9817099571,-0.4335452914,-1.7791404724,-2.0,-0.9594269693,-2.0,-0.7996917963,-2.0,-0.7915427387,-2.0,-1.048006624,-2.0,-0.507822603,0.0645294174,-0.7193250358,-0.7423672378,-2.0,-2.0,-2.0,-0.5315393507,-2.0,-2.0,-0.4459077418,-2.0,0.482783854,-0.6660481989,-0.1168790869,-2.0,-2.0,-2.0,-0.3965210319,-0.438382104,1.0194646716,-1.3363011479,-2.0,-0.4520914704,-2.0,-2.0,1.1851443052,-2.0,-2.0,-2.0,-2.0,0.86896348,0.2350906283,-0.353116706,-2.0,-0.0190663317,-1.4500579834,-2.0,-0.2679483294,-0.197246924,-2.0,-0.1883704439,-2.0,0.4874603599,-2.0,-2.0,-1.2017555237,-0.2511745468,-2.0,-2.0,-2.0,1.7823172808,-2.0,-2.0,-2.0,0.4084485322,-0.5620869398,-2.0,1.0457612872,-0.3912608922,-0.4930133224,-0.5441081226,-2.0,-1.2133482099,-2.0,-2.0,-2.0,0.6164396107,-0.0092415642,1.2083534002,-0.0405553617,0.2066302225,-0.0117775369,-0.2997930646,0.1437317021,-2.0,-2.0,-2.0,-2.0,-2.0,-2.0,-2.0,-2.0,-0.149344787,0.3515762091,-0.0682418048,-2.0,-2.0,-2.0,-1.2476998568,-2.0,-2.0,0.7638214231,-2.0,0.4388792962,-0.0782984197,-0.1140374579,-2.0,-2.0,-2.0,1.8137178421,-2.0,-2.0,0.1877770573,0.4304761514,-2.0,-2.0,-2.0,-2.0,0.8527382314,0.0520584974,-2.0,-0.1426539272,0.17079366,-0.2983307838,0.0605913457,-2.0,-2.0,0.9468101859,0.5391295552,-0.3072550595,-2.0,-0.1599954516,-2.0,-2.0,-0.2473738715,-2.0,-0.2240611613,-2.0,-2.0,-2.0,-2.0,-0.5266976953,-2.0,0.5460656285,1.202131778,0.541574657,0.0445807772,-2.0,0.2263895199,-2.0,-2.0,-2.0,-2.0,-0.014948739,-0.0325033804,-2.0,-2.0,-2.0,1.5381609797,-2.0,-2.0,-2.0,0.9817099571,-2.0,-0.1679192409,-0.3178650886,-0.056018183,-0.3417508453,-0.7247771025,-2.0,0.418244347,-2.0,-2.0,-2.0,-2.0,-2.0,1.4693064094,1.2283942103,0.7256056368,-2.0,1.2629555464,-0.0519039938,-2.0,-0.214363195,-2.0,0.9070388079,0.0711355284,-0.1358229518,-2.0,1.2147573233,0.5946228206,-0.8234153688,-0.1231778264,-2.0,-2.0,-2.0,-2.0,-2.0,-2.0,-2.0,0.214151971,-2.0,-2.0,0.1056988612,-0.237950556,-2.0,-0.0741715413,-2.0,-2.0,2.07167238,-2.0,-2.0,-2.0,-2.0,-2.0],"value":[[[3904.0,3184.0]],[[2713.0,868.0]],[[520.0,388.0]],[[472.0,128.0]],[[259.0,128.0]],[[117.0,116.0]],[[59.0,116.0]],[[18.0,0.0]],[[41.0,116.0]],[[3.0,52.0]],[[2.0,0.0]],[[1.0,52.0]],[[0.0,44.0]],[[1.0,8.0]],[[1.0,0.0]],[[0.0,8.0]],[[38.0,64.0]],[[28.0,24.0]],[[28.0,16.0]],[[15.0,16.0]],[[8.0,0.0]],[[7.0,16.0]],[[4.0,16.0]],[[2.0,0.0]],[[2.0,16.0]],[[1.0,16.0]],[[0.0,12.0]],[[1.0,4.0]],[[0.0,4.0]],[[1.0,0.0]],[[1.0,0.0]],[[3.0,0.0]],[[13.0,0.0]],[[0.0,8.0]],[[10.0,40.0]],[[6.0,40.0]],[[6.0,24.0]],[[4.0,24.0]],[[3.0,4.0]],[[3.0,0.0]],[[0.0,4.0]],[[1.0,20.0]],[[1.0,4.0]],[[1.0,0.0]],[[0.0,4.0]],[[0.0,16.0]],[[2.0,0.0]],[[0.0,16.0]],[[4.0,0.0]],[[58.0,0.0]],[[142.0,12.0]],[[142.0,0.0]],[[0.0,12.0]],[[213.0,0.0]],[[48.0,260.0]],[[26.0,260.0]],[[13.0,232.0]],[[11.0,232.0]],[[0.0,56.0]],[[11.0,176.0]],[[10.0,84.0]],[[2.0,0.0]],[[8.0,84.0]],[[8.0,44.0]],[[3.0,40.0]],[[1.0,0.0]],[[2.0,40.0]],[[1.0,40.0]],[[0.0,36.0]],[[1.0,4.0]],[[0.0,4.0]],[[1.0,0.0]],[[1.0,0.0]],[[5.0,4.0]],[[5.0,0.0]],[[0.0,4.0]],[[0.0,40.0]],[[1.0,92.0]],[[0.0,88.0]],[[1.0,4.0]],[[1.0,0.0]],[[0.0,4.0]],[[2.0,0.0]],[[13.0,28.0]],[[0.0,8.0]],[[13.0,20.0]],[[6.0,0.0]],[[7.0,20.0]],[[5.0,0.0]],[[2.0,20.0]],[[2.0,4.0]],[[0.0,4.0]],[[2.0,0.0]],[[0.0,16.0]],[[22.0,0.0]],[[2193.0,480.0]],[[1330.0,0.0]],[[863.0,480.0]],[[62.0,232.0]],[[30.0,4.0]],[[0.0,4.0]],[[30.0,0.0]],[[32.0,228.0]],[[26.0,132.0]],[[23.0,132.0]],[[5.0,8.0]],[[0.0,8.0]],[[5.0,0.0]],[[18.0,124.0]],[[2.0,0.0]],[[16.0,124.0]],[[0.0,24.0]],[[16.0,100.0]],[[6.0,0.0]],[[10.0,100.0]],[[9.0,100.0]],[[0.0,20.0]],[[9.0,80.0]],[[8.0,80.0]],[[0.0,24.0]],[[8.0,56.0]],[[2.0,0.0]],[[6.0,56.0]],[[2.0,0.0]],[[4.0,56.0]],[[1.0,0.0]],[[3.0,56.0]],[[2.0,56.0]],[[0.0,44.0]],[[2.0,12.0]],[[2.0,0.0]],[[0.0,12.0]],[[1.0,0.0]],[[1.0,0.0]],[[1.0,0.0]],[[3.0,0.0]],[[6.0,96.0]],[[6.0,52.0]],[[0.0,20.0]],[[6.0,32.0]],[[6.0,20.0]],[[4.0,20.0]],[[1.0,16.0]],[[0.0,12.0]],[[1.0,4.0]],[[1.0,0.0]],[[0.0,4.0]],[[3.0,4.0]],[[3.0,0.0]],[[0.0,4.0]],[[2.0,0.0]],[[0.0,12.0]],[[0.0,44.0]],[[801.0,248.0]],[[326.0,0.0]],[[475.0,248.0]],[[258.0,248.0]],[[43.0,248.0]],[[43.0,184.0]],[[4.0,0.0]],[[39.0,184.0]],[[35.0,184.0]],[[32.0,128.0]],[[28.0,128.0]],[[2.0,0.0]],[[26.0,128.0]],[[2.0,0.0]],[[24.0,128.0]],[[22.0,128.0]],[[0.0,20.0]],[[22.0,108.0]],[[22.0,88.0]],[[20.0,88.0]],[[2.0,0.0]],[[18.0,88.0]],[[12.0,28.0]],[[6.0,28.0]],[[2.0,0.0]],[[4.0,28.0]],[[3.0,28.0]],[[3.0,16.0]],[[2.0,0.0]],[[1.0,16.0]],[[0.0,16.0]],[[1.0,0.0]],[[0.0,12.0]],[[1.0,0.0]],[[6.0,0.0]],[[6.0,60.0]],[[0.0,40.0]],[[6.0,20.0]],[[3.0,0.0]],[[3.0,20.0]],[[3.0,8.0]],[[3.0,0.0]],[[0.0,8.0]],[[0.0,12.0]],[[2.0,0.0]],[[0.0,20.0]],[[2.0,0.0]],[[4.0,0.0]],[[3.0,56.0]],[[2.0,56.0]],[[1.0,56.0]],[[0.0,48.0]],[[1.0,8.0]],[[1.0,0.0]],[[0.0,8.0]],[[1.0,0.0]],[[1.0,0.0]],[[4.0,0.0]],[[0.0,64.0]],[[215.0,0.0]],[[217.0,0.0]],[[1191.0,2316.0]],[[939.0,2316.0]],[[939.0,1876.0]],[[147.0,976.0]],[[147.0,440.0]],[[124.0,0.0]],[[23.0,440.0]],[[20.0,192.0]],[[18.0,192.0]],[[13.0,80.0]],[[8.0,80.0]],[[7.0,28.0]],[[6.0,4.0]],[[6.0,0.0]],[[0.0,4.0]],[[1.0,24.0]],[[0.0,24.0]],[[1.0,0.0]],[[1.0,52.0]],[[0.0,44.0]],[[1.0,8.0]],[[0.0,8.0]],[[1.0,0.0]],[[5.0,0.0]],[[5.0,112.0]],[[1.0,84.0]],[[1.0,4.0]],[[1.0,0.0]],[[0.0,4.0]],[[0.0,80.0]],[[4.0,28.0]],[[3.0,0.0]],[[1.0,28.0]],[[0.0,24.0]],[[1.0,4.0]],[[1.0,0.0]],[[0.0,4.0]],[[2.0,0.0]],[[3.0,248.0]],[[2.0,248.0]],[[1.0,0.0]],[[1.0,248.0]],[[0.0,212.0]],[[1.0,36.0]],[[1.0,0.0]],[[0.0,36.0]],[[1.0,0.0]],[[0.0,536.0]],[[792.0,900.0]],[[493.0,828.0]],[[396.0,828.0]],[[369.0,412.0]],[[252.0,412.0]],[[43.0,232.0]],[[8.0,0.0]],[[35.0,232.0]],[[4.0,0.0]],[[31.0,232.0]],[[0.0,32.0]],[[31.0,200.0]],[[3.0,0.0]],[[28.0,200.0]],[[2.0,0.0]],[[26.0,200.0]],[[4.0,92.0]],[[1.0,84.0]],[[1.0,24.0]],[[0.0,24.0]],[[1.0,0.0]],[[0.0,60.0]],[[3.0,8.0]],[[3.0,0.0]],[[0.0,8.0]],[[22.0,108.0]],[[7.0,0.0]],[[15.0,108.0]],[[7.0,12.0]],[[2.0,12.0]],[[0.0,12.0]],[[2.0,0.0]],[[5.0,0.0]],[[8.0,96.0]],[[8.0,52.0]],[[6.0,52.0]],[[2.0,44.0]],[[1.0,0.0]],[[1.0,44.0]],[[0.0,44.0]],[[1.0,0.0]],[[4.0,8.0]],[[4.0,0.0]],[[0.0,8.0]],[[2.0,0.0]],[[0.0,44.0]],[[209.0,180.0]],[[146.0,44.0]],[[55.0,44.0]],[[22.0,0.0]],[[33.0,44.0]],[[14.0,40.0]],[[6.0,0.0]],[[8.0,40.0]],[[6.0,12.0]],[[3.0,0.0]],[[3.0,12.0]],[[2.0,0.0]],[[1.0,12.0]],[[0.0,12.0]],[[1.0,0.0]],[[2.0,28.0]],[[2.0,4.0]],[[0.0,4.0]],[[2.0,0.0]],[[0.0,24.0]],[[19.0,4.0]],[[19.0,0.0]],[[0.0,4.0]],[[91.0,0.0]],[[63.0,136.0]],[[46.0,128.0]],[[6.0,0.0]],[[40.0,128.0]],[[21.0,108.0]],[[7.0,8.0]],[[3.0,8.0]],[[0.0,4.0]],[[3.0,4.0]],[[0.0,4.0]],[[3.0,0.0]],[[4.0,0.0]],[[14.0,100.0]],[[6.0,76.0]],[[5.0,76.0]],[[4.0,76.0]],[[4.0,36.0]],[[4.0,16.0]],[[2.0,16.0]],[[1.0,16.0]],[[0.0,16.0]],[[1.0,0.0]],[[1.0,0.0]],[[2.0,0.0]],[[0.0,20.0]],[[0.0,40.0]],[[1.0,0.0]],[[1.0,0.0]],[[8.0,24.0]],[[2.0,20.0]],[[2.0,4.0]],[[0.0,4.0]],[[2.0,0.0]],[[0.0,16.0]],[[6.0,4.0]],[[0.0,4.0]],[[6.0,0.0]],[[19.0,20.0]],[[11.0,0.0]],[[8.0,20.0]],[[1.0,16.0]],[[1.0,4.0]],[[0.0,4.0]],[[1.0,0.0]],[[0.0,12.0]],[[7.0,4.0]],[[7.0,0.0]],[[0.0,4.0]],[[17.0,8.0]],[[4.0,8.0]],[[4.0,0.0]],[[0.0,8.0]],[[13.0,0.0]],[[117.0,0.0]],[[27.0,416.0]],[[16.0,412.0]],[[0.0,132.0]],[[16.0,280.0]],[[10.0,60.0]],[[8.0,60.0]],[[1.0,36.0]],[[1.0,0.0]],[[0.0,36.0]],[[7.0,24.0]],[[5.0,24.0]],[[4.0,8.0]],[[2.0,0.0]],[[2.0,8.0]],[[2.0,0.0]],[[0.0,8.0]],[[1.0,16.0]],[[0.0,12.0]],[[1.0,4.0]],[[1.0,0.0]],[[0.0,4.0]],[[2.0,0.0]],[[2.0,0.0]],[[6.0,220.0]],[[1.0,0.0]],[[5.0,220.0]],[[4.0,72.0]],[[3.0,72.0]],[[2.0,72.0]],[[0.0,56.0]],[[2.0,16.0]],[[2.0,0.0]],[[0.0,16.0]],[[1.0,0.0]],[[1.0,0.0]],[[1.0,148.0]],[[1.0,24.0]],[[0.0,24.0]],[[1.0,0.0]],[[0.0,124.0]],[[11.0,4.0]],[[11.0,0.0]],[[0.0,4.0]],[[97.0,0.0]],[[299.0,72.0]],[[215.0,0.0]],[[84.0,72.0]],[[40.0,8.0]],[[11.0,8.0]],[[5.0,8.0]],[[2.0,8.0]],[[1.0,0.0]],[[1.0,8.0]],[[1.0,0.0]],[[0.0,8.0]],[[3.0,0.0]],[[6.0,0.0]],[[29.0,0.0]],[[44.0,64.0]],[[38.0,64.0]],[[33.0,36.0]],[[6.0,0.0]],[[27.0,36.0]],[[14.0,32.0]],[[0.0,8.0]],[[14.0,24.0]],[[4.0,0.0]],[[10.0,24.0]],[[10.0,16.0]],[[5.0,16.0]],[[2.0,0.0]],[[3.0,16.0]],[[2.0,16.0]],[[1.0,16.0]],[[1.0,4.0]],[[0.0,4.0]],[[1.0,0.0]],[[0.0,12.0]],[[1.0,0.0]],[[1.0,0.0]],[[5.0,0.0]],[[0.0,8.0]],[[13.0,4.0]],[[13.0,0.0]],[[0.0,4.0]],[[5.0,28.0]],[[4.0,4.0]],[[3.0,0.0]],[[1.0,4.0]],[[0.0,4.0]],[[1.0,0.0]],[[1.0,24.0]],[[0.0,24.0]],[[1.0,0.0]],[[6.0,0.0]],[[0.0,440.0]],[[252.0,0.0]]],"weighted_n_node_samples":[7088.0,3581.0,908.0,600.0,387.0,233.0,175.0,18.0,157.0,55.0,2.0,53.0,44.0,9.0,1.0,8.0,102.0,52.0,44.0,31.0,8.0,23.0,20.0,2.0,18.0,17.0,12.0,5.0,4.0,1.0,1.0,3.0,13.0,8.0,50.0,46.0,30.0,28.0,7.0,3.0,4.0,21.0,5.0,1.0,4.0,16.0,2.0,16.0,4.0,58.0,154.0,142.0,12.0,213.0,308.0,286.0,245.0,243.0,56.0,187.0,94.0,2.0,92.0,52.0,43.0,1.0,42.0,41.0,36.0,5.0,4.0,1.0,1.0,9.0,5.0,4.0,40.0,93.0,88.0,5.0,1.0,4.0,2.0,41.0,8.0,33.0,6.0,27.0,5.0,22.0,6.0,4.0,2.0,16.0,22.0,2673.0,1330.0,1343.0,294.0,34.0,4.0,30.0,260.0,158.0,155.0,13.0,8.0,5.0,142.0,2.0,140.0,24.0,116.0,6.0,110.0,109.0,20.0,89.0,88.0,24.0,64.0,2.0,62.0,2.0,60.0,1.0,59.0,58.0,44.0,14.0,2.0,12.0,1.0,1.0,1.0,3.0,102.0,58.0,20.0,38.0,26.0,24.0,17.0,12.0,5.0,1.0,4.0,7.0,3.0,4.0,2.0,12.0,44.0,1049.0,326.0,723.0,506.0,291.0,227.0,4.0,223.0,219.0,160.0,156.0,2.0,154.0,2.0,152.0,150.0,20.0,130.0,110.0,108.0,2.0,106.0,40.0,34.0,2.0,32.0,31.0,19.0,2.0,17.0,16.0,1.0,12.0,1.0,6.0,66.0,40.0,26.0,3.0,23.0,11.0,3.0,8.0,12.0,2.0,20.0,2.0,4.0,59.0,58.0,57.0,48.0,9.0,1.0,8.0,1.0,1.0,4.0,64.0,215.0,217.0,3507.0,3255.0,2815.0,1123.0,587.0,124.0,463.0,212.0,210.0,93.0,88.0,35.0,10.0,6.0,4.0,25.0,24.0,1.0,53.0,44.0,9.0,8.0,1.0,5.0,117.0,85.0,5.0,1.0,4.0,80.0,32.0,3.0,29.0,24.0,5.0,1.0,4.0,2.0,251.0,250.0,1.0,249.0,212.0,37.0,1.0,36.0,1.0,536.0,1692.0,1321.0,1224.0,781.0,664.0,275.0,8.0,267.0,4.0,263.0,32.0,231.0,3.0,228.0,2.0,226.0,96.0,85.0,25.0,24.0,1.0,60.0,11.0,3.0,8.0,130.0,7.0,123.0,19.0,14.0,12.0,2.0,5.0,104.0,60.0,58.0,46.0,1.0,45.0,44.0,1.0,12.0,4.0,8.0,2.0,44.0,389.0,190.0,99.0,22.0,77.0,54.0,6.0,48.0,18.0,3.0,15.0,2.0,13.0,12.0,1.0,30.0,6.0,4.0,2.0,24.0,23.0,19.0,4.0,91.0,199.0,174.0,6.0,168.0,129.0,15.0,11.0,4.0,7.0,4.0,3.0,4.0,114.0,82.0,81.0,80.0,40.0,20.0,18.0,17.0,16.0,1.0,1.0,2.0,20.0,40.0,1.0,1.0,32.0,22.0,6.0,4.0,2.0,16.0,10.0,4.0,6.0,39.0,11.0,28.0,17.0,5.0,4.0,1.0,12.0,11.0,7.0,4.0,25.0,12.0,4.0,8.0,13.0,117.0,443.0,428.0,132.0,296.0,70.0,68.0,37.0,1.0,36.0,31.0,29.0,12.0,2.0,10.0,2.0,8.0,17.0,12.0,5.0,1.0,4.0,2.0,2.0,226.0,1.0,225.0,76.0,75.0,74.0,56.0,18.0,2.0,16.0,1.0,1.0,149.0,25.0,24.0,1.0,124.0,15.0,11.0,4.0,97.0,371.0,215.0,156.0,48.0,19.0,13.0,10.0,1.0,9.0,1.0,8.0,3.0,6.0,29.0,108.0,102.0,69.0,6.0,63.0,46.0,8.0,38.0,4.0,34.0,26.0,21.0,2.0,19.0,18.0,17.0,5.0,4.0,1.0,12.0,1.0,1.0,5.0,8.0,17.0,13.0,4.0,33.0,8.0,3.0,5.0,4.0,1.0,25.0,24.0,1.0,6.0,440.0,252.0]}},"recall":{"ccp_alpha":0.0,"class_weight":{"0":1,"1":4},"classes_":[0,1],"criterion":"entropy","feature_importances_":[0.5824187031,0.1294814652,0.0421183203,0.0462665047,0.0231729965,0.0505181724,0.0824300599,0.0435937779],"max_depth":50,"max_features":null,"max_features_":8,"max_leaf_nodes":null,"min_impurity_decrease":0.0,"min_samples_leaf":1,"min_samples_split":2,"min_weight_fraction_leaf":0.0,"n_classes_":2,"n_features_":8,"n_features_in_":8,"n_outputs_":1,"random_state":null,"splitter":"best","tree_":{"capacity":483,"children_left":[1,2,3,4,5,6,7,-1,9,10,-1,12,-1,14,-1,-1,17,18,19,20,-1,22,23,-1,25,26,-1,28,-1,-1,-1,-1,-1,-1,35,36,37,38,39,-1,-1,42,43,-1,-1,-1,-1,-1,-1,-1,51,-1,-1,-1,55,56,57,58,-1,60,61,-1,63,64,65,-1,67,68,-1,70,-1,-1,-1,74,-1,-1,-1,78,-1,80,-1,-1,-1,84,-1,86,-1,88,-1,90,91,-1,-1,-1,-1,96,-1,98,99,100,-1,-1,103,104,105,106,-1,-1,109,-1,111,-1,113,-1,115,116,-1,118,119,-1,121,-1,123,-1,125,-1,127,128,-1,130,-1,-1,-1,-1,-1,-1,137,138,-1,140,141,142,143,-1,145,-1,-1,148,-1,-1,-1,-1,-1,154,-1,156,157,158,159,-1,161,162,163,164,-1,166,-1,168,169,-1,171,172,173,-1,175,176,177,-1,179,180,181,-1,183,-1,-1,-1,-1,-1,189,-1,191,-1,193,194,-1,-1,-1,-1,-1,-1,-1,202,203,204,-1,206,-1,-1,-1,-1,-1,-1,-1,-1,215,216,217,218,219,-1,221,222,223,224,225,226,227,-1,-1,230,-1,-1,233,-1,235,-1,-1,-1,239,240,241,-1,-1,-1,245,-1,247,-1,249,-1,-1,-1,253,254,-1,256,-1,258,-1,-1,-1,-1,263,264,265,266,267,268,-1,270,-1,272,-1,274,-1,276,-1,278,279,280,281,-1,-1,-1,285,-1,-1,288,-1,290,291,292,-1,-1,-1,296,297,298,299,-1,301,-1,-1,304,-1,-1,-1,-1,309,310,311,-1,313,314,-1,316,317,-1,319,-1,321,-1,-1,324,325,-1,-1,-1,329,-1,-1,-1,333,334,-1,336,337,338,339,-1,341,-1,-1,-1,345,346,347,348,349,350,351,352,-1,-1,-1,-1,-1,-1,-1,-1,361,362,363,-1,-1,-1,367,-1,-1,370,-1,372,373,374,-1,-1,-1,378,-1,-1,381,382,-1,-1,-1,-1,387,388,-1,390,391,392,393,-1,-1,396,397,398,-1,400,-1,-1,403,-1,405,-1,-1,-1,-1,410,-1,412,413,414,415,-1,417,-1,-1,-1,-1,422,423,-1,-1,-1,427,-1,-1,-1,431,-1,433,434,435,436,437,-1,439,-1,-1,-1,-1,-1,445,446,447,-1,449,450,-1,452,-1,454,455,456,-1,458,459,460,461,-1,-1,-1,-1,-1,-1,-1,469,-1,-1,472,473,-1,475,-1,-1,478,-1,-1,-1,-1,-1],"children_right":[214,95,54,53,50,49,8,-1,16,11,-1,13,-1,15,-1,-1,34,33,32,21,-1,31,24,-1,30,27,-1,29,-1,-1,-1,-1,-1,-1,48,47,46,41,40,-1,-1,45,44,-1,-1,-1,-1,-1,-1,-1,52,-1,-1,-1,94,83,82,59,-1,77,62,-1,76,73,66,-1,72,69,-1,71,-1,-1,-1,75,-1,-1,-1,79,-1,81,-1,-1,-1,85,-1,87,-1,89,-1,93,92,-1,-1,-1,-1,97,-1,153,102,101,-1,-1,136,135,108,107,-1,-1,110,-1,112,-1,114,-1,134,117,-1,133,120,-1,122,-1,124,-1,126,-1,132,129,-1,131,-1,-1,-1,-1,-1,-1,152,139,-1,151,150,147,144,-1,146,-1,-1,149,-1,-1,-1,-1,-1,155,-1,213,212,211,160,-1,210,201,200,165,-1,167,-1,199,170,-1,198,197,174,-1,188,187,178,-1,186,185,182,-1,184,-1,-1,-1,-1,-1,190,-1,192,-1,196,195,-1,-1,-1,-1,-1,-1,-1,209,208,205,-1,207,-1,-1,-1,-1,-1,-1,-1,-1,482,481,262,261,220,-1,252,251,238,237,232,229,228,-1,-1,231,-1,-1,234,-1,236,-1,-1,-1,244,243,242,-1,-1,-1,246,-1,248,-1,250,-1,-1,-1,260,255,-1,257,-1,259,-1,-1,-1,-1,430,429,386,385,308,269,-1,271,-1,273,-1,275,-1,277,-1,287,284,283,282,-1,-1,-1,286,-1,-1,289,-1,295,294,293,-1,-1,-1,307,306,303,300,-1,302,-1,-1,305,-1,-1,-1,-1,332,331,312,-1,328,315,-1,323,318,-1,320,-1,322,-1,-1,327,326,-1,-1,-1,330,-1,-1,-1,380,335,-1,369,344,343,340,-1,342,-1,-1,-1,360,359,358,357,356,355,354,353,-1,-1,-1,-1,-1,-1,-1,-1,366,365,364,-1,-1,-1,368,-1,-1,371,-1,377,376,375,-1,-1,-1,379,-1,-1,384,383,-1,-1,-1,-1,426,389,-1,409,408,395,394,-1,-1,407,402,399,-1,401,-1,-1,404,-1,406,-1,-1,-1,-1,411,-1,421,420,419,416,-1,418,-1,-1,-1,-1,425,424,-1,-1,-1,428,-1,-1,-1,432,-1,444,443,442,441,438,-1,440,-1,-1,-1,-1,-1,480,471,448,-1,468,451,-1,453,-1,467,466,457,-1,465,464,463,462,-1,-1,-1,-1,-1,-1,-1,470,-1,-1,477,474,-1,476,-1,-1,479,-1,-1,-1,-1,-1],"feature":[0,0,0,0,3,1,3,-2,2,5,-2,7,-2,7,-2,-2,6,3,3,3,-2,7,2,-2,5,7,-2,2,-2,-2,-2,-2,-2,-2,6,6,6,4,7,-2,-2,2,4,-2,-2,-2,-2,-2,-2,-2,6,-2,-2,-2,5,6,4,6,-2,2,4,-2,3,6,2,-2,3,7,-2,3,-2,-2,-2,5,-2,-2,-2,5,-2,3,-2,-2,-2,5,-2,5,-2,3,-2,6,7,-2,-2,-2,-2,0,-2,0,6,3,-2,-2,3,2,5,7,-2,-2,2,-2,7,-2,7,-2,7,6,-2,2,5,-2,4,-2,6,-2,5,-2,5,6,-2,6,-2,-2,-2,-2,-2,-2,5,7,-2,2,7,5,7,-2,5,-2,-2,4,-2,-2,-2,-2,-2,0,-2,0,1,6,5,-2,5,7,7,4,-2,6,-2,6,6,-2,6,2,6,-2,5,5,6,-2,7,6,2,-2,6,-2,-2,-2,-2,-2,6,-2,3,-2,7,4,-2,-2,-2,-2,-2,-2,-2,4,7,3,-2,3,-2,-2,-2,-2,-2,-2,-2,-2,0,0,0,0,1,-2,5,5,4,4,5,3,4,-2,-2,5,-2,-2,6,-2,5,-2,-2,-2,7,5,4,-2,-2,-2,2,-2,2,-2,2,-2,-2,-2,7,2,-2,6,-2,6,-2,-2,-2,-2,1,6,0,0,2,6,-2,3,-2,2,-2,2,-2,7,-2,7,3,2,2,-2,-2,-2,7,-2,-2,7,-2,4,5,7,-2,-2,-2,3,3,4,5,-2,2,-2,-2,4,-2,-2,-2,-2,0,5,3,-2,2,6,-2,5,3,-2,2,-2,7,-2,-2,6,2,-2,-2,-2,7,-2,-2,-2,6,7,-2,5,7,7,7,-2,5,-2,-2,-2,3,4,2,5,7,6,4,7,-2,-2,-2,-2,-2,-2,-2,-2,6,2,2,-2,-2,-2,4,-2,-2,3,-2,7,7,7,-2,-2,-2,5,-2,-2,7,3,-2,-2,-2,-2,6,5,-2,3,6,3,5,-2,-2,5,5,4,-2,7,-2,-2,6,-2,3,-2,-2,-2,-2,2,-2,5,7,5,2,-2,2,-2,-2,-2,-2,3,3,-2,-2,-2,6,-2,-2,-2,0,-2,7,4,2,7,4,-2,6,-2,-2,-2,-2,-2,6,5,6,-2,6,7,-2,2,-2,7,2,2,-2,6,7,4,2,-2,-2,-2,-2,-2,-2,-2,4,-2,-2,2,3,-2,3,-2,-2,7,-2,-2,-2,-2,-2],"impurity":[0.9925439047,0.7989928742,0.9847010803,0.7478061583,0.9156901528,0.9999867128,0.9220583384,0.0,0.8284715284,0.3054005709,0.0,0.1350362028,0.0,0.5032583348,0.0,0.0,0.9526092095,0.9957274521,0.9456603046,0.999249248,0.0,0.8865408928,0.7219280949,0.0,0.5032583348,0.3227569589,0.0,0.7219280949,0.0,0.0,0.0,0.0,0.0,0.0,0.7219280949,0.5586293735,0.7219280949,0.5916727786,0.985228136,0.0,0.0,0.2761954276,0.7219280949,0.0,0.0,0.0,0.0,0.0,0.0,0.0,0.394814846,0.0,0.0,0.0,0.624274101,0.4394969869,0.2992611749,0.2659427971,0.0,0.3227569589,0.4889085914,0.0,0.426228657,0.6193821947,0.3650551896,0.0,0.2761954276,0.165427034,0.0,0.7219280949,0.0,0.0,0.0,0.9910760598,0.0,0.0,0.0,0.0857426825,0.0,0.7219280949,0.0,0.0,0.0,0.901170196,0.0,0.9672947789,0.0,0.8256265262,0.0,0.4394969869,0.9182958341,0.0,0.0,0.0,0.0,0.6791431616,0.0,0.9405112436,0.7431697526,0.5225593745,0.0,0.0,0.5381411852,0.6451006442,0.6057892521,0.9612366047,0.0,0.0,0.5484866088,0.0,0.512709142,0.0,0.5787946246,0.0,0.4394969869,0.41116649,0.0,0.4725472219,0.4394969869,0.0,0.5435644432,0.0,0.4586858162,0.0,0.353359335,0.0,0.289986047,0.2163969325,0.0,0.5916727786,0.0,0.0,0.0,0.0,0.0,0.0,0.3227569589,0.4798320236,0.0,0.6292492239,0.7793498373,0.6500224216,0.3227569589,0.0,0.7219280949,0.0,0.0,0.985228136,0.0,0.0,0.0,0.0,0.0,0.78902862,0.0,0.9276748743,0.9997182449,0.6042221834,0.7002719042,0.0,0.6687649831,0.6338724226,0.7219280949,0.6789538995,0.0,0.6550239909,0.0,0.6292492239,0.6014353864,0.0,0.6559420758,0.7219280949,0.6912898694,0.0,0.6572729785,0.8812908992,0.6722948171,0.0,0.5435644432,0.4586858162,0.6292492239,0.0,0.3227569589,0.0,0.0,0.0,0.0,0.0,0.4394969869,0.0,0.7793498373,0.0,0.5586293735,0.8453509366,0.0,0.0,0.0,0.0,0.0,0.0,0.0,0.289986047,0.2163969325,0.1274185118,0.0,0.5032583348,0.0,0.0,0.0,0.0,0.0,0.0,0.0,0.0,0.9244416559,0.8667486989,0.9185324785,0.55989958,0.8119524535,0.0,0.2850191415,0.4507913884,0.4220005169,0.583675328,0.4394969869,0.7219280949,0.9709505945,0.0,0.0,0.2422921891,0.0,0.0,0.1350362028,0.0,0.5032583348,0.0,0.0,0.0,0.2546947047,0.0922772477,0.7219280949,0.0,0.0,0.0,0.5435644432,0.0,0.2163969325,0.0,0.7219280949,0.0,0.0,0.0,0.0934735441,0.0672215448,0.0,0.0377501852,0.0,0.1792560669,0.0,0.0,0.0,0.0,0.9970590569,0.9530990721,0.9081783473,0.9978122433,0.9577009405,0.6255388072,0.0,0.5604094281,0.0,0.5232091927,0.0,0.5688428787,0.0,0.5373760853,0.0,0.5149459065,0.2498822928,0.0922772477,0.2422921891,0.0,0.0,0.0,0.8453509366,0.0,0.0,0.6559420758,0.0,0.5349436991,0.9494520154,0.5916727786,0.0,0.0,0.0,0.3912435636,0.5665095066,0.4798320236,0.2580186687,0.0,0.1537421803,0.0,0.0,0.9182958341,0.0,0.0,0.0,0.0,0.9959872294,0.7807536251,0.9910760598,0.0,0.985228136,0.8256265262,0.0,0.6500224216,0.9182958341,0.0,0.7219280949,0.0,0.3912435636,0.0,0.0,0.353359335,0.9182958341,0.0,0.0,0.0,0.666578358,0.0,0.0,0.0,0.9006267231,0.8332661971,0.0,0.7918583526,0.6409441848,0.996791632,0.8453509366,0.0,0.985228136,0.0,0.0,0.0,0.5373760853,0.3776463214,0.3342681326,0.2863969571,0.4689955936,0.7219280949,0.5032583348,0.3227569589,0.0,0.0,0.0,0.0,0.0,0.0,0.0,0.0,0.8112781245,0.4394969869,0.9182958341,0.0,0.0,0.0,0.9709505945,0.0,0.0,0.9995256893,0.0,0.8631205686,0.3227569589,0.7219280949,0.0,0.0,0.0,0.9456603046,0.0,0.0,0.9043814577,0.9182958341,0.0,0.0,0.0,0.0,0.3311970075,0.2301627406,0.0,0.3033748361,0.5916727786,0.5225593745,0.1792560669,0.0,0.0,0.7706290694,0.6631968402,0.9182958341,0.0,0.7219280949,0.0,0.0,0.3227569589,0.0,0.7219280949,0.0,0.0,0.0,0.0,0.176776697,0.0,0.1537421803,0.2974722489,0.2422921891,0.1792560669,0.0,0.5032583348,0.0,0.0,0.0,0.0,0.0581007479,0.2422921891,0.0,0.0,0.0,0.8366407419,0.0,0.0,0.0,0.7099085284,0.0,0.9957274521,0.6500224216,0.9819407869,0.9612366047,0.7219280949,0.0,0.5032583348,0.0,0.0,0.0,0.0,0.0,0.9751190649,0.9526092095,0.9986359642,0.0,0.985228136,0.8865408928,0.0,0.9494520154,0.0,0.8739810481,0.9612366047,0.7918583526,0.0,0.6292492239,0.5032583348,0.3227569589,0.7219280949,0.0,0.0,0.0,0.0,0.0,0.0,0.0,0.7871265862,0.0,0.0,0.6136190196,1.0,0.0,0.7219280949,0.0,0.0,0.2422921891,0.0,0.0,0.0,0.0,0.0],"max_depth":26,"max_n_classes":2,"n_classes":[2],"n_features":8,"n_leaves":242,"n_node_samples":[4700,2930,617,504,291,146,88,18,70,16,2,14,11,3,1,2,54,34,32,19,8,11,8,2,6,5,3,2,1,1,1,3,13,2,20,16,12,10,4,3,1,6,2,1,1,4,2,4,4,58,145,142,3,213,113,91,71,69,14,55,31,2,29,19,13,1,12,11,9,2,1,1,1,6,5,1,10,24,22,2,1,1,2,20,2,18,6,12,5,7,3,1,2,4,22,2313,1330,983,120,31,1,30,89,59,56,7,2,5,49,2,47,6,41,6,35,34,5,29,28,6,22,2,20,2,18,1,17,16,11,5,2,3,1,1,1,3,30,19,5,14,11,9,5,3,2,1,1,4,3,1,2,3,11,863,326,537,320,105,89,4,85,81,64,60,2,58,2,56,54,5,49,44,42,2,40,19,13,2,11,10,7,2,5,4,1,3,1,6,21,10,11,3,8,5,3,2,3,2,5,2,4,17,16,15,12,3,1,2,1,1,4,16,215,217,1770,1518,1408,391,257,124,133,68,66,33,28,14,7,6,1,7,6,1,14,11,3,2,1,5,33,22,2,1,1,20,11,3,8,6,2,1,1,2,65,64,1,63,53,10,1,9,1,134,1017,700,603,472,355,101,8,93,4,89,8,81,3,78,2,76,27,22,7,6,1,15,5,3,2,49,7,42,10,5,3,2,5,32,21,19,13,1,12,11,1,6,4,2,2,11,254,157,66,22,44,24,6,18,9,3,6,2,4,3,1,9,3,1,2,6,20,19,1,91,97,78,6,72,48,9,5,1,4,1,3,4,39,25,24,23,13,8,6,5,4,1,1,2,5,10,1,1,14,7,3,1,2,4,7,1,6,24,11,13,5,2,1,1,3,8,7,1,19,6,4,2,13,117,131,119,33,86,25,23,10,1,9,13,11,6,2,4,2,2,5,3,2,1,1,2,2,61,1,60,22,21,20,14,6,2,4,1,1,38,7,6,1,31,12,11,1,97,317,215,102,42,13,7,4,1,3,1,2,3,6,29,60,54,42,6,36,22,2,20,4,16,14,9,2,7,6,5,2,1,1,3,1,1,5,2,14,13,1,12,5,3,2,1,1,7,6,1,6,110,252],"n_outputs":1,"node_count":483,"threshold":[0.3052310944,-0.9349800944,-1.0477266014,-1.4423393011,-0.5033921301,0.3895468414,-0.9142864645,-2.0,-0.3384258896,-0.5069679469,-2.0,-0.8258672357,-2.0,-0.7992542386,-2.0,-2.0,1.0708014369,-0.5076361299,-0.7472280264,-0.8106948137,-2.0,-0.1766627356,-0.2396534383,-2.0,1.5383712053,-0.9127010703,-2.0,-0.111656718,-2.0,-2.0,-2.0,-2.0,-2.0,-2.0,1.4284905195,1.298802495,1.2861673236,-0.2236573771,-0.0220668167,-2.0,-2.0,-0.2334713861,0.7306620479,-2.0,-2.0,-2.0,-2.0,-2.0,-2.0,-2.0,1.9118924141,-2.0,-2.0,-2.0,0.0054022695,-0.4461294413,1.8363201618,-1.5417695045,-2.0,-0.7492518127,0.1105001643,-2.0,-0.6191370189,-1.1859970689,-0.9771449864,-2.0,-0.6444079876,-0.7848274708,-2.0,-0.7796366215,-2.0,-2.0,-2.0,-0.5202911496,-2.0,-2.0,-2.0,-0.4013302475,-2.0,-0.2535761073,-2.0,-2.0,-2.0,-1.5005709529,-2.0,-0.8585613072,-2.0,-0.490853101,-2.0,-0.299831152,-0.9713371098,-2.0,-2.0,-2.0,-2.0,-0.2585012689,-2.0,-0.0893815653,-0.4212140143,-0.5068644881,-2.0,-2.0,0.4711797684,0.6899034679,-1.1201854348,-0.6406144202,-2.0,-2.0,-0.5784021914,-2.0,-0.5086969435,-2.0,-0.3557950854,-2.0,1.1546982527,-0.2801685482,-2.0,0.3417411149,-0.6446911097,-2.0,-0.3559912294,-2.0,-0.1991756484,-2.0,-0.6261783242,-2.0,0.1683747172,0.0090917992,-2.0,0.1485046409,-2.0,-2.0,-2.0,-2.0,-2.0,-2.0,0.2172265351,0.0520342989,-2.0,0.918358624,0.5716164708,-0.247888647,0.5075703859,-2.0,-0.4096635133,-2.0,-2.0,-0.2718105763,-2.0,-2.0,-2.0,-2.0,-2.0,0.0797381429,-2.0,0.1924846172,0.3895468414,-0.143949993,-1.1186884642,-2.0,1.1613789201,0.3413346857,0.1776127443,0.2360715792,-2.0,-1.4791615605,-2.0,-0.2298407927,-1.1857841015,-2.0,-0.4138316661,-0.0397200286,-1.1620754004,-2.0,-0.3005827516,-0.5461392254,-1.0475780368,-2.0,-0.5431791097,-0.7442628145,-0.6645295024,-2.0,-0.7886988819,-2.0,-2.0,-2.0,-2.0,-2.0,-0.8158148229,-2.0,-0.6307115257,-2.0,-0.4450333714,0.8871307969,-2.0,-2.0,-2.0,-2.0,-2.0,-2.0,-2.0,0.720285207,1.7658686042,1.0408374965,-2.0,1.3954026699,-2.0,-2.0,-2.0,-2.0,-2.0,-2.0,-2.0,-2.0,1.3763226271,1.2072029114,0.7562170029,0.5307240486,0.3895468414,-2.0,0.579398632,0.5575924516,-0.1160413921,-0.234150812,0.2569466978,-0.0529516395,-0.3453812003,-2.0,-2.0,0.2463679537,-2.0,-2.0,0.95743981,-2.0,0.3753587008,-2.0,-2.0,-2.0,0.6012350619,-0.81729424,0.8217217326,-2.0,-2.0,-2.0,-0.3385663778,-2.0,0.01465399,-2.0,0.2610933483,-2.0,-2.0,-2.0,4.12322402,-0.822453022,-2.0,0.9068991244,-2.0,0.91747576,-2.0,-2.0,-2.0,-2.0,0.3895468414,1.5500863194,1.0944564342,0.9817099571,-0.4335452914,-1.7791404724,-2.0,-0.9594269693,-2.0,-0.7996917963,-2.0,-0.7915427387,-2.0,-1.048006624,-2.0,-0.507822603,0.0645294174,-0.7193250358,-0.7423672378,-2.0,-2.0,-2.0,-0.5315393507,-2.0,-2.0,-0.4459077418,-2.0,0.482783854,-0.6660481989,-0.1168790869,-2.0,-2.0,-2.0,-0.3965210319,-0.438382104,1.0194646716,-1.3363011479,-2.0,-0.4520914704,-2.0,-2.0,1.1851443052,-2.0,-2.0,-2.0,-2.0,0.86896348,0.2350906283,-0.353116706,-2.0,-0.0190663317,-1.4500579834,-2.0,-0.2679483294,-0.197246924,-2.0,-0.1883704439,-2.0,0.4874603599,-2.0,-2.0,-1.2017555237,-0.2511745468,-2.0,-2.0,-2.0,1.7823172808,-2.0,-2.0,-2.0,0.4084485322,-0.5620869398,-2.0,1.0457612872,-0.3912608922,-0.4930133224,-0.5441081226,-2.0,-1.2133482099,-2.0,-2.0,-2.0,0.6164396107,-0.0092415642,1.2083534002,-0.0405553617,0.2066302225,-0.0117775369,-0.2997930646,0.1437317021,-2.0,-2.0,-2.0,-2.0,-2.0,-2.0,-2.0,-2.0,-0.149344787,0.3515762091,-0.0682418048,-2.0,-2.0,-2.0,-1.2476998568,-2.0,-2.0,0.7638214231,-2.0,0.4388792962,-0.0782984197,-0.1140374579,-2.0,-2.0,-2.0,1.8137178421,-2.0,-2.0,0.1877770573,0.4304761514,-2.0,-2.0,-2.0,-2.0,0.8527382314,0.0520584974,-2.0,-0.1426539272,0.17079366,-0.2983307838,0.0605913457,-2.0,-2.0,0.9468101859,0.5391295552,-0.3072550595,-2.0,-0.1599954516,-2.0,-2.0,-0.2473738715,-2.0,-0.2240611613,-2.0,-2.0,-2.0,-2.0,-0.5266976953,-2.0,0.5460656285,1.202131778,0.541574657,0.0445807772,-2.0,0.2263895199,-2.0,-2.0,-2.0,-2.0,-0.014948739,-0.0325033804,-2.0,-2.0,-2.0,1.5381609797,-2.0,-2.0,-2.0,0.9817099571,-2.0,-0.1679192409,-0.3178650886,-0.056018183,-0.3417508453,-0.7247771025,-2.0,0.418244347,-2.0,-2.0,-2.0,-2.0,-2.0,1.4693064094,1.2283942103,0.7256056368,-2.0,1.2629555464,-0.0519039938,-2.0,-0.214363195,-2.0,0.9070388079,0.0711355284,-0.1358229518,-2.0,1.2147573233,0.5946228206,-0.8234153688,-0.1231778264,-2.0,-2.0,-2.0,-2.0,-2.0,-2.0,-2.0,0.214151971,-2.0,-2.0,0.1056988612,-0.237950556,-2.0,-0.0741715413,-2.0,-2.0,2.07167238,-2.0,-2.0,-2.0,-2.0,-2.0],"value":[[[3904.0,3184.0]],[[2713.0,868.0]],[[520.0,388.0]],[[472.0,128.0]],[[259.0,128.0]],[[117.0,116.0]],[[59.0,116.0]],[[18.0,0.0]],[[41.0,116.0]],[[3.0,52.0]],[[2.0,0.0]],[[1.0,52.0]],[[0.0,44.0]],[[1.0,8.0]],[[1.0,0.0]],[[0.0,8.0]],[[38.0,64.0]],[[28.0,24.0]],[[28.0,16.0]],[[15.0,16.0]],[[8.0,0.0]],[[7.0,16.0]],[[4.0,16.0]],[[2.0,0.0]],[[2.0,16.0]],[[1.0,16.0]],[[0.0,12.0]],[[1.0,4.0]],[[0.0,4.0]],[[1.0,0.0]],[[1.0,0.0]],[[3.0,0.0]],[[13.0,0.0]],[[0.0,8.0]],[[10.0,40.0]],[[6.0,40.0]],[[6.0,24.0]],[[4.0,24.0]],[[3.0,4.0]],[[3.0,0.0]],[[0.0,4.0]],[[1.0,20.0]],[[1.0,4.0]],[[1.0,0.0]],[[0.0,4.0]],[[0.0,16.0]],[[2.0,0.0]],[[0.0,16.0]],[[4.0,0.0]],[[58.0,0.0]],[[142.0,12.0]],[[142.0,0.0]],[[0.0,12.0]],[[213.0,0.0]],[[48.0,260.0]],[[26.0,260.0]],[[13.0,232.0]],[[11.0,232.0]],[[0.0,56.0]],[[11.0,176.0]],[[10.0,84.0]],[[2.0,0.0]],[[8.0,84.0]],[[8.0,44.0]],[[3.0,40.0]],[[1.0,0.0]],[[2.0,40.0]],[[1.0,40.0]],[[0.0,36.0]],[[1.0,4.0]],[[0.0,4.0]],[[1.0,0.0]],[[1.0,0.0]],[[5.0,4.0]],[[5.0,0.0]],[[0.0,4.0]],[[0.0,40.0]],[[1.0,92.0]],[[0.0,88.0]],[[1.0,4.0]],[[1.0,0.0]],[[0.0,4.0]],[[2.0,0.0]],[[13.0,28.0]],[[0.0,8.0]],[[13.0,20.0]],[[6.0,0.0]],[[7.0,20.0]],[[5.0,0.0]],[[2.0,20.0]],[[2.0,4.0]],[[0.0,4.0]],[[2.0,0.0]],[[0.0,16.0]],[[22.0,0.0]],[[2193.0,480.0]],[[1330.0,0.0]],[[863.0,480.0]],[[62.0,232.0]],[[30.0,4.0]],[[0.0,4.0]],[[30.0,0.0]],[[32.0,228.0]],[[26.0,132.0]],[[23.0,132.0]],[[5.0,8.0]],[[0.0,8.0]],[[5.0,0.0]],[[18.0,124.0]],[[2.0,0.0]],[[16.0,124.0]],[[0.0,24.0]],[[16.0,100.0]],[[6.0,0.0]],[[10.0,100.0]],[[9.0,100.0]],[[0.0,20.0]],[[9.0,80.0]],[[8.0,80.0]],[[0.0,24.0]],[[8.0,56.0]],[[2.0,0.0]],[[6.0,56.0]],[[2.0,0.0]],[[4.0,56.0]],[[1.0,0.0]],[[3.0,56.0]],[[2.0,56.0]],[[0.0,44.0]],[[2.0,12.0]],[[2.0,0.0]],[[0.0,12.0]],[[1.0,0.0]],[[1.0,0.0]],[[1.0,0.0]],[[3.0,0.0]],[[6.0,96.0]],[[6.0,52.0]],[[0.0,20.0]],[[6.0,32.0]],[[6.0,20.0]],[[4.0,20.0]],[[1.0,16.0]],[[0.0,12.0]],[[1.0,4.0]],[[1.0,0.0]],[[0.0,4.0]],[[3.0,4.0]],[[3.0,0.0]],[[0.0,4.0]],[[2.0,0.0]],[[0.0,12.0]],[[0.0,44.0]],[[801.0,248.0]],[[326.0,0.0]],[[475.0,248.0]],[[258.0,248.0]],[[43.0,248.0]],[[43.0,184.0]],[[4.0,0.0]],[[39.0,184.0]],[[35.0,184.0]],[[32.0,128.0]],[[28.0,128.0]],[[2.0,0.0]],[[26.0,128.0]],[[2.0,0.0]],[[24.0,128.0]],[[22.0,128.0]],[[0.0,20.0]],[[22.0,108.0]],[[22.0,88.0]],[[20.0,88.0]],[[2.0,0.0]],[[18.0,88.0]],[[12.0,28.0]],[[6.0,28.0]],[[2.0,0.0]],[[4.0,28.0]],[[3.0,28.0]],[[3.0,16.0]],[[2.0,0.0]],[[1.0,16.0]],[[0.0,16.0]],[[1.0,0.0]],[[0.0,12.0]],[[1.0,0.0]],[[6.0,0.0]],[[6.0,60.0]],[[0.0,40.0]],[[6.0,20.0]],[[3.0,0.0]],[[3.0,20.0]],[[3.0,8.0]],[[3.0,0.0]],[[0.0,8.0]],[[0.0,12.0]],[[2.0,0.0]],[[0.0,20.0]],[[2.0,0.0]],[[4.0,0.0]],[[3.0,56.0]],[[2.0,56.0]],[[1.0,56.0]],[[0.0,48.0]],[[1.0,8.0]],[[1.0,0.0]],[[0.0,8.0]],[[1.0,0.0]],[[1.0,0.0]],[[4.0,0.0]],[[0.0,64.0]],[[215.0,0.0]],[[217.0,0.0]],[[1191.0,2316.0]],[[939.0,2316.0]],[[939.0,1876.0]],[[147.0,976.0]],[[147.0,440.0]],[[124.0,0.0]],[[23.0,440.0]],[[20.0,192.0]],[[18.0,192.0]],[[13.0,80.0]],[[8.0,80.0]],[[7.0,28.0]],[[6.0,4.0]],[[6.0,0.0]],[[0.0,4.0]],[[1.0,24.0]],[[0.0,24.0]],[[1.0,0.0]],[[1.0,52.0]],[[0.0,44.0]],[[1.0,8.0]],[[0.0,8.0]],[[1.0,0.0]],[[5.0,0.0]],[[5.0,112.0]],[[1.0,84.0]],[[1.0,4.0]],[[1.0,0.0]],[[0.0,4.0]],[[0.0,80.0]],[[4.0,28.0]],[[3.0,0.0]],[[1.0,28.0]],[[0.0,24.0]],[[1.0,4.0]],[[1.0,0.0]],[[0.0,4.0]],[[2.0,0.0]],[[3.0,248.0]],[[2.0,248.0]],[[1.0,0.0]],[[1.0,248.0]],[[0.0,212.0]],[[1.0,36.0]],[[1.0,0.0]],[[0.0,36.0]],[[1.0,0.0]],[[0.0,536.0]],[[792.0,900.0]],[[493.0,828.0]],[[396.0,828.0]],[[369.0,412.0]],[[252.0,412.0]],[[43.0,232.0]],[[8.0,0.0]],[[35.0,232.0]],[[4.0,0.0]],[[31.0,232.0]],[[0.0,32.0]],[[31.0,200.0]],[[3.0,0.0]],[[28.0,200.0]],[[2.0,0.0]],[[26.0,200.0]],[[4.0,92.0]],[[1.0,84.0]],[[1.0,24.0]],[[0.0,24.0]],[[1.0,0.0]],[[0.0,60.0]],[[3.0,8.0]],[[3.0,0.0]],[[0.0,8.0]],[[22.0,108.0]],[[7.0,0.0]],[[15.0,108.0]],[[7.0,12.0]],[[2.0,12.0]],[[0.0,12.0]],[[2.0,0.0]],[[5.0,0.0]],[[8.0,96.0]],[[8.0,52.0]],[[6.0,52.0]],[[2.0,44.0]],[[1.0,0.0]],[[1.0,44.0]],[[0.0,44.0]],[[1.0,0.0]],[[4.0,8.0]],[[4.0,0.0]],[[0.0,8.0]],[[2.0,0.0]],[[0.0,44.0]],[[209.0,180.0]],[[146.0,44.0]],[[55.0,44.0]],[[22.0,0.0]],[[33.0,44.0]],[[14.0,40.0]],[[6.0,0.0]],[[8.0,40.0]],[[6.0,12.0]],[[3.0,0.0]],[[3.0,12.0]],[[2.0,0.0]],[[1.0,12.0]],[[0.0,12.0]],[[1.0,0.0]],[[2.0,28.0]],[[2.0,4.0]],[[0.0,4.0]],[[2.0,0.0]],[[0.0,24.0]],[[19.0,4.0]],[[19.0,0.0]],[[0.0,4.0]],[[91.0,0.0]],[[63.0,136.0]],[[46.0,128.0]],[[6.0,0.0]],[[40.0,128.0]],[[21.0,108.0]],[[7.0,8.0]],[[3.0,8.0]],[[0.0,4.0]],[[3.0,4.0]],[[0.0,4.0]],[[3.0,0.0]],[[4.0,0.0]],[[14.0,100.0]],[[6.0,76.0]],[[5.0,76.0]],[[4.0,76.0]],[[4.0,36.0]],[[4.0,16.0]],[[2.0,16.0]],[[1.0,16.0]],[[0.0,16.0]],[[1.0,0.0]],[[1.0,0.0]],[[2.0,0.0]],[[0.0,20.0]],[[0.0,40.0]],[[1.0,0.0]],[[1.0,0.0]],[[8.0,24.0]],[[2.0,20.0]],[[2.0,4.0]],[[0.0,4.0]],[[2.0,0.0]],[[0.0,16.0]],[[6.0,4.0]],[[0.0,4.0]],[[6.0,0.0]],[[19.0,20.0]],[[11.0,0.0]],[[8.0,20.0]],[[1.0,16.0]],[[1.0,4.0]],[[0.0,4.0]],[[1.0,0.0]],[[0.0,12.0]],[[7.0,4.0]],[[7.0,0.0]],[[0.0,4.0]],[[17.0,8.0]],[[4.0,8.0]],[[4.0,0.0]],[[0.0,8.0]],[[13.0,0.0]],[[117.0,0.0]],[[27.0,416.0]],[[16.0,412.0]],[[0.0,132.0]],[[16.0,280.0]],[[10.0,60.0]],[[8.0,60.0]],[[1.0,36.0]],[[1.0,0.0]],[[0.0,36.0]],[[7.0,24.0]],[[5.0,24.0]],[[4.0,8.0]],[[2.0,0.0]],[[2.0,8.0]],[[2.0,0.0]],[[0.0,8.0]],[[1.0,16.0]],[[0.0,12.0]],[[1.0,4.0]],[[1.0,0.0]],[[0.0,4.0]],[[2.0,0.0]],[[2.0,0.0]],[[6.0,220.0]],[[1.0,0.0]],[[5.0,220.0]],[[4.0,72.0]],[[3.0,72.0]],[[2.0,72.0]],[[0.0,56.0]],[[2.0,16.0]],[[2.0,0.0]],[[0.0,16.0]],[[1.0,0.0]],[[1.0,0.0]],[[1.0,148.0]],[[1.0,24.0]],[[0.0,24.0]],[[1.0,0.0]],[[0.0,124.0]],[[11.0,4.0]],[[11.0,0.0]],[[0.0,4.0]],[[97.0,0.0]],[[299.0,72.0]],[[215.0,0.0]],[[84.0,72.0]],[[40.0,8.0]],[[11.0,8.0]],[[5.0,8.0]],[[2.0,8.0]],[[1.0,0.0]],[[1.0,8.0]],[[1.0,0.0]],[[0.0,8.0]],[[3.0,0.0]],[[6.0,0.0]],[[29.0,0.0]],[[44.0,64.0]],[[38.0,64.0]],[[33.0,36.0]],[[6.0,0.0]],[[27.0,36.0]],[[14.0,32.0]],[[0.0,8.0]],[[14.0,24.0]],[[4.0,0.0]],[[10.0,24.0]],[[10.0,16.0]],[[5.0,16.0]],[[2.0,0.0]],[[3.0,16.0]],[[2.0,16.0]],[[1.0,16.0]],[[1.0,4.0]],[[0.0,4.0]],[[1.0,0.0]],[[0.0,12.0]],[[1.0,0.0]],[[1.0,0.0]],[[5.0,0.0]],[[0.0,8.0]],[[13.0,4.0]],[[13.0,0.0]],[[0.0,4.0]],[[5.0,28.0]],[[4.0,4.0]],[[3.0,0.0]],[[1.0,4.0]],[[0.0,4.0]],[[1.0,0.0]],[[1.0,24.0]],[[0.0,24.0]],[[1.0,0.0]],[[6.0,0.0]],[[0.0,440.0]],[[252.0,0.0]]],"weighted_n_node_samples":[7088.0,3581.0,908.0,600.0,387.0,233.0,175.0,18.0,157.0,55.0,2.0,53.0,44.0,9.0,1.0,8.0,102.0,52.0,44.0,31.0,8.0,23.0,20.0,2.0,18.0,17.0,12.0,5.0,4.0,1.0,1.0,3.0,13.0,8.0,50.0,46.0,30.0,28.0,7.0,3.0,4.0,21.0,5.0,1.0,4.0,16.0,2.0,16.0,4.0,58.0,154.0,142.0,12.0,213.0,308.0,286.0,245.0,243.0,56.0,187.0,94.0,2.0,92.0,52.0,43.0,1.0,42.0,41.0,36.0,5.0,4.0,1.0,1.0,9.0,5.0,4.0,40.0,93.0,88.0,5.0,1.0,4.0,2.0,41.0,8.0,33.0,6.0,27.0,5.0,22.0,6.0,4.0,2.0,16.0,22.0,2673.0,1330.0,1343.0,294.0,34.0,4.0,30.0,260.0,158.0,155.0,13.0,8.0,5.0,142.0,2.0,140.0,24.0,116.0,6.0,110.0,109.0,20.0,89.0,88.0,24.0,64.0,2.0,62.0,2.0,60.0,1.0,59.0,58.0,44.0,14.0,2.0,12.0,1.0,1.0,1.0,3.0,102.0,58.0,20.0,38.0,26.0,24.0,17.0,12.0,5.0,1.0,4.0,7.0,3.0,4.0,2.0,12.0,44.0,1049.0,326.0,723.0,506.0,291.0,227.0,4.0,223.0,219.0,160.0,156.0,2.0,154.0,2.0,152.0,150.0,20.0,130.0,110.0,108.0,2.0,106.0,40.0,34.0,2.0,32.0,31.0,19.0,2.0,17.0,16.0,1.0,12.0,1.0,6.0,66.0,40.0,26.0,3.0,23.0,11.0,3.0,8.0,12.0,2.0,20.0,2.0,4.0,59.0,58.0,57.0,48.0,9.0,1.0,8.0,1.0,1.0,4.0,64.0,215.0,217.0,3507.0,3255.0,2815.0,1123.0,587.0,124.0,463.0,212.0,210.0,93.0,88.0,35.0,10.0,6.0,4.0,25.0,24.0,1.0,53.0,44.0,9.0,8.0,1.0,5.0,117.0,85.0,5.0,1.0,4.0,80.0,32.0,3.0,29.0,24.0,5.0,1.0,4.0,2.0,251.0,250.0,1.0,249.0,212.0,37.0,1.0,36.0,1.0,536.0,1692.0,1321.0,1224.0,781.0,664.0,275.0,8.0,267.0,4.0,263.0,32.0,231.0,3.0,228.0,2.0,226.0,96.0,85.0,25.0,24.0,1.0,60.0,11.0,3.0,8.0,130.0,7.0,123.0,19.0,14.0,12.0,2.0,5.0,104.0,60.0,58.0,46.0,1.0,45.0,44.0,1.0,12.0,4.0,8.0,2.0,44.0,389.0,190.0,99.0,22.0,77.0,54.0,6.0,48.0,18.0,3.0,15.0,2.0,13.0,12.0,1.0,30.0,6.0,4.0,2.0,24.0,23.0,19.0,4.0,91.0,199.0,174.0,6.0,168.0,129.0,15.0,11.0,4.0,7.0,4.0,3.0,4.0,114.0,82.0,81.0,80.0,40.0,20.0,18.0,17.0,16.0,1.0,1.0,2.0,20.0,40.0,1.0,1.0,32.0,22.0,6.0,4.0,2.0,16.0,10.0,4.0,6.0,39.0,11.0,28.0,17.0,5.0,4.0,1.0,12.0,11.0,7.0,4.0,25.0,12.0,4.0,8.0,13.0,117.0,443.0,428.0,132.0,296.0,70.0,68.0,37.0,1.0,36.0,31.0,29.0,12.0,2.0,10.0,2.0,8.0,17.0,12.0,5.0,1.0,4.0,2.0,2.0,226.0,1.0,225.0,76.0,75.0,74.0,56.0,18.0,2.0,16.0,1.0,1.0,149.0,25.0,24.0,1.0,124.0,15.0,11.0,4.0,97.0,371.0,215.0,156.0,48.0,19.0,13.0,10.0,1.0,9.0,1.0,8.0,3.0,6.0,29.0,108.0,102.0,69.0,6.0,63.0,46.0,8.0,38.0,4.0,34.0,26.0,21.0,2.0,19.0,18.0,17.0,5.0,4.0,1.0,12.0,1.0,1.0,5.0,8.0,17.0,13.0,4.0,33.0,8.0,3.0,5.0,4.0,1.0,25.0,24.0,1.0,6.0,440.0,252.0]}}},"evaluation":{"acc":0.8754373522,"f1":0.6269414556,"precision":0.6370394338,"recall":0.6195664409},"name":{"acc":"tree-entropy-best-50-None-1-2-None","f1":"tree-entropy-best-50-None-1-2-None","precision":"tree-entropy-best-50-None-1-2-None","recall":"tree-entropy-best-50-None-1-2-None"}}