{"model":{"acc":{"ccp_alpha":0.0,"class_weight":null,"classes_":[0,1],"criterion":"gini","feature_importances_":[0.4840640584,0.1359947718,0.0522540637,0.0558138159,0.0686354337,0.0663335071,0.0950246092,0.0418797402],"max_depth":20,"max_features":null,"max_features_":8,"max_leaf_nodes":null,"min_impurity_decrease":0.0,"min_samples_leaf":1,"min_samples_split":2,"min_weight_fraction_leaf":0.0,"n_classes_":2,"n_features_":8,"n_features_in_":8,"n_outputs_":1,"random_state":null,"splitter":"best","tree_":{"capacity":483,"children_left":[1,2,3,4,5,6,7,8,9,10,-1,-1,13,-1,15,-1,-1,18,19,20,-1,22,-1,-1,-1,26,-1,28,-1,30,-1,32,-1,-1,-1,36,37,-1,39,40,41,42,-1,-1,-1,-1,47,-1,49,-1,-1,52,-1,-1,-1,-1,57,58,59,60,61,62,-1,64,65,-1,67,68,-1,-1,-1,-1,73,-1,75,-1,-1,78,79,-1,81,-1,-1,-1,-1,86,87,-1,89,-1,91,-1,93,-1,-1,-1,-1,98,-1,100,101,102,-1,-1,105,106,107,-1,109,110,-1,112,113,114,-1,-1,117,-1,-1,120,121,-1,-1,-1,125,-1,127,-1,-1,130,131,-1,133,134,-1,-1,-1,138,-1,140,141,-1,-1,-1,145,146,147,-1,149,-1,-1,-1,153,-1,155,-1,-1,158,159,-1,161,162,163,164,-1,166,167,168,169,170,171,172,173,174,-1,-1,177,178,-1,-1,181,-1,-1,-1,-1,-1,187,-1,-1,190,-1,192,193,-1,195,-1,-1,-1,199,-1,201,-1,-1,-1,-1,-1,-1,208,-1,210,211,212,-1,-1,-1,-1,217,218,219,-1,221,222,223,224,225,226,227,-1,-1,230,-1,-1,233,-1,235,-1,-1,-1,239,240,241,-1,-1,-1,245,-1,247,-1,249,-1,-1,-1,253,-1,255,256,-1,258,-1,-1,-1,-1,263,264,265,266,267,268,269,270,271,272,-1,274,275,-1,277,-1,-1,280,281,282,-1,-1,-1,286,-1,288,289,-1,291,-1,-1,-1,295,-1,297,-1,-1,300,301,302,303,-1,305,-1,307,308,-1,-1,311,-1,313,-1,315,316,-1,-1,-1,-1,321,322,-1,-1,325,326,327,-1,-1,-1,-1,332,333,-1,335,336,337,338,339,-1,-1,-1,343,-1,345,-1,-1,-1,-1,350,-1,-1,-1,354,355,356,-1,-1,-1,360,361,362,-1,364,-1,366,367,-1,369,370,371,-1,-1,-1,-1,376,377,378,379,-1,-1,-1,-1,384,-1,386,387,388,-1,390,-1,-1,-1,-1,-1,-1,397,398,-1,400,401,402,403,404,-1,-1,-1,-1,409,410,-1,-1,-1,-1,415,416,-1,-1,419,420,421,-1,423,-1,425,-1,-1,-1,429,-1,431,-1,-1,434,-1,-1,-1,-1,439,-1,441,442,443,444,445,-1,-1,448,449,-1,-1,-1,453,454,455,-1,-1,458,-1,460,-1,462,463,-1,465,466,467,-1,-1,-1,-1,-1,-1,-1,475,476,-1,-1,479,-1,481,-1,-1],"children_right":[216,97,56,55,54,35,34,17,12,11,-1,-1,14,-1,16,-1,-1,25,24,21,-1,23,-1,-1,-1,27,-1,29,-1,31,-1,33,-1,-1,-1,51,38,-1,46,45,44,43,-1,-1,-1,-1,48,-1,50,-1,-1,53,-1,-1,-1,-1,96,85,84,77,72,63,-1,71,66,-1,70,69,-1,-1,-1,-1,74,-1,76,-1,-1,83,80,-1,82,-1,-1,-1,-1,95,88,-1,90,-1,92,-1,94,-1,-1,-1,-1,99,-1,157,104,103,-1,-1,144,129,108,-1,124,111,-1,119,116,115,-1,-1,118,-1,-1,123,122,-1,-1,-1,126,-1,128,-1,-1,137,132,-1,136,135,-1,-1,-1,139,-1,143,142,-1,-1,-1,152,151,148,-1,150,-1,-1,-1,154,-1,156,-1,-1,207,160,-1,206,205,204,165,-1,203,198,189,186,185,184,183,176,175,-1,-1,180,179,-1,-1,182,-1,-1,-1,-1,-1,188,-1,-1,191,-1,197,194,-1,196,-1,-1,-1,200,-1,202,-1,-1,-1,-1,-1,-1,209,-1,215,214,213,-1,-1,-1,-1,262,261,220,-1,252,251,238,237,232,229,228,-1,-1,231,-1,-1,234,-1,236,-1,-1,-1,244,243,242,-1,-1,-1,246,-1,248,-1,250,-1,-1,-1,254,-1,260,257,-1,259,-1,-1,-1,-1,438,437,436,433,396,353,352,299,294,273,-1,279,276,-1,278,-1,-1,285,284,283,-1,-1,-1,287,-1,293,290,-1,292,-1,-1,-1,296,-1,298,-1,-1,331,320,319,304,-1,306,-1,310,309,-1,-1,312,-1,314,-1,318,317,-1,-1,-1,-1,324,323,-1,-1,330,329,328,-1,-1,-1,-1,349,334,-1,348,347,342,341,340,-1,-1,-1,344,-1,346,-1,-1,-1,-1,351,-1,-1,-1,359,358,357,-1,-1,-1,395,394,363,-1,365,-1,375,368,-1,374,373,372,-1,-1,-1,-1,383,382,381,380,-1,-1,-1,-1,385,-1,393,392,389,-1,391,-1,-1,-1,-1,-1,-1,414,399,-1,413,408,407,406,405,-1,-1,-1,-1,412,411,-1,-1,-1,-1,418,417,-1,-1,428,427,422,-1,424,-1,426,-1,-1,-1,430,-1,432,-1,-1,435,-1,-1,-1,-1,440,-1,474,473,452,447,446,-1,-1,451,450,-1,-1,-1,472,457,456,-1,-1,459,-1,461,-1,471,464,-1,470,469,468,-1,-1,-1,-1,-1,-1,-1,478,477,-1,-1,480,-1,482,-1,-1],"feature":[0,0,0,6,3,6,3,5,3,3,-2,-2,2,-2,7,-2,-2,7,3,4,-2,2,-2,-2,-2,5,-2,2,-2,7,-2,2,-2,-2,-2,7,3,-2,4,7,7,4,-2,-2,-2,-2,2,-2,2,-2,-2,4,-2,-2,-2,-2,5,6,4,4,2,4,-2,2,2,-2,6,3,-2,-2,-2,-2,5,-2,5,-2,-2,6,4,-2,5,-2,-2,-2,-2,3,5,-2,5,-2,3,-2,5,-2,-2,-2,-2,0,-2,0,6,3,-2,-2,3,6,2,-2,4,7,-2,6,2,3,-2,-2,3,-2,-2,5,4,-2,-2,-2,6,-2,6,-2,-2,6,3,-2,3,4,-2,-2,-2,4,-2,2,7,-2,-2,-2,3,4,4,-2,2,-2,-2,-2,4,-2,5,-2,-2,2,0,-2,0,1,6,2,-2,5,7,3,3,4,4,7,5,3,-2,-2,6,6,-2,-2,4,-2,-2,-2,-2,-2,2,-2,-2,5,-2,5,7,-2,7,-2,-2,-2,4,-2,4,-2,-2,-2,-2,-2,-2,0,-2,3,2,6,-2,-2,-2,-2,0,0,1,-2,5,5,4,4,5,3,6,-2,-2,5,-2,-2,6,-2,7,-2,-2,-2,7,5,2,-2,-2,-2,6,-2,4,-2,6,-2,-2,-2,2,-2,7,6,-2,6,-2,-2,-2,-2,1,0,0,6,0,4,0,0,2,3,-2,2,3,-2,7,-2,-2,5,6,7,-2,-2,-2,6,-2,5,3,-2,4,-2,-2,-2,7,-2,7,-2,-2,6,5,4,3,-2,3,-2,5,7,-2,-2,5,-2,6,-2,2,4,-2,-2,-2,-2,3,3,-2,-2,7,7,3,-2,-2,-2,-2,5,4,-2,6,3,6,6,3,-2,-2,-2,4,-2,4,-2,-2,-2,-2,3,-2,-2,-2,6,4,2,-2,-2,-2,2,5,2,-2,7,-2,5,2,-2,6,3,5,-2,-2,-2,-2,2,6,7,2,-2,-2,-2,-2,2,-2,6,5,2,-2,5,-2,-2,-2,-2,-2,-2,3,5,-2,4,7,5,5,4,-2,-2,-2,-2,5,4,-2,-2,-2,-2,2,7,-2,-2,3,3,4,-2,3,-2,3,-2,-2,-2,4,-2,4,-2,-2,5,-2,-2,-2,-2,6,-2,5,3,7,6,6,-2,-2,7,2,-2,-2,-2,4,7,6,-2,-2,5,-2,5,-2,7,3,-2,7,3,7,-2,-2,-2,-2,-2,-2,-2,2,6,-2,-2,2,-2,2,-2,-2],"impurity":[0.281356632,0.137152675,0.2649932097,0.1189216427,0.1090672946,0.2390055173,0.1223781179,0.1125891929,0.0338882283,0.2448979592,0.0,0.0,0.0181802879,0.0,0.0997229917,0.0,0.0,0.2645136486,0.4958677686,0.375,0.0,0.4444444444,0.0,0.0,0.0,0.13875,0.0,0.097304405,0.0,0.21875,0.0,0.1244444444,0.0,0.0,0.0,0.49256395,0.4953173777,0.0,0.4526627219,0.4628099174,0.3456790123,0.4444444444,0.0,0.0,0.0,0.0,0.2311111111,0.0,0.375,0.0,0.0,0.18,0.0,0.0,0.0,0.0,0.4886835304,0.4081632653,0.2991469946,0.2680109221,0.1943801653,0.3106508876,0.0,0.21875,0.1587901701,0.0,0.4081632653,0.5,0.0,0.0,0.0,0.0,0.066587396,0.0,0.375,0.0,0.0,0.4591836735,0.2975206612,0.0,0.18,0.0,0.0,0.0,0.0,0.455,0.4012345679,0.0,0.3046875,0.0,0.42,0.0,0.48,0.0,0.0,0.0,0.0,0.0983781401,0.0,0.2143458117,0.4994444444,0.0624349636,0.0,0.0,0.4605479106,0.4929617926,0.455,0.0,0.432132964,0.4881656805,0.0,0.4338842975,0.5,0.32,0.0,0.0,0.32,0.0,0.0,0.2777777778,0.4444444444,0.0,0.0,0.0,0.1527777778,0.0,0.4444444444,0.0,0.0,0.4653739612,0.2975206612,0.0,0.4444444444,0.4444444444,0.0,0.0,0.0,0.46875,0.0,0.2777777778,0.5,0.0,0.0,0.0,0.32,0.1723356009,0.095,0.0,0.2448979592,0.0,0.0,0.0,0.4938271605,0.0,0.32,0.0,0.0,0.1333621566,0.1152480663,0.0,0.1787774605,0.2806544105,0.4930049717,0.4997165533,0.0,0.4971875,0.4931691685,0.5,0.4861111111,0.5,0.4963265306,0.4977777778,0.4928,0.2777777778,0.0,0.0,0.432132964,0.4938271605,0.32,0.0,0.18,0.0,0.5,0.0,0.0,0.0,0.18,0.0,0.0,0.375,0.0,0.32,0.2448979592,0.0,0.375,0.0,0.0,0.0,0.2603550296,0.0,0.1527777778,0.0,0.0,0.0,0.0,0.0,0.0,0.46875,0.0,0.3550295858,0.5,0.375,0.0,0.0,0.0,0.0,0.4402240735,0.4692277,0.489636482,0.0,0.2860534796,0.4152249135,0.3966942149,0.4775022957,0.4081632653,0.5,0.2448979592,0.0,0.0,0.2448979592,0.0,0.0,0.1326530612,0.0,0.4444444444,0.0,0.0,0.0,0.2571166208,0.0867768595,0.5,0.0,0.0,0.0,0.4628099174,0.0,0.21875,0.0,0.5,0.0,0.0,0.0,0.0880473373,0.0,0.060546875,0.0312421265,0.0,0.18,0.0,0.0,0.0,0.0,0.3678296797,0.4453791164,0.4763938424,0.4165346939,0.4548470689,0.3422453599,0.2432884866,0.324499822,0.1790054396,0.42,0.0,0.498046875,0.2777777778,0.0,0.5,0.0,0.0,0.4733727811,0.2777777778,0.1652892562,0.0,0.0,0.0,0.4897959184,0.0,0.4444444444,0.32,0.0,0.4444444444,0.0,0.0,0.0,0.0178556935,0.0,0.4444444444,0.0,0.0,0.4637573964,0.4994054697,0.4614197531,0.404296875,0.0,0.4608,0.0,0.4234404537,0.1975308642,0.0,0.0,0.4897959184,0.0,0.3966942149,0.0,0.32,0.1975308642,0.0,0.5,0.0,0.0,0.3512396694,0.1420118343,0.0,0.0,0.4938271605,0.4444444444,0.4444444444,0.0,0.0,0.0,0.0,0.3402646503,0.3028664143,0.0,0.2777777778,0.249851279,0.4081632653,0.46875,0.375,0.0,0.0,0.0,0.1420118343,0.0,0.4444444444,0.0,0.0,0.0,0.0,0.4444444444,0.0,0.0,0.0,0.4948870092,0.21875,0.4444444444,0.0,0.0,0.0,0.4586226309,0.4100091827,0.4637573964,0.0,0.4879012346,0.0,0.4716553288,0.3046875,0.0,0.2311111111,0.48,0.4444444444,0.0,0.0,0.0,0.0,0.5,0.4444444444,0.32,0.48,0.0,0.0,0.0,0.0,0.4591836735,0.0,0.5,0.4081632653,0.2777777778,0.0,0.5,0.0,0.0,0.0,0.0,0.0,0.0,0.2327519243,0.4081632653,0.0,0.48,0.5,0.3966942149,0.4897959184,0.32,0.0,0.0,0.0,0.0,0.3456790123,0.5,0.0,0.0,0.0,0.0,0.1326530612,0.375,0.0,0.0,0.0997229917,0.2268431002,0.1652892562,0.0,0.0907029478,0.0,0.375,0.0,0.0,0.0,0.0370238519,0.0,0.21875,0.0,0.0,0.0178556935,0.0,0.0,0.0,0.0,0.0798611111,0.0,0.2532613892,0.1875736961,0.173816568,0.066587396,0.4444444444,0.0,0.0,0.0357024793,0.375,0.0,0.0,0.0,0.2873345936,0.2355371901,0.4444444444,0.0,0.0,0.1760856633,0.0,0.2688,0.0,0.21875,0.3550295858,0.0,0.2777777778,0.1652892562,0.4444444444,0.0,0.0,0.0,0.0,0.0,0.0,0.0,0.4921875,0.2448979592,0.0,0.0,0.4444444444,0.0,0.375,0.0,0.0],"max_depth":20,"max_n_classes":2,"n_classes":[2],"n_features":8,"n_leaves":242,"n_node_samples":[4700,2930,617,504,501,209,168,167,116,7,6,1,109,90,19,1,18,51,11,8,5,3,1,2,3,40,1,39,23,16,1,15,1,14,1,41,31,5,26,11,9,3,1,2,6,2,15,7,8,2,6,10,9,1,292,3,113,91,71,69,55,26,2,24,23,16,7,4,2,2,3,1,29,25,4,1,3,14,11,1,10,1,9,3,2,20,18,2,16,6,10,5,5,3,2,2,22,2313,1330,983,120,31,1,30,89,59,40,2,38,26,4,22,10,5,1,4,5,1,4,12,3,1,2,9,12,9,3,1,2,19,11,5,6,3,1,2,3,8,2,6,2,1,1,4,30,21,20,13,7,6,1,1,9,4,5,1,4,863,847,323,524,308,93,84,4,80,77,64,48,38,35,30,25,6,1,5,19,9,5,4,10,8,2,5,5,3,10,9,1,16,1,15,14,6,8,2,6,1,13,1,12,11,1,3,9,215,216,16,3,13,6,4,1,3,2,7,1770,391,257,124,133,68,66,33,28,14,7,1,6,7,6,1,14,11,3,1,2,5,33,22,2,1,1,20,11,3,8,6,2,1,1,2,65,1,64,63,53,10,1,9,1,134,1379,947,810,700,589,470,381,265,161,50,18,32,6,4,2,1,1,26,12,11,1,10,1,14,2,12,10,7,3,1,2,2,111,108,3,1,2,104,58,36,32,7,25,2,23,9,8,1,14,3,11,1,10,9,7,2,1,4,22,13,1,12,9,6,3,2,1,3,3,46,43,1,42,41,21,8,4,3,1,4,13,10,3,1,2,20,1,3,1,2,116,89,16,3,2,1,13,73,66,52,7,45,3,42,16,1,15,5,3,1,2,2,10,26,12,10,5,3,2,5,2,14,4,10,7,6,4,2,1,1,1,3,14,7,119,35,10,25,20,11,7,5,1,4,2,4,9,4,2,2,5,5,84,8,6,2,76,23,22,1,21,17,4,1,3,1,53,45,8,1,7,111,110,1,110,137,432,311,121,105,104,58,3,2,1,55,4,3,1,51,46,44,3,2,1,41,16,25,1,24,13,1,12,11,3,1,2,8,1,11,2,1,16,7,1,6,9,5,4,3,1],"n_outputs":1,"node_count":483,"threshold":[0.3052310944,-0.9349800944,-1.0477266014,1.9118924141,-0.5033921301,0.8823385835,-0.505128324,0.1246625744,-0.8695318103,-0.8876651824,-2.0,-2.0,-0.3714436889,-2.0,-0.837452352,-2.0,-2.0,-1.1078449488,-0.8052933812,1.1092418432,-2.0,-0.6580664515,-2.0,-2.0,-2.0,0.1292533502,-2.0,-0.1609726883,-2.0,-0.9127010703,-2.0,-0.111656718,-2.0,-2.0,-2.0,0.162420921,-0.8776339293,-2.0,-0.2830035686,-0.0220668167,-0.7377765179,-0.5420747697,-2.0,-2.0,-2.0,-2.0,-0.2865808904,-2.0,-0.2334713861,-2.0,-2.0,0.8661439121,-2.0,-2.0,-2.0,-2.0,0.0054022695,-0.4461294413,1.8363201618,1.0947842002,-0.792245239,0.1105001643,-2.0,-0.8046093583,-0.8424042165,-2.0,-1.0016512871,-0.6922492087,-2.0,-2.0,-2.0,-2.0,-0.4013302475,-2.0,-0.2158530317,-2.0,-2.0,-1.1264413595,1.1101745963,-2.0,-1.7861469984,-2.0,-2.0,-2.0,-2.0,0.0662655849,-1.5005709529,-2.0,-0.8585613072,-2.0,-0.490853101,-2.0,-0.6177452803,-2.0,-2.0,-2.0,-2.0,-0.2585012689,-2.0,-0.0893815653,-0.4212140143,-0.5068644881,-2.0,-2.0,0.4711797684,0.0147705297,-0.5784021914,-2.0,0.3558133096,-0.3557950854,-2.0,-0.1538167819,0.1559983417,-0.1862511598,-2.0,-2.0,-0.2061207006,-2.0,-2.0,-0.6853094995,-0.4067094922,-2.0,-2.0,-2.0,-0.1142076403,-2.0,-0.0292396322,-2.0,-2.0,0.3079349995,0.2159623057,-2.0,0.374532789,-0.4819124192,-2.0,-2.0,-2.0,-0.3035240695,-2.0,-0.3531785309,-0.4910460263,-2.0,-2.0,-2.0,1.0693879128,0.0948766097,-0.3534261733,-2.0,0.085466668,-2.0,-2.0,-2.0,-1.0763071179,-2.0,-0.5640532076,-2.0,-2.0,1.6403950453,0.0797381429,-2.0,0.1924846172,0.3895468414,-0.143949993,-0.7774925828,-2.0,1.126149714,0.3413346857,-0.3141492605,-0.4565154612,1.2240866423,1.0973492861,-0.3491828144,-0.7644504309,-0.7352677286,-2.0,-2.0,-0.8016889691,-1.0152092278,-2.0,-2.0,0.8408431113,-2.0,-2.0,-2.0,-2.0,-2.0,-0.0383150131,-2.0,-2.0,-0.9543687403,-2.0,0.7517521977,-0.2388508394,-2.0,-0.1152943317,-2.0,-2.0,-2.0,-0.5090787709,-2.0,0.720285207,-2.0,-2.0,-2.0,-2.0,-2.0,-2.0,0.0797381429,-2.0,1.3066649437,3.1617436409,-0.4727484882,-2.0,-2.0,-2.0,-2.0,0.7562170029,0.5307240486,0.3895468414,-2.0,0.579398632,0.5575924516,-0.1160413921,-0.234150812,0.2569466978,-0.0529516395,-0.2009502575,-2.0,-2.0,0.2463679537,-2.0,-2.0,0.95743981,-2.0,1.1268830597,-2.0,-2.0,-2.0,0.6012350619,-0.81729424,-0.7793191075,-2.0,-2.0,-2.0,0.3075800911,-2.0,0.2983326167,-2.0,0.9338730872,-2.0,-2.0,-2.0,-0.822453022,-2.0,4.12322402,0.9068991244,-2.0,0.91747576,-2.0,-2.0,-2.0,-2.0,0.3895468414,1.3763226271,1.2072029114,0.8731816709,1.0944564342,0.5386322439,0.9817099571,0.86896348,-0.0269344067,-0.3550457805,-2.0,-0.4915723503,0.1887622569,-2.0,-0.3784735352,-2.0,-2.0,-0.3301233798,-0.7635704875,-0.7130215168,-2.0,-2.0,-2.0,-1.3046825528,-2.0,0.2847408354,-0.1115957201,-2.0,-0.0515650809,-2.0,-2.0,-2.0,1.8576752543,-2.0,2.0763172507,-2.0,-2.0,-0.0461338572,1.0410706997,0.0009020877,0.2086317912,-2.0,0.2991057187,-2.0,-0.0173020968,1.0544760078,-2.0,-2.0,0.2712679207,-2.0,-0.8552109897,-2.0,1.0775466859,-0.2694787085,-2.0,-2.0,-2.0,-2.0,0.7507036626,0.092501089,-2.0,-2.0,0.4388792962,-0.0782984197,1.1951640248,-2.0,-2.0,-2.0,-2.0,1.4927628636,-1.5789425373,-2.0,0.8377605677,0.5790154338,0.2754242569,0.1159229204,0.2987198979,-2.0,-2.0,-2.0,-0.0835117511,-2.0,-0.0617087297,-2.0,-2.0,-2.0,-2.0,0.5317529142,-2.0,-2.0,-2.0,-1.6664176583,1.2758541703,-0.568005085,-2.0,-2.0,-2.0,-0.3996844739,-0.2293259576,-0.7996917963,-2.0,-1.048006624,-2.0,-0.8997784555,-0.7939312458,-2.0,-1.510607481,-0.5471822917,-1.5164390802,-2.0,-2.0,-2.0,-2.0,-0.6390987635,-1.0164159834,-0.5298999399,-0.7180605233,-2.0,-2.0,-2.0,-2.0,-0.5626660287,-2.0,-1.0951373577,-0.2550742105,-0.4377603382,-2.0,-0.5396023542,-2.0,-2.0,-2.0,-2.0,-2.0,-2.0,-0.1461262703,0.0331964074,-2.0,0.3635084927,0.245320186,0.5614846349,0.4299988896,-0.199172698,-2.0,-2.0,-2.0,-2.0,0.5486603975,-0.3190310299,-2.0,-2.0,-2.0,-2.0,-0.4894648343,-0.000481315,-2.0,-2.0,0.0247903382,0.0066569725,-0.6410628557,-2.0,-0.0294168489,-2.0,-0.014948739,-2.0,-2.0,-2.0,-0.1583649069,-2.0,-0.1193060167,-2.0,-2.0,2.9881572723,-2.0,-2.0,-2.0,-2.0,0.4311634451,-2.0,1.2403701544,1.862626195,-0.1126712821,0.5166283399,0.4838336855,-2.0,-2.0,-0.77400738,-0.2265868187,-2.0,-2.0,-2.0,0.0115121156,-0.0767683089,1.1953786016,-2.0,-2.0,0.5920731425,-2.0,0.61353001,-2.0,0.391719088,-0.3722146153,-2.0,0.3621551394,-0.2757605314,-0.0027218359,-2.0,-2.0,-2.0,-2.0,-2.0,-2.0,-2.0,0.1071038768,0.6028030813,-2.0,-2.0,0.598999083,-2.0,1.8035171032,-2.0,-2.0],"value":[[[3904.0,796.0]],[[2713.0,217.0]],[[520.0,97.0]],[[472.0,32.0]],[[472.0,29.0]],[[180.0,29.0]],[[157.0,11.0]],[[157.0,10.0]],[[114.0,2.0]],[[6.0,1.0]],[[6.0,0.0]],[[0.0,1.0]],[[108.0,1.0]],[[90.0,0.0]],[[18.0,1.0]],[[0.0,1.0]],[[18.0,0.0]],[[43.0,8.0]],[[6.0,5.0]],[[6.0,2.0]],[[5.0,0.0]],[[1.0,2.0]],[[1.0,0.0]],[[0.0,2.0]],[[0.0,3.0]],[[37.0,3.0]],[[0.0,1.0]],[[37.0,2.0]],[[23.0,0.0]],[[14.0,2.0]],[[0.0,1.0]],[[14.0,1.0]],[[0.0,1.0]],[[14.0,0.0]],[[0.0,1.0]],[[23.0,18.0]],[[14.0,17.0]],[[5.0,0.0]],[[9.0,17.0]],[[7.0,4.0]],[[7.0,2.0]],[[1.0,2.0]],[[1.0,0.0]],[[0.0,2.0]],[[6.0,0.0]],[[0.0,2.0]],[[2.0,13.0]],[[0.0,7.0]],[[2.0,6.0]],[[2.0,0.0]],[[0.0,6.0]],[[9.0,1.0]],[[9.0,0.0]],[[0.0,1.0]],[[292.0,0.0]],[[0.0,3.0]],[[48.0,65.0]],[[26.0,65.0]],[[13.0,58.0]],[[11.0,58.0]],[[6.0,49.0]],[[5.0,21.0]],[[2.0,0.0]],[[3.0,21.0]],[[2.0,21.0]],[[0.0,16.0]],[[2.0,5.0]],[[2.0,2.0]],[[0.0,2.0]],[[2.0,0.0]],[[0.0,3.0]],[[1.0,0.0]],[[1.0,28.0]],[[0.0,25.0]],[[1.0,3.0]],[[1.0,0.0]],[[0.0,3.0]],[[5.0,9.0]],[[2.0,9.0]],[[1.0,0.0]],[[1.0,9.0]],[[1.0,0.0]],[[0.0,9.0]],[[3.0,0.0]],[[2.0,0.0]],[[13.0,7.0]],[[13.0,5.0]],[[0.0,2.0]],[[13.0,3.0]],[[6.0,0.0]],[[7.0,3.0]],[[5.0,0.0]],[[2.0,3.0]],[[0.0,3.0]],[[2.0,0.0]],[[0.0,2.0]],[[22.0,0.0]],[[2193.0,120.0]],[[1330.0,0.0]],[[863.0,120.0]],[[62.0,58.0]],[[30.0,1.0]],[[0.0,1.0]],[[30.0,0.0]],[[32.0,57.0]],[[26.0,33.0]],[[14.0,26.0]],[[2.0,0.0]],[[12.0,26.0]],[[11.0,15.0]],[[4.0,0.0]],[[7.0,15.0]],[[5.0,5.0]],[[4.0,1.0]],[[0.0,1.0]],[[4.0,0.0]],[[1.0,4.0]],[[1.0,0.0]],[[0.0,4.0]],[[2.0,10.0]],[[2.0,1.0]],[[0.0,1.0]],[[2.0,0.0]],[[0.0,9.0]],[[1.0,11.0]],[[0.0,9.0]],[[1.0,2.0]],[[1.0,0.0]],[[0.0,2.0]],[[12.0,7.0]],[[9.0,2.0]],[[5.0,0.0]],[[4.0,2.0]],[[1.0,2.0]],[[1.0,0.0]],[[0.0,2.0]],[[3.0,0.0]],[[3.0,5.0]],[[2.0,0.0]],[[1.0,5.0]],[[1.0,1.0]],[[0.0,1.0]],[[1.0,0.0]],[[0.0,4.0]],[[6.0,24.0]],[[2.0,19.0]],[[1.0,19.0]],[[0.0,13.0]],[[1.0,6.0]],[[0.0,6.0]],[[1.0,0.0]],[[1.0,0.0]],[[4.0,5.0]],[[0.0,4.0]],[[4.0,1.0]],[[0.0,1.0]],[[4.0,0.0]],[[801.0,62.0]],[[795.0,52.0]],[[323.0,0.0]],[[472.0,52.0]],[[256.0,52.0]],[[41.0,52.0]],[[41.0,43.0]],[[4.0,0.0]],[[37.0,43.0]],[[34.0,43.0]],[[32.0,32.0]],[[20.0,28.0]],[[19.0,19.0]],[[19.0,16.0]],[[14.0,16.0]],[[14.0,11.0]],[[1.0,5.0]],[[1.0,0.0]],[[0.0,5.0]],[[13.0,6.0]],[[4.0,5.0]],[[4.0,1.0]],[[0.0,4.0]],[[9.0,1.0]],[[8.0,0.0]],[[1.0,1.0]],[[0.0,5.0]],[[5.0,0.0]],[[0.0,3.0]],[[1.0,9.0]],[[0.0,9.0]],[[1.0,0.0]],[[12.0,4.0]],[[0.0,1.0]],[[12.0,3.0]],[[12.0,2.0]],[[6.0,0.0]],[[6.0,2.0]],[[0.0,2.0]],[[6.0,0.0]],[[0.0,1.0]],[[2.0,11.0]],[[1.0,0.0]],[[1.0,11.0]],[[0.0,11.0]],[[1.0,0.0]],[[3.0,0.0]],[[0.0,9.0]],[[215.0,0.0]],[[216.0,0.0]],[[6.0,10.0]],[[3.0,0.0]],[[3.0,10.0]],[[3.0,3.0]],[[1.0,3.0]],[[1.0,0.0]],[[0.0,3.0]],[[2.0,0.0]],[[0.0,7.0]],[[1191.0,579.0]],[[147.0,244.0]],[[147.0,110.0]],[[124.0,0.0]],[[23.0,110.0]],[[20.0,48.0]],[[18.0,48.0]],[[13.0,20.0]],[[8.0,20.0]],[[7.0,7.0]],[[6.0,1.0]],[[0.0,1.0]],[[6.0,0.0]],[[1.0,6.0]],[[0.0,6.0]],[[1.0,0.0]],[[1.0,13.0]],[[0.0,11.0]],[[1.0,2.0]],[[1.0,0.0]],[[0.0,2.0]],[[5.0,0.0]],[[5.0,28.0]],[[1.0,21.0]],[[1.0,1.0]],[[0.0,1.0]],[[1.0,0.0]],[[0.0,20.0]],[[4.0,7.0]],[[3.0,0.0]],[[1.0,7.0]],[[0.0,6.0]],[[1.0,1.0]],[[0.0,1.0]],[[1.0,0.0]],[[2.0,0.0]],[[3.0,62.0]],[[1.0,0.0]],[[2.0,62.0]],[[1.0,62.0]],[[0.0,53.0]],[[1.0,9.0]],[[1.0,0.0]],[[0.0,9.0]],[[1.0,0.0]],[[0.0,134.0]],[[1044.0,335.0]],[[630.0,317.0]],[[493.0,317.0]],[[493.0,207.0]],[[383.0,206.0]],[[367.0,103.0]],[[327.0,54.0]],[[211.0,54.0]],[[145.0,16.0]],[[35.0,15.0]],[[18.0,0.0]],[[17.0,15.0]],[[1.0,5.0]],[[0.0,4.0]],[[1.0,1.0]],[[1.0,0.0]],[[0.0,1.0]],[[16.0,10.0]],[[10.0,2.0]],[[10.0,1.0]],[[0.0,1.0]],[[10.0,0.0]],[[0.0,1.0]],[[6.0,8.0]],[[2.0,0.0]],[[4.0,8.0]],[[2.0,8.0]],[[0.0,7.0]],[[2.0,1.0]],[[0.0,1.0]],[[2.0,0.0]],[[2.0,0.0]],[[110.0,1.0]],[[108.0,0.0]],[[2.0,1.0]],[[0.0,1.0]],[[2.0,0.0]],[[66.0,38.0]],[[30.0,28.0]],[[13.0,23.0]],[[9.0,23.0]],[[0.0,7.0]],[[9.0,16.0]],[[2.0,0.0]],[[7.0,16.0]],[[1.0,8.0]],[[0.0,8.0]],[[1.0,0.0]],[[6.0,8.0]],[[3.0,0.0]],[[3.0,8.0]],[[1.0,0.0]],[[2.0,8.0]],[[1.0,8.0]],[[0.0,7.0]],[[1.0,1.0]],[[1.0,0.0]],[[4.0,0.0]],[[17.0,5.0]],[[12.0,1.0]],[[0.0,1.0]],[[12.0,0.0]],[[5.0,4.0]],[[2.0,4.0]],[[2.0,1.0]],[[2.0,0.0]],[[0.0,1.0]],[[0.0,3.0]],[[3.0,0.0]],[[36.0,10.0]],[[35.0,8.0]],[[0.0,1.0]],[[35.0,7.0]],[[35.0,6.0]],[[15.0,6.0]],[[3.0,5.0]],[[3.0,1.0]],[[3.0,0.0]],[[0.0,1.0]],[[0.0,4.0]],[[12.0,1.0]],[[10.0,0.0]],[[2.0,1.0]],[[0.0,1.0]],[[2.0,0.0]],[[20.0,0.0]],[[0.0,1.0]],[[1.0,2.0]],[[1.0,0.0]],[[0.0,2.0]],[[116.0,0.0]],[[40.0,49.0]],[[14.0,2.0]],[[1.0,2.0]],[[0.0,2.0]],[[1.0,0.0]],[[13.0,0.0]],[[26.0,47.0]],[[19.0,47.0]],[[19.0,33.0]],[[0.0,7.0]],[[19.0,26.0]],[[3.0,0.0]],[[16.0,26.0]],[[3.0,13.0]],[[1.0,0.0]],[[2.0,13.0]],[[2.0,3.0]],[[2.0,1.0]],[[0.0,1.0]],[[2.0,0.0]],[[0.0,2.0]],[[0.0,10.0]],[[13.0,13.0]],[[8.0,4.0]],[[8.0,2.0]],[[3.0,2.0]],[[3.0,0.0]],[[0.0,2.0]],[[5.0,0.0]],[[0.0,2.0]],[[5.0,9.0]],[[0.0,4.0]],[[5.0,5.0]],[[2.0,5.0]],[[1.0,5.0]],[[0.0,4.0]],[[1.0,1.0]],[[0.0,1.0]],[[1.0,0.0]],[[1.0,0.0]],[[3.0,0.0]],[[0.0,14.0]],[[7.0,0.0]],[[16.0,103.0]],[[10.0,25.0]],[[0.0,10.0]],[[10.0,15.0]],[[10.0,10.0]],[[8.0,3.0]],[[4.0,3.0]],[[4.0,1.0]],[[0.0,1.0]],[[4.0,0.0]],[[0.0,2.0]],[[4.0,0.0]],[[2.0,7.0]],[[2.0,2.0]],[[2.0,0.0]],[[0.0,2.0]],[[0.0,5.0]],[[0.0,5.0]],[[6.0,78.0]],[[2.0,6.0]],[[0.0,6.0]],[[2.0,0.0]],[[4.0,72.0]],[[3.0,20.0]],[[2.0,20.0]],[[1.0,0.0]],[[1.0,20.0]],[[0.0,17.0]],[[1.0,3.0]],[[1.0,0.0]],[[0.0,3.0]],[[1.0,0.0]],[[1.0,52.0]],[[0.0,45.0]],[[1.0,7.0]],[[1.0,0.0]],[[0.0,7.0]],[[110.0,1.0]],[[110.0,0.0]],[[0.0,1.0]],[[0.0,110.0]],[[137.0,0.0]],[[414.0,18.0]],[[311.0,0.0]],[[103.0,18.0]],[[94.0,11.0]],[[94.0,10.0]],[[56.0,2.0]],[[2.0,1.0]],[[2.0,0.0]],[[0.0,1.0]],[[54.0,1.0]],[[3.0,1.0]],[[3.0,0.0]],[[0.0,1.0]],[[51.0,0.0]],[[38.0,8.0]],[[38.0,6.0]],[[1.0,2.0]],[[0.0,2.0]],[[1.0,0.0]],[[37.0,4.0]],[[16.0,0.0]],[[21.0,4.0]],[[0.0,1.0]],[[21.0,3.0]],[[10.0,3.0]],[[0.0,1.0]],[[10.0,2.0]],[[10.0,1.0]],[[2.0,1.0]],[[0.0,1.0]],[[2.0,0.0]],[[8.0,0.0]],[[0.0,1.0]],[[11.0,0.0]],[[0.0,2.0]],[[0.0,1.0]],[[9.0,7.0]],[[6.0,1.0]],[[0.0,1.0]],[[6.0,0.0]],[[3.0,6.0]],[[0.0,5.0]],[[3.0,1.0]],[[3.0,0.0]],[[0.0,1.0]]],"weighted_n_node_samples":[4700.0,2930.0,617.0,504.0,501.0,209.0,168.0,167.0,116.0,7.0,6.0,1.0,109.0,90.0,19.0,1.0,18.0,51.0,11.0,8.0,5.0,3.0,1.0,2.0,3.0,40.0,1.0,39.0,23.0,16.0,1.0,15.0,1.0,14.0,1.0,41.0,31.0,5.0,26.0,11.0,9.0,3.0,1.0,2.0,6.0,2.0,15.0,7.0,8.0,2.0,6.0,10.0,9.0,1.0,292.0,3.0,113.0,91.0,71.0,69.0,55.0,26.0,2.0,24.0,23.0,16.0,7.0,4.0,2.0,2.0,3.0,1.0,29.0,25.0,4.0,1.0,3.0,14.0,11.0,1.0,10.0,1.0,9.0,3.0,2.0,20.0,18.0,2.0,16.0,6.0,10.0,5.0,5.0,3.0,2.0,2.0,22.0,2313.0,1330.0,983.0,120.0,31.0,1.0,30.0,89.0,59.0,40.0,2.0,38.0,26.0,4.0,22.0,10.0,5.0,1.0,4.0,5.0,1.0,4.0,12.0,3.0,1.0,2.0,9.0,12.0,9.0,3.0,1.0,2.0,19.0,11.0,5.0,6.0,3.0,1.0,2.0,3.0,8.0,2.0,6.0,2.0,1.0,1.0,4.0,30.0,21.0,20.0,13.0,7.0,6.0,1.0,1.0,9.0,4.0,5.0,1.0,4.0,863.0,847.0,323.0,524.0,308.0,93.0,84.0,4.0,80.0,77.0,64.0,48.0,38.0,35.0,30.0,25.0,6.0,1.0,5.0,19.0,9.0,5.0,4.0,10.0,8.0,2.0,5.0,5.0,3.0,10.0,9.0,1.0,16.0,1.0,15.0,14.0,6.0,8.0,2.0,6.0,1.0,13.0,1.0,12.0,11.0,1.0,3.0,9.0,215.0,216.0,16.0,3.0,13.0,6.0,4.0,1.0,3.0,2.0,7.0,1770.0,391.0,257.0,124.0,133.0,68.0,66.0,33.0,28.0,14.0,7.0,1.0,6.0,7.0,6.0,1.0,14.0,11.0,3.0,1.0,2.0,5.0,33.0,22.0,2.0,1.0,1.0,20.0,11.0,3.0,8.0,6.0,2.0,1.0,1.0,2.0,65.0,1.0,64.0,63.0,53.0,10.0,1.0,9.0,1.0,134.0,1379.0,947.0,810.0,700.0,589.0,470.0,381.0,265.0,161.0,50.0,18.0,32.0,6.0,4.0,2.0,1.0,1.0,26.0,12.0,11.0,1.0,10.0,1.0,14.0,2.0,12.0,10.0,7.0,3.0,1.0,2.0,2.0,111.0,108.0,3.0,1.0,2.0,104.0,58.0,36.0,32.0,7.0,25.0,2.0,23.0,9.0,8.0,1.0,14.0,3.0,11.0,1.0,10.0,9.0,7.0,2.0,1.0,4.0,22.0,13.0,1.0,12.0,9.0,6.0,3.0,2.0,1.0,3.0,3.0,46.0,43.0,1.0,42.0,41.0,21.0,8.0,4.0,3.0,1.0,4.0,13.0,10.0,3.0,1.0,2.0,20.0,1.0,3.0,1.0,2.0,116.0,89.0,16.0,3.0,2.0,1.0,13.0,73.0,66.0,52.0,7.0,45.0,3.0,42.0,16.0,1.0,15.0,5.0,3.0,1.0,2.0,2.0,10.0,26.0,12.0,10.0,5.0,3.0,2.0,5.0,2.0,14.0,4.0,10.0,7.0,6.0,4.0,2.0,1.0,1.0,1.0,3.0,14.0,7.0,119.0,35.0,10.0,25.0,20.0,11.0,7.0,5.0,1.0,4.0,2.0,4.0,9.0,4.0,2.0,2.0,5.0,5.0,84.0,8.0,6.0,2.0,76.0,23.0,22.0,1.0,21.0,17.0,4.0,1.0,3.0,1.0,53.0,45.0,8.0,1.0,7.0,111.0,110.0,1.0,110.0,137.0,432.0,311.0,121.0,105.0,104.0,58.0,3.0,2.0,1.0,55.0,4.0,3.0,1.0,51.0,46.0,44.0,3.0,2.0,1.0,41.0,16.0,25.0,1.0,24.0,13.0,1.0,12.0,11.0,3.0,1.0,2.0,8.0,1.0,11.0,2.0,1.0,16.0,7.0,1.0,6.0,9.0,5.0,4.0,3.0,1.0]}},"f1":{"ccp_alpha":0.0,"class_weight":null,"classes_":[0,1],"criterion":"gini","feature_importances_":[0.4840640584,0.1359947718,0.0522540637,0.0558138159,0.0686354337,0.0663335071,0.0950246092,0.0418797402],"max_depth":20,"max_features":null,"max_features_":8,"max_leaf_nodes":null,"min_impurity_decrease":0.0,"min_samples_leaf":1,"min_samples_split":2,"min_weight_fraction_leaf":0.0,"n_classes_":2,"n_features_":8,"n_features_in_":8,"n_outputs_":1,"random_state":null,"splitter":"best","tree_":{"capacity":483,"children_left":[1,2,3,4,5,6,7,8,9,10,-1,-1,13,-1,15,-1,-1,18,19,20,-1,22,-1,-1,-1,26,-1,28,-1,30,-1,32,-1,-1,-1,36,37,-1,39,40,41,42,-1,-1,-1,-1,47,-1,49,-1,-1,52,-1,-1,-1,-1,57,58,59,60,61,62,-1,64,65,-1,67,68,-1,-1,-1,-1,73,-1,75,-1,-1,78,79,-1,81,-1,-1,-1,-1,86,87,-1,89,-1,91,-1,93,-1,-1,-1,-1,98,-1,100,101,102,-1,-1,105,106,107,-1,109,110,-1,112,113,114,-1,-1,117,-1,-1,120,121,-1,-1,-1,125,-1,127,-1,-1,130,131,-1,133,134,-1,-1,-1,138,-1,140,141,-1,-1,-1,145,146,147,-1,149,-1,-1,-1,153,-1,155,-1,-1,158,159,-1,161,162,163,164,-1,166,167,168,169,170,171,172,173,174,-1,-1,177,178,-1,-1,181,-1,-1,-1,-1,-1,187,-1,-1,190,-1,192,193,-1,195,-1,-1,-1,199,-1,201,-1,-1,-1,-1,-1,-1,208,-1,210,211,212,-1,-1,-1,-1,217,218,219,-1,221,222,223,224,225,226,227,-1,-1,230,-1,-1,233,-1,235,-1,-1,-1,239,240,241,-1,-1,-1,245,-1,247,-1,249,-1,-1,-1,253,-1,255,256,-1,258,-1,-1,-1,-1,263,264,265,266,267,268,269,270,271,272,-1,274,275,-1,277,-1,-1,280,281,282,-1,-1,-1,286,-1,288,289,-1,291,-1,-1,-1,295,-1,297,-1,-1,300,301,302,303,-1,305,-1,307,308,-1,-1,311,-1,313,-1,315,316,-1,-1,-1,-1,321,322,-1,-1,325,326,327,-1,-1,-1,-1,332,333,-1,335,336,337,338,339,-1,-1,-1,343,-1,345,-1,-1,-1,-1,350,-1,-1,-1,354,355,356,-1,-1,-1,360,361,362,-1,364,-1,366,367,-1,369,370,371,-1,-1,-1,-1,376,377,378,379,-1,-1,-1,-1,384,-1,386,387,388,-1,390,-1,-1,-1,-1,-1,-1,397,398,-1,400,401,402,403,404,-1,-1,-1,-1,409,410,-1,-1,-1,-1,415,416,-1,-1,419,420,421,-1,423,-1,425,-1,-1,-1,429,-1,431,-1,-1,434,-1,-1,-1,-1,439,-1,441,442,443,444,445,-1,-1,448,449,-1,-1,-1,453,454,455,-1,-1,458,-1,460,-1,462,463,-1,465,466,467,-1,-1,-1,-1,-1,-1,-1,475,476,-1,-1,479,-1,481,-1,-1],"children_right":[216,97,56,55,54,35,34,17,12,11,-1,-1,14,-1,16,-1,-1,25,24,21,-1,23,-1,-1,-1,27,-1,29,-1,31,-1,33,-1,-1,-1,51,38,-1,46,45,44,43,-1,-1,-1,-1,48,-1,50,-1,-1,53,-1,-1,-1,-1,96,85,84,77,72,63,-1,71,66,-1,70,69,-1,-1,-1,-1,74,-1,76,-1,-1,83,80,-1,82,-1,-1,-1,-1,95,88,-1,90,-1,92,-1,94,-1,-1,-1,-1,99,-1,157,104,103,-1,-1,144,129,108,-1,124,111,-1,119,116,115,-1,-1,118,-1,-1,123,122,-1,-1,-1,126,-1,128,-1,-1,137,132,-1,136,135,-1,-1,-1,139,-1,143,142,-1,-1,-1,152,151,148,-1,150,-1,-1,-1,154,-1,156,-1,-1,207,160,-1,206,205,204,165,-1,203,198,189,186,185,184,183,176,175,-1,-1,180,179,-1,-1,182,-1,-1,-1,-1,-1,188,-1,-1,191,-1,197,194,-1,196,-1,-1,-1,200,-1,202,-1,-1,-1,-1,-1,-1,209,-1,215,214,213,-1,-1,-1,-1,262,261,220,-1,252,251,238,237,232,229,228,-1,-1,231,-1,-1,234,-1,236,-1,-1,-1,244,243,242,-1,-1,-1,246,-1,248,-1,250,-1,-1,-1,254,-1,260,257,-1,259,-1,-1,-1,-1,438,437,436,433,396,353,352,299,294,273,-1,279,276,-1,278,-1,-1,285,284,283,-1,-1,-1,287,-1,293,290,-1,292,-1,-1,-1,296,-1,298,-1,-1,331,320,319,304,-1,306,-1,310,309,-1,-1,312,-1,314,-1,318,317,-1,-1,-1,-1,324,323,-1,-1,330,329,328,-1,-1,-1,-1,349,334,-1,348,347,342,341,340,-1,-1,-1,344,-1,346,-1,-1,-1,-1,351,-1,-1,-1,359,358,357,-1,-1,-1,395,394,363,-1,365,-1,375,368,-1,374,373,372,-1,-1,-1,-1,383,382,381,380,-1,-1,-1,-1,385,-1,393,392,389,-1,391,-1,-1,-1,-1,-1,-1,414,399,-1,413,408,407,406,405,-1,-1,-1,-1,412,411,-1,-1,-1,-1,418,417,-1,-1,428,427,422,-1,424,-1,426,-1,-1,-1,430,-1,432,-1,-1,435,-1,-1,-1,-1,440,-1,474,473,452,447,446,-1,-1,451,450,-1,-1,-1,472,457,456,-1,-1,459,-1,461,-1,471,464,-1,470,469,468,-1,-1,-1,-1,-1,-1,-1,478,477,-1,-1,480,-1,482,-1,-1],"feature":[0,0,0,6,3,6,3,5,3,3,-2,-2,2,-2,7,-2,-2,7,3,4,-2,2,-2,-2,-2,5,-2,2,-2,7,-2,2,-2,-2,-2,7,3,-2,4,7,7,4,-2,-2,-2,-2,2,-2,2,-2,-2,4,-2,-2,-2,-2,5,6,4,4,2,4,-2,2,2,-2,6,3,-2,-2,-2,-2,5,-2,5,-2,-2,6,4,-2,5,-2,-2,-2,-2,3,5,-2,5,-2,3,-2,5,-2,-2,-2,-2,0,-2,0,6,3,-2,-2,3,6,2,-2,4,7,-2,6,2,3,-2,-2,3,-2,-2,5,4,-2,-2,-2,6,-2,6,-2,-2,6,3,-2,3,4,-2,-2,-2,4,-2,2,7,-2,-2,-2,3,4,4,-2,2,-2,-2,-2,4,-2,5,-2,-2,2,0,-2,0,1,6,2,-2,5,7,3,3,4,4,7,5,3,-2,-2,6,6,-2,-2,4,-2,-2,-2,-2,-2,2,-2,-2,5,-2,5,7,-2,7,-2,-2,-2,4,-2,4,-2,-2,-2,-2,-2,-2,0,-2,3,2,6,-2,-2,-2,-2,0,0,1,-2,5,5,4,4,5,3,6,-2,-2,5,-2,-2,6,-2,7,-2,-2,-2,7,5,2,-2,-2,-2,6,-2,4,-2,6,-2,-2,-2,2,-2,7,6,-2,6,-2,-2,-2,-2,1,0,0,6,0,4,0,0,2,3,-2,2,3,-2,7,-2,-2,5,6,7,-2,-2,-2,6,-2,5,3,-2,4,-2,-2,-2,7,-2,7,-2,-2,6,5,4,3,-2,3,-2,5,7,-2,-2,5,-2,6,-2,2,4,-2,-2,-2,-2,3,3,-2,-2,7,7,3,-2,-2,-2,-2,5,4,-2,6,3,6,6,3,-2,-2,-2,4,-2,4,-2,-2,-2,-2,3,-2,-2,-2,6,4,2,-2,-2,-2,2,5,2,-2,7,-2,5,2,-2,6,3,5,-2,-2,-2,-2,2,6,7,2,-2,-2,-2,-2,2,-2,6,5,2,-2,5,-2,-2,-2,-2,-2,-2,3,5,-2,4,7,5,5,4,-2,-2,-2,-2,5,4,-2,-2,-2,-2,2,7,-2,-2,3,3,4,-2,3,-2,3,-2,-2,-2,4,-2,4,-2,-2,5,-2,-2,-2,-2,6,-2,5,3,7,6,6,-2,-2,7,2,-2,-2,-2,4,7,6,-2,-2,5,-2,5,-2,7,3,-2,7,3,7,-2,-2,-2,-2,-2,-2,-2,2,6,-2,-2,2,-2,2,-2,-2],"impurity":[0.281356632,0.137152675,0.2649932097,0.1189216427,0.1090672946,0.2390055173,0.1223781179,0.1125891929,0.0338882283,0.2448979592,0.0,0.0,0.0181802879,0.0,0.0997229917,0.0,0.0,0.2645136486,0.4958677686,0.375,0.0,0.4444444444,0.0,0.0,0.0,0.13875,0.0,0.097304405,0.0,0.21875,0.0,0.1244444444,0.0,0.0,0.0,0.49256395,0.4953173777,0.0,0.4526627219,0.4628099174,0.3456790123,0.4444444444,0.0,0.0,0.0,0.0,0.2311111111,0.0,0.375,0.0,0.0,0.18,0.0,0.0,0.0,0.0,0.4886835304,0.4081632653,0.2991469946,0.2680109221,0.1943801653,0.3106508876,0.0,0.21875,0.1587901701,0.0,0.4081632653,0.5,0.0,0.0,0.0,0.0,0.066587396,0.0,0.375,0.0,0.0,0.4591836735,0.2975206612,0.0,0.18,0.0,0.0,0.0,0.0,0.455,0.4012345679,0.0,0.3046875,0.0,0.42,0.0,0.48,0.0,0.0,0.0,0.0,0.0983781401,0.0,0.2143458117,0.4994444444,0.0624349636,0.0,0.0,0.4605479106,0.4929617926,0.455,0.0,0.432132964,0.4881656805,0.0,0.4338842975,0.5,0.32,0.0,0.0,0.32,0.0,0.0,0.2777777778,0.4444444444,0.0,0.0,0.0,0.1527777778,0.0,0.4444444444,0.0,0.0,0.4653739612,0.2975206612,0.0,0.4444444444,0.4444444444,0.0,0.0,0.0,0.46875,0.0,0.2777777778,0.5,0.0,0.0,0.0,0.32,0.1723356009,0.095,0.0,0.2448979592,0.0,0.0,0.0,0.4938271605,0.0,0.32,0.0,0.0,0.1333621566,0.1152480663,0.0,0.1787774605,0.2806544105,0.4930049717,0.4997165533,0.0,0.4971875,0.4931691685,0.5,0.4861111111,0.5,0.4963265306,0.4977777778,0.4928,0.2777777778,0.0,0.0,0.432132964,0.4938271605,0.32,0.0,0.18,0.0,0.5,0.0,0.0,0.0,0.18,0.0,0.0,0.375,0.0,0.32,0.2448979592,0.0,0.375,0.0,0.0,0.0,0.2603550296,0.0,0.1527777778,0.0,0.0,0.0,0.0,0.0,0.0,0.46875,0.0,0.3550295858,0.5,0.375,0.0,0.0,0.0,0.0,0.4402240735,0.4692277,0.489636482,0.0,0.2860534796,0.4152249135,0.3966942149,0.4775022957,0.4081632653,0.5,0.2448979592,0.0,0.0,0.2448979592,0.0,0.0,0.1326530612,0.0,0.4444444444,0.0,0.0,0.0,0.2571166208,0.0867768595,0.5,0.0,0.0,0.0,0.4628099174,0.0,0.21875,0.0,0.5,0.0,0.0,0.0,0.0880473373,0.0,0.060546875,0.0312421265,0.0,0.18,0.0,0.0,0.0,0.0,0.3678296797,0.4453791164,0.4763938424,0.4165346939,0.4548470689,0.3422453599,0.2432884866,0.324499822,0.1790054396,0.42,0.0,0.498046875,0.2777777778,0.0,0.5,0.0,0.0,0.4733727811,0.2777777778,0.1652892562,0.0,0.0,0.0,0.4897959184,0.0,0.4444444444,0.32,0.0,0.4444444444,0.0,0.0,0.0,0.0178556935,0.0,0.4444444444,0.0,0.0,0.4637573964,0.4994054697,0.4614197531,0.404296875,0.0,0.4608,0.0,0.4234404537,0.1975308642,0.0,0.0,0.4897959184,0.0,0.3966942149,0.0,0.32,0.1975308642,0.0,0.5,0.0,0.0,0.3512396694,0.1420118343,0.0,0.0,0.4938271605,0.4444444444,0.4444444444,0.0,0.0,0.0,0.0,0.3402646503,0.3028664143,0.0,0.2777777778,0.249851279,0.4081632653,0.46875,0.375,0.0,0.0,0.0,0.1420118343,0.0,0.4444444444,0.0,0.0,0.0,0.0,0.4444444444,0.0,0.0,0.0,0.4948870092,0.21875,0.4444444444,0.0,0.0,0.0,0.4586226309,0.4100091827,0.4637573964,0.0,0.4879012346,0.0,0.4716553288,0.3046875,0.0,0.2311111111,0.48,0.4444444444,0.0,0.0,0.0,0.0,0.5,0.4444444444,0.32,0.48,0.0,0.0,0.0,0.0,0.4591836735,0.0,0.5,0.4081632653,0.2777777778,0.0,0.5,0.0,0.0,0.0,0.0,0.0,0.0,0.2327519243,0.4081632653,0.0,0.48,0.5,0.3966942149,0.4897959184,0.32,0.0,0.0,0.0,0.0,0.3456790123,0.5,0.0,0.0,0.0,0.0,0.1326530612,0.375,0.0,0.0,0.0997229917,0.2268431002,0.1652892562,0.0,0.0907029478,0.0,0.375,0.0,0.0,0.0,0.0370238519,0.0,0.21875,0.0,0.0,0.0178556935,0.0,0.0,0.0,0.0,0.0798611111,0.0,0.2532613892,0.1875736961,0.173816568,0.066587396,0.4444444444,0.0,0.0,0.0357024793,0.375,0.0,0.0,0.0,0.2873345936,0.2355371901,0.4444444444,0.0,0.0,0.1760856633,0.0,0.2688,0.0,0.21875,0.3550295858,0.0,0.2777777778,0.1652892562,0.4444444444,0.0,0.0,0.0,0.0,0.0,0.0,0.0,0.4921875,0.2448979592,0.0,0.0,0.4444444444,0.0,0.375,0.0,0.0],"max_depth":20,"max_n_classes":2,"n_classes":[2],"n_features":8,"n_leaves":242,"n_node_samples":[4700,2930,617,504,501,209,168,167,116,7,6,1,109,90,19,1,18,51,11,8,5,3,1,2,3,40,1,39,23,16,1,15,1,14,1,41,31,5,26,11,9,3,1,2,6,2,15,7,8,2,6,10,9,1,292,3,113,91,71,69,55,26,2,24,23,16,7,4,2,2,3,1,29,25,4,1,3,14,11,1,10,1,9,3,2,20,18,2,16,6,10,5,5,3,2,2,22,2313,1330,983,120,31,1,30,89,59,40,2,38,26,4,22,10,5,1,4,5,1,4,12,3,1,2,9,12,9,3,1,2,19,11,5,6,3,1,2,3,8,2,6,2,1,1,4,30,21,20,13,7,6,1,1,9,4,5,1,4,863,847,323,524,308,93,84,4,80,77,64,48,38,35,30,25,6,1,5,19,9,5,4,10,8,2,5,5,3,10,9,1,16,1,15,14,6,8,2,6,1,13,1,12,11,1,3,9,215,216,16,3,13,6,4,1,3,2,7,1770,391,257,124,133,68,66,33,28,14,7,1,6,7,6,1,14,11,3,1,2,5,33,22,2,1,1,20,11,3,8,6,2,1,1,2,65,1,64,63,53,10,1,9,1,134,1379,947,810,700,589,470,381,265,161,50,18,32,6,4,2,1,1,26,12,11,1,10,1,14,2,12,10,7,3,1,2,2,111,108,3,1,2,104,58,36,32,7,25,2,23,9,8,1,14,3,11,1,10,9,7,2,1,4,22,13,1,12,9,6,3,2,1,3,3,46,43,1,42,41,21,8,4,3,1,4,13,10,3,1,2,20,1,3,1,2,116,89,16,3,2,1,13,73,66,52,7,45,3,42,16,1,15,5,3,1,2,2,10,26,12,10,5,3,2,5,2,14,4,10,7,6,4,2,1,1,1,3,14,7,119,35,10,25,20,11,7,5,1,4,2,4,9,4,2,2,5,5,84,8,6,2,76,23,22,1,21,17,4,1,3,1,53,45,8,1,7,111,110,1,110,137,432,311,121,105,104,58,3,2,1,55,4,3,1,51,46,44,3,2,1,41,16,25,1,24,13,1,12,11,3,1,2,8,1,11,2,1,16,7,1,6,9,5,4,3,1],"n_outputs":1,"node_count":483,"threshold":[0.3052310944,-0.9349800944,-1.0477266014,1.9118924141,-0.5033921301,0.8823385835,-0.505128324,0.1246625744,-0.8695318103,-0.8876651824,-2.0,-2.0,-0.3714436889,-2.0,-0.837452352,-2.0,-2.0,-1.1078449488,-0.8052933812,1.1092418432,-2.0,-0.6580664515,-2.0,-2.0,-2.0,0.1292533502,-2.0,-0.1609726883,-2.0,-0.9127010703,-2.0,-0.111656718,-2.0,-2.0,-2.0,0.162420921,-0.8776339293,-2.0,-0.2830035686,-0.0220668167,-0.7377765179,-0.5420747697,-2.0,-2.0,-2.0,-2.0,-0.2865808904,-2.0,-0.2334713861,-2.0,-2.0,0.8661439121,-2.0,-2.0,-2.0,-2.0,0.0054022695,-0.4461294413,1.8363201618,1.0947842002,-0.792245239,0.1105001643,-2.0,-0.8046093583,-0.8424042165,-2.0,-1.0016512871,-0.6922492087,-2.0,-2.0,-2.0,-2.0,-0.4013302475,-2.0,-0.2158530317,-2.0,-2.0,-1.1264413595,1.1101745963,-2.0,-1.7861469984,-2.0,-2.0,-2.0,-2.0,0.0662655849,-1.5005709529,-2.0,-0.8585613072,-2.0,-0.490853101,-2.0,-0.6177452803,-2.0,-2.0,-2.0,-2.0,-0.2585012689,-2.0,-0.0893815653,-0.4212140143,-0.5068644881,-2.0,-2.0,0.4711797684,0.0147705297,-0.5784021914,-2.0,0.3558133096,-0.3557950854,-2.0,-0.1538167819,0.1559983417,-0.1862511598,-2.0,-2.0,-0.2061207006,-2.0,-2.0,-0.6853094995,-0.4067094922,-2.0,-2.0,-2.0,-0.1142076403,-2.0,-0.0292396322,-2.0,-2.0,0.3079349995,0.2159623057,-2.0,0.374532789,-0.4819124192,-2.0,-2.0,-2.0,-0.3035240695,-2.0,-0.3531785309,-0.4910460263,-2.0,-2.0,-2.0,1.0693879128,0.0948766097,-0.3534261733,-2.0,0.085466668,-2.0,-2.0,-2.0,-1.0763071179,-2.0,-0.5640532076,-2.0,-2.0,1.6403950453,0.0797381429,-2.0,0.1924846172,0.3895468414,-0.143949993,-0.7774925828,-2.0,1.126149714,0.3413346857,-0.3141492605,-0.4565154612,1.2240866423,1.0973492861,-0.3491828144,-0.7644504309,-0.7352677286,-2.0,-2.0,-0.8016889691,-1.0152092278,-2.0,-2.0,0.8408431113,-2.0,-2.0,-2.0,-2.0,-2.0,-0.0383150131,-2.0,-2.0,-0.9543687403,-2.0,0.7517521977,-0.2388508394,-2.0,-0.1152943317,-2.0,-2.0,-2.0,-0.5090787709,-2.0,0.720285207,-2.0,-2.0,-2.0,-2.0,-2.0,-2.0,0.0797381429,-2.0,1.3066649437,3.1617436409,-0.4727484882,-2.0,-2.0,-2.0,-2.0,0.7562170029,0.5307240486,0.3895468414,-2.0,0.579398632,0.5575924516,-0.1160413921,-0.234150812,0.2569466978,-0.0529516395,-0.2009502575,-2.0,-2.0,0.2463679537,-2.0,-2.0,0.95743981,-2.0,1.1268830597,-2.0,-2.0,-2.0,0.6012350619,-0.81729424,-0.7793191075,-2.0,-2.0,-2.0,0.3075800911,-2.0,0.2983326167,-2.0,0.9338730872,-2.0,-2.0,-2.0,-0.822453022,-2.0,4.12322402,0.9068991244,-2.0,0.91747576,-2.0,-2.0,-2.0,-2.0,0.3895468414,1.3763226271,1.2072029114,0.8731816709,1.0944564342,0.5386322439,0.9817099571,0.86896348,-0.0269344067,-0.3550457805,-2.0,-0.4915723503,0.1887622569,-2.0,-0.3784735352,-2.0,-2.0,-0.3301233798,-0.7635704875,-0.7130215168,-2.0,-2.0,-2.0,-1.3046825528,-2.0,0.2847408354,-0.1115957201,-2.0,-0.0515650809,-2.0,-2.0,-2.0,1.8576752543,-2.0,2.0763172507,-2.0,-2.0,-0.0461338572,1.0410706997,0.0009020877,0.2086317912,-2.0,0.2991057187,-2.0,-0.0173020968,1.0544760078,-2.0,-2.0,0.2712679207,-2.0,-0.8552109897,-2.0,1.0775466859,-0.2694787085,-2.0,-2.0,-2.0,-2.0,0.7507036626,0.092501089,-2.0,-2.0,0.4388792962,-0.0782984197,1.1951640248,-2.0,-2.0,-2.0,-2.0,1.4927628636,-1.5789425373,-2.0,0.8377605677,0.5790154338,0.2754242569,0.1159229204,0.2987198979,-2.0,-2.0,-2.0,-0.0835117511,-2.0,-0.0617087297,-2.0,-2.0,-2.0,-2.0,0.5317529142,-2.0,-2.0,-2.0,-1.6664176583,1.2758541703,-0.568005085,-2.0,-2.0,-2.0,-0.3996844739,-0.2293259576,-0.7996917963,-2.0,-1.048006624,-2.0,-0.8997784555,-0.7939312458,-2.0,-1.510607481,-0.5471822917,-1.5164390802,-2.0,-2.0,-2.0,-2.0,-0.6390987635,-1.0164159834,-0.5298999399,-0.7180605233,-2.0,-2.0,-2.0,-2.0,-0.5626660287,-2.0,-1.0951373577,-0.2550742105,-0.4377603382,-2.0,-0.5396023542,-2.0,-2.0,-2.0,-2.0,-2.0,-2.0,-0.1461262703,0.0331964074,-2.0,0.3635084927,0.245320186,0.5614846349,0.4299988896,-0.199172698,-2.0,-2.0,-2.0,-2.0,0.5486603975,-0.3190310299,-2.0,-2.0,-2.0,-2.0,-0.4894648343,-0.000481315,-2.0,-2.0,0.0247903382,0.0066569725,-0.6410628557,-2.0,-0.0294168489,-2.0,-0.014948739,-2.0,-2.0,-2.0,-0.1583649069,-2.0,-0.1193060167,-2.0,-2.0,2.9881572723,-2.0,-2.0,-2.0,-2.0,0.4311634451,-2.0,1.2403701544,1.862626195,-0.1126712821,0.5166283399,0.4838336855,-2.0,-2.0,-0.77400738,-0.2265868187,-2.0,-2.0,-2.0,0.0115121156,-0.0767683089,1.1953786016,-2.0,-2.0,0.5920731425,-2.0,0.61353001,-2.0,0.391719088,-0.3722146153,-2.0,0.3621551394,-0.2757605314,-0.0027218359,-2.0,-2.0,-2.0,-2.0,-2.0,-2.0,-2.0,0.1071038768,0.6028030813,-2.0,-2.0,0.598999083,-2.0,1.8035171032,-2.0,-2.0],"value":[[[3904.0,796.0]],[[2713.0,217.0]],[[520.0,97.0]],[[472.0,32.0]],[[472.0,29.0]],[[180.0,29.0]],[[157.0,11.0]],[[157.0,10.0]],[[114.0,2.0]],[[6.0,1.0]],[[6.0,0.0]],[[0.0,1.0]],[[108.0,1.0]],[[90.0,0.0]],[[18.0,1.0]],[[0.0,1.0]],[[18.0,0.0]],[[43.0,8.0]],[[6.0,5.0]],[[6.0,2.0]],[[5.0,0.0]],[[1.0,2.0]],[[1.0,0.0]],[[0.0,2.0]],[[0.0,3.0]],[[37.0,3.0]],[[0.0,1.0]],[[37.0,2.0]],[[23.0,0.0]],[[14.0,2.0]],[[0.0,1.0]],[[14.0,1.0]],[[0.0,1.0]],[[14.0,0.0]],[[0.0,1.0]],[[23.0,18.0]],[[14.0,17.0]],[[5.0,0.0]],[[9.0,17.0]],[[7.0,4.0]],[[7.0,2.0]],[[1.0,2.0]],[[1.0,0.0]],[[0.0,2.0]],[[6.0,0.0]],[[0.0,2.0]],[[2.0,13.0]],[[0.0,7.0]],[[2.0,6.0]],[[2.0,0.0]],[[0.0,6.0]],[[9.0,1.0]],[[9.0,0.0]],[[0.0,1.0]],[[292.0,0.0]],[[0.0,3.0]],[[48.0,65.0]],[[26.0,65.0]],[[13.0,58.0]],[[11.0,58.0]],[[6.0,49.0]],[[5.0,21.0]],[[2.0,0.0]],[[3.0,21.0]],[[2.0,21.0]],[[0.0,16.0]],[[2.0,5.0]],[[2.0,2.0]],[[0.0,2.0]],[[2.0,0.0]],[[0.0,3.0]],[[1.0,0.0]],[[1.0,28.0]],[[0.0,25.0]],[[1.0,3.0]],[[1.0,0.0]],[[0.0,3.0]],[[5.0,9.0]],[[2.0,9.0]],[[1.0,0.0]],[[1.0,9.0]],[[1.0,0.0]],[[0.0,9.0]],[[3.0,0.0]],[[2.0,0.0]],[[13.0,7.0]],[[13.0,5.0]],[[0.0,2.0]],[[13.0,3.0]],[[6.0,0.0]],[[7.0,3.0]],[[5.0,0.0]],[[2.0,3.0]],[[0.0,3.0]],[[2.0,0.0]],[[0.0,2.0]],[[22.0,0.0]],[[2193.0,120.0]],[[1330.0,0.0]],[[863.0,120.0]],[[62.0,58.0]],[[30.0,1.0]],[[0.0,1.0]],[[30.0,0.0]],[[32.0,57.0]],[[26.0,33.0]],[[14.0,26.0]],[[2.0,0.0]],[[12.0,26.0]],[[11.0,15.0]],[[4.0,0.0]],[[7.0,15.0]],[[5.0,5.0]],[[4.0,1.0]],[[0.0,1.0]],[[4.0,0.0]],[[1.0,4.0]],[[1.0,0.0]],[[0.0,4.0]],[[2.0,10.0]],[[2.0,1.0]],[[0.0,1.0]],[[2.0,0.0]],[[0.0,9.0]],[[1.0,11.0]],[[0.0,9.0]],[[1.0,2.0]],[[1.0,0.0]],[[0.0,2.0]],[[12.0,7.0]],[[9.0,2.0]],[[5.0,0.0]],[[4.0,2.0]],[[1.0,2.0]],[[1.0,0.0]],[[0.0,2.0]],[[3.0,0.0]],[[3.0,5.0]],[[2.0,0.0]],[[1.0,5.0]],[[1.0,1.0]],[[0.0,1.0]],[[1.0,0.0]],[[0.0,4.0]],[[6.0,24.0]],[[2.0,19.0]],[[1.0,19.0]],[[0.0,13.0]],[[1.0,6.0]],[[0.0,6.0]],[[1.0,0.0]],[[1.0,0.0]],[[4.0,5.0]],[[0.0,4.0]],[[4.0,1.0]],[[0.0,1.0]],[[4.0,0.0]],[[801.0,62.0]],[[795.0,52.0]],[[323.0,0.0]],[[472.0,52.0]],[[256.0,52.0]],[[41.0,52.0]],[[41.0,43.0]],[[4.0,0.0]],[[37.0,43.0]],[[34.0,43.0]],[[32.0,32.0]],[[20.0,28.0]],[[19.0,19.0]],[[19.0,16.0]],[[14.0,16.0]],[[14.0,11.0]],[[1.0,5.0]],[[1.0,0.0]],[[0.0,5.0]],[[13.0,6.0]],[[4.0,5.0]],[[4.0,1.0]],[[0.0,4.0]],[[9.0,1.0]],[[8.0,0.0]],[[1.0,1.0]],[[0.0,5.0]],[[5.0,0.0]],[[0.0,3.0]],[[1.0,9.0]],[[0.0,9.0]],[[1.0,0.0]],[[12.0,4.0]],[[0.0,1.0]],[[12.0,3.0]],[[12.0,2.0]],[[6.0,0.0]],[[6.0,2.0]],[[0.0,2.0]],[[6.0,0.0]],[[0.0,1.0]],[[2.0,11.0]],[[1.0,0.0]],[[1.0,11.0]],[[0.0,11.0]],[[1.0,0.0]],[[3.0,0.0]],[[0.0,9.0]],[[215.0,0.0]],[[216.0,0.0]],[[6.0,10.0]],[[3.0,0.0]],[[3.0,10.0]],[[3.0,3.0]],[[1.0,3.0]],[[1.0,0.0]],[[0.0,3.0]],[[2.0,0.0]],[[0.0,7.0]],[[1191.0,579.0]],[[147.0,244.0]],[[147.0,110.0]],[[124.0,0.0]],[[23.0,110.0]],[[20.0,48.0]],[[18.0,48.0]],[[13.0,20.0]],[[8.0,20.0]],[[7.0,7.0]],[[6.0,1.0]],[[0.0,1.0]],[[6.0,0.0]],[[1.0,6.0]],[[0.0,6.0]],[[1.0,0.0]],[[1.0,13.0]],[[0.0,11.0]],[[1.0,2.0]],[[1.0,0.0]],[[0.0,2.0]],[[5.0,0.0]],[[5.0,28.0]],[[1.0,21.0]],[[1.0,1.0]],[[0.0,1.0]],[[1.0,0.0]],[[0.0,20.0]],[[4.0,7.0]],[[3.0,0.0]],[[1.0,7.0]],[[0.0,6.0]],[[1.0,1.0]],[[0.0,1.0]],[[1.0,0.0]],[[2.0,0.0]],[[3.0,62.0]],[[1.0,0.0]],[[2.0,62.0]],[[1.0,62.0]],[[0.0,53.0]],[[1.0,9.0]],[[1.0,0.0]],[[0.0,9.0]],[[1.0,0.0]],[[0.0,134.0]],[[1044.0,335.0]],[[630.0,317.0]],[[493.0,317.0]],[[493.0,207.0]],[[383.0,206.0]],[[367.0,103.0]],[[327.0,54.0]],[[211.0,54.0]],[[145.0,16.0]],[[35.0,15.0]],[[18.0,0.0]],[[17.0,15.0]],[[1.0,5.0]],[[0.0,4.0]],[[1.0,1.0]],[[1.0,0.0]],[[0.0,1.0]],[[16.0,10.0]],[[10.0,2.0]],[[10.0,1.0]],[[0.0,1.0]],[[10.0,0.0]],[[0.0,1.0]],[[6.0,8.0]],[[2.0,0.0]],[[4.0,8.0]],[[2.0,8.0]],[[0.0,7.0]],[[2.0,1.0]],[[0.0,1.0]],[[2.0,0.0]],[[2.0,0.0]],[[110.0,1.0]],[[108.0,0.0]],[[2.0,1.0]],[[0.0,1.0]],[[2.0,0.0]],[[66.0,38.0]],[[30.0,28.0]],[[13.0,23.0]],[[9.0,23.0]],[[0.0,7.0]],[[9.0,16.0]],[[2.0,0.0]],[[7.0,16.0]],[[1.0,8.0]],[[0.0,8.0]],[[1.0,0.0]],[[6.0,8.0]],[[3.0,0.0]],[[3.0,8.0]],[[1.0,0.0]],[[2.0,8.0]],[[1.0,8.0]],[[0.0,7.0]],[[1.0,1.0]],[[1.0,0.0]],[[4.0,0.0]],[[17.0,5.0]],[[12.0,1.0]],[[0.0,1.0]],[[12.0,0.0]],[[5.0,4.0]],[[2.0,4.0]],[[2.0,1.0]],[[2.0,0.0]],[[0.0,1.0]],[[0.0,3.0]],[[3.0,0.0]],[[36.0,10.0]],[[35.0,8.0]],[[0.0,1.0]],[[35.0,7.0]],[[35.0,6.0]],[[15.0,6.0]],[[3.0,5.0]],[[3.0,1.0]],[[3.0,0.0]],[[0.0,1.0]],[[0.0,4.0]],[[12.0,1.0]],[[10.0,0.0]],[[2.0,1.0]],[[0.0,1.0]],[[2.0,0.0]],[[20.0,0.0]],[[0.0,1.0]],[[1.0,2.0]],[[1.0,0.0]],[[0.0,2.0]],[[116.0,0.0]],[[40.0,49.0]],[[14.0,2.0]],[[1.0,2.0]],[[0.0,2.0]],[[1.0,0.0]],[[13.0,0.0]],[[26.0,47.0]],[[19.0,47.0]],[[19.0,33.0]],[[0.0,7.0]],[[19.0,26.0]],[[3.0,0.0]],[[16.0,26.0]],[[3.0,13.0]],[[1.0,0.0]],[[2.0,13.0]],[[2.0,3.0]],[[2.0,1.0]],[[0.0,1.0]],[[2.0,0.0]],[[0.0,2.0]],[[0.0,10.0]],[[13.0,13.0]],[[8.0,4.0]],[[8.0,2.0]],[[3.0,2.0]],[[3.0,0.0]],[[0.0,2.0]],[[5.0,0.0]],[[0.0,2.0]],[[5.0,9.0]],[[0.0,4.0]],[[5.0,5.0]],[[2.0,5.0]],[[1.0,5.0]],[[0.0,4.0]],[[1.0,1.0]],[[0.0,1.0]],[[1.0,0.0]],[[1.0,0.0]],[[3.0,0.0]],[[0.0,14.0]],[[7.0,0.0]],[[16.0,103.0]],[[10.0,25.0]],[[0.0,10.0]],[[10.0,15.0]],[[10.0,10.0]],[[8.0,3.0]],[[4.0,3.0]],[[4.0,1.0]],[[0.0,1.0]],[[4.0,0.0]],[[0.0,2.0]],[[4.0,0.0]],[[2.0,7.0]],[[2.0,2.0]],[[2.0,0.0]],[[0.0,2.0]],[[0.0,5.0]],[[0.0,5.0]],[[6.0,78.0]],[[2.0,6.0]],[[0.0,6.0]],[[2.0,0.0]],[[4.0,72.0]],[[3.0,20.0]],[[2.0,20.0]],[[1.0,0.0]],[[1.0,20.0]],[[0.0,17.0]],[[1.0,3.0]],[[1.0,0.0]],[[0.0,3.0]],[[1.0,0.0]],[[1.0,52.0]],[[0.0,45.0]],[[1.0,7.0]],[[1.0,0.0]],[[0.0,7.0]],[[110.0,1.0]],[[110.0,0.0]],[[0.0,1.0]],[[0.0,110.0]],[[137.0,0.0]],[[414.0,18.0]],[[311.0,0.0]],[[103.0,18.0]],[[94.0,11.0]],[[94.0,10.0]],[[56.0,2.0]],[[2.0,1.0]],[[2.0,0.0]],[[0.0,1.0]],[[54.0,1.0]],[[3.0,1.0]],[[3.0,0.0]],[[0.0,1.0]],[[51.0,0.0]],[[38.0,8.0]],[[38.0,6.0]],[[1.0,2.0]],[[0.0,2.0]],[[1.0,0.0]],[[37.0,4.0]],[[16.0,0.0]],[[21.0,4.0]],[[0.0,1.0]],[[21.0,3.0]],[[10.0,3.0]],[[0.0,1.0]],[[10.0,2.0]],[[10.0,1.0]],[[2.0,1.0]],[[0.0,1.0]],[[2.0,0.0]],[[8.0,0.0]],[[0.0,1.0]],[[11.0,0.0]],[[0.0,2.0]],[[0.0,1.0]],[[9.0,7.0]],[[6.0,1.0]],[[0.0,1.0]],[[6.0,0.0]],[[3.0,6.0]],[[0.0,5.0]],[[3.0,1.0]],[[3.0,0.0]],[[0.0,1.0]]],"weighted_n_node_samples":[4700.0,2930.0,617.0,504.0,501.0,209.0,168.0,167.0,116.0,7.0,6.0,1.0,109.0,90.0,19.0,1.0,18.0,51.0,11.0,8.0,5.0,3.0,1.0,2.0,3.0,40.0,1.0,39.0,23.0,16.0,1.0,15.0,1.0,14.0,1.0,41.0,31.0,5.0,26.0,11.0,9.0,3.0,1.0,2.0,6.0,2.0,15.0,7.0,8.0,2.0,6.0,10.0,9.0,1.0,292.0,3.0,113.0,91.0,71.0,69.0,55.0,26.0,2.0,24.0,23.0,16.0,7.0,4.0,2.0,2.0,3.0,1.0,29.0,25.0,4.0,1.0,3.0,14.0,11.0,1.0,10.0,1.0,9.0,3.0,2.0,20.0,18.0,2.0,16.0,6.0,10.0,5.0,5.0,3.0,2.0,2.0,22.0,2313.0,1330.0,983.0,120.0,31.0,1.0,30.0,89.0,59.0,40.0,2.0,38.0,26.0,4.0,22.0,10.0,5.0,1.0,4.0,5.0,1.0,4.0,12.0,3.0,1.0,2.0,9.0,12.0,9.0,3.0,1.0,2.0,19.0,11.0,5.0,6.0,3.0,1.0,2.0,3.0,8.0,2.0,6.0,2.0,1.0,1.0,4.0,30.0,21.0,20.0,13.0,7.0,6.0,1.0,1.0,9.0,4.0,5.0,1.0,4.0,863.0,847.0,323.0,524.0,308.0,93.0,84.0,4.0,80.0,77.0,64.0,48.0,38.0,35.0,30.0,25.0,6.0,1.0,5.0,19.0,9.0,5.0,4.0,10.0,8.0,2.0,5.0,5.0,3.0,10.0,9.0,1.0,16.0,1.0,15.0,14.0,6.0,8.0,2.0,6.0,1.0,13.0,1.0,12.0,11.0,1.0,3.0,9.0,215.0,216.0,16.0,3.0,13.0,6.0,4.0,1.0,3.0,2.0,7.0,1770.0,391.0,257.0,124.0,133.0,68.0,66.0,33.0,28.0,14.0,7.0,1.0,6.0,7.0,6.0,1.0,14.0,11.0,3.0,1.0,2.0,5.0,33.0,22.0,2.0,1.0,1.0,20.0,11.0,3.0,8.0,6.0,2.0,1.0,1.0,2.0,65.0,1.0,64.0,63.0,53.0,10.0,1.0,9.0,1.0,134.0,1379.0,947.0,810.0,700.0,589.0,470.0,381.0,265.0,161.0,50.0,18.0,32.0,6.0,4.0,2.0,1.0,1.0,26.0,12.0,11.0,1.0,10.0,1.0,14.0,2.0,12.0,10.0,7.0,3.0,1.0,2.0,2.0,111.0,108.0,3.0,1.0,2.0,104.0,58.0,36.0,32.0,7.0,25.0,2.0,23.0,9.0,8.0,1.0,14.0,3.0,11.0,1.0,10.0,9.0,7.0,2.0,1.0,4.0,22.0,13.0,1.0,12.0,9.0,6.0,3.0,2.0,1.0,3.0,3.0,46.0,43.0,1.0,42.0,41.0,21.0,8.0,4.0,3.0,1.0,4.0,13.0,10.0,3.0,1.0,2.0,20.0,1.0,3.0,1.0,2.0,116.0,89.0,16.0,3.0,2.0,1.0,13.0,73.0,66.0,52.0,7.0,45.0,3.0,42.0,16.0,1.0,15.0,5.0,3.0,1.0,2.0,2.0,10.0,26.0,12.0,10.0,5.0,3.0,2.0,5.0,2.0,14.0,4.0,10.0,7.0,6.0,4.0,2.0,1.0,1.0,1.0,3.0,14.0,7.0,119.0,35.0,10.0,25.0,20.0,11.0,7.0,5.0,1.0,4.0,2.0,4.0,9.0,4.0,2.0,2.0,5.0,5.0,84.0,8.0,6.0,2.0,76.0,23.0,22.0,1.0,21.0,17.0,4.0,1.0,3.0,1.0,53.0,45.0,8.0,1.0,7.0,111.0,110.0,1.0,110.0,137.0,432.0,311.0,121.0,105.0,104.0,58.0,3.0,2.0,1.0,55.0,4.0,3.0,1.0,51.0,46.0,44.0,3.0,2.0,1.0,41.0,16.0,25.0,1.0,24.0,13.0,1.0,12.0,11.0,3.0,1.0,2.0,8.0,1.0,11.0,2.0,1.0,16.0,7.0,1.0,6.0,9.0,5.0,4.0,3.0,1.0]}},"precision":{"ccp_alpha":0.0,"class_weight":null,"classes_":[0,1],"criterion":"gini","feature_importances_":[0.4840640584,0.1359947718,0.0522540637,0.0558138159,0.0686354337,0.0663335071,0.0950246092,0.0418797402],"max_depth":20,"max_features":null,"max_features_":8,"max_leaf_nodes":null,"min_impurity_decrease":0.0,"min_samples_leaf":1,"min_samples_split":2,"min_weight_fraction_leaf":0.0,"n_classes_":2,"n_features_":8,"n_features_in_":8,"n_outputs_":1,"random_state":null,"splitter":"best","tree_":{"capacity":483,"children_left":[1,2,3,4,5,6,7,8,9,10,-1,-1,13,-1,15,-1,-1,18,19,20,-1,22,-1,-1,-1,26,-1,28,-1,30,-1,32,-1,-1,-1,36,37,-1,39,40,41,42,-1,-1,-1,-1,47,-1,49,-1,-1,52,-1,-1,-1,-1,57,58,59,60,61,62,-1,64,65,-1,67,68,-1,-1,-1,-1,73,-1,75,-1,-1,78,79,-1,81,-1,-1,-1,-1,86,87,-1,89,-1,91,-1,93,-1,-1,-1,-1,98,-1,100,101,102,-1,-1,105,106,107,-1,109,110,-1,112,113,114,-1,-1,117,-1,-1,120,121,-1,-1,-1,125,-1,127,-1,-1,130,131,-1,133,134,-1,-1,-1,138,-1,140,141,-1,-1,-1,145,146,147,-1,149,-1,-1,-1,153,-1,155,-1,-1,158,159,-1,161,162,163,164,-1,166,167,168,169,170,171,172,173,174,-1,-1,177,178,-1,-1,181,-1,-1,-1,-1,-1,187,-1,-1,190,-1,192,193,-1,195,-1,-1,-1,199,-1,201,-1,-1,-1,-1,-1,-1,208,-1,210,211,212,-1,-1,-1,-1,217,218,219,-1,221,222,223,224,225,226,227,-1,-1,230,-1,-1,233,-1,235,-1,-1,-1,239,240,241,-1,-1,-1,245,-1,247,-1,249,-1,-1,-1,253,-1,255,256,-1,258,-1,-1,-1,-1,263,264,265,266,267,268,269,270,271,272,-1,274,275,-1,277,-1,-1,280,281,282,-1,-1,-1,286,-1,288,289,-1,291,-1,-1,-1,295,-1,297,-1,-1,300,301,302,303,-1,305,-1,307,308,-1,-1,311,-1,313,-1,315,316,-1,-1,-1,-1,321,322,-1,-1,325,326,327,-1,-1,-1,-1,332,333,-1,335,336,337,338,339,-1,-1,-1,343,-1,345,-1,-1,-1,-1,350,-1,-1,-1,354,355,356,-1,-1,-1,360,361,362,-1,364,-1,366,367,-1,369,370,371,-1,-1,-1,-1,376,377,378,379,-1,-1,-1,-1,384,-1,386,387,388,-1,390,-1,-1,-1,-1,-1,-1,397,398,-1,400,401,402,403,404,-1,-1,-1,-1,409,410,-1,-1,-1,-1,415,416,-1,-1,419,420,421,-1,423,-1,425,-1,-1,-1,429,-1,431,-1,-1,434,-1,-1,-1,-1,439,-1,441,442,443,444,445,-1,-1,448,449,-1,-1,-1,453,454,455,-1,-1,458,-1,460,-1,462,463,-1,465,466,467,-1,-1,-1,-1,-1,-1,-1,475,476,-1,-1,479,-1,481,-1,-1],"children_right":[216,97,56,55,54,35,34,17,12,11,-1,-1,14,-1,16,-1,-1,25,24,21,-1,23,-1,-1,-1,27,-1,29,-1,31,-1,33,-1,-1,-1,51,38,-1,46,45,44,43,-1,-1,-1,-1,48,-1,50,-1,-1,53,-1,-1,-1,-1,96,85,84,77,72,63,-1,71,66,-1,70,69,-1,-1,-1,-1,74,-1,76,-1,-1,83,80,-1,82,-1,-1,-1,-1,95,88,-1,90,-1,92,-1,94,-1,-1,-1,-1,99,-1,157,104,103,-1,-1,144,129,108,-1,124,111,-1,119,116,115,-1,-1,118,-1,-1,123,122,-1,-1,-1,126,-1,128,-1,-1,137,132,-1,136,135,-1,-1,-1,139,-1,143,142,-1,-1,-1,152,151,148,-1,150,-1,-1,-1,154,-1,156,-1,-1,207,160,-1,206,205,204,165,-1,203,198,189,186,185,184,183,176,175,-1,-1,180,179,-1,-1,182,-1,-1,-1,-1,-1,188,-1,-1,191,-1,197,194,-1,196,-1,-1,-1,200,-1,202,-1,-1,-1,-1,-1,-1,209,-1,215,214,213,-1,-1,-1,-1,262,261,220,-1,252,251,238,237,232,229,228,-1,-1,231,-1,-1,234,-1,236,-1,-1,-1,244,243,242,-1,-1,-1,246,-1,248,-1,250,-1,-1,-1,254,-1,260,257,-1,259,-1,-1,-1,-1,438,437,436,433,396,353,352,299,294,273,-1,279,276,-1,278,-1,-1,285,284,283,-1,-1,-1,287,-1,293,290,-1,292,-1,-1,-1,296,-1,298,-1,-1,331,320,319,304,-1,306,-1,310,309,-1,-1,312,-1,314,-1,318,317,-1,-1,-1,-1,324,323,-1,-1,330,329,328,-1,-1,-1,-1,349,334,-1,348,347,342,341,340,-1,-1,-1,344,-1,346,-1,-1,-1,-1,351,-1,-1,-1,359,358,357,-1,-1,-1,395,394,363,-1,365,-1,375,368,-1,374,373,372,-1,-1,-1,-1,383,382,381,380,-1,-1,-1,-1,385,-1,393,392,389,-1,391,-1,-1,-1,-1,-1,-1,414,399,-1,413,408,407,406,405,-1,-1,-1,-1,412,411,-1,-1,-1,-1,418,417,-1,-1,428,427,422,-1,424,-1,426,-1,-1,-1,430,-1,432,-1,-1,435,-1,-1,-1,-1,440,-1,474,473,452,447,446,-1,-1,451,450,-1,-1,-1,472,457,456,-1,-1,459,-1,461,-1,471,464,-1,470,469,468,-1,-1,-1,-1,-1,-1,-1,478,477,-1,-1,480,-1,482,-1,-1],"feature":[0,0,0,6,3,6,3,5,3,3,-2,-2,2,-2,7,-2,-2,7,3,4,-2,2,-2,-2,-2,5,-2,2,-2,7,-2,2,-2,-2,-2,7,3,-2,4,7,7,4,-2,-2,-2,-2,2,-2,2,-2,-2,4,-2,-2,-2,-2,5,6,4,4,2,4,-2,2,2,-2,6,3,-2,-2,-2,-2,5,-2,5,-2,-2,6,4,-2,5,-2,-2,-2,-2,3,5,-2,5,-2,3,-2,5,-2,-2,-2,-2,0,-2,0,6,3,-2,-2,3,6,2,-2,4,7,-2,6,2,3,-2,-2,3,-2,-2,5,4,-2,-2,-2,6,-2,6,-2,-2,6,3,-2,3,4,-2,-2,-2,4,-2,2,7,-2,-2,-2,3,4,4,-2,2,-2,-2,-2,4,-2,5,-2,-2,2,0,-2,0,1,6,2,-2,5,7,3,3,4,4,7,5,3,-2,-2,6,6,-2,-2,4,-2,-2,-2,-2,-2,2,-2,-2,5,-2,5,7,-2,7,-2,-2,-2,4,-2,4,-2,-2,-2,-2,-2,-2,0,-2,3,2,6,-2,-2,-2,-2,0,0,1,-2,5,5,4,4,5,3,6,-2,-2,5,-2,-2,6,-2,7,-2,-2,-2,7,5,2,-2,-2,-2,6,-2,4,-2,6,-2,-2,-2,2,-2,7,6,-2,6,-2,-2,-2,-2,1,0,0,6,0,4,0,0,2,3,-2,2,3,-2,7,-2,-2,5,6,7,-2,-2,-2,6,-2,5,3,-2,4,-2,-2,-2,7,-2,7,-2,-2,6,5,4,3,-2,3,-2,5,7,-2,-2,5,-2,6,-2,2,4,-2,-2,-2,-2,3,3,-2,-2,7,7,3,-2,-2,-2,-2,5,4,-2,6,3,6,6,3,-2,-2,-2,4,-2,4,-2,-2,-2,-2,3,-2,-2,-2,6,4,2,-2,-2,-2,2,5,2,-2,7,-2,5,2,-2,6,3,5,-2,-2,-2,-2,2,6,7,2,-2,-2,-2,-2,2,-2,6,5,2,-2,5,-2,-2,-2,-2,-2,-2,3,5,-2,4,7,5,5,4,-2,-2,-2,-2,5,4,-2,-2,-2,-2,2,7,-2,-2,3,3,4,-2,3,-2,3,-2,-2,-2,4,-2,4,-2,-2,5,-2,-2,-2,-2,6,-2,5,3,7,6,6,-2,-2,7,2,-2,-2,-2,4,7,6,-2,-2,5,-2,5,-2,7,3,-2,7,3,7,-2,-2,-2,-2,-2,-2,-2,2,6,-2,-2,2,-2,2,-2,-2],"impurity":[0.281356632,0.137152675,0.2649932097,0.1189216427,0.1090672946,0.2390055173,0.1223781179,0.1125891929,0.0338882283,0.2448979592,0.0,0.0,0.0181802879,0.0,0.0997229917,0.0,0.0,0.2645136486,0.4958677686,0.375,0.0,0.4444444444,0.0,0.0,0.0,0.13875,0.0,0.097304405,0.0,0.21875,0.0,0.1244444444,0.0,0.0,0.0,0.49256395,0.4953173777,0.0,0.4526627219,0.4628099174,0.3456790123,0.4444444444,0.0,0.0,0.0,0.0,0.2311111111,0.0,0.375,0.0,0.0,0.18,0.0,0.0,0.0,0.0,0.4886835304,0.4081632653,0.2991469946,0.2680109221,0.1943801653,0.3106508876,0.0,0.21875,0.1587901701,0.0,0.4081632653,0.5,0.0,0.0,0.0,0.0,0.066587396,0.0,0.375,0.0,0.0,0.4591836735,0.2975206612,0.0,0.18,0.0,0.0,0.0,0.0,0.455,0.4012345679,0.0,0.3046875,0.0,0.42,0.0,0.48,0.0,0.0,0.0,0.0,0.0983781401,0.0,0.2143458117,0.4994444444,0.0624349636,0.0,0.0,0.4605479106,0.4929617926,0.455,0.0,0.432132964,0.4881656805,0.0,0.4338842975,0.5,0.32,0.0,0.0,0.32,0.0,0.0,0.2777777778,0.4444444444,0.0,0.0,0.0,0.1527777778,0.0,0.4444444444,0.0,0.0,0.4653739612,0.2975206612,0.0,0.4444444444,0.4444444444,0.0,0.0,0.0,0.46875,0.0,0.2777777778,0.5,0.0,0.0,0.0,0.32,0.1723356009,0.095,0.0,0.2448979592,0.0,0.0,0.0,0.4938271605,0.0,0.32,0.0,0.0,0.1333621566,0.1152480663,0.0,0.1787774605,0.2806544105,0.4930049717,0.4997165533,0.0,0.4971875,0.4931691685,0.5,0.4861111111,0.5,0.4963265306,0.4977777778,0.4928,0.2777777778,0.0,0.0,0.432132964,0.4938271605,0.32,0.0,0.18,0.0,0.5,0.0,0.0,0.0,0.18,0.0,0.0,0.375,0.0,0.32,0.2448979592,0.0,0.375,0.0,0.0,0.0,0.2603550296,0.0,0.1527777778,0.0,0.0,0.0,0.0,0.0,0.0,0.46875,0.0,0.3550295858,0.5,0.375,0.0,0.0,0.0,0.0,0.4402240735,0.4692277,0.489636482,0.0,0.2860534796,0.4152249135,0.3966942149,0.4775022957,0.4081632653,0.5,0.2448979592,0.0,0.0,0.2448979592,0.0,0.0,0.1326530612,0.0,0.4444444444,0.0,0.0,0.0,0.2571166208,0.0867768595,0.5,0.0,0.0,0.0,0.4628099174,0.0,0.21875,0.0,0.5,0.0,0.0,0.0,0.0880473373,0.0,0.060546875,0.0312421265,0.0,0.18,0.0,0.0,0.0,0.0,0.3678296797,0.4453791164,0.4763938424,0.4165346939,0.4548470689,0.3422453599,0.2432884866,0.324499822,0.1790054396,0.42,0.0,0.498046875,0.2777777778,0.0,0.5,0.0,0.0,0.4733727811,0.2777777778,0.1652892562,0.0,0.0,0.0,0.4897959184,0.0,0.4444444444,0.32,0.0,0.4444444444,0.0,0.0,0.0,0.0178556935,0.0,0.4444444444,0.0,0.0,0.4637573964,0.4994054697,0.4614197531,0.404296875,0.0,0.4608,0.0,0.4234404537,0.1975308642,0.0,0.0,0.4897959184,0.0,0.3966942149,0.0,0.32,0.1975308642,0.0,0.5,0.0,0.0,0.3512396694,0.1420118343,0.0,0.0,0.4938271605,0.4444444444,0.4444444444,0.0,0.0,0.0,0.0,0.3402646503,0.3028664143,0.0,0.2777777778,0.249851279,0.4081632653,0.46875,0.375,0.0,0.0,0.0,0.1420118343,0.0,0.4444444444,0.0,0.0,0.0,0.0,0.4444444444,0.0,0.0,0.0,0.4948870092,0.21875,0.4444444444,0.0,0.0,0.0,0.4586226309,0.4100091827,0.4637573964,0.0,0.4879012346,0.0,0.4716553288,0.3046875,0.0,0.2311111111,0.48,0.4444444444,0.0,0.0,0.0,0.0,0.5,0.4444444444,0.32,0.48,0.0,0.0,0.0,0.0,0.4591836735,0.0,0.5,0.4081632653,0.2777777778,0.0,0.5,0.0,0.0,0.0,0.0,0.0,0.0,0.2327519243,0.4081632653,0.0,0.48,0.5,0.3966942149,0.4897959184,0.32,0.0,0.0,0.0,0.0,0.3456790123,0.5,0.0,0.0,0.0,0.0,0.1326530612,0.375,0.0,0.0,0.0997229917,0.2268431002,0.1652892562,0.0,0.0907029478,0.0,0.375,0.0,0.0,0.0,0.0370238519,0.0,0.21875,0.0,0.0,0.0178556935,0.0,0.0,0.0,0.0,0.0798611111,0.0,0.2532613892,0.1875736961,0.173816568,0.066587396,0.4444444444,0.0,0.0,0.0357024793,0.375,0.0,0.0,0.0,0.2873345936,0.2355371901,0.4444444444,0.0,0.0,0.1760856633,0.0,0.2688,0.0,0.21875,0.3550295858,0.0,0.2777777778,0.1652892562,0.4444444444,0.0,0.0,0.0,0.0,0.0,0.0,0.0,0.4921875,0.2448979592,0.0,0.0,0.4444444444,0.0,0.375,0.0,0.0],"max_depth":20,"max_n_classes":2,"n_classes":[2],"n_features":8,"n_leaves":242,"n_node_samples":[4700,2930,617,504,501,209,168,167,116,7,6,1,109,90,19,1,18,51,11,8,5,3,1,2,3,40,1,39,23,16,1,15,1,14,1,41,31,5,26,11,9,3,1,2,6,2,15,7,8,2,6,10,9,1,292,3,113,91,71,69,55,26,2,24,23,16,7,4,2,2,3,1,29,25,4,1,3,14,11,1,10,1,9,3,2,20,18,2,16,6,10,5,5,3,2,2,22,2313,1330,983,120,31,1,30,89,59,40,2,38,26,4,22,10,5,1,4,5,1,4,12,3,1,2,9,12,9,3,1,2,19,11,5,6,3,1,2,3,8,2,6,2,1,1,4,30,21,20,13,7,6,1,1,9,4,5,1,4,863,847,323,524,308,93,84,4,80,77,64,48,38,35,30,25,6,1,5,19,9,5,4,10,8,2,5,5,3,10,9,1,16,1,15,14,6,8,2,6,1,13,1,12,11,1,3,9,215,216,16,3,13,6,4,1,3,2,7,1770,391,257,124,133,68,66,33,28,14,7,1,6,7,6,1,14,11,3,1,2,5,33,22,2,1,1,20,11,3,8,6,2,1,1,2,65,1,64,63,53,10,1,9,1,134,1379,947,810,700,589,470,381,265,161,50,18,32,6,4,2,1,1,26,12,11,1,10,1,14,2,12,10,7,3,1,2,2,111,108,3,1,2,104,58,36,32,7,25,2,23,9,8,1,14,3,11,1,10,9,7,2,1,4,22,13,1,12,9,6,3,2,1,3,3,46,43,1,42,41,21,8,4,3,1,4,13,10,3,1,2,20,1,3,1,2,116,89,16,3,2,1,13,73,66,52,7,45,3,42,16,1,15,5,3,1,2,2,10,26,12,10,5,3,2,5,2,14,4,10,7,6,4,2,1,1,1,3,14,7,119,35,10,25,20,11,7,5,1,4,2,4,9,4,2,2,5,5,84,8,6,2,76,23,22,1,21,17,4,1,3,1,53,45,8,1,7,111,110,1,110,137,432,311,121,105,104,58,3,2,1,55,4,3,1,51,46,44,3,2,1,41,16,25,1,24,13,1,12,11,3,1,2,8,1,11,2,1,16,7,1,6,9,5,4,3,1],"n_outputs":1,"node_count":483,"threshold":[0.3052310944,-0.9349800944,-1.0477266014,1.9118924141,-0.5033921301,0.8823385835,-0.505128324,0.1246625744,-0.8695318103,-0.8876651824,-2.0,-2.0,-0.3714436889,-2.0,-0.837452352,-2.0,-2.0,-1.1078449488,-0.8052933812,1.1092418432,-2.0,-0.6580664515,-2.0,-2.0,-2.0,0.1292533502,-2.0,-0.1609726883,-2.0,-0.9127010703,-2.0,-0.111656718,-2.0,-2.0,-2.0,0.162420921,-0.8776339293,-2.0,-0.2830035686,-0.0220668167,-0.7377765179,-0.5420747697,-2.0,-2.0,-2.0,-2.0,-0.2865808904,-2.0,-0.2334713861,-2.0,-2.0,0.8661439121,-2.0,-2.0,-2.0,-2.0,0.0054022695,-0.4461294413,1.8363201618,1.0947842002,-0.792245239,0.1105001643,-2.0,-0.8046093583,-0.8424042165,-2.0,-1.0016512871,-0.6922492087,-2.0,-2.0,-2.0,-2.0,-0.4013302475,-2.0,-0.2158530317,-2.0,-2.0,-1.1264413595,1.1101745963,-2.0,-1.7861469984,-2.0,-2.0,-2.0,-2.0,0.0662655849,-1.5005709529,-2.0,-0.8585613072,-2.0,-0.490853101,-2.0,-0.6177452803,-2.0,-2.0,-2.0,-2.0,-0.2585012689,-2.0,-0.0893815653,-0.4212140143,-0.5068644881,-2.0,-2.0,0.4711797684,0.0147705297,-0.5784021914,-2.0,0.3558133096,-0.3557950854,-2.0,-0.1538167819,0.1559983417,-0.1862511598,-2.0,-2.0,-0.2061207006,-2.0,-2.0,-0.6853094995,-0.4067094922,-2.0,-2.0,-2.0,-0.1142076403,-2.0,-0.0292396322,-2.0,-2.0,0.3079349995,0.2159623057,-2.0,0.374532789,-0.4819124192,-2.0,-2.0,-2.0,-0.3035240695,-2.0,-0.3531785309,-0.4910460263,-2.0,-2.0,-2.0,1.0693879128,0.0948766097,-0.3534261733,-2.0,0.085466668,-2.0,-2.0,-2.0,-1.0763071179,-2.0,-0.5640532076,-2.0,-2.0,1.6403950453,0.0797381429,-2.0,0.1924846172,0.3895468414,-0.143949993,-0.7774925828,-2.0,1.126149714,0.3413346857,-0.3141492605,-0.4565154612,1.2240866423,1.0973492861,-0.3491828144,-0.7644504309,-0.7352677286,-2.0,-2.0,-0.8016889691,-1.0152092278,-2.0,-2.0,0.8408431113,-2.0,-2.0,-2.0,-2.0,-2.0,-0.0383150131,-2.0,-2.0,-0.9543687403,-2.0,0.7517521977,-0.2388508394,-2.0,-0.1152943317,-2.0,-2.0,-2.0,-0.5090787709,-2.0,0.720285207,-2.0,-2.0,-2.0,-2.0,-2.0,-2.0,0.0797381429,-2.0,1.3066649437,3.1617436409,-0.4727484882,-2.0,-2.0,-2.0,-2.0,0.7562170029,0.5307240486,0.3895468414,-2.0,0.579398632,0.5575924516,-0.1160413921,-0.234150812,0.2569466978,-0.0529516395,-0.2009502575,-2.0,-2.0,0.2463679537,-2.0,-2.0,0.95743981,-2.0,1.1268830597,-2.0,-2.0,-2.0,0.6012350619,-0.81729424,-0.7793191075,-2.0,-2.0,-2.0,0.3075800911,-2.0,0.2983326167,-2.0,0.9338730872,-2.0,-2.0,-2.0,-0.822453022,-2.0,4.12322402,0.9068991244,-2.0,0.91747576,-2.0,-2.0,-2.0,-2.0,0.3895468414,1.3763226271,1.2072029114,0.8731816709,1.0944564342,0.5386322439,0.9817099571,0.86896348,-0.0269344067,-0.3550457805,-2.0,-0.4915723503,0.1887622569,-2.0,-0.3784735352,-2.0,-2.0,-0.3301233798,-0.7635704875,-0.7130215168,-2.0,-2.0,-2.0,-1.3046825528,-2.0,0.2847408354,-0.1115957201,-2.0,-0.0515650809,-2.0,-2.0,-2.0,1.8576752543,-2.0,2.0763172507,-2.0,-2.0,-0.0461338572,1.0410706997,0.0009020877,0.2086317912,-2.0,0.2991057187,-2.0,-0.0173020968,1.0544760078,-2.0,-2.0,0.2712679207,-2.0,-0.8552109897,-2.0,1.0775466859,-0.2694787085,-2.0,-2.0,-2.0,-2.0,0.7507036626,0.092501089,-2.0,-2.0,0.4388792962,-0.0782984197,1.1951640248,-2.0,-2.0,-2.0,-2.0,1.4927628636,-1.5789425373,-2.0,0.8377605677,0.5790154338,0.2754242569,0.1159229204,0.2987198979,-2.0,-2.0,-2.0,-0.0835117511,-2.0,-0.0617087297,-2.0,-2.0,-2.0,-2.0,0.5317529142,-2.0,-2.0,-2.0,-1.6664176583,1.2758541703,-0.568005085,-2.0,-2.0,-2.0,-0.3996844739,-0.2293259576,-0.7996917963,-2.0,-1.048006624,-2.0,-0.8997784555,-0.7939312458,-2.0,-1.510607481,-0.5471822917,-1.5164390802,-2.0,-2.0,-2.0,-2.0,-0.6390987635,-1.0164159834,-0.5298999399,-0.7180605233,-2.0,-2.0,-2.0,-2.0,-0.5626660287,-2.0,-1.0951373577,-0.2550742105,-0.4377603382,-2.0,-0.5396023542,-2.0,-2.0,-2.0,-2.0,-2.0,-2.0,-0.1461262703,0.0331964074,-2.0,0.3635084927,0.245320186,0.5614846349,0.4299988896,-0.199172698,-2.0,-2.0,-2.0,-2.0,0.5486603975,-0.3190310299,-2.0,-2.0,-2.0,-2.0,-0.4894648343,-0.000481315,-2.0,-2.0,0.0247903382,0.0066569725,-0.6410628557,-2.0,-0.0294168489,-2.0,-0.014948739,-2.0,-2.0,-2.0,-0.1583649069,-2.0,-0.1193060167,-2.0,-2.0,2.9881572723,-2.0,-2.0,-2.0,-2.0,0.4311634451,-2.0,1.2403701544,1.862626195,-0.1126712821,0.5166283399,0.4838336855,-2.0,-2.0,-0.77400738,-0.2265868187,-2.0,-2.0,-2.0,0.0115121156,-0.0767683089,1.1953786016,-2.0,-2.0,0.5920731425,-2.0,0.61353001,-2.0,0.391719088,-0.3722146153,-2.0,0.3621551394,-0.2757605314,-0.0027218359,-2.0,-2.0,-2.0,-2.0,-2.0,-2.0,-2.0,0.1071038768,0.6028030813,-2.0,-2.0,0.598999083,-2.0,1.8035171032,-2.0,-2.0],"value":[[[3904.0,796.0]],[[2713.0,217.0]],[[520.0,97.0]],[[472.0,32.0]],[[472.0,29.0]],[[180.0,29.0]],[[157.0,11.0]],[[157.0,10.0]],[[114.0,2.0]],[[6.0,1.0]],[[6.0,0.0]],[[0.0,1.0]],[[108.0,1.0]],[[90.0,0.0]],[[18.0,1.0]],[[0.0,1.0]],[[18.0,0.0]],[[43.0,8.0]],[[6.0,5.0]],[[6.0,2.0]],[[5.0,0.0]],[[1.0,2.0]],[[1.0,0.0]],[[0.0,2.0]],[[0.0,3.0]],[[37.0,3.0]],[[0.0,1.0]],[[37.0,2.0]],[[23.0,0.0]],[[14.0,2.0]],[[0.0,1.0]],[[14.0,1.0]],[[0.0,1.0]],[[14.0,0.0]],[[0.0,1.0]],[[23.0,18.0]],[[14.0,17.0]],[[5.0,0.0]],[[9.0,17.0]],[[7.0,4.0]],[[7.0,2.0]],[[1.0,2.0]],[[1.0,0.0]],[[0.0,2.0]],[[6.0,0.0]],[[0.0,2.0]],[[2.0,13.0]],[[0.0,7.0]],[[2.0,6.0]],[[2.0,0.0]],[[0.0,6.0]],[[9.0,1.0]],[[9.0,0.0]],[[0.0,1.0]],[[292.0,0.0]],[[0.0,3.0]],[[48.0,65.0]],[[26.0,65.0]],[[13.0,58.0]],[[11.0,58.0]],[[6.0,49.0]],[[5.0,21.0]],[[2.0,0.0]],[[3.0,21.0]],[[2.0,21.0]],[[0.0,16.0]],[[2.0,5.0]],[[2.0,2.0]],[[0.0,2.0]],[[2.0,0.0]],[[0.0,3.0]],[[1.0,0.0]],[[1.0,28.0]],[[0.0,25.0]],[[1.0,3.0]],[[1.0,0.0]],[[0.0,3.0]],[[5.0,9.0]],[[2.0,9.0]],[[1.0,0.0]],[[1.0,9.0]],[[1.0,0.0]],[[0.0,9.0]],[[3.0,0.0]],[[2.0,0.0]],[[13.0,7.0]],[[13.0,5.0]],[[0.0,2.0]],[[13.0,3.0]],[[6.0,0.0]],[[7.0,3.0]],[[5.0,0.0]],[[2.0,3.0]],[[0.0,3.0]],[[2.0,0.0]],[[0.0,2.0]],[[22.0,0.0]],[[2193.0,120.0]],[[1330.0,0.0]],[[863.0,120.0]],[[62.0,58.0]],[[30.0,1.0]],[[0.0,1.0]],[[30.0,0.0]],[[32.0,57.0]],[[26.0,33.0]],[[14.0,26.0]],[[2.0,0.0]],[[12.0,26.0]],[[11.0,15.0]],[[4.0,0.0]],[[7.0,15.0]],[[5.0,5.0]],[[4.0,1.0]],[[0.0,1.0]],[[4.0,0.0]],[[1.0,4.0]],[[1.0,0.0]],[[0.0,4.0]],[[2.0,10.0]],[[2.0,1.0]],[[0.0,1.0]],[[2.0,0.0]],[[0.0,9.0]],[[1.0,11.0]],[[0.0,9.0]],[[1.0,2.0]],[[1.0,0.0]],[[0.0,2.0]],[[12.0,7.0]],[[9.0,2.0]],[[5.0,0.0]],[[4.0,2.0]],[[1.0,2.0]],[[1.0,0.0]],[[0.0,2.0]],[[3.0,0.0]],[[3.0,5.0]],[[2.0,0.0]],[[1.0,5.0]],[[1.0,1.0]],[[0.0,1.0]],[[1.0,0.0]],[[0.0,4.0]],[[6.0,24.0]],[[2.0,19.0]],[[1.0,19.0]],[[0.0,13.0]],[[1.0,6.0]],[[0.0,6.0]],[[1.0,0.0]],[[1.0,0.0]],[[4.0,5.0]],[[0.0,4.0]],[[4.0,1.0]],[[0.0,1.0]],[[4.0,0.0]],[[801.0,62.0]],[[795.0,52.0]],[[323.0,0.0]],[[472.0,52.0]],[[256.0,52.0]],[[41.0,52.0]],[[41.0,43.0]],[[4.0,0.0]],[[37.0,43.0]],[[34.0,43.0]],[[32.0,32.0]],[[20.0,28.0]],[[19.0,19.0]],[[19.0,16.0]],[[14.0,16.0]],[[14.0,11.0]],[[1.0,5.0]],[[1.0,0.0]],[[0.0,5.0]],[[13.0,6.0]],[[4.0,5.0]],[[4.0,1.0]],[[0.0,4.0]],[[9.0,1.0]],[[8.0,0.0]],[[1.0,1.0]],[[0.0,5.0]],[[5.0,0.0]],[[0.0,3.0]],[[1.0,9.0]],[[0.0,9.0]],[[1.0,0.0]],[[12.0,4.0]],[[0.0,1.0]],[[12.0,3.0]],[[12.0,2.0]],[[6.0,0.0]],[[6.0,2.0]],[[0.0,2.0]],[[6.0,0.0]],[[0.0,1.0]],[[2.0,11.0]],[[1.0,0.0]],[[1.0,11.0]],[[0.0,11.0]],[[1.0,0.0]],[[3.0,0.0]],[[0.0,9.0]],[[215.0,0.0]],[[216.0,0.0]],[[6.0,10.0]],[[3.0,0.0]],[[3.0,10.0]],[[3.0,3.0]],[[1.0,3.0]],[[1.0,0.0]],[[0.0,3.0]],[[2.0,0.0]],[[0.0,7.0]],[[1191.0,579.0]],[[147.0,244.0]],[[147.0,110.0]],[[124.0,0.0]],[[23.0,110.0]],[[20.0,48.0]],[[18.0,48.0]],[[13.0,20.0]],[[8.0,20.0]],[[7.0,7.0]],[[6.0,1.0]],[[0.0,1.0]],[[6.0,0.0]],[[1.0,6.0]],[[0.0,6.0]],[[1.0,0.0]],[[1.0,13.0]],[[0.0,11.0]],[[1.0,2.0]],[[1.0,0.0]],[[0.0,2.0]],[[5.0,0.0]],[[5.0,28.0]],[[1.0,21.0]],[[1.0,1.0]],[[0.0,1.0]],[[1.0,0.0]],[[0.0,20.0]],[[4.0,7.0]],[[3.0,0.0]],[[1.0,7.0]],[[0.0,6.0]],[[1.0,1.0]],[[0.0,1.0]],[[1.0,0.0]],[[2.0,0.0]],[[3.0,62.0]],[[1.0,0.0]],[[2.0,62.0]],[[1.0,62.0]],[[0.0,53.0]],[[1.0,9.0]],[[1.0,0.0]],[[0.0,9.0]],[[1.0,0.0]],[[0.0,134.0]],[[1044.0,335.0]],[[630.0,317.0]],[[493.0,317.0]],[[493.0,207.0]],[[383.0,206.0]],[[367.0,103.0]],[[327.0,54.0]],[[211.0,54.0]],[[145.0,16.0]],[[35.0,15.0]],[[18.0,0.0]],[[17.0,15.0]],[[1.0,5.0]],[[0.0,4.0]],[[1.0,1.0]],[[1.0,0.0]],[[0.0,1.0]],[[16.0,10.0]],[[10.0,2.0]],[[10.0,1.0]],[[0.0,1.0]],[[10.0,0.0]],[[0.0,1.0]],[[6.0,8.0]],[[2.0,0.0]],[[4.0,8.0]],[[2.0,8.0]],[[0.0,7.0]],[[2.0,1.0]],[[0.0,1.0]],[[2.0,0.0]],[[2.0,0.0]],[[110.0,1.0]],[[108.0,0.0]],[[2.0,1.0]],[[0.0,1.0]],[[2.0,0.0]],[[66.0,38.0]],[[30.0,28.0]],[[13.0,23.0]],[[9.0,23.0]],[[0.0,7.0]],[[9.0,16.0]],[[2.0,0.0]],[[7.0,16.0]],[[1.0,8.0]],[[0.0,8.0]],[[1.0,0.0]],[[6.0,8.0]],[[3.0,0.0]],[[3.0,8.0]],[[1.0,0.0]],[[2.0,8.0]],[[1.0,8.0]],[[0.0,7.0]],[[1.0,1.0]],[[1.0,0.0]],[[4.0,0.0]],[[17.0,5.0]],[[12.0,1.0]],[[0.0,1.0]],[[12.0,0.0]],[[5.0,4.0]],[[2.0,4.0]],[[2.0,1.0]],[[2.0,0.0]],[[0.0,1.0]],[[0.0,3.0]],[[3.0,0.0]],[[36.0,10.0]],[[35.0,8.0]],[[0.0,1.0]],[[35.0,7.0]],[[35.0,6.0]],[[15.0,6.0]],[[3.0,5.0]],[[3.0,1.0]],[[3.0,0.0]],[[0.0,1.0]],[[0.0,4.0]],[[12.0,1.0]],[[10.0,0.0]],[[2.0,1.0]],[[0.0,1.0]],[[2.0,0.0]],[[20.0,0.0]],[[0.0,1.0]],[[1.0,2.0]],[[1.0,0.0]],[[0.0,2.0]],[[116.0,0.0]],[[40.0,49.0]],[[14.0,2.0]],[[1.0,2.0]],[[0.0,2.0]],[[1.0,0.0]],[[13.0,0.0]],[[26.0,47.0]],[[19.0,47.0]],[[19.0,33.0]],[[0.0,7.0]],[[19.0,26.0]],[[3.0,0.0]],[[16.0,26.0]],[[3.0,13.0]],[[1.0,0.0]],[[2.0,13.0]],[[2.0,3.0]],[[2.0,1.0]],[[0.0,1.0]],[[2.0,0.0]],[[0.0,2.0]],[[0.0,10.0]],[[13.0,13.0]],[[8.0,4.0]],[[8.0,2.0]],[[3.0,2.0]],[[3.0,0.0]],[[0.0,2.0]],[[5.0,0.0]],[[0.0,2.0]],[[5.0,9.0]],[[0.0,4.0]],[[5.0,5.0]],[[2.0,5.0]],[[1.0,5.0]],[[0.0,4.0]],[[1.0,1.0]],[[0.0,1.0]],[[1.0,0.0]],[[1.0,0.0]],[[3.0,0.0]],[[0.0,14.0]],[[7.0,0.0]],[[16.0,103.0]],[[10.0,25.0]],[[0.0,10.0]],[[10.0,15.0]],[[10.0,10.0]],[[8.0,3.0]],[[4.0,3.0]],[[4.0,1.0]],[[0.0,1.0]],[[4.0,0.0]],[[0.0,2.0]],[[4.0,0.0]],[[2.0,7.0]],[[2.0,2.0]],[[2.0,0.0]],[[0.0,2.0]],[[0.0,5.0]],[[0.0,5.0]],[[6.0,78.0]],[[2.0,6.0]],[[0.0,6.0]],[[2.0,0.0]],[[4.0,72.0]],[[3.0,20.0]],[[2.0,20.0]],[[1.0,0.0]],[[1.0,20.0]],[[0.0,17.0]],[[1.0,3.0]],[[1.0,0.0]],[[0.0,3.0]],[[1.0,0.0]],[[1.0,52.0]],[[0.0,45.0]],[[1.0,7.0]],[[1.0,0.0]],[[0.0,7.0]],[[110.0,1.0]],[[110.0,0.0]],[[0.0,1.0]],[[0.0,110.0]],[[137.0,0.0]],[[414.0,18.0]],[[311.0,0.0]],[[103.0,18.0]],[[94.0,11.0]],[[94.0,10.0]],[[56.0,2.0]],[[2.0,1.0]],[[2.0,0.0]],[[0.0,1.0]],[[54.0,1.0]],[[3.0,1.0]],[[3.0,0.0]],[[0.0,1.0]],[[51.0,0.0]],[[38.0,8.0]],[[38.0,6.0]],[[1.0,2.0]],[[0.0,2.0]],[[1.0,0.0]],[[37.0,4.0]],[[16.0,0.0]],[[21.0,4.0]],[[0.0,1.0]],[[21.0,3.0]],[[10.0,3.0]],[[0.0,1.0]],[[10.0,2.0]],[[10.0,1.0]],[[2.0,1.0]],[[0.0,1.0]],[[2.0,0.0]],[[8.0,0.0]],[[0.0,1.0]],[[11.0,0.0]],[[0.0,2.0]],[[0.0,1.0]],[[9.0,7.0]],[[6.0,1.0]],[[0.0,1.0]],[[6.0,0.0]],[[3.0,6.0]],[[0.0,5.0]],[[3.0,1.0]],[[3.0,0.0]],[[0.0,1.0]]],"weighted_n_node_samples":[4700.0,2930.0,617.0,504.0,501.0,209.0,168.0,167.0,116.0,7.0,6.0,1.0,109.0,90.0,19.0,1.0,18.0,51.0,11.0,8.0,5.0,3.0,1.0,2.0,3.0,40.0,1.0,39.0,23.0,16.0,1.0,15.0,1.0,14.0,1.0,41.0,31.0,5.0,26.0,11.0,9.0,3.0,1.0,2.0,6.0,2.0,15.0,7.0,8.0,2.0,6.0,10.0,9.0,1.0,292.0,3.0,113.0,91.0,71.0,69.0,55.0,26.0,2.0,24.0,23.0,16.0,7.0,4.0,2.0,2.0,3.0,1.0,29.0,25.0,4.0,1.0,3.0,14.0,11.0,1.0,10.0,1.0,9.0,3.0,2.0,20.0,18.0,2.0,16.0,6.0,10.0,5.0,5.0,3.0,2.0,2.0,22.0,2313.0,1330.0,983.0,120.0,31.0,1.0,30.0,89.0,59.0,40.0,2.0,38.0,26.0,4.0,22.0,10.0,5.0,1.0,4.0,5.0,1.0,4.0,12.0,3.0,1.0,2.0,9.0,12.0,9.0,3.0,1.0,2.0,19.0,11.0,5.0,6.0,3.0,1.0,2.0,3.0,8.0,2.0,6.0,2.0,1.0,1.0,4.0,30.0,21.0,20.0,13.0,7.0,6.0,1.0,1.0,9.0,4.0,5.0,1.0,4.0,863.0,847.0,323.0,524.0,308.0,93.0,84.0,4.0,80.0,77.0,64.0,48.0,38.0,35.0,30.0,25.0,6.0,1.0,5.0,19.0,9.0,5.0,4.0,10.0,8.0,2.0,5.0,5.0,3.0,10.0,9.0,1.0,16.0,1.0,15.0,14.0,6.0,8.0,2.0,6.0,1.0,13.0,1.0,12.0,11.0,1.0,3.0,9.0,215.0,216.0,16.0,3.0,13.0,6.0,4.0,1.0,3.0,2.0,7.0,1770.0,391.0,257.0,124.0,133.0,68.0,66.0,33.0,28.0,14.0,7.0,1.0,6.0,7.0,6.0,1.0,14.0,11.0,3.0,1.0,2.0,5.0,33.0,22.0,2.0,1.0,1.0,20.0,11.0,3.0,8.0,6.0,2.0,1.0,1.0,2.0,65.0,1.0,64.0,63.0,53.0,10.0,1.0,9.0,1.0,134.0,1379.0,947.0,810.0,700.0,589.0,470.0,381.0,265.0,161.0,50.0,18.0,32.0,6.0,4.0,2.0,1.0,1.0,26.0,12.0,11.0,1.0,10.0,1.0,14.0,2.0,12.0,10.0,7.0,3.0,1.0,2.0,2.0,111.0,108.0,3.0,1.0,2.0,104.0,58.0,36.0,32.0,7.0,25.0,2.0,23.0,9.0,8.0,1.0,14.0,3.0,11.0,1.0,10.0,9.0,7.0,2.0,1.0,4.0,22.0,13.0,1.0,12.0,9.0,6.0,3.0,2.0,1.0,3.0,3.0,46.0,43.0,1.0,42.0,41.0,21.0,8.0,4.0,3.0,1.0,4.0,13.0,10.0,3.0,1.0,2.0,20.0,1.0,3.0,1.0,2.0,116.0,89.0,16.0,3.0,2.0,1.0,13.0,73.0,66.0,52.0,7.0,45.0,3.0,42.0,16.0,1.0,15.0,5.0,3.0,1.0,2.0,2.0,10.0,26.0,12.0,10.0,5.0,3.0,2.0,5.0,2.0,14.0,4.0,10.0,7.0,6.0,4.0,2.0,1.0,1.0,1.0,3.0,14.0,7.0,119.0,35.0,10.0,25.0,20.0,11.0,7.0,5.0,1.0,4.0,2.0,4.0,9.0,4.0,2.0,2.0,5.0,5.0,84.0,8.0,6.0,2.0,76.0,23.0,22.0,1.0,21.0,17.0,4.0,1.0,3.0,1.0,53.0,45.0,8.0,1.0,7.0,111.0,110.0,1.0,110.0,137.0,432.0,311.0,121.0,105.0,104.0,58.0,3.0,2.0,1.0,55.0,4.0,3.0,1.0,51.0,46.0,44.0,3.0,2.0,1.0,41.0,16.0,25.0,1.0,24.0,13.0,1.0,12.0,11.0,3.0,1.0,2.0,8.0,1.0,11.0,2.0,1.0,16.0,7.0,1.0,6.0,9.0,5.0,4.0,3.0,1.0]}},"recall":{"ccp_alpha":0.0,"class_weight":null,"classes_":[0,1],"criterion":"gini","feature_importances_":[0.4840640584,0.1359947718,0.0522540637,0.0558138159,0.0686354337,0.0663335071,0.0950246092,0.0418797402],"max_depth":20,"max_features":null,"max_features_":8,"max_leaf_nodes":null,"min_impurity_decrease":0.0,"min_samples_leaf":1,"min_samples_split":2,"min_weight_fraction_leaf":0.0,"n_classes_":2,"n_features_":8,"n_features_in_":8,"n_outputs_":1,"random_state":null,"splitter":"best","tree_":{"capacity":483,"children_left":[1,2,3,4,5,6,7,8,9,10,-1,-1,13,-1,15,-1,-1,18,19,20,-1,22,-1,-1,-1,26,-1,28,-1,30,-1,32,-1,-1,-1,36,37,-1,39,40,41,42,-1,-1,-1,-1,47,-1,49,-1,-1,52,-1,-1,-1,-1,57,58,59,60,61,62,-1,64,65,-1,67,68,-1,-1,-1,-1,73,-1,75,-1,-1,78,79,-1,81,-1,-1,-1,-1,86,87,-1,89,-1,91,-1,93,-1,-1,-1,-1,98,-1,100,101,102,-1,-1,105,106,107,-1,109,110,-1,112,113,114,-1,-1,117,-1,-1,120,121,-1,-1,-1,125,-1,127,-1,-1,130,131,-1,133,134,-1,-1,-1,138,-1,140,141,-1,-1,-1,145,146,147,-1,149,-1,-1,-1,153,-1,155,-1,-1,158,159,-1,161,162,163,164,-1,166,167,168,169,170,171,172,173,174,-1,-1,177,178,-1,-1,181,-1,-1,-1,-1,-1,187,-1,-1,190,-1,192,193,-1,195,-1,-1,-1,199,-1,201,-1,-1,-1,-1,-1,-1,208,-1,210,211,212,-1,-1,-1,-1,217,218,219,-1,221,222,223,224,225,226,227,-1,-1,230,-1,-1,233,-1,235,-1,-1,-1,239,240,241,-1,-1,-1,245,-1,247,-1,249,-1,-1,-1,253,-1,255,256,-1,258,-1,-1,-1,-1,263,264,265,266,267,268,269,270,271,272,-1,274,275,-1,277,-1,-1,280,281,282,-1,-1,-1,286,-1,288,289,-1,291,-1,-1,-1,295,-1,297,-1,-1,300,301,302,303,-1,305,-1,307,308,-1,-1,311,-1,313,-1,315,316,-1,-1,-1,-1,321,322,-1,-1,325,326,327,-1,-1,-1,-1,332,333,-1,335,336,337,338,339,-1,-1,-1,343,-1,345,-1,-1,-1,-1,350,-1,-1,-1,354,355,356,-1,-1,-1,360,361,362,-1,364,-1,366,367,-1,369,370,371,-1,-1,-1,-1,376,377,378,379,-1,-1,-1,-1,384,-1,386,387,388,-1,390,-1,-1,-1,-1,-1,-1,397,398,-1,400,401,402,403,404,-1,-1,-1,-1,409,410,-1,-1,-1,-1,415,416,-1,-1,419,420,421,-1,423,-1,425,-1,-1,-1,429,-1,431,-1,-1,434,-1,-1,-1,-1,439,-1,441,442,443,444,445,-1,-1,448,449,-1,-1,-1,453,454,455,-1,-1,458,-1,460,-1,462,463,-1,465,466,467,-1,-1,-1,-1,-1,-1,-1,475,476,-1,-1,479,-1,481,-1,-1],"children_right":[216,97,56,55,54,35,34,17,12,11,-1,-1,14,-1,16,-1,-1,25,24,21,-1,23,-1,-1,-1,27,-1,29,-1,31,-1,33,-1,-1,-1,51,38,-1,46,45,44,43,-1,-1,-1,-1,48,-1,50,-1,-1,53,-1,-1,-1,-1,96,85,84,77,72,63,-1,71,66,-1,70,69,-1,-1,-1,-1,74,-1,76,-1,-1,83,80,-1,82,-1,-1,-1,-1,95,88,-1,90,-1,92,-1,94,-1,-1,-1,-1,99,-1,157,104,103,-1,-1,144,129,108,-1,124,111,-1,119,116,115,-1,-1,118,-1,-1,123,122,-1,-1,-1,126,-1,128,-1,-1,137,132,-1,136,135,-1,-1,-1,139,-1,143,142,-1,-1,-1,152,151,148,-1,150,-1,-1,-1,154,-1,156,-1,-1,207,160,-1,206,205,204,165,-1,203,198,189,186,185,184,183,176,175,-1,-1,180,179,-1,-1,182,-1,-1,-1,-1,-1,188,-1,-1,191,-1,197,194,-1,196,-1,-1,-1,200,-1,202,-1,-1,-1,-1,-1,-1,209,-1,215,214,213,-1,-1,-1,-1,262,261,220,-1,252,251,238,237,232,229,228,-1,-1,231,-1,-1,234,-1,236,-1,-1,-1,244,243,242,-1,-1,-1,246,-1,248,-1,250,-1,-1,-1,254,-1,260,257,-1,259,-1,-1,-1,-1,438,437,436,433,396,353,352,299,294,273,-1,279,276,-1,278,-1,-1,285,284,283,-1,-1,-1,287,-1,293,290,-1,292,-1,-1,-1,296,-1,298,-1,-1,331,320,319,304,-1,306,-1,310,309,-1,-1,312,-1,314,-1,318,317,-1,-1,-1,-1,324,323,-1,-1,330,329,328,-1,-1,-1,-1,349,334,-1,348,347,342,341,340,-1,-1,-1,344,-1,346,-1,-1,-1,-1,351,-1,-1,-1,359,358,357,-1,-1,-1,395,394,363,-1,365,-1,375,368,-1,374,373,372,-1,-1,-1,-1,383,382,381,380,-1,-1,-1,-1,385,-1,393,392,389,-1,391,-1,-1,-1,-1,-1,-1,414,399,-1,413,408,407,406,405,-1,-1,-1,-1,412,411,-1,-1,-1,-1,418,417,-1,-1,428,427,422,-1,424,-1,426,-1,-1,-1,430,-1,432,-1,-1,435,-1,-1,-1,-1,440,-1,474,473,452,447,446,-1,-1,451,450,-1,-1,-1,472,457,456,-1,-1,459,-1,461,-1,471,464,-1,470,469,468,-1,-1,-1,-1,-1,-1,-1,478,477,-1,-1,480,-1,482,-1,-1],"feature":[0,0,0,6,3,6,3,5,3,3,-2,-2,2,-2,7,-2,-2,7,3,4,-2,2,-2,-2,-2,5,-2,2,-2,7,-2,2,-2,-2,-2,7,3,-2,4,7,7,4,-2,-2,-2,-2,2,-2,2,-2,-2,4,-2,-2,-2,-2,5,6,4,4,2,4,-2,2,2,-2,6,3,-2,-2,-2,-2,5,-2,5,-2,-2,6,4,-2,5,-2,-2,-2,-2,3,5,-2,5,-2,3,-2,5,-2,-2,-2,-2,0,-2,0,6,3,-2,-2,3,6,2,-2,4,7,-2,6,2,3,-2,-2,3,-2,-2,5,4,-2,-2,-2,6,-2,6,-2,-2,6,3,-2,3,4,-2,-2,-2,4,-2,2,7,-2,-2,-2,3,4,4,-2,2,-2,-2,-2,4,-2,5,-2,-2,2,0,-2,0,1,6,2,-2,5,7,3,3,4,4,7,5,3,-2,-2,6,6,-2,-2,4,-2,-2,-2,-2,-2,2,-2,-2,5,-2,5,7,-2,7,-2,-2,-2,4,-2,4,-2,-2,-2,-2,-2,-2,0,-2,3,2,6,-2,-2,-2,-2,0,0,1,-2,5,5,4,4,5,3,6,-2,-2,5,-2,-2,6,-2,7,-2,-2,-2,7,5,2,-2,-2,-2,6,-2,4,-2,6,-2,-2,-2,2,-2,7,6,-2,6,-2,-2,-2,-2,1,0,0,6,0,4,0,0,2,3,-2,2,3,-2,7,-2,-2,5,6,7,-2,-2,-2,6,-2,5,3,-2,4,-2,-2,-2,7,-2,7,-2,-2,6,5,4,3,-2,3,-2,5,7,-2,-2,5,-2,6,-2,2,4,-2,-2,-2,-2,3,3,-2,-2,7,7,3,-2,-2,-2,-2,5,4,-2,6,3,6,6,3,-2,-2,-2,4,-2,4,-2,-2,-2,-2,3,-2,-2,-2,6,4,2,-2,-2,-2,2,5,2,-2,7,-2,5,2,-2,6,3,5,-2,-2,-2,-2,2,6,7,2,-2,-2,-2,-2,2,-2,6,5,2,-2,5,-2,-2,-2,-2,-2,-2,3,5,-2,4,7,5,5,4,-2,-2,-2,-2,5,4,-2,-2,-2,-2,2,7,-2,-2,3,3,4,-2,3,-2,3,-2,-2,-2,4,-2,4,-2,-2,5,-2,-2,-2,-2,6,-2,5,3,7,6,6,-2,-2,7,2,-2,-2,-2,4,7,6,-2,-2,5,-2,5,-2,7,3,-2,7,3,7,-2,-2,-2,-2,-2,-2,-2,2,6,-2,-2,2,-2,2,-2,-2],"impurity":[0.281356632,0.137152675,0.2649932097,0.1189216427,0.1090672946,0.2390055173,0.1223781179,0.1125891929,0.0338882283,0.2448979592,0.0,0.0,0.0181802879,0.0,0.0997229917,0.0,0.0,0.2645136486,0.4958677686,0.375,0.0,0.4444444444,0.0,0.0,0.0,0.13875,0.0,0.097304405,0.0,0.21875,0.0,0.1244444444,0.0,0.0,0.0,0.49256395,0.4953173777,0.0,0.4526627219,0.4628099174,0.3456790123,0.4444444444,0.0,0.0,0.0,0.0,0.2311111111,0.0,0.375,0.0,0.0,0.18,0.0,0.0,0.0,0.0,0.4886835304,0.4081632653,0.2991469946,0.2680109221,0.1943801653,0.3106508876,0.0,0.21875,0.1587901701,0.0,0.4081632653,0.5,0.0,0.0,0.0,0.0,0.066587396,0.0,0.375,0.0,0.0,0.4591836735,0.2975206612,0.0,0.18,0.0,0.0,0.0,0.0,0.455,0.4012345679,0.0,0.3046875,0.0,0.42,0.0,0.48,0.0,0.0,0.0,0.0,0.0983781401,0.0,0.2143458117,0.4994444444,0.0624349636,0.0,0.0,0.4605479106,0.4929617926,0.455,0.0,0.432132964,0.4881656805,0.0,0.4338842975,0.5,0.32,0.0,0.0,0.32,0.0,0.0,0.2777777778,0.4444444444,0.0,0.0,0.0,0.1527777778,0.0,0.4444444444,0.0,0.0,0.4653739612,0.2975206612,0.0,0.4444444444,0.4444444444,0.0,0.0,0.0,0.46875,0.0,0.2777777778,0.5,0.0,0.0,0.0,0.32,0.1723356009,0.095,0.0,0.2448979592,0.0,0.0,0.0,0.4938271605,0.0,0.32,0.0,0.0,0.1333621566,0.1152480663,0.0,0.1787774605,0.2806544105,0.4930049717,0.4997165533,0.0,0.4971875,0.4931691685,0.5,0.4861111111,0.5,0.4963265306,0.4977777778,0.4928,0.2777777778,0.0,0.0,0.432132964,0.4938271605,0.32,0.0,0.18,0.0,0.5,0.0,0.0,0.0,0.18,0.0,0.0,0.375,0.0,0.32,0.2448979592,0.0,0.375,0.0,0.0,0.0,0.2603550296,0.0,0.1527777778,0.0,0.0,0.0,0.0,0.0,0.0,0.46875,0.0,0.3550295858,0.5,0.375,0.0,0.0,0.0,0.0,0.4402240735,0.4692277,0.489636482,0.0,0.2860534796,0.4152249135,0.3966942149,0.4775022957,0.4081632653,0.5,0.2448979592,0.0,0.0,0.2448979592,0.0,0.0,0.1326530612,0.0,0.4444444444,0.0,0.0,0.0,0.2571166208,0.0867768595,0.5,0.0,0.0,0.0,0.4628099174,0.0,0.21875,0.0,0.5,0.0,0.0,0.0,0.0880473373,0.0,0.060546875,0.0312421265,0.0,0.18,0.0,0.0,0.0,0.0,0.3678296797,0.4453791164,0.4763938424,0.4165346939,0.4548470689,0.3422453599,0.2432884866,0.324499822,0.1790054396,0.42,0.0,0.498046875,0.2777777778,0.0,0.5,0.0,0.0,0.4733727811,0.2777777778,0.1652892562,0.0,0.0,0.0,0.4897959184,0.0,0.4444444444,0.32,0.0,0.4444444444,0.0,0.0,0.0,0.0178556935,0.0,0.4444444444,0.0,0.0,0.4637573964,0.4994054697,0.4614197531,0.404296875,0.0,0.4608,0.0,0.4234404537,0.1975308642,0.0,0.0,0.4897959184,0.0,0.3966942149,0.0,0.32,0.1975308642,0.0,0.5,0.0,0.0,0.3512396694,0.1420118343,0.0,0.0,0.4938271605,0.4444444444,0.4444444444,0.0,0.0,0.0,0.0,0.3402646503,0.3028664143,0.0,0.2777777778,0.249851279,0.4081632653,0.46875,0.375,0.0,0.0,0.0,0.1420118343,0.0,0.4444444444,0.0,0.0,0.0,0.0,0.4444444444,0.0,0.0,0.0,0.4948870092,0.21875,0.4444444444,0.0,0.0,0.0,0.4586226309,0.4100091827,0.4637573964,0.0,0.4879012346,0.0,0.4716553288,0.3046875,0.0,0.2311111111,0.48,0.4444444444,0.0,0.0,0.0,0.0,0.5,0.4444444444,0.32,0.48,0.0,0.0,0.0,0.0,0.4591836735,0.0,0.5,0.4081632653,0.2777777778,0.0,0.5,0.0,0.0,0.0,0.0,0.0,0.0,0.2327519243,0.4081632653,0.0,0.48,0.5,0.3966942149,0.4897959184,0.32,0.0,0.0,0.0,0.0,0.3456790123,0.5,0.0,0.0,0.0,0.0,0.1326530612,0.375,0.0,0.0,0.0997229917,0.2268431002,0.1652892562,0.0,0.0907029478,0.0,0.375,0.0,0.0,0.0,0.0370238519,0.0,0.21875,0.0,0.0,0.0178556935,0.0,0.0,0.0,0.0,0.0798611111,0.0,0.2532613892,0.1875736961,0.173816568,0.066587396,0.4444444444,0.0,0.0,0.0357024793,0.375,0.0,0.0,0.0,0.2873345936,0.2355371901,0.4444444444,0.0,0.0,0.1760856633,0.0,0.2688,0.0,0.21875,0.3550295858,0.0,0.2777777778,0.1652892562,0.4444444444,0.0,0.0,0.0,0.0,0.0,0.0,0.0,0.4921875,0.2448979592,0.0,0.0,0.4444444444,0.0,0.375,0.0,0.0],"max_depth":20,"max_n_classes":2,"n_classes":[2],"n_features":8,"n_leaves":242,"n_node_samples":[4700,2930,617,504,501,209,168,167,116,7,6,1,109,90,19,1,18,51,11,8,5,3,1,2,3,40,1,39,23,16,1,15,1,14,1,41,31,5,26,11,9,3,1,2,6,2,15,7,8,2,6,10,9,1,292,3,113,91,71,69,55,26,2,24,23,16,7,4,2,2,3,1,29,25,4,1,3,14,11,1,10,1,9,3,2,20,18,2,16,6,10,5,5,3,2,2,22,2313,1330,983,120,31,1,30,89,59,40,2,38,26,4,22,10,5,1,4,5,1,4,12,3,1,2,9,12,9,3,1,2,19,11,5,6,3,1,2,3,8,2,6,2,1,1,4,30,21,20,13,7,6,1,1,9,4,5,1,4,863,847,323,524,308,93,84,4,80,77,64,48,38,35,30,25,6,1,5,19,9,5,4,10,8,2,5,5,3,10,9,1,16,1,15,14,6,8,2,6,1,13,1,12,11,1,3,9,215,216,16,3,13,6,4,1,3,2,7,1770,391,257,124,133,68,66,33,28,14,7,1,6,7,6,1,14,11,3,1,2,5,33,22,2,1,1,20,11,3,8,6,2,1,1,2,65,1,64,63,53,10,1,9,1,134,1379,947,810,700,589,470,381,265,161,50,18,32,6,4,2,1,1,26,12,11,1,10,1,14,2,12,10,7,3,1,2,2,111,108,3,1,2,104,58,36,32,7,25,2,23,9,8,1,14,3,11,1,10,9,7,2,1,4,22,13,1,12,9,6,3,2,1,3,3,46,43,1,42,41,21,8,4,3,1,4,13,10,3,1,2,20,1,3,1,2,116,89,16,3,2,1,13,73,66,52,7,45,3,42,16,1,15,5,3,1,2,2,10,26,12,10,5,3,2,5,2,14,4,10,7,6,4,2,1,1,1,3,14,7,119,35,10,25,20,11,7,5,1,4,2,4,9,4,2,2,5,5,84,8,6,2,76,23,22,1,21,17,4,1,3,1,53,45,8,1,7,111,110,1,110,137,432,311,121,105,104,58,3,2,1,55,4,3,1,51,46,44,3,2,1,41,16,25,1,24,13,1,12,11,3,1,2,8,1,11,2,1,16,7,1,6,9,5,4,3,1],"n_outputs":1,"node_count":483,"threshold":[0.3052310944,-0.9349800944,-1.0477266014,1.9118924141,-0.5033921301,0.8823385835,-0.505128324,0.1246625744,-0.8695318103,-0.8876651824,-2.0,-2.0,-0.3714436889,-2.0,-0.837452352,-2.0,-2.0,-1.1078449488,-0.8052933812,1.1092418432,-2.0,-0.6580664515,-2.0,-2.0,-2.0,0.1292533502,-2.0,-0.1609726883,-2.0,-0.9127010703,-2.0,-0.111656718,-2.0,-2.0,-2.0,0.162420921,-0.8776339293,-2.0,-0.2830035686,-0.0220668167,-0.7377765179,-0.5420747697,-2.0,-2.0,-2.0,-2.0,-0.2865808904,-2.0,-0.2334713861,-2.0,-2.0,0.8661439121,-2.0,-2.0,-2.0,-2.0,0.0054022695,-0.4461294413,1.8363201618,1.0947842002,-0.792245239,0.1105001643,-2.0,-0.8046093583,-0.8424042165,-2.0,-1.0016512871,-0.6922492087,-2.0,-2.0,-2.0,-2.0,-0.4013302475,-2.0,-0.2158530317,-2.0,-2.0,-1.1264413595,1.1101745963,-2.0,-1.7861469984,-2.0,-2.0,-2.0,-2.0,0.0662655849,-1.5005709529,-2.0,-0.8585613072,-2.0,-0.490853101,-2.0,-0.6177452803,-2.0,-2.0,-2.0,-2.0,-0.2585012689,-2.0,-0.0893815653,-0.4212140143,-0.5068644881,-2.0,-2.0,0.4711797684,0.0147705297,-0.5784021914,-2.0,0.3558133096,-0.3557950854,-2.0,-0.1538167819,0.1559983417,-0.1862511598,-2.0,-2.0,-0.2061207006,-2.0,-2.0,-0.6853094995,-0.4067094922,-2.0,-2.0,-2.0,-0.1142076403,-2.0,-0.0292396322,-2.0,-2.0,0.3079349995,0.2159623057,-2.0,0.374532789,-0.4819124192,-2.0,-2.0,-2.0,-0.3035240695,-2.0,-0.3531785309,-0.4910460263,-2.0,-2.0,-2.0,1.0693879128,0.0948766097,-0.3534261733,-2.0,0.085466668,-2.0,-2.0,-2.0,-1.0763071179,-2.0,-0.5640532076,-2.0,-2.0,1.6403950453,0.0797381429,-2.0,0.1924846172,0.3895468414,-0.143949993,-0.7774925828,-2.0,1.126149714,0.3413346857,-0.3141492605,-0.4565154612,1.2240866423,1.0973492861,-0.3491828144,-0.7644504309,-0.7352677286,-2.0,-2.0,-0.8016889691,-1.0152092278,-2.0,-2.0,0.8408431113,-2.0,-2.0,-2.0,-2.0,-2.0,-0.0383150131,-2.0,-2.0,-0.9543687403,-2.0,0.7517521977,-0.2388508394,-2.0,-0.1152943317,-2.0,-2.0,-2.0,-0.5090787709,-2.0,0.720285207,-2.0,-2.0,-2.0,-2.0,-2.0,-2.0,0.0797381429,-2.0,1.3066649437,3.1617436409,-0.4727484882,-2.0,-2.0,-2.0,-2.0,0.7562170029,0.5307240486,0.3895468414,-2.0,0.579398632,0.5575924516,-0.1160413921,-0.234150812,0.2569466978,-0.0529516395,-0.2009502575,-2.0,-2.0,0.2463679537,-2.0,-2.0,0.95743981,-2.0,1.1268830597,-2.0,-2.0,-2.0,0.6012350619,-0.81729424,-0.7793191075,-2.0,-2.0,-2.0,0.3075800911,-2.0,0.2983326167,-2.0,0.9338730872,-2.0,-2.0,-2.0,-0.822453022,-2.0,4.12322402,0.9068991244,-2.0,0.91747576,-2.0,-2.0,-2.0,-2.0,0.3895468414,1.3763226271,1.2072029114,0.8731816709,1.0944564342,0.5386322439,0.9817099571,0.86896348,-0.0269344067,-0.3550457805,-2.0,-0.4915723503,0.1887622569,-2.0,-0.3784735352,-2.0,-2.0,-0.3301233798,-0.7635704875,-0.7130215168,-2.0,-2.0,-2.0,-1.3046825528,-2.0,0.2847408354,-0.1115957201,-2.0,-0.0515650809,-2.0,-2.0,-2.0,1.8576752543,-2.0,2.0763172507,-2.0,-2.0,-0.0461338572,1.0410706997,0.0009020877,0.2086317912,-2.0,0.2991057187,-2.0,-0.0173020968,1.0544760078,-2.0,-2.0,0.2712679207,-2.0,-0.8552109897,-2.0,1.0775466859,-0.2694787085,-2.0,-2.0,-2.0,-2.0,0.7507036626,0.092501089,-2.0,-2.0,0.4388792962,-0.0782984197,1.1951640248,-2.0,-2.0,-2.0,-2.0,1.4927628636,-1.5789425373,-2.0,0.8377605677,0.5790154338,0.2754242569,0.1159229204,0.2987198979,-2.0,-2.0,-2.0,-0.0835117511,-2.0,-0.0617087297,-2.0,-2.0,-2.0,-2.0,0.5317529142,-2.0,-2.0,-2.0,-1.6664176583,1.2758541703,-0.568005085,-2.0,-2.0,-2.0,-0.3996844739,-0.2293259576,-0.7996917963,-2.0,-1.048006624,-2.0,-0.8997784555,-0.7939312458,-2.0,-1.510607481,-0.5471822917,-1.5164390802,-2.0,-2.0,-2.0,-2.0,-0.6390987635,-1.0164159834,-0.5298999399,-0.7180605233,-2.0,-2.0,-2.0,-2.0,-0.5626660287,-2.0,-1.0951373577,-0.2550742105,-0.4377603382,-2.0,-0.5396023542,-2.0,-2.0,-2.0,-2.0,-2.0,-2.0,-0.1461262703,0.0331964074,-2.0,0.3635084927,0.245320186,0.5614846349,0.4299988896,-0.199172698,-2.0,-2.0,-2.0,-2.0,0.5486603975,-0.3190310299,-2.0,-2.0,-2.0,-2.0,-0.4894648343,-0.000481315,-2.0,-2.0,0.0247903382,0.0066569725,-0.6410628557,-2.0,-0.0294168489,-2.0,-0.014948739,-2.0,-2.0,-2.0,-0.1583649069,-2.0,-0.1193060167,-2.0,-2.0,2.9881572723,-2.0,-2.0,-2.0,-2.0,0.4311634451,-2.0,1.2403701544,1.862626195,-0.1126712821,0.5166283399,0.4838336855,-2.0,-2.0,-0.77400738,-0.2265868187,-2.0,-2.0,-2.0,0.0115121156,-0.0767683089,1.1953786016,-2.0,-2.0,0.5920731425,-2.0,0.61353001,-2.0,0.391719088,-0.3722146153,-2.0,0.3621551394,-0.2757605314,-0.0027218359,-2.0,-2.0,-2.0,-2.0,-2.0,-2.0,-2.0,0.1071038768,0.6028030813,-2.0,-2.0,0.598999083,-2.0,1.8035171032,-2.0,-2.0],"value":[[[3904.0,796.0]],[[2713.0,217.0]],[[520.0,97.0]],[[472.0,32.0]],[[472.0,29.0]],[[180.0,29.0]],[[157.0,11.0]],[[157.0,10.0]],[[114.0,2.0]],[[6.0,1.0]],[[6.0,0.0]],[[0.0,1.0]],[[108.0,1.0]],[[90.0,0.0]],[[18.0,1.0]],[[0.0,1.0]],[[18.0,0.0]],[[43.0,8.0]],[[6.0,5.0]],[[6.0,2.0]],[[5.0,0.0]],[[1.0,2.0]],[[1.0,0.0]],[[0.0,2.0]],[[0.0,3.0]],[[37.0,3.0]],[[0.0,1.0]],[[37.0,2.0]],[[23.0,0.0]],[[14.0,2.0]],[[0.0,1.0]],[[14.0,1.0]],[[0.0,1.0]],[[14.0,0.0]],[[0.0,1.0]],[[23.0,18.0]],[[14.0,17.0]],[[5.0,0.0]],[[9.0,17.0]],[[7.0,4.0]],[[7.0,2.0]],[[1.0,2.0]],[[1.0,0.0]],[[0.0,2.0]],[[6.0,0.0]],[[0.0,2.0]],[[2.0,13.0]],[[0.0,7.0]],[[2.0,6.0]],[[2.0,0.0]],[[0.0,6.0]],[[9.0,1.0]],[[9.0,0.0]],[[0.0,1.0]],[[292.0,0.0]],[[0.0,3.0]],[[48.0,65.0]],[[26.0,65.0]],[[13.0,58.0]],[[11.0,58.0]],[[6.0,49.0]],[[5.0,21.0]],[[2.0,0.0]],[[3.0,21.0]],[[2.0,21.0]],[[0.0,16.0]],[[2.0,5.0]],[[2.0,2.0]],[[0.0,2.0]],[[2.0,0.0]],[[0.0,3.0]],[[1.0,0.0]],[[1.0,28.0]],[[0.0,25.0]],[[1.0,3.0]],[[1.0,0.0]],[[0.0,3.0]],[[5.0,9.0]],[[2.0,9.0]],[[1.0,0.0]],[[1.0,9.0]],[[1.0,0.0]],[[0.0,9.0]],[[3.0,0.0]],[[2.0,0.0]],[[13.0,7.0]],[[13.0,5.0]],[[0.0,2.0]],[[13.0,3.0]],[[6.0,0.0]],[[7.0,3.0]],[[5.0,0.0]],[[2.0,3.0]],[[0.0,3.0]],[[2.0,0.0]],[[0.0,2.0]],[[22.0,0.0]],[[2193.0,120.0]],[[1330.0,0.0]],[[863.0,120.0]],[[62.0,58.0]],[[30.0,1.0]],[[0.0,1.0]],[[30.0,0.0]],[[32.0,57.0]],[[26.0,33.0]],[[14.0,26.0]],[[2.0,0.0]],[[12.0,26.0]],[[11.0,15.0]],[[4.0,0.0]],[[7.0,15.0]],[[5.0,5.0]],[[4.0,1.0]],[[0.0,1.0]],[[4.0,0.0]],[[1.0,4.0]],[[1.0,0.0]],[[0.0,4.0]],[[2.0,10.0]],[[2.0,1.0]],[[0.0,1.0]],[[2.0,0.0]],[[0.0,9.0]],[[1.0,11.0]],[[0.0,9.0]],[[1.0,2.0]],[[1.0,0.0]],[[0.0,2.0]],[[12.0,7.0]],[[9.0,2.0]],[[5.0,0.0]],[[4.0,2.0]],[[1.0,2.0]],[[1.0,0.0]],[[0.0,2.0]],[[3.0,0.0]],[[3.0,5.0]],[[2.0,0.0]],[[1.0,5.0]],[[1.0,1.0]],[[0.0,1.0]],[[1.0,0.0]],[[0.0,4.0]],[[6.0,24.0]],[[2.0,19.0]],[[1.0,19.0]],[[0.0,13.0]],[[1.0,6.0]],[[0.0,6.0]],[[1.0,0.0]],[[1.0,0.0]],[[4.0,5.0]],[[0.0,4.0]],[[4.0,1.0]],[[0.0,1.0]],[[4.0,0.0]],[[801.0,62.0]],[[795.0,52.0]],[[323.0,0.0]],[[472.0,52.0]],[[256.0,52.0]],[[41.0,52.0]],[[41.0,43.0]],[[4.0,0.0]],[[37.0,43.0]],[[34.0,43.0]],[[32.0,32.0]],[[20.0,28.0]],[[19.0,19.0]],[[19.0,16.0]],[[14.0,16.0]],[[14.0,11.0]],[[1.0,5.0]],[[1.0,0.0]],[[0.0,5.0]],[[13.0,6.0]],[[4.0,5.0]],[[4.0,1.0]],[[0.0,4.0]],[[9.0,1.0]],[[8.0,0.0]],[[1.0,1.0]],[[0.0,5.0]],[[5.0,0.0]],[[0.0,3.0]],[[1.0,9.0]],[[0.0,9.0]],[[1.0,0.0]],[[12.0,4.0]],[[0.0,1.0]],[[12.0,3.0]],[[12.0,2.0]],[[6.0,0.0]],[[6.0,2.0]],[[0.0,2.0]],[[6.0,0.0]],[[0.0,1.0]],[[2.0,11.0]],[[1.0,0.0]],[[1.0,11.0]],[[0.0,11.0]],[[1.0,0.0]],[[3.0,0.0]],[[0.0,9.0]],[[215.0,0.0]],[[216.0,0.0]],[[6.0,10.0]],[[3.0,0.0]],[[3.0,10.0]],[[3.0,3.0]],[[1.0,3.0]],[[1.0,0.0]],[[0.0,3.0]],[[2.0,0.0]],[[0.0,7.0]],[[1191.0,579.0]],[[147.0,244.0]],[[147.0,110.0]],[[124.0,0.0]],[[23.0,110.0]],[[20.0,48.0]],[[18.0,48.0]],[[13.0,20.0]],[[8.0,20.0]],[[7.0,7.0]],[[6.0,1.0]],[[0.0,1.0]],[[6.0,0.0]],[[1.0,6.0]],[[0.0,6.0]],[[1.0,0.0]],[[1.0,13.0]],[[0.0,11.0]],[[1.0,2.0]],[[1.0,0.0]],[[0.0,2.0]],[[5.0,0.0]],[[5.0,28.0]],[[1.0,21.0]],[[1.0,1.0]],[[0.0,1.0]],[[1.0,0.0]],[[0.0,20.0]],[[4.0,7.0]],[[3.0,0.0]],[[1.0,7.0]],[[0.0,6.0]],[[1.0,1.0]],[[0.0,1.0]],[[1.0,0.0]],[[2.0,0.0]],[[3.0,62.0]],[[1.0,0.0]],[[2.0,62.0]],[[1.0,62.0]],[[0.0,53.0]],[[1.0,9.0]],[[1.0,0.0]],[[0.0,9.0]],[[1.0,0.0]],[[0.0,134.0]],[[1044.0,335.0]],[[630.0,317.0]],[[493.0,317.0]],[[493.0,207.0]],[[383.0,206.0]],[[367.0,103.0]],[[327.0,54.0]],[[211.0,54.0]],[[145.0,16.0]],[[35.0,15.0]],[[18.0,0.0]],[[17.0,15.0]],[[1.0,5.0]],[[0.0,4.0]],[[1.0,1.0]],[[1.0,0.0]],[[0.0,1.0]],[[16.0,10.0]],[[10.0,2.0]],[[10.0,1.0]],[[0.0,1.0]],[[10.0,0.0]],[[0.0,1.0]],[[6.0,8.0]],[[2.0,0.0]],[[4.0,8.0]],[[2.0,8.0]],[[0.0,7.0]],[[2.0,1.0]],[[0.0,1.0]],[[2.0,0.0]],[[2.0,0.0]],[[110.0,1.0]],[[108.0,0.0]],[[2.0,1.0]],[[0.0,1.0]],[[2.0,0.0]],[[66.0,38.0]],[[30.0,28.0]],[[13.0,23.0]],[[9.0,23.0]],[[0.0,7.0]],[[9.0,16.0]],[[2.0,0.0]],[[7.0,16.0]],[[1.0,8.0]],[[0.0,8.0]],[[1.0,0.0]],[[6.0,8.0]],[[3.0,0.0]],[[3.0,8.0]],[[1.0,0.0]],[[2.0,8.0]],[[1.0,8.0]],[[0.0,7.0]],[[1.0,1.0]],[[1.0,0.0]],[[4.0,0.0]],[[17.0,5.0]],[[12.0,1.0]],[[0.0,1.0]],[[12.0,0.0]],[[5.0,4.0]],[[2.0,4.0]],[[2.0,1.0]],[[2.0,0.0]],[[0.0,1.0]],[[0.0,3.0]],[[3.0,0.0]],[[36.0,10.0]],[[35.0,8.0]],[[0.0,1.0]],[[35.0,7.0]],[[35.0,6.0]],[[15.0,6.0]],[[3.0,5.0]],[[3.0,1.0]],[[3.0,0.0]],[[0.0,1.0]],[[0.0,4.0]],[[12.0,1.0]],[[10.0,0.0]],[[2.0,1.0]],[[0.0,1.0]],[[2.0,0.0]],[[20.0,0.0]],[[0.0,1.0]],[[1.0,2.0]],[[1.0,0.0]],[[0.0,2.0]],[[116.0,0.0]],[[40.0,49.0]],[[14.0,2.0]],[[1.0,2.0]],[[0.0,2.0]],[[1.0,0.0]],[[13.0,0.0]],[[26.0,47.0]],[[19.0,47.0]],[[19.0,33.0]],[[0.0,7.0]],[[19.0,26.0]],[[3.0,0.0]],[[16.0,26.0]],[[3.0,13.0]],[[1.0,0.0]],[[2.0,13.0]],[[2.0,3.0]],[[2.0,1.0]],[[0.0,1.0]],[[2.0,0.0]],[[0.0,2.0]],[[0.0,10.0]],[[13.0,13.0]],[[8.0,4.0]],[[8.0,2.0]],[[3.0,2.0]],[[3.0,0.0]],[[0.0,2.0]],[[5.0,0.0]],[[0.0,2.0]],[[5.0,9.0]],[[0.0,4.0]],[[5.0,5.0]],[[2.0,5.0]],[[1.0,5.0]],[[0.0,4.0]],[[1.0,1.0]],[[0.0,1.0]],[[1.0,0.0]],[[1.0,0.0]],[[3.0,0.0]],[[0.0,14.0]],[[7.0,0.0]],[[16.0,103.0]],[[10.0,25.0]],[[0.0,10.0]],[[10.0,15.0]],[[10.0,10.0]],[[8.0,3.0]],[[4.0,3.0]],[[4.0,1.0]],[[0.0,1.0]],[[4.0,0.0]],[[0.0,2.0]],[[4.0,0.0]],[[2.0,7.0]],[[2.0,2.0]],[[2.0,0.0]],[[0.0,2.0]],[[0.0,5.0]],[[0.0,5.0]],[[6.0,78.0]],[[2.0,6.0]],[[0.0,6.0]],[[2.0,0.0]],[[4.0,72.0]],[[3.0,20.0]],[[2.0,20.0]],[[1.0,0.0]],[[1.0,20.0]],[[0.0,17.0]],[[1.0,3.0]],[[1.0,0.0]],[[0.0,3.0]],[[1.0,0.0]],[[1.0,52.0]],[[0.0,45.0]],[[1.0,7.0]],[[1.0,0.0]],[[0.0,7.0]],[[110.0,1.0]],[[110.0,0.0]],[[0.0,1.0]],[[0.0,110.0]],[[137.0,0.0]],[[414.0,18.0]],[[311.0,0.0]],[[103.0,18.0]],[[94.0,11.0]],[[94.0,10.0]],[[56.0,2.0]],[[2.0,1.0]],[[2.0,0.0]],[[0.0,1.0]],[[54.0,1.0]],[[3.0,1.0]],[[3.0,0.0]],[[0.0,1.0]],[[51.0,0.0]],[[38.0,8.0]],[[38.0,6.0]],[[1.0,2.0]],[[0.0,2.0]],[[1.0,0.0]],[[37.0,4.0]],[[16.0,0.0]],[[21.0,4.0]],[[0.0,1.0]],[[21.0,3.0]],[[10.0,3.0]],[[0.0,1.0]],[[10.0,2.0]],[[10.0,1.0]],[[2.0,1.0]],[[0.0,1.0]],[[2.0,0.0]],[[8.0,0.0]],[[0.0,1.0]],[[11.0,0.0]],[[0.0,2.0]],[[0.0,1.0]],[[9.0,7.0]],[[6.0,1.0]],[[0.0,1.0]],[[6.0,0.0]],[[3.0,6.0]],[[0.0,5.0]],[[3.0,1.0]],[[3.0,0.0]],[[0.0,1.0]]],"weighted_n_node_samples":[4700.0,2930.0,617.0,504.0,501.0,209.0,168.0,167.0,116.0,7.0,6.0,1.0,109.0,90.0,19.0,1.0,18.0,51.0,11.0,8.0,5.0,3.0,1.0,2.0,3.0,40.0,1.0,39.0,23.0,16.0,1.0,15.0,1.0,14.0,1.0,41.0,31.0,5.0,26.0,11.0,9.0,3.0,1.0,2.0,6.0,2.0,15.0,7.0,8.0,2.0,6.0,10.0,9.0,1.0,292.0,3.0,113.0,91.0,71.0,69.0,55.0,26.0,2.0,24.0,23.0,16.0,7.0,4.0,2.0,2.0,3.0,1.0,29.0,25.0,4.0,1.0,3.0,14.0,11.0,1.0,10.0,1.0,9.0,3.0,2.0,20.0,18.0,2.0,16.0,6.0,10.0,5.0,5.0,3.0,2.0,2.0,22.0,2313.0,1330.0,983.0,120.0,31.0,1.0,30.0,89.0,59.0,40.0,2.0,38.0,26.0,4.0,22.0,10.0,5.0,1.0,4.0,5.0,1.0,4.0,12.0,3.0,1.0,2.0,9.0,12.0,9.0,3.0,1.0,2.0,19.0,11.0,5.0,6.0,3.0,1.0,2.0,3.0,8.0,2.0,6.0,2.0,1.0,1.0,4.0,30.0,21.0,20.0,13.0,7.0,6.0,1.0,1.0,9.0,4.0,5.0,1.0,4.0,863.0,847.0,323.0,524.0,308.0,93.0,84.0,4.0,80.0,77.0,64.0,48.0,38.0,35.0,30.0,25.0,6.0,1.0,5.0,19.0,9.0,5.0,4.0,10.0,8.0,2.0,5.0,5.0,3.0,10.0,9.0,1.0,16.0,1.0,15.0,14.0,6.0,8.0,2.0,6.0,1.0,13.0,1.0,12.0,11.0,1.0,3.0,9.0,215.0,216.0,16.0,3.0,13.0,6.0,4.0,1.0,3.0,2.0,7.0,1770.0,391.0,257.0,124.0,133.0,68.0,66.0,33.0,28.0,14.0,7.0,1.0,6.0,7.0,6.0,1.0,14.0,11.0,3.0,1.0,2.0,5.0,33.0,22.0,2.0,1.0,1.0,20.0,11.0,3.0,8.0,6.0,2.0,1.0,1.0,2.0,65.0,1.0,64.0,63.0,53.0,10.0,1.0,9.0,1.0,134.0,1379.0,947.0,810.0,700.0,589.0,470.0,381.0,265.0,161.0,50.0,18.0,32.0,6.0,4.0,2.0,1.0,1.0,26.0,12.0,11.0,1.0,10.0,1.0,14.0,2.0,12.0,10.0,7.0,3.0,1.0,2.0,2.0,111.0,108.0,3.0,1.0,2.0,104.0,58.0,36.0,32.0,7.0,25.0,2.0,23.0,9.0,8.0,1.0,14.0,3.0,11.0,1.0,10.0,9.0,7.0,2.0,1.0,4.0,22.0,13.0,1.0,12.0,9.0,6.0,3.0,2.0,1.0,3.0,3.0,46.0,43.0,1.0,42.0,41.0,21.0,8.0,4.0,3.0,1.0,4.0,13.0,10.0,3.0,1.0,2.0,20.0,1.0,3.0,1.0,2.0,116.0,89.0,16.0,3.0,2.0,1.0,13.0,73.0,66.0,52.0,7.0,45.0,3.0,42.0,16.0,1.0,15.0,5.0,3.0,1.0,2.0,2.0,10.0,26.0,12.0,10.0,5.0,3.0,2.0,5.0,2.0,14.0,4.0,10.0,7.0,6.0,4.0,2.0,1.0,1.0,1.0,3.0,14.0,7.0,119.0,35.0,10.0,25.0,20.0,11.0,7.0,5.0,1.0,4.0,2.0,4.0,9.0,4.0,2.0,2.0,5.0,5.0,84.0,8.0,6.0,2.0,76.0,23.0,22.0,1.0,21.0,17.0,4.0,1.0,3.0,1.0,53.0,45.0,8.0,1.0,7.0,111.0,110.0,1.0,110.0,137.0,432.0,311.0,121.0,105.0,104.0,58.0,3.0,2.0,1.0,55.0,4.0,3.0,1.0,51.0,46.0,44.0,3.0,2.0,1.0,41.0,16.0,25.0,1.0,24.0,13.0,1.0,12.0,11.0,3.0,1.0,2.0,8.0,1.0,11.0,2.0,1.0,16.0,7.0,1.0,6.0,9.0,5.0,4.0,3.0,1.0]}}},"evaluation":{"acc":0.8737588652,"f1":0.6347046271,"precision":0.623016839,"recall":0.6477866116},"name":{"acc":"tree-gini-best-20","f1":"tree-gini-best-20","precision":"tree-gini-best-20","recall":"tree-gini-best-20"}}