{"model":{"acc":{"ccp_alpha":0.0,"class_weight":{"0":1,"1":4},"classes_":[0,1],"criterion":"entropy","feature_importances_":[0.5824187031,0.1294814652,0.0382721168,0.0548686784,0.0184766818,0.0452301456,0.0887426659,0.0425095431],"max_depth":70,"max_features":null,"max_features_":8,"max_leaf_nodes":null,"min_impurity_decrease":0.0,"min_samples_leaf":1,"min_samples_split":2,"min_weight_fraction_leaf":0.0,"n_classes_":2,"n_features_":8,"n_features_in_":8,"n_outputs_":1,"random_state":null,"splitter":"best","tree_":{"capacity":481,"children_left":[1,2,3,4,5,6,7,-1,9,10,-1,12,13,-1,-1,-1,17,18,19,20,-1,22,23,-1,25,26,-1,28,-1,-1,-1,-1,-1,-1,35,36,37,38,39,-1,-1,42,43,-1,-1,-1,-1,-1,-1,-1,51,-1,-1,-1,55,56,57,58,-1,60,61,-1,63,64,65,-1,67,68,-1,70,-1,-1,-1,74,-1,-1,-1,78,-1,80,-1,-1,-1,84,-1,86,-1,88,-1,90,91,-1,-1,-1,-1,96,-1,98,99,100,-1,-1,103,104,105,106,-1,-1,109,-1,111,-1,113,-1,115,116,-1,118,-1,120,121,-1,123,124,125,126,-1,-1,-1,130,131,-1,-1,134,-1,-1,-1,-1,-1,-1,141,142,-1,144,145,146,147,-1,-1,150,-1,-1,-1,-1,-1,156,-1,158,159,160,161,-1,163,164,165,166,-1,168,-1,170,171,-1,173,174,175,-1,177,178,179,180,181,-1,-1,184,-1,186,-1,188,-1,-1,-1,-1,193,-1,195,-1,197,198,-1,-1,-1,-1,-1,-1,-1,206,207,-1,209,-1,211,-1,-1,-1,-1,-1,-1,-1,219,220,221,222,223,-1,225,226,227,228,229,230,231,-1,-1,234,-1,-1,237,-1,239,-1,-1,-1,243,244,245,-1,-1,-1,249,-1,251,-1,253,-1,-1,-1,257,-1,259,260,-1,262,-1,-1,-1,-1,267,268,269,270,271,272,-1,274,-1,276,-1,278,-1,280,-1,282,283,284,285,-1,-1,-1,289,-1,-1,292,-1,294,295,296,-1,-1,-1,300,301,302,303,304,-1,-1,-1,308,-1,-1,-1,-1,313,314,315,-1,317,318,-1,320,321,-1,323,-1,325,-1,-1,328,329,-1,-1,-1,333,-1,-1,-1,337,338,-1,340,341,342,343,344,-1,-1,-1,-1,349,350,351,352,353,354,-1,356,357,-1,-1,-1,-1,-1,-1,-1,365,366,367,-1,-1,-1,371,-1,-1,374,-1,376,377,-1,379,-1,-1,382,-1,-1,385,386,-1,-1,-1,-1,391,392,-1,394,395,396,397,-1,-1,400,-1,402,403,-1,405,406,-1,-1,-1,-1,-1,412,-1,414,415,416,417,-1,419,-1,-1,-1,-1,424,425,-1,-1,-1,429,-1,-1,-1,433,-1,435,436,437,438,439,-1,441,-1,-1,-1,-1,-1,447,448,449,-1,451,452,-1,454,-1,456,457,458,459,-1,461,-1,-1,-1,-1,-1,467,-1,-1,470,471,-1,473,-1,-1,476,-1,-1,-1,-1,-1],"children_right":[218,95,54,53,50,49,8,-1,16,11,-1,15,14,-1,-1,-1,34,33,32,21,-1,31,24,-1,30,27,-1,29,-1,-1,-1,-1,-1,-1,48,47,46,41,40,-1,-1,45,44,-1,-1,-1,-1,-1,-1,-1,52,-1,-1,-1,94,83,82,59,-1,77,62,-1,76,73,66,-1,72,69,-1,71,-1,-1,-1,75,-1,-1,-1,79,-1,81,-1,-1,-1,85,-1,87,-1,89,-1,93,92,-1,-1,-1,-1,97,-1,155,102,101,-1,-1,140,139,108,107,-1,-1,110,-1,112,-1,114,-1,138,117,-1,119,-1,137,122,-1,136,129,128,127,-1,-1,-1,133,132,-1,-1,135,-1,-1,-1,-1,-1,-1,154,143,-1,153,152,149,148,-1,-1,151,-1,-1,-1,-1,-1,157,-1,217,216,215,162,-1,214,205,204,167,-1,169,-1,203,172,-1,202,201,176,-1,192,191,190,183,182,-1,-1,185,-1,187,-1,189,-1,-1,-1,-1,194,-1,196,-1,200,199,-1,-1,-1,-1,-1,-1,-1,213,208,-1,210,-1,212,-1,-1,-1,-1,-1,-1,-1,480,479,266,265,224,-1,256,255,242,241,236,233,232,-1,-1,235,-1,-1,238,-1,240,-1,-1,-1,248,247,246,-1,-1,-1,250,-1,252,-1,254,-1,-1,-1,258,-1,264,261,-1,263,-1,-1,-1,-1,432,431,390,389,312,273,-1,275,-1,277,-1,279,-1,281,-1,291,288,287,286,-1,-1,-1,290,-1,-1,293,-1,299,298,297,-1,-1,-1,311,310,307,306,305,-1,-1,-1,309,-1,-1,-1,-1,336,335,316,-1,332,319,-1,327,322,-1,324,-1,326,-1,-1,331,330,-1,-1,-1,334,-1,-1,-1,384,339,-1,373,348,347,346,345,-1,-1,-1,-1,364,363,362,361,360,355,-1,359,358,-1,-1,-1,-1,-1,-1,-1,370,369,368,-1,-1,-1,372,-1,-1,375,-1,381,378,-1,380,-1,-1,383,-1,-1,388,387,-1,-1,-1,-1,428,393,-1,411,410,399,398,-1,-1,401,-1,409,404,-1,408,407,-1,-1,-1,-1,-1,413,-1,423,422,421,418,-1,420,-1,-1,-1,-1,427,426,-1,-1,-1,430,-1,-1,-1,434,-1,446,445,444,443,440,-1,442,-1,-1,-1,-1,-1,478,469,450,-1,466,453,-1,455,-1,465,464,463,460,-1,462,-1,-1,-1,-1,-1,468,-1,-1,475,472,-1,474,-1,-1,477,-1,-1,-1,-1,-1],"feature":[0,0,0,0,3,1,3,-2,2,6,-2,4,3,-2,-2,-2,6,3,3,3,-2,7,2,-2,5,4,-2,3,-2,-2,-2,-2,-2,-2,6,6,6,4,7,-2,-2,5,3,-2,-2,-2,-2,-2,-2,-2,6,-2,-2,-2,5,6,4,6,-2,2,4,-2,3,6,3,-2,3,7,-2,3,-2,-2,-2,7,-2,-2,-2,5,-2,6,-2,-2,-2,5,-2,5,-2,3,-2,6,7,-2,-2,-2,-2,0,-2,0,6,3,-2,-2,3,2,5,3,-2,-2,2,-2,7,-2,7,-2,7,6,-2,4,-2,2,6,-2,5,6,6,7,-2,-2,-2,5,7,-2,-2,5,-2,-2,-2,-2,-2,-2,5,7,-2,2,7,3,7,-2,-2,6,-2,-2,-2,-2,-2,0,-2,0,1,6,3,-2,5,7,7,4,-2,6,-2,6,6,-2,6,3,6,-2,5,5,7,5,2,-2,-2,3,-2,3,-2,4,-2,-2,-2,-2,6,-2,3,-2,7,4,-2,-2,-2,-2,-2,-2,-2,7,3,-2,6,-2,6,-2,-2,-2,-2,-2,-2,-2,0,0,0,0,1,-2,5,5,4,4,5,3,6,-2,-2,5,-2,-2,6,-2,6,-2,-2,-2,7,5,4,-2,-2,-2,2,-2,2,-2,6,-2,-2,-2,2,-2,6,6,-2,6,-2,-2,-2,-2,1,6,0,0,2,6,-2,3,-2,2,-2,2,-2,7,-2,7,3,2,2,-2,-2,-2,7,-2,-2,7,-2,4,5,7,-2,-2,-2,3,2,4,3,5,-2,-2,-2,4,-2,-2,-2,-2,0,5,3,-2,2,6,-2,5,3,-2,2,-2,7,-2,-2,6,4,-2,-2,-2,7,-2,-2,-2,6,7,-2,5,7,7,4,5,-2,-2,-2,-2,3,2,5,4,6,4,-2,3,3,-2,-2,-2,-2,-2,-2,-2,6,2,2,-2,-2,-2,2,-2,-2,3,-2,7,4,-2,7,-2,-2,5,-2,-2,7,7,-2,-2,-2,-2,6,5,-2,3,6,3,5,-2,-2,7,-2,4,6,-2,3,7,-2,-2,-2,-2,-2,2,-2,5,5,7,2,-2,2,-2,-2,-2,-2,3,3,-2,-2,-2,6,-2,-2,-2,0,-2,7,4,2,7,3,-2,6,-2,-2,-2,-2,-2,6,5,6,-2,6,3,-2,3,-2,7,2,2,3,-2,5,-2,-2,-2,-2,-2,6,-2,-2,2,3,-2,7,-2,-2,7,-2,-2,-2,-2,-2],"impurity":[0.9925439047,0.7989928742,0.9847010803,0.7478061583,0.9156901528,0.9999867128,0.9220583384,0.0,0.8284715284,0.3054005709,0.0,0.1350362028,0.5032583348,0.0,0.0,0.0,0.9526092095,0.9957274521,0.9456603046,0.999249248,0.0,0.8865408928,0.7219280949,0.0,0.5032583348,0.3227569589,0.0,0.7219280949,0.0,0.0,0.0,0.0,0.0,0.0,0.7219280949,0.5586293735,0.7219280949,0.5916727786,0.985228136,0.0,0.0,0.2761954276,0.7219280949,0.0,0.0,0.0,0.0,0.0,0.0,0.0,0.394814846,0.0,0.0,0.0,0.624274101,0.4394969869,0.2992611749,0.2659427971,0.0,0.3227569589,0.4889085914,0.0,0.426228657,0.6193821947,0.3650551896,0.0,0.2761954276,0.165427034,0.0,0.7219280949,0.0,0.0,0.0,0.9910760598,0.0,0.0,0.0,0.0857426825,0.0,0.7219280949,0.0,0.0,0.0,0.901170196,0.0,0.9672947789,0.0,0.8256265262,0.0,0.4394969869,0.9182958341,0.0,0.0,0.0,0.0,0.6791431616,0.0,0.9405112436,0.7431697526,0.5225593745,0.0,0.0,0.5381411852,0.6451006442,0.6057892521,0.9612366047,0.0,0.0,0.5484866088,0.0,0.512709142,0.0,0.5787946246,0.0,0.4394969869,0.41116649,0.0,0.4725472219,0.0,0.4394969869,0.4037971505,0.0,0.3650551896,0.3227569589,0.1274185118,0.7219280949,0.0,0.0,0.0,0.5916727786,0.2761954276,0.0,0.0,0.985228136,0.0,0.0,0.0,0.0,0.0,0.0,0.3227569589,0.4798320236,0.0,0.6292492239,0.7793498373,0.6500224216,0.3227569589,0.0,0.0,0.985228136,0.0,0.0,0.0,0.0,0.0,0.78902862,0.0,0.9276748743,0.9997182449,0.6042221834,0.7002719042,0.0,0.6687649831,0.6338724226,0.7219280949,0.6789538995,0.0,0.6550239909,0.0,0.6292492239,0.6014353864,0.0,0.6559420758,0.7219280949,0.6912898694,0.0,0.6572729785,0.8812908992,0.7642045065,0.6136190196,0.985228136,0.0,0.0,0.3912435636,0.0,0.2422921891,0.0,0.7219280949,0.0,0.0,0.0,0.0,0.4394969869,0.0,0.7793498373,0.0,0.5586293735,0.8453509366,0.0,0.0,0.0,0.0,0.0,0.0,0.0,0.289986047,0.2163969325,0.0,0.1274185118,0.0,0.5032583348,0.0,0.0,0.0,0.0,0.0,0.0,0.0,0.9244416559,0.8667486989,0.9185324785,0.55989958,0.8119524535,0.0,0.2850191415,0.4507913884,0.4220005169,0.583675328,0.4394969869,0.7219280949,0.9709505945,0.0,0.0,0.2422921891,0.0,0.0,0.1350362028,0.0,0.5032583348,0.0,0.0,0.0,0.2546947047,0.0922772477,0.7219280949,0.0,0.0,0.0,0.5435644432,0.0,0.2163969325,0.0,0.7219280949,0.0,0.0,0.0,0.0934735441,0.0,0.0672215448,0.0377501852,0.0,0.1792560669,0.0,0.0,0.0,0.0,0.9970590569,0.9530990721,0.9081783473,0.9978122433,0.9577009405,0.6255388072,0.0,0.5604094281,0.0,0.5232091927,0.0,0.5688428787,0.0,0.5373760853,0.0,0.5149459065,0.2498822928,0.0922772477,0.2422921891,0.0,0.0,0.0,0.8453509366,0.0,0.0,0.6559420758,0.0,0.5349436991,0.9494520154,0.5916727786,0.0,0.0,0.0,0.3912435636,0.5665095066,0.4798320236,0.2580186687,0.1537421803,0.0,0.0,0.0,0.9182958341,0.0,0.0,0.0,0.0,0.9959872294,0.7807536251,0.9910760598,0.0,0.985228136,0.8256265262,0.0,0.6500224216,0.9182958341,0.0,0.7219280949,0.0,0.3912435636,0.0,0.0,0.353359335,0.9182958341,0.0,0.0,0.0,0.666578358,0.0,0.0,0.0,0.9006267231,0.8332661971,0.0,0.7918583526,0.6409441848,0.996791632,0.8453509366,0.985228136,0.0,0.0,0.0,0.0,0.5373760853,0.3776463214,0.3342681326,0.5349436991,0.3912435636,0.2974722489,0.0,0.1792560669,0.3912435636,0.0,0.0,0.0,0.0,0.0,0.0,0.0,0.8112781245,0.4394969869,0.9182958341,0.0,0.0,0.0,0.9709505945,0.0,0.0,0.9995256893,0.0,0.8631205686,0.3227569589,0.0,0.7219280949,0.0,0.0,0.9456603046,0.0,0.0,0.9043814577,0.9182958341,0.0,0.0,0.0,0.0,0.3311970075,0.2301627406,0.0,0.3033748361,0.5916727786,0.5225593745,0.1792560669,0.0,0.0,0.7706290694,0.0,0.6631968402,0.8739810481,0.0,0.5916727786,0.3912435636,0.0,0.0,0.0,0.0,0.0,0.176776697,0.0,0.1537421803,0.2974722489,0.2422921891,0.1792560669,0.0,0.5032583348,0.0,0.0,0.0,0.0,0.0581007479,0.2422921891,0.0,0.0,0.0,0.8366407419,0.0,0.0,0.0,0.7099085284,0.0,0.9957274521,0.6500224216,0.9819407869,0.9612366047,0.7219280949,0.0,0.5032583348,0.0,0.0,0.0,0.0,0.0,0.9751190649,0.9526092095,0.9986359642,0.0,0.985228136,0.8865408928,0.0,0.9494520154,0.0,0.8739810481,0.9612366047,0.8453509366,0.985228136,0.0,0.5032583348,0.0,0.0,0.0,0.0,0.0,0.7871265862,0.0,0.0,0.6136190196,1.0,0.0,0.7219280949,0.0,0.0,0.2422921891,0.0,0.0,0.0,0.0,0.0],"max_depth":26,"max_n_classes":2,"n_classes":[2],"n_features":8,"n_leaves":241,"n_node_samples":[4700,2930,617,504,291,146,88,18,70,16,2,14,3,2,1,11,54,34,32,19,8,11,8,2,6,5,3,2,1,1,1,3,13,2,20,16,12,10,4,3,1,6,2,1,1,4,2,4,4,58,145,142,3,213,113,91,71,69,14,55,31,2,29,19,13,1,12,11,9,2,1,1,1,6,5,1,10,24,22,2,1,1,2,20,2,18,6,12,5,7,3,1,2,4,22,2313,1330,983,120,31,1,30,89,59,56,7,2,5,49,2,47,6,41,6,35,34,5,29,1,28,27,1,26,25,15,2,1,1,13,10,6,1,5,4,3,1,1,1,1,3,30,19,5,14,11,9,5,1,4,4,3,1,2,3,11,863,326,537,320,105,89,4,85,81,64,60,2,58,2,56,54,5,49,44,42,2,40,19,15,12,4,1,3,8,1,7,5,2,1,1,3,4,21,10,11,3,8,5,3,2,3,2,5,2,4,17,16,1,15,12,3,1,2,1,4,16,215,217,1770,1518,1408,391,257,124,133,68,66,33,28,14,7,1,6,7,6,1,14,11,3,1,2,5,33,22,2,1,1,20,11,3,8,6,2,1,1,2,65,1,64,63,53,10,1,9,1,134,1017,700,603,472,355,101,8,93,4,89,8,81,3,78,2,76,27,22,7,6,1,15,5,3,2,49,7,42,10,5,3,2,5,32,21,19,13,12,1,11,1,6,4,2,2,11,254,157,66,22,44,24,6,18,9,3,6,2,4,3,1,9,3,2,1,6,20,19,1,91,97,78,6,72,48,9,5,4,1,3,1,4,39,25,24,14,12,11,1,10,4,3,1,6,1,2,10,1,14,7,3,1,2,4,7,6,1,24,11,13,5,3,2,1,1,8,7,1,19,6,4,2,13,117,131,119,33,86,25,23,10,1,9,13,2,11,8,3,5,4,1,3,1,3,2,61,1,60,22,21,20,14,6,2,4,1,1,38,7,6,1,31,12,11,1,97,317,215,102,42,13,7,4,1,3,1,2,3,6,29,60,54,42,6,36,22,2,20,4,16,14,10,8,5,3,2,1,2,4,2,14,13,1,12,5,3,2,1,1,7,6,1,6,110,252],"n_outputs":1,"node_count":481,"threshold":[0.3052310944,-0.9349800944,-1.0477266014,-1.4423393011,-0.5033921301,0.3895468414,-0.9142864645,-2.0,-0.3384258896,-0.0767990015,-2.0,0.3955717683,-0.8317217827,-2.0,-2.0,-2.0,1.0708014369,-0.5076361299,-0.7472280264,-0.8106948137,-2.0,-0.1766627356,-0.2396534383,-2.0,1.5383712053,0.7200520337,-2.0,-0.7657472193,-2.0,-2.0,-2.0,-2.0,-2.0,-2.0,1.4284905195,1.298802495,1.2861673236,-0.2236573771,-0.0220668167,-2.0,-2.0,0.2500106469,-0.5292418301,-2.0,-2.0,-2.0,-2.0,-2.0,-2.0,-2.0,1.9118924141,-2.0,-2.0,-2.0,0.0054022695,-0.4461294413,1.8363201618,-1.5417695045,-2.0,-0.7492518127,0.1105001643,-2.0,-0.6191370189,-1.1859970689,-0.8685672581,-2.0,-0.6444079876,-0.7848274708,-2.0,-0.7796366215,-2.0,-2.0,-2.0,-1.1115609407,-2.0,-2.0,-2.0,-0.4013302475,-2.0,-0.6563134789,-2.0,-2.0,-2.0,-1.5005709529,-2.0,-0.8585613072,-2.0,-0.490853101,-2.0,-0.299831152,-0.9713371098,-2.0,-2.0,-2.0,-2.0,-0.2585012689,-2.0,-0.0893815653,-0.4212140143,-0.5068644881,-2.0,-2.0,0.4711797684,0.6899034679,-1.1201854348,0.0741748223,-2.0,-2.0,-0.5784021914,-2.0,-0.5086969435,-2.0,-0.3557950854,-2.0,1.1546982527,-0.2801685482,-2.0,-0.5536175519,-2.0,0.3417411149,-0.2668235302,-2.0,0.1683747172,0.0125700217,-0.1991756484,0.2558123767,-2.0,-2.0,-2.0,-0.5153510869,-0.161143031,-2.0,-2.0,-0.049687013,-2.0,-2.0,-2.0,-2.0,-2.0,-2.0,0.2172265351,0.0520342989,-2.0,0.918358624,0.5716164708,1.0693879128,0.1220369041,-2.0,-2.0,0.5611353964,-2.0,-2.0,-2.0,-2.0,-2.0,0.0797381429,-2.0,0.1924846172,0.3895468414,-0.143949993,-0.8434891701,-2.0,1.1613789201,0.3413346857,0.1776127443,0.2360715792,-2.0,-1.4791615605,-2.0,-0.2298407927,-1.1857841015,-2.0,-0.4138316661,-0.1499844305,-1.1620754004,-2.0,-0.3005827516,-0.5267781317,-0.6558609009,-0.9932406247,-0.7332346737,-2.0,-2.0,-0.8031713665,-2.0,-0.5381155908,-2.0,0.5831710249,-2.0,-2.0,-2.0,-2.0,-0.8158148229,-2.0,-0.6307115257,-2.0,-0.4450333714,0.8871307969,-2.0,-2.0,-2.0,-2.0,-2.0,-2.0,-2.0,1.7658686042,-0.4476417005,-2.0,-0.2252978086,-2.0,-0.1936388835,-2.0,-2.0,-2.0,-2.0,-2.0,-2.0,-2.0,1.3763226271,1.2072029114,0.7562170029,0.5307240486,0.3895468414,-2.0,0.579398632,0.5575924516,-0.1160413921,-0.234150812,0.2569466978,-0.0529516395,-0.2009502575,-2.0,-2.0,0.2463679537,-2.0,-2.0,0.95743981,-2.0,1.0245198309,-2.0,-2.0,-2.0,0.6012350619,-0.81729424,0.8217217326,-2.0,-2.0,-2.0,-0.3385663778,-2.0,0.01465399,-2.0,0.8766598701,-2.0,-2.0,-2.0,-0.822453022,-2.0,1.0954329371,0.9068991244,-2.0,0.91747576,-2.0,-2.0,-2.0,-2.0,0.3895468414,1.5500863194,1.0944564342,0.9817099571,-0.4335452914,-1.7791404724,-2.0,-0.9594269693,-2.0,-0.7996917963,-2.0,-0.7915427387,-2.0,-1.048006624,-2.0,-0.507822603,0.0645294174,-0.7193250358,-0.7423672378,-2.0,-2.0,-2.0,-0.5315393507,-2.0,-2.0,-0.4459077418,-2.0,0.482783854,-0.6660481989,-0.1168790869,-2.0,-2.0,-2.0,-0.3965210319,-0.4520914704,1.0194646716,-0.438382104,-1.3363011479,-2.0,-2.0,-2.0,1.1851443052,-2.0,-2.0,-2.0,-2.0,0.86896348,0.2350906283,-0.353116706,-2.0,-0.0190663317,-1.4500579834,-2.0,-0.2679483294,-0.197246924,-2.0,-0.1883704439,-2.0,0.4874603599,-2.0,-2.0,-1.2017555237,0.3109247386,-2.0,-2.0,-2.0,1.7823172808,-2.0,-2.0,-2.0,0.4084485322,-0.5620869398,-2.0,1.0457612872,-0.3912608922,-0.4930133224,0.1366171539,-1.2133482099,-2.0,-2.0,-2.0,-2.0,0.6164396107,1.2083534002,-0.0405553617,-0.2997930646,0.2405000739,-0.7130011618,-2.0,0.3280419409,0.1972502172,-2.0,-2.0,-2.0,-2.0,-2.0,-2.0,-2.0,-0.149344787,0.3515762091,-0.0682418048,-2.0,-2.0,-2.0,0.9229951501,-2.0,-2.0,0.7638214231,-2.0,0.4388792962,-0.7810918689,-2.0,-0.1140374579,-2.0,-2.0,1.8137178421,-2.0,-2.0,0.1877770573,-0.0045251846,-2.0,-2.0,-2.0,-2.0,0.8527382314,0.0520584974,-2.0,-0.1426539272,0.17079366,-0.2983307838,0.0605913457,-2.0,-2.0,-0.7758653462,-2.0,0.083333835,-0.2781809866,-2.0,-0.1814284623,-0.2436051145,-2.0,-2.0,-2.0,-2.0,-2.0,-0.5266976953,-2.0,0.5460656285,0.541574657,1.202131778,0.0445807772,-2.0,0.2263895199,-2.0,-2.0,-2.0,-2.0,-0.014948739,-0.0325033804,-2.0,-2.0,-2.0,1.5381609797,-2.0,-2.0,-2.0,0.9817099571,-2.0,-0.1679192409,-0.3178650886,-0.056018183,-0.3417508453,-0.3683564514,-2.0,0.418244347,-2.0,-2.0,-2.0,-2.0,-2.0,1.4693064094,1.2283942103,0.7256056368,-2.0,1.2629555464,-0.3722146153,-2.0,-0.3045038581,-2.0,0.9070388079,0.0711355284,-0.1110947132,-0.0103189433,-2.0,0.6032506824,-2.0,-2.0,-2.0,-2.0,-2.0,1.4207532406,-2.0,-2.0,0.1056988612,-0.237950556,-2.0,0.1604536362,-2.0,-2.0,2.07167238,-2.0,-2.0,-2.0,-2.0,-2.0],"value":[[[3904.0,3184.0]],[[2713.0,868.0]],[[520.0,388.0]],[[472.0,128.0]],[[259.0,128.0]],[[117.0,116.0]],[[59.0,116.0]],[[18.0,0.0]],[[41.0,116.0]],[[3.0,52.0]],[[2.0,0.0]],[[1.0,52.0]],[[1.0,8.0]],[[0.0,8.0]],[[1.0,0.0]],[[0.0,44.0]],[[38.0,64.0]],[[28.0,24.0]],[[28.0,16.0]],[[15.0,16.0]],[[8.0,0.0]],[[7.0,16.0]],[[4.0,16.0]],[[2.0,0.0]],[[2.0,16.0]],[[1.0,16.0]],[[0.0,12.0]],[[1.0,4.0]],[[1.0,0.0]],[[0.0,4.0]],[[1.0,0.0]],[[3.0,0.0]],[[13.0,0.0]],[[0.0,8.0]],[[10.0,40.0]],[[6.0,40.0]],[[6.0,24.0]],[[4.0,24.0]],[[3.0,4.0]],[[3.0,0.0]],[[0.0,4.0]],[[1.0,20.0]],[[1.0,4.0]],[[1.0,0.0]],[[0.0,4.0]],[[0.0,16.0]],[[2.0,0.0]],[[0.0,16.0]],[[4.0,0.0]],[[58.0,0.0]],[[142.0,12.0]],[[142.0,0.0]],[[0.0,12.0]],[[213.0,0.0]],[[48.0,260.0]],[[26.0,260.0]],[[13.0,232.0]],[[11.0,232.0]],[[0.0,56.0]],[[11.0,176.0]],[[10.0,84.0]],[[2.0,0.0]],[[8.0,84.0]],[[8.0,44.0]],[[3.0,40.0]],[[1.0,0.0]],[[2.0,40.0]],[[1.0,40.0]],[[0.0,36.0]],[[1.0,4.0]],[[0.0,4.0]],[[1.0,0.0]],[[1.0,0.0]],[[5.0,4.0]],[[5.0,0.0]],[[0.0,4.0]],[[0.0,40.0]],[[1.0,92.0]],[[0.0,88.0]],[[1.0,4.0]],[[0.0,4.0]],[[1.0,0.0]],[[2.0,0.0]],[[13.0,28.0]],[[0.0,8.0]],[[13.0,20.0]],[[6.0,0.0]],[[7.0,20.0]],[[5.0,0.0]],[[2.0,20.0]],[[2.0,4.0]],[[0.0,4.0]],[[2.0,0.0]],[[0.0,16.0]],[[22.0,0.0]],[[2193.0,480.0]],[[1330.0,0.0]],[[863.0,480.0]],[[62.0,232.0]],[[30.0,4.0]],[[0.0,4.0]],[[30.0,0.0]],[[32.0,228.0]],[[26.0,132.0]],[[23.0,132.0]],[[5.0,8.0]],[[0.0,8.0]],[[5.0,0.0]],[[18.0,124.0]],[[2.0,0.0]],[[16.0,124.0]],[[0.0,24.0]],[[16.0,100.0]],[[6.0,0.0]],[[10.0,100.0]],[[9.0,100.0]],[[0.0,20.0]],[[9.0,80.0]],[[1.0,0.0]],[[8.0,80.0]],[[7.0,80.0]],[[1.0,0.0]],[[6.0,80.0]],[[5.0,80.0]],[[1.0,56.0]],[[1.0,4.0]],[[0.0,4.0]],[[1.0,0.0]],[[0.0,52.0]],[[4.0,24.0]],[[1.0,20.0]],[[1.0,0.0]],[[0.0,20.0]],[[3.0,4.0]],[[3.0,0.0]],[[0.0,4.0]],[[1.0,0.0]],[[1.0,0.0]],[[1.0,0.0]],[[3.0,0.0]],[[6.0,96.0]],[[6.0,52.0]],[[0.0,20.0]],[[6.0,32.0]],[[6.0,20.0]],[[4.0,20.0]],[[1.0,16.0]],[[1.0,0.0]],[[0.0,16.0]],[[3.0,4.0]],[[3.0,0.0]],[[0.0,4.0]],[[2.0,0.0]],[[0.0,12.0]],[[0.0,44.0]],[[801.0,248.0]],[[326.0,0.0]],[[475.0,248.0]],[[258.0,248.0]],[[43.0,248.0]],[[43.0,184.0]],[[4.0,0.0]],[[39.0,184.0]],[[35.0,184.0]],[[32.0,128.0]],[[28.0,128.0]],[[2.0,0.0]],[[26.0,128.0]],[[2.0,0.0]],[[24.0,128.0]],[[22.0,128.0]],[[0.0,20.0]],[[22.0,108.0]],[[22.0,88.0]],[[20.0,88.0]],[[2.0,0.0]],[[18.0,88.0]],[[12.0,28.0]],[[8.0,28.0]],[[5.0,28.0]],[[3.0,4.0]],[[0.0,4.0]],[[3.0,0.0]],[[2.0,24.0]],[[1.0,0.0]],[[1.0,24.0]],[[0.0,20.0]],[[1.0,4.0]],[[0.0,4.0]],[[1.0,0.0]],[[3.0,0.0]],[[4.0,0.0]],[[6.0,60.0]],[[0.0,40.0]],[[6.0,20.0]],[[3.0,0.0]],[[3.0,20.0]],[[3.0,8.0]],[[3.0,0.0]],[[0.0,8.0]],[[0.0,12.0]],[[2.0,0.0]],[[0.0,20.0]],[[2.0,0.0]],[[4.0,0.0]],[[3.0,56.0]],[[2.0,56.0]],[[1.0,0.0]],[[1.0,56.0]],[[0.0,48.0]],[[1.0,8.0]],[[1.0,0.0]],[[0.0,8.0]],[[1.0,0.0]],[[4.0,0.0]],[[0.0,64.0]],[[215.0,0.0]],[[217.0,0.0]],[[1191.0,2316.0]],[[939.0,2316.0]],[[939.0,1876.0]],[[147.0,976.0]],[[147.0,440.0]],[[124.0,0.0]],[[23.0,440.0]],[[20.0,192.0]],[[18.0,192.0]],[[13.0,80.0]],[[8.0,80.0]],[[7.0,28.0]],[[6.0,4.0]],[[0.0,4.0]],[[6.0,0.0]],[[1.0,24.0]],[[0.0,24.0]],[[1.0,0.0]],[[1.0,52.0]],[[0.0,44.0]],[[1.0,8.0]],[[1.0,0.0]],[[0.0,8.0]],[[5.0,0.0]],[[5.0,112.0]],[[1.0,84.0]],[[1.0,4.0]],[[1.0,0.0]],[[0.0,4.0]],[[0.0,80.0]],[[4.0,28.0]],[[3.0,0.0]],[[1.0,28.0]],[[0.0,24.0]],[[1.0,4.0]],[[0.0,4.0]],[[1.0,0.0]],[[2.0,0.0]],[[3.0,248.0]],[[1.0,0.0]],[[2.0,248.0]],[[1.0,248.0]],[[0.0,212.0]],[[1.0,36.0]],[[1.0,0.0]],[[0.0,36.0]],[[1.0,0.0]],[[0.0,536.0]],[[792.0,900.0]],[[493.0,828.0]],[[396.0,828.0]],[[369.0,412.0]],[[252.0,412.0]],[[43.0,232.0]],[[8.0,0.0]],[[35.0,232.0]],[[4.0,0.0]],[[31.0,232.0]],[[0.0,32.0]],[[31.0,200.0]],[[3.0,0.0]],[[28.0,200.0]],[[2.0,0.0]],[[26.0,200.0]],[[4.0,92.0]],[[1.0,84.0]],[[1.0,24.0]],[[0.0,24.0]],[[1.0,0.0]],[[0.0,60.0]],[[3.0,8.0]],[[3.0,0.0]],[[0.0,8.0]],[[22.0,108.0]],[[7.0,0.0]],[[15.0,108.0]],[[7.0,12.0]],[[2.0,12.0]],[[0.0,12.0]],[[2.0,0.0]],[[5.0,0.0]],[[8.0,96.0]],[[8.0,52.0]],[[6.0,52.0]],[[2.0,44.0]],[[1.0,44.0]],[[1.0,0.0]],[[0.0,44.0]],[[1.0,0.0]],[[4.0,8.0]],[[4.0,0.0]],[[0.0,8.0]],[[2.0,0.0]],[[0.0,44.0]],[[209.0,180.0]],[[146.0,44.0]],[[55.0,44.0]],[[22.0,0.0]],[[33.0,44.0]],[[14.0,40.0]],[[6.0,0.0]],[[8.0,40.0]],[[6.0,12.0]],[[3.0,0.0]],[[3.0,12.0]],[[2.0,0.0]],[[1.0,12.0]],[[0.0,12.0]],[[1.0,0.0]],[[2.0,28.0]],[[2.0,4.0]],[[2.0,0.0]],[[0.0,4.0]],[[0.0,24.0]],[[19.0,4.0]],[[19.0,0.0]],[[0.0,4.0]],[[91.0,0.0]],[[63.0,136.0]],[[46.0,128.0]],[[6.0,0.0]],[[40.0,128.0]],[[21.0,108.0]],[[7.0,8.0]],[[3.0,8.0]],[[3.0,4.0]],[[0.0,4.0]],[[3.0,0.0]],[[0.0,4.0]],[[4.0,0.0]],[[14.0,100.0]],[[6.0,76.0]],[[5.0,76.0]],[[5.0,36.0]],[[3.0,36.0]],[[2.0,36.0]],[[1.0,0.0]],[[1.0,36.0]],[[1.0,12.0]],[[0.0,12.0]],[[1.0,0.0]],[[0.0,24.0]],[[1.0,0.0]],[[2.0,0.0]],[[0.0,40.0]],[[1.0,0.0]],[[8.0,24.0]],[[2.0,20.0]],[[2.0,4.0]],[[0.0,4.0]],[[2.0,0.0]],[[0.0,16.0]],[[6.0,4.0]],[[6.0,0.0]],[[0.0,4.0]],[[19.0,20.0]],[[11.0,0.0]],[[8.0,20.0]],[[1.0,16.0]],[[0.0,12.0]],[[1.0,4.0]],[[0.0,4.0]],[[1.0,0.0]],[[7.0,4.0]],[[7.0,0.0]],[[0.0,4.0]],[[17.0,8.0]],[[4.0,8.0]],[[4.0,0.0]],[[0.0,8.0]],[[13.0,0.0]],[[117.0,0.0]],[[27.0,416.0]],[[16.0,412.0]],[[0.0,132.0]],[[16.0,280.0]],[[10.0,60.0]],[[8.0,60.0]],[[1.0,36.0]],[[1.0,0.0]],[[0.0,36.0]],[[7.0,24.0]],[[2.0,0.0]],[[5.0,24.0]],[[5.0,12.0]],[[3.0,0.0]],[[2.0,12.0]],[[1.0,12.0]],[[1.0,0.0]],[[0.0,12.0]],[[1.0,0.0]],[[0.0,12.0]],[[2.0,0.0]],[[6.0,220.0]],[[1.0,0.0]],[[5.0,220.0]],[[4.0,72.0]],[[3.0,72.0]],[[2.0,72.0]],[[0.0,56.0]],[[2.0,16.0]],[[2.0,0.0]],[[0.0,16.0]],[[1.0,0.0]],[[1.0,0.0]],[[1.0,148.0]],[[1.0,24.0]],[[0.0,24.0]],[[1.0,0.0]],[[0.0,124.0]],[[11.0,4.0]],[[11.0,0.0]],[[0.0,4.0]],[[97.0,0.0]],[[299.0,72.0]],[[215.0,0.0]],[[84.0,72.0]],[[40.0,8.0]],[[11.0,8.0]],[[5.0,8.0]],[[2.0,8.0]],[[1.0,0.0]],[[1.0,8.0]],[[1.0,0.0]],[[0.0,8.0]],[[3.0,0.0]],[[6.0,0.0]],[[29.0,0.0]],[[44.0,64.0]],[[38.0,64.0]],[[33.0,36.0]],[[6.0,0.0]],[[27.0,36.0]],[[14.0,32.0]],[[0.0,8.0]],[[14.0,24.0]],[[4.0,0.0]],[[10.0,24.0]],[[10.0,16.0]],[[6.0,16.0]],[[6.0,8.0]],[[5.0,0.0]],[[1.0,8.0]],[[0.0,8.0]],[[1.0,0.0]],[[0.0,8.0]],[[4.0,0.0]],[[0.0,8.0]],[[13.0,4.0]],[[13.0,0.0]],[[0.0,4.0]],[[5.0,28.0]],[[4.0,4.0]],[[3.0,0.0]],[[1.0,4.0]],[[0.0,4.0]],[[1.0,0.0]],[[1.0,24.0]],[[0.0,24.0]],[[1.0,0.0]],[[6.0,0.0]],[[0.0,440.0]],[[252.0,0.0]]],"weighted_n_node_samples":[7088.0,3581.0,908.0,600.0,387.0,233.0,175.0,18.0,157.0,55.0,2.0,53.0,9.0,8.0,1.0,44.0,102.0,52.0,44.0,31.0,8.0,23.0,20.0,2.0,18.0,17.0,12.0,5.0,1.0,4.0,1.0,3.0,13.0,8.0,50.0,46.0,30.0,28.0,7.0,3.0,4.0,21.0,5.0,1.0,4.0,16.0,2.0,16.0,4.0,58.0,154.0,142.0,12.0,213.0,308.0,286.0,245.0,243.0,56.0,187.0,94.0,2.0,92.0,52.0,43.0,1.0,42.0,41.0,36.0,5.0,4.0,1.0,1.0,9.0,5.0,4.0,40.0,93.0,88.0,5.0,4.0,1.0,2.0,41.0,8.0,33.0,6.0,27.0,5.0,22.0,6.0,4.0,2.0,16.0,22.0,2673.0,1330.0,1343.0,294.0,34.0,4.0,30.0,260.0,158.0,155.0,13.0,8.0,5.0,142.0,2.0,140.0,24.0,116.0,6.0,110.0,109.0,20.0,89.0,1.0,88.0,87.0,1.0,86.0,85.0,57.0,5.0,4.0,1.0,52.0,28.0,21.0,1.0,20.0,7.0,3.0,4.0,1.0,1.0,1.0,3.0,102.0,58.0,20.0,38.0,26.0,24.0,17.0,1.0,16.0,7.0,3.0,4.0,2.0,12.0,44.0,1049.0,326.0,723.0,506.0,291.0,227.0,4.0,223.0,219.0,160.0,156.0,2.0,154.0,2.0,152.0,150.0,20.0,130.0,110.0,108.0,2.0,106.0,40.0,36.0,33.0,7.0,4.0,3.0,26.0,1.0,25.0,20.0,5.0,4.0,1.0,3.0,4.0,66.0,40.0,26.0,3.0,23.0,11.0,3.0,8.0,12.0,2.0,20.0,2.0,4.0,59.0,58.0,1.0,57.0,48.0,9.0,1.0,8.0,1.0,4.0,64.0,215.0,217.0,3507.0,3255.0,2815.0,1123.0,587.0,124.0,463.0,212.0,210.0,93.0,88.0,35.0,10.0,4.0,6.0,25.0,24.0,1.0,53.0,44.0,9.0,1.0,8.0,5.0,117.0,85.0,5.0,1.0,4.0,80.0,32.0,3.0,29.0,24.0,5.0,4.0,1.0,2.0,251.0,1.0,250.0,249.0,212.0,37.0,1.0,36.0,1.0,536.0,1692.0,1321.0,1224.0,781.0,664.0,275.0,8.0,267.0,4.0,263.0,32.0,231.0,3.0,228.0,2.0,226.0,96.0,85.0,25.0,24.0,1.0,60.0,11.0,3.0,8.0,130.0,7.0,123.0,19.0,14.0,12.0,2.0,5.0,104.0,60.0,58.0,46.0,45.0,1.0,44.0,1.0,12.0,4.0,8.0,2.0,44.0,389.0,190.0,99.0,22.0,77.0,54.0,6.0,48.0,18.0,3.0,15.0,2.0,13.0,12.0,1.0,30.0,6.0,2.0,4.0,24.0,23.0,19.0,4.0,91.0,199.0,174.0,6.0,168.0,129.0,15.0,11.0,7.0,4.0,3.0,4.0,4.0,114.0,82.0,81.0,41.0,39.0,38.0,1.0,37.0,13.0,12.0,1.0,24.0,1.0,2.0,40.0,1.0,32.0,22.0,6.0,4.0,2.0,16.0,10.0,6.0,4.0,39.0,11.0,28.0,17.0,12.0,5.0,4.0,1.0,11.0,7.0,4.0,25.0,12.0,4.0,8.0,13.0,117.0,443.0,428.0,132.0,296.0,70.0,68.0,37.0,1.0,36.0,31.0,2.0,29.0,17.0,3.0,14.0,13.0,1.0,12.0,1.0,12.0,2.0,226.0,1.0,225.0,76.0,75.0,74.0,56.0,18.0,2.0,16.0,1.0,1.0,149.0,25.0,24.0,1.0,124.0,15.0,11.0,4.0,97.0,371.0,215.0,156.0,48.0,19.0,13.0,10.0,1.0,9.0,1.0,8.0,3.0,6.0,29.0,108.0,102.0,69.0,6.0,63.0,46.0,8.0,38.0,4.0,34.0,26.0,22.0,14.0,5.0,9.0,8.0,1.0,8.0,4.0,8.0,17.0,13.0,4.0,33.0,8.0,3.0,5.0,4.0,1.0,25.0,24.0,1.0,6.0,440.0,252.0]}},"f1":{"ccp_alpha":0.0,"class_weight":{"0":1,"1":4},"classes_":[0,1],"criterion":"entropy","feature_importances_":[0.5824187031,0.1294814652,0.0382721168,0.0548686784,0.0184766818,0.0452301456,0.0887426659,0.0425095431],"max_depth":70,"max_features":null,"max_features_":8,"max_leaf_nodes":null,"min_impurity_decrease":0.0,"min_samples_leaf":1,"min_samples_split":2,"min_weight_fraction_leaf":0.0,"n_classes_":2,"n_features_":8,"n_features_in_":8,"n_outputs_":1,"random_state":null,"splitter":"best","tree_":{"capacity":481,"children_left":[1,2,3,4,5,6,7,-1,9,10,-1,12,13,-1,-1,-1,17,18,19,20,-1,22,23,-1,25,26,-1,28,-1,-1,-1,-1,-1,-1,35,36,37,38,39,-1,-1,42,43,-1,-1,-1,-1,-1,-1,-1,51,-1,-1,-1,55,56,57,58,-1,60,61,-1,63,64,65,-1,67,68,-1,70,-1,-1,-1,74,-1,-1,-1,78,-1,80,-1,-1,-1,84,-1,86,-1,88,-1,90,91,-1,-1,-1,-1,96,-1,98,99,100,-1,-1,103,104,105,106,-1,-1,109,-1,111,-1,113,-1,115,116,-1,118,-1,120,121,-1,123,124,125,126,-1,-1,-1,130,131,-1,-1,134,-1,-1,-1,-1,-1,-1,141,142,-1,144,145,146,147,-1,-1,150,-1,-1,-1,-1,-1,156,-1,158,159,160,161,-1,163,164,165,166,-1,168,-1,170,171,-1,173,174,175,-1,177,178,179,180,181,-1,-1,184,-1,186,-1,188,-1,-1,-1,-1,193,-1,195,-1,197,198,-1,-1,-1,-1,-1,-1,-1,206,207,-1,209,-1,211,-1,-1,-1,-1,-1,-1,-1,219,220,221,222,223,-1,225,226,227,228,229,230,231,-1,-1,234,-1,-1,237,-1,239,-1,-1,-1,243,244,245,-1,-1,-1,249,-1,251,-1,253,-1,-1,-1,257,-1,259,260,-1,262,-1,-1,-1,-1,267,268,269,270,271,272,-1,274,-1,276,-1,278,-1,280,-1,282,283,284,285,-1,-1,-1,289,-1,-1,292,-1,294,295,296,-1,-1,-1,300,301,302,303,304,-1,-1,-1,308,-1,-1,-1,-1,313,314,315,-1,317,318,-1,320,321,-1,323,-1,325,-1,-1,328,329,-1,-1,-1,333,-1,-1,-1,337,338,-1,340,341,342,343,344,-1,-1,-1,-1,349,350,351,352,353,354,-1,356,357,-1,-1,-1,-1,-1,-1,-1,365,366,367,-1,-1,-1,371,-1,-1,374,-1,376,377,-1,379,-1,-1,382,-1,-1,385,386,-1,-1,-1,-1,391,392,-1,394,395,396,397,-1,-1,400,-1,402,403,-1,405,406,-1,-1,-1,-1,-1,412,-1,414,415,416,417,-1,419,-1,-1,-1,-1,424,425,-1,-1,-1,429,-1,-1,-1,433,-1,435,436,437,438,439,-1,441,-1,-1,-1,-1,-1,447,448,449,-1,451,452,-1,454,-1,456,457,458,459,-1,461,-1,-1,-1,-1,-1,467,-1,-1,470,471,-1,473,-1,-1,476,-1,-1,-1,-1,-1],"children_right":[218,95,54,53,50,49,8,-1,16,11,-1,15,14,-1,-1,-1,34,33,32,21,-1,31,24,-1,30,27,-1,29,-1,-1,-1,-1,-1,-1,48,47,46,41,40,-1,-1,45,44,-1,-1,-1,-1,-1,-1,-1,52,-1,-1,-1,94,83,82,59,-1,77,62,-1,76,73,66,-1,72,69,-1,71,-1,-1,-1,75,-1,-1,-1,79,-1,81,-1,-1,-1,85,-1,87,-1,89,-1,93,92,-1,-1,-1,-1,97,-1,155,102,101,-1,-1,140,139,108,107,-1,-1,110,-1,112,-1,114,-1,138,117,-1,119,-1,137,122,-1,136,129,128,127,-1,-1,-1,133,132,-1,-1,135,-1,-1,-1,-1,-1,-1,154,143,-1,153,152,149,148,-1,-1,151,-1,-1,-1,-1,-1,157,-1,217,216,215,162,-1,214,205,204,167,-1,169,-1,203,172,-1,202,201,176,-1,192,191,190,183,182,-1,-1,185,-1,187,-1,189,-1,-1,-1,-1,194,-1,196,-1,200,199,-1,-1,-1,-1,-1,-1,-1,213,208,-1,210,-1,212,-1,-1,-1,-1,-1,-1,-1,480,479,266,265,224,-1,256,255,242,241,236,233,232,-1,-1,235,-1,-1,238,-1,240,-1,-1,-1,248,247,246,-1,-1,-1,250,-1,252,-1,254,-1,-1,-1,258,-1,264,261,-1,263,-1,-1,-1,-1,432,431,390,389,312,273,-1,275,-1,277,-1,279,-1,281,-1,291,288,287,286,-1,-1,-1,290,-1,-1,293,-1,299,298,297,-1,-1,-1,311,310,307,306,305,-1,-1,-1,309,-1,-1,-1,-1,336,335,316,-1,332,319,-1,327,322,-1,324,-1,326,-1,-1,331,330,-1,-1,-1,334,-1,-1,-1,384,339,-1,373,348,347,346,345,-1,-1,-1,-1,364,363,362,361,360,355,-1,359,358,-1,-1,-1,-1,-1,-1,-1,370,369,368,-1,-1,-1,372,-1,-1,375,-1,381,378,-1,380,-1,-1,383,-1,-1,388,387,-1,-1,-1,-1,428,393,-1,411,410,399,398,-1,-1,401,-1,409,404,-1,408,407,-1,-1,-1,-1,-1,413,-1,423,422,421,418,-1,420,-1,-1,-1,-1,427,426,-1,-1,-1,430,-1,-1,-1,434,-1,446,445,444,443,440,-1,442,-1,-1,-1,-1,-1,478,469,450,-1,466,453,-1,455,-1,465,464,463,460,-1,462,-1,-1,-1,-1,-1,468,-1,-1,475,472,-1,474,-1,-1,477,-1,-1,-1,-1,-1],"feature":[0,0,0,0,3,1,3,-2,2,6,-2,4,3,-2,-2,-2,6,3,3,3,-2,7,2,-2,5,4,-2,3,-2,-2,-2,-2,-2,-2,6,6,6,4,7,-2,-2,5,3,-2,-2,-2,-2,-2,-2,-2,6,-2,-2,-2,5,6,4,6,-2,2,4,-2,3,6,3,-2,3,7,-2,3,-2,-2,-2,7,-2,-2,-2,5,-2,6,-2,-2,-2,5,-2,5,-2,3,-2,6,7,-2,-2,-2,-2,0,-2,0,6,3,-2,-2,3,2,5,3,-2,-2,2,-2,7,-2,7,-2,7,6,-2,4,-2,2,6,-2,5,6,6,7,-2,-2,-2,5,7,-2,-2,5,-2,-2,-2,-2,-2,-2,5,7,-2,2,7,3,7,-2,-2,6,-2,-2,-2,-2,-2,0,-2,0,1,6,3,-2,5,7,7,4,-2,6,-2,6,6,-2,6,3,6,-2,5,5,7,5,2,-2,-2,3,-2,3,-2,4,-2,-2,-2,-2,6,-2,3,-2,7,4,-2,-2,-2,-2,-2,-2,-2,7,3,-2,6,-2,6,-2,-2,-2,-2,-2,-2,-2,0,0,0,0,1,-2,5,5,4,4,5,3,6,-2,-2,5,-2,-2,6,-2,6,-2,-2,-2,7,5,4,-2,-2,-2,2,-2,2,-2,6,-2,-2,-2,2,-2,6,6,-2,6,-2,-2,-2,-2,1,6,0,0,2,6,-2,3,-2,2,-2,2,-2,7,-2,7,3,2,2,-2,-2,-2,7,-2,-2,7,-2,4,5,7,-2,-2,-2,3,2,4,3,5,-2,-2,-2,4,-2,-2,-2,-2,0,5,3,-2,2,6,-2,5,3,-2,2,-2,7,-2,-2,6,4,-2,-2,-2,7,-2,-2,-2,6,7,-2,5,7,7,4,5,-2,-2,-2,-2,3,2,5,4,6,4,-2,3,3,-2,-2,-2,-2,-2,-2,-2,6,2,2,-2,-2,-2,2,-2,-2,3,-2,7,4,-2,7,-2,-2,5,-2,-2,7,7,-2,-2,-2,-2,6,5,-2,3,6,3,5,-2,-2,7,-2,4,6,-2,3,7,-2,-2,-2,-2,-2,2,-2,5,5,7,2,-2,2,-2,-2,-2,-2,3,3,-2,-2,-2,6,-2,-2,-2,0,-2,7,4,2,7,3,-2,6,-2,-2,-2,-2,-2,6,5,6,-2,6,3,-2,3,-2,7,2,2,3,-2,5,-2,-2,-2,-2,-2,6,-2,-2,2,3,-2,7,-2,-2,7,-2,-2,-2,-2,-2],"impurity":[0.9925439047,0.7989928742,0.9847010803,0.7478061583,0.9156901528,0.9999867128,0.9220583384,0.0,0.8284715284,0.3054005709,0.0,0.1350362028,0.5032583348,0.0,0.0,0.0,0.9526092095,0.9957274521,0.9456603046,0.999249248,0.0,0.8865408928,0.7219280949,0.0,0.5032583348,0.3227569589,0.0,0.7219280949,0.0,0.0,0.0,0.0,0.0,0.0,0.7219280949,0.5586293735,0.7219280949,0.5916727786,0.985228136,0.0,0.0,0.2761954276,0.7219280949,0.0,0.0,0.0,0.0,0.0,0.0,0.0,0.394814846,0.0,0.0,0.0,0.624274101,0.4394969869,0.2992611749,0.2659427971,0.0,0.3227569589,0.4889085914,0.0,0.426228657,0.6193821947,0.3650551896,0.0,0.2761954276,0.165427034,0.0,0.7219280949,0.0,0.0,0.0,0.9910760598,0.0,0.0,0.0,0.0857426825,0.0,0.7219280949,0.0,0.0,0.0,0.901170196,0.0,0.9672947789,0.0,0.8256265262,0.0,0.4394969869,0.9182958341,0.0,0.0,0.0,0.0,0.6791431616,0.0,0.9405112436,0.7431697526,0.5225593745,0.0,0.0,0.5381411852,0.6451006442,0.6057892521,0.9612366047,0.0,0.0,0.5484866088,0.0,0.512709142,0.0,0.5787946246,0.0,0.4394969869,0.41116649,0.0,0.4725472219,0.0,0.4394969869,0.4037971505,0.0,0.3650551896,0.3227569589,0.1274185118,0.7219280949,0.0,0.0,0.0,0.5916727786,0.2761954276,0.0,0.0,0.985228136,0.0,0.0,0.0,0.0,0.0,0.0,0.3227569589,0.4798320236,0.0,0.6292492239,0.7793498373,0.6500224216,0.3227569589,0.0,0.0,0.985228136,0.0,0.0,0.0,0.0,0.0,0.78902862,0.0,0.9276748743,0.9997182449,0.6042221834,0.7002719042,0.0,0.6687649831,0.6338724226,0.7219280949,0.6789538995,0.0,0.6550239909,0.0,0.6292492239,0.6014353864,0.0,0.6559420758,0.7219280949,0.6912898694,0.0,0.6572729785,0.8812908992,0.7642045065,0.6136190196,0.985228136,0.0,0.0,0.3912435636,0.0,0.2422921891,0.0,0.7219280949,0.0,0.0,0.0,0.0,0.4394969869,0.0,0.7793498373,0.0,0.5586293735,0.8453509366,0.0,0.0,0.0,0.0,0.0,0.0,0.0,0.289986047,0.2163969325,0.0,0.1274185118,0.0,0.5032583348,0.0,0.0,0.0,0.0,0.0,0.0,0.0,0.9244416559,0.8667486989,0.9185324785,0.55989958,0.8119524535,0.0,0.2850191415,0.4507913884,0.4220005169,0.583675328,0.4394969869,0.7219280949,0.9709505945,0.0,0.0,0.2422921891,0.0,0.0,0.1350362028,0.0,0.5032583348,0.0,0.0,0.0,0.2546947047,0.0922772477,0.7219280949,0.0,0.0,0.0,0.5435644432,0.0,0.2163969325,0.0,0.7219280949,0.0,0.0,0.0,0.0934735441,0.0,0.0672215448,0.0377501852,0.0,0.1792560669,0.0,0.0,0.0,0.0,0.9970590569,0.9530990721,0.9081783473,0.9978122433,0.9577009405,0.6255388072,0.0,0.5604094281,0.0,0.5232091927,0.0,0.5688428787,0.0,0.5373760853,0.0,0.5149459065,0.2498822928,0.0922772477,0.2422921891,0.0,0.0,0.0,0.8453509366,0.0,0.0,0.6559420758,0.0,0.5349436991,0.9494520154,0.5916727786,0.0,0.0,0.0,0.3912435636,0.5665095066,0.4798320236,0.2580186687,0.1537421803,0.0,0.0,0.0,0.9182958341,0.0,0.0,0.0,0.0,0.9959872294,0.7807536251,0.9910760598,0.0,0.985228136,0.8256265262,0.0,0.6500224216,0.9182958341,0.0,0.7219280949,0.0,0.3912435636,0.0,0.0,0.353359335,0.9182958341,0.0,0.0,0.0,0.666578358,0.0,0.0,0.0,0.9006267231,0.8332661971,0.0,0.7918583526,0.6409441848,0.996791632,0.8453509366,0.985228136,0.0,0.0,0.0,0.0,0.5373760853,0.3776463214,0.3342681326,0.5349436991,0.3912435636,0.2974722489,0.0,0.1792560669,0.3912435636,0.0,0.0,0.0,0.0,0.0,0.0,0.0,0.8112781245,0.4394969869,0.9182958341,0.0,0.0,0.0,0.9709505945,0.0,0.0,0.9995256893,0.0,0.8631205686,0.3227569589,0.0,0.7219280949,0.0,0.0,0.9456603046,0.0,0.0,0.9043814577,0.9182958341,0.0,0.0,0.0,0.0,0.3311970075,0.2301627406,0.0,0.3033748361,0.5916727786,0.5225593745,0.1792560669,0.0,0.0,0.7706290694,0.0,0.6631968402,0.8739810481,0.0,0.5916727786,0.3912435636,0.0,0.0,0.0,0.0,0.0,0.176776697,0.0,0.1537421803,0.2974722489,0.2422921891,0.1792560669,0.0,0.5032583348,0.0,0.0,0.0,0.0,0.0581007479,0.2422921891,0.0,0.0,0.0,0.8366407419,0.0,0.0,0.0,0.7099085284,0.0,0.9957274521,0.6500224216,0.9819407869,0.9612366047,0.7219280949,0.0,0.5032583348,0.0,0.0,0.0,0.0,0.0,0.9751190649,0.9526092095,0.9986359642,0.0,0.985228136,0.8865408928,0.0,0.9494520154,0.0,0.8739810481,0.9612366047,0.8453509366,0.985228136,0.0,0.5032583348,0.0,0.0,0.0,0.0,0.0,0.7871265862,0.0,0.0,0.6136190196,1.0,0.0,0.7219280949,0.0,0.0,0.2422921891,0.0,0.0,0.0,0.0,0.0],"max_depth":26,"max_n_classes":2,"n_classes":[2],"n_features":8,"n_leaves":241,"n_node_samples":[4700,2930,617,504,291,146,88,18,70,16,2,14,3,2,1,11,54,34,32,19,8,11,8,2,6,5,3,2,1,1,1,3,13,2,20,16,12,10,4,3,1,6,2,1,1,4,2,4,4,58,145,142,3,213,113,91,71,69,14,55,31,2,29,19,13,1,12,11,9,2,1,1,1,6,5,1,10,24,22,2,1,1,2,20,2,18,6,12,5,7,3,1,2,4,22,2313,1330,983,120,31,1,30,89,59,56,7,2,5,49,2,47,6,41,6,35,34,5,29,1,28,27,1,26,25,15,2,1,1,13,10,6,1,5,4,3,1,1,1,1,3,30,19,5,14,11,9,5,1,4,4,3,1,2,3,11,863,326,537,320,105,89,4,85,81,64,60,2,58,2,56,54,5,49,44,42,2,40,19,15,12,4,1,3,8,1,7,5,2,1,1,3,4,21,10,11,3,8,5,3,2,3,2,5,2,4,17,16,1,15,12,3,1,2,1,4,16,215,217,1770,1518,1408,391,257,124,133,68,66,33,28,14,7,1,6,7,6,1,14,11,3,1,2,5,33,22,2,1,1,20,11,3,8,6,2,1,1,2,65,1,64,63,53,10,1,9,1,134,1017,700,603,472,355,101,8,93,4,89,8,81,3,78,2,76,27,22,7,6,1,15,5,3,2,49,7,42,10,5,3,2,5,32,21,19,13,12,1,11,1,6,4,2,2,11,254,157,66,22,44,24,6,18,9,3,6,2,4,3,1,9,3,2,1,6,20,19,1,91,97,78,6,72,48,9,5,4,1,3,1,4,39,25,24,14,12,11,1,10,4,3,1,6,1,2,10,1,14,7,3,1,2,4,7,6,1,24,11,13,5,3,2,1,1,8,7,1,19,6,4,2,13,117,131,119,33,86,25,23,10,1,9,13,2,11,8,3,5,4,1,3,1,3,2,61,1,60,22,21,20,14,6,2,4,1,1,38,7,6,1,31,12,11,1,97,317,215,102,42,13,7,4,1,3,1,2,3,6,29,60,54,42,6,36,22,2,20,4,16,14,10,8,5,3,2,1,2,4,2,14,13,1,12,5,3,2,1,1,7,6,1,6,110,252],"n_outputs":1,"node_count":481,"threshold":[0.3052310944,-0.9349800944,-1.0477266014,-1.4423393011,-0.5033921301,0.3895468414,-0.9142864645,-2.0,-0.3384258896,-0.0767990015,-2.0,0.3955717683,-0.8317217827,-2.0,-2.0,-2.0,1.0708014369,-0.5076361299,-0.7472280264,-0.8106948137,-2.0,-0.1766627356,-0.2396534383,-2.0,1.5383712053,0.7200520337,-2.0,-0.7657472193,-2.0,-2.0,-2.0,-2.0,-2.0,-2.0,1.4284905195,1.298802495,1.2861673236,-0.2236573771,-0.0220668167,-2.0,-2.0,0.2500106469,-0.5292418301,-2.0,-2.0,-2.0,-2.0,-2.0,-2.0,-2.0,1.9118924141,-2.0,-2.0,-2.0,0.0054022695,-0.4461294413,1.8363201618,-1.5417695045,-2.0,-0.7492518127,0.1105001643,-2.0,-0.6191370189,-1.1859970689,-0.8685672581,-2.0,-0.6444079876,-0.7848274708,-2.0,-0.7796366215,-2.0,-2.0,-2.0,-1.1115609407,-2.0,-2.0,-2.0,-0.4013302475,-2.0,-0.6563134789,-2.0,-2.0,-2.0,-1.5005709529,-2.0,-0.8585613072,-2.0,-0.490853101,-2.0,-0.299831152,-0.9713371098,-2.0,-2.0,-2.0,-2.0,-0.2585012689,-2.0,-0.0893815653,-0.4212140143,-0.5068644881,-2.0,-2.0,0.4711797684,0.6899034679,-1.1201854348,0.0741748223,-2.0,-2.0,-0.5784021914,-2.0,-0.5086969435,-2.0,-0.3557950854,-2.0,1.1546982527,-0.2801685482,-2.0,-0.5536175519,-2.0,0.3417411149,-0.2668235302,-2.0,0.1683747172,0.0125700217,-0.1991756484,0.2558123767,-2.0,-2.0,-2.0,-0.5153510869,-0.161143031,-2.0,-2.0,-0.049687013,-2.0,-2.0,-2.0,-2.0,-2.0,-2.0,0.2172265351,0.0520342989,-2.0,0.918358624,0.5716164708,1.0693879128,0.1220369041,-2.0,-2.0,0.5611353964,-2.0,-2.0,-2.0,-2.0,-2.0,0.0797381429,-2.0,0.1924846172,0.3895468414,-0.143949993,-0.8434891701,-2.0,1.1613789201,0.3413346857,0.1776127443,0.2360715792,-2.0,-1.4791615605,-2.0,-0.2298407927,-1.1857841015,-2.0,-0.4138316661,-0.1499844305,-1.1620754004,-2.0,-0.3005827516,-0.5267781317,-0.6558609009,-0.9932406247,-0.7332346737,-2.0,-2.0,-0.8031713665,-2.0,-0.5381155908,-2.0,0.5831710249,-2.0,-2.0,-2.0,-2.0,-0.8158148229,-2.0,-0.6307115257,-2.0,-0.4450333714,0.8871307969,-2.0,-2.0,-2.0,-2.0,-2.0,-2.0,-2.0,1.7658686042,-0.4476417005,-2.0,-0.2252978086,-2.0,-0.1936388835,-2.0,-2.0,-2.0,-2.0,-2.0,-2.0,-2.0,1.3763226271,1.2072029114,0.7562170029,0.5307240486,0.3895468414,-2.0,0.579398632,0.5575924516,-0.1160413921,-0.234150812,0.2569466978,-0.0529516395,-0.2009502575,-2.0,-2.0,0.2463679537,-2.0,-2.0,0.95743981,-2.0,1.0245198309,-2.0,-2.0,-2.0,0.6012350619,-0.81729424,0.8217217326,-2.0,-2.0,-2.0,-0.3385663778,-2.0,0.01465399,-2.0,0.8766598701,-2.0,-2.0,-2.0,-0.822453022,-2.0,1.0954329371,0.9068991244,-2.0,0.91747576,-2.0,-2.0,-2.0,-2.0,0.3895468414,1.5500863194,1.0944564342,0.9817099571,-0.4335452914,-1.7791404724,-2.0,-0.9594269693,-2.0,-0.7996917963,-2.0,-0.7915427387,-2.0,-1.048006624,-2.0,-0.507822603,0.0645294174,-0.7193250358,-0.7423672378,-2.0,-2.0,-2.0,-0.5315393507,-2.0,-2.0,-0.4459077418,-2.0,0.482783854,-0.6660481989,-0.1168790869,-2.0,-2.0,-2.0,-0.3965210319,-0.4520914704,1.0194646716,-0.438382104,-1.3363011479,-2.0,-2.0,-2.0,1.1851443052,-2.0,-2.0,-2.0,-2.0,0.86896348,0.2350906283,-0.353116706,-2.0,-0.0190663317,-1.4500579834,-2.0,-0.2679483294,-0.197246924,-2.0,-0.1883704439,-2.0,0.4874603599,-2.0,-2.0,-1.2017555237,0.3109247386,-2.0,-2.0,-2.0,1.7823172808,-2.0,-2.0,-2.0,0.4084485322,-0.5620869398,-2.0,1.0457612872,-0.3912608922,-0.4930133224,0.1366171539,-1.2133482099,-2.0,-2.0,-2.0,-2.0,0.6164396107,1.2083534002,-0.0405553617,-0.2997930646,0.2405000739,-0.7130011618,-2.0,0.3280419409,0.1972502172,-2.0,-2.0,-2.0,-2.0,-2.0,-2.0,-2.0,-0.149344787,0.3515762091,-0.0682418048,-2.0,-2.0,-2.0,0.9229951501,-2.0,-2.0,0.7638214231,-2.0,0.4388792962,-0.7810918689,-2.0,-0.1140374579,-2.0,-2.0,1.8137178421,-2.0,-2.0,0.1877770573,-0.0045251846,-2.0,-2.0,-2.0,-2.0,0.8527382314,0.0520584974,-2.0,-0.1426539272,0.17079366,-0.2983307838,0.0605913457,-2.0,-2.0,-0.7758653462,-2.0,0.083333835,-0.2781809866,-2.0,-0.1814284623,-0.2436051145,-2.0,-2.0,-2.0,-2.0,-2.0,-0.5266976953,-2.0,0.5460656285,0.541574657,1.202131778,0.0445807772,-2.0,0.2263895199,-2.0,-2.0,-2.0,-2.0,-0.014948739,-0.0325033804,-2.0,-2.0,-2.0,1.5381609797,-2.0,-2.0,-2.0,0.9817099571,-2.0,-0.1679192409,-0.3178650886,-0.056018183,-0.3417508453,-0.3683564514,-2.0,0.418244347,-2.0,-2.0,-2.0,-2.0,-2.0,1.4693064094,1.2283942103,0.7256056368,-2.0,1.2629555464,-0.3722146153,-2.0,-0.3045038581,-2.0,0.9070388079,0.0711355284,-0.1110947132,-0.0103189433,-2.0,0.6032506824,-2.0,-2.0,-2.0,-2.0,-2.0,1.4207532406,-2.0,-2.0,0.1056988612,-0.237950556,-2.0,0.1604536362,-2.0,-2.0,2.07167238,-2.0,-2.0,-2.0,-2.0,-2.0],"value":[[[3904.0,3184.0]],[[2713.0,868.0]],[[520.0,388.0]],[[472.0,128.0]],[[259.0,128.0]],[[117.0,116.0]],[[59.0,116.0]],[[18.0,0.0]],[[41.0,116.0]],[[3.0,52.0]],[[2.0,0.0]],[[1.0,52.0]],[[1.0,8.0]],[[0.0,8.0]],[[1.0,0.0]],[[0.0,44.0]],[[38.0,64.0]],[[28.0,24.0]],[[28.0,16.0]],[[15.0,16.0]],[[8.0,0.0]],[[7.0,16.0]],[[4.0,16.0]],[[2.0,0.0]],[[2.0,16.0]],[[1.0,16.0]],[[0.0,12.0]],[[1.0,4.0]],[[1.0,0.0]],[[0.0,4.0]],[[1.0,0.0]],[[3.0,0.0]],[[13.0,0.0]],[[0.0,8.0]],[[10.0,40.0]],[[6.0,40.0]],[[6.0,24.0]],[[4.0,24.0]],[[3.0,4.0]],[[3.0,0.0]],[[0.0,4.0]],[[1.0,20.0]],[[1.0,4.0]],[[1.0,0.0]],[[0.0,4.0]],[[0.0,16.0]],[[2.0,0.0]],[[0.0,16.0]],[[4.0,0.0]],[[58.0,0.0]],[[142.0,12.0]],[[142.0,0.0]],[[0.0,12.0]],[[213.0,0.0]],[[48.0,260.0]],[[26.0,260.0]],[[13.0,232.0]],[[11.0,232.0]],[[0.0,56.0]],[[11.0,176.0]],[[10.0,84.0]],[[2.0,0.0]],[[8.0,84.0]],[[8.0,44.0]],[[3.0,40.0]],[[1.0,0.0]],[[2.0,40.0]],[[1.0,40.0]],[[0.0,36.0]],[[1.0,4.0]],[[0.0,4.0]],[[1.0,0.0]],[[1.0,0.0]],[[5.0,4.0]],[[5.0,0.0]],[[0.0,4.0]],[[0.0,40.0]],[[1.0,92.0]],[[0.0,88.0]],[[1.0,4.0]],[[0.0,4.0]],[[1.0,0.0]],[[2.0,0.0]],[[13.0,28.0]],[[0.0,8.0]],[[13.0,20.0]],[[6.0,0.0]],[[7.0,20.0]],[[5.0,0.0]],[[2.0,20.0]],[[2.0,4.0]],[[0.0,4.0]],[[2.0,0.0]],[[0.0,16.0]],[[22.0,0.0]],[[2193.0,480.0]],[[1330.0,0.0]],[[863.0,480.0]],[[62.0,232.0]],[[30.0,4.0]],[[0.0,4.0]],[[30.0,0.0]],[[32.0,228.0]],[[26.0,132.0]],[[23.0,132.0]],[[5.0,8.0]],[[0.0,8.0]],[[5.0,0.0]],[[18.0,124.0]],[[2.0,0.0]],[[16.0,124.0]],[[0.0,24.0]],[[16.0,100.0]],[[6.0,0.0]],[[10.0,100.0]],[[9.0,100.0]],[[0.0,20.0]],[[9.0,80.0]],[[1.0,0.0]],[[8.0,80.0]],[[7.0,80.0]],[[1.0,0.0]],[[6.0,80.0]],[[5.0,80.0]],[[1.0,56.0]],[[1.0,4.0]],[[0.0,4.0]],[[1.0,0.0]],[[0.0,52.0]],[[4.0,24.0]],[[1.0,20.0]],[[1.0,0.0]],[[0.0,20.0]],[[3.0,4.0]],[[3.0,0.0]],[[0.0,4.0]],[[1.0,0.0]],[[1.0,0.0]],[[1.0,0.0]],[[3.0,0.0]],[[6.0,96.0]],[[6.0,52.0]],[[0.0,20.0]],[[6.0,32.0]],[[6.0,20.0]],[[4.0,20.0]],[[1.0,16.0]],[[1.0,0.0]],[[0.0,16.0]],[[3.0,4.0]],[[3.0,0.0]],[[0.0,4.0]],[[2.0,0.0]],[[0.0,12.0]],[[0.0,44.0]],[[801.0,248.0]],[[326.0,0.0]],[[475.0,248.0]],[[258.0,248.0]],[[43.0,248.0]],[[43.0,184.0]],[[4.0,0.0]],[[39.0,184.0]],[[35.0,184.0]],[[32.0,128.0]],[[28.0,128.0]],[[2.0,0.0]],[[26.0,128.0]],[[2.0,0.0]],[[24.0,128.0]],[[22.0,128.0]],[[0.0,20.0]],[[22.0,108.0]],[[22.0,88.0]],[[20.0,88.0]],[[2.0,0.0]],[[18.0,88.0]],[[12.0,28.0]],[[8.0,28.0]],[[5.0,28.0]],[[3.0,4.0]],[[0.0,4.0]],[[3.0,0.0]],[[2.0,24.0]],[[1.0,0.0]],[[1.0,24.0]],[[0.0,20.0]],[[1.0,4.0]],[[0.0,4.0]],[[1.0,0.0]],[[3.0,0.0]],[[4.0,0.0]],[[6.0,60.0]],[[0.0,40.0]],[[6.0,20.0]],[[3.0,0.0]],[[3.0,20.0]],[[3.0,8.0]],[[3.0,0.0]],[[0.0,8.0]],[[0.0,12.0]],[[2.0,0.0]],[[0.0,20.0]],[[2.0,0.0]],[[4.0,0.0]],[[3.0,56.0]],[[2.0,56.0]],[[1.0,0.0]],[[1.0,56.0]],[[0.0,48.0]],[[1.0,8.0]],[[1.0,0.0]],[[0.0,8.0]],[[1.0,0.0]],[[4.0,0.0]],[[0.0,64.0]],[[215.0,0.0]],[[217.0,0.0]],[[1191.0,2316.0]],[[939.0,2316.0]],[[939.0,1876.0]],[[147.0,976.0]],[[147.0,440.0]],[[124.0,0.0]],[[23.0,440.0]],[[20.0,192.0]],[[18.0,192.0]],[[13.0,80.0]],[[8.0,80.0]],[[7.0,28.0]],[[6.0,4.0]],[[0.0,4.0]],[[6.0,0.0]],[[1.0,24.0]],[[0.0,24.0]],[[1.0,0.0]],[[1.0,52.0]],[[0.0,44.0]],[[1.0,8.0]],[[1.0,0.0]],[[0.0,8.0]],[[5.0,0.0]],[[5.0,112.0]],[[1.0,84.0]],[[1.0,4.0]],[[1.0,0.0]],[[0.0,4.0]],[[0.0,80.0]],[[4.0,28.0]],[[3.0,0.0]],[[1.0,28.0]],[[0.0,24.0]],[[1.0,4.0]],[[0.0,4.0]],[[1.0,0.0]],[[2.0,0.0]],[[3.0,248.0]],[[1.0,0.0]],[[2.0,248.0]],[[1.0,248.0]],[[0.0,212.0]],[[1.0,36.0]],[[1.0,0.0]],[[0.0,36.0]],[[1.0,0.0]],[[0.0,536.0]],[[792.0,900.0]],[[493.0,828.0]],[[396.0,828.0]],[[369.0,412.0]],[[252.0,412.0]],[[43.0,232.0]],[[8.0,0.0]],[[35.0,232.0]],[[4.0,0.0]],[[31.0,232.0]],[[0.0,32.0]],[[31.0,200.0]],[[3.0,0.0]],[[28.0,200.0]],[[2.0,0.0]],[[26.0,200.0]],[[4.0,92.0]],[[1.0,84.0]],[[1.0,24.0]],[[0.0,24.0]],[[1.0,0.0]],[[0.0,60.0]],[[3.0,8.0]],[[3.0,0.0]],[[0.0,8.0]],[[22.0,108.0]],[[7.0,0.0]],[[15.0,108.0]],[[7.0,12.0]],[[2.0,12.0]],[[0.0,12.0]],[[2.0,0.0]],[[5.0,0.0]],[[8.0,96.0]],[[8.0,52.0]],[[6.0,52.0]],[[2.0,44.0]],[[1.0,44.0]],[[1.0,0.0]],[[0.0,44.0]],[[1.0,0.0]],[[4.0,8.0]],[[4.0,0.0]],[[0.0,8.0]],[[2.0,0.0]],[[0.0,44.0]],[[209.0,180.0]],[[146.0,44.0]],[[55.0,44.0]],[[22.0,0.0]],[[33.0,44.0]],[[14.0,40.0]],[[6.0,0.0]],[[8.0,40.0]],[[6.0,12.0]],[[3.0,0.0]],[[3.0,12.0]],[[2.0,0.0]],[[1.0,12.0]],[[0.0,12.0]],[[1.0,0.0]],[[2.0,28.0]],[[2.0,4.0]],[[2.0,0.0]],[[0.0,4.0]],[[0.0,24.0]],[[19.0,4.0]],[[19.0,0.0]],[[0.0,4.0]],[[91.0,0.0]],[[63.0,136.0]],[[46.0,128.0]],[[6.0,0.0]],[[40.0,128.0]],[[21.0,108.0]],[[7.0,8.0]],[[3.0,8.0]],[[3.0,4.0]],[[0.0,4.0]],[[3.0,0.0]],[[0.0,4.0]],[[4.0,0.0]],[[14.0,100.0]],[[6.0,76.0]],[[5.0,76.0]],[[5.0,36.0]],[[3.0,36.0]],[[2.0,36.0]],[[1.0,0.0]],[[1.0,36.0]],[[1.0,12.0]],[[0.0,12.0]],[[1.0,0.0]],[[0.0,24.0]],[[1.0,0.0]],[[2.0,0.0]],[[0.0,40.0]],[[1.0,0.0]],[[8.0,24.0]],[[2.0,20.0]],[[2.0,4.0]],[[0.0,4.0]],[[2.0,0.0]],[[0.0,16.0]],[[6.0,4.0]],[[6.0,0.0]],[[0.0,4.0]],[[19.0,20.0]],[[11.0,0.0]],[[8.0,20.0]],[[1.0,16.0]],[[0.0,12.0]],[[1.0,4.0]],[[0.0,4.0]],[[1.0,0.0]],[[7.0,4.0]],[[7.0,0.0]],[[0.0,4.0]],[[17.0,8.0]],[[4.0,8.0]],[[4.0,0.0]],[[0.0,8.0]],[[13.0,0.0]],[[117.0,0.0]],[[27.0,416.0]],[[16.0,412.0]],[[0.0,132.0]],[[16.0,280.0]],[[10.0,60.0]],[[8.0,60.0]],[[1.0,36.0]],[[1.0,0.0]],[[0.0,36.0]],[[7.0,24.0]],[[2.0,0.0]],[[5.0,24.0]],[[5.0,12.0]],[[3.0,0.0]],[[2.0,12.0]],[[1.0,12.0]],[[1.0,0.0]],[[0.0,12.0]],[[1.0,0.0]],[[0.0,12.0]],[[2.0,0.0]],[[6.0,220.0]],[[1.0,0.0]],[[5.0,220.0]],[[4.0,72.0]],[[3.0,72.0]],[[2.0,72.0]],[[0.0,56.0]],[[2.0,16.0]],[[2.0,0.0]],[[0.0,16.0]],[[1.0,0.0]],[[1.0,0.0]],[[1.0,148.0]],[[1.0,24.0]],[[0.0,24.0]],[[1.0,0.0]],[[0.0,124.0]],[[11.0,4.0]],[[11.0,0.0]],[[0.0,4.0]],[[97.0,0.0]],[[299.0,72.0]],[[215.0,0.0]],[[84.0,72.0]],[[40.0,8.0]],[[11.0,8.0]],[[5.0,8.0]],[[2.0,8.0]],[[1.0,0.0]],[[1.0,8.0]],[[1.0,0.0]],[[0.0,8.0]],[[3.0,0.0]],[[6.0,0.0]],[[29.0,0.0]],[[44.0,64.0]],[[38.0,64.0]],[[33.0,36.0]],[[6.0,0.0]],[[27.0,36.0]],[[14.0,32.0]],[[0.0,8.0]],[[14.0,24.0]],[[4.0,0.0]],[[10.0,24.0]],[[10.0,16.0]],[[6.0,16.0]],[[6.0,8.0]],[[5.0,0.0]],[[1.0,8.0]],[[0.0,8.0]],[[1.0,0.0]],[[0.0,8.0]],[[4.0,0.0]],[[0.0,8.0]],[[13.0,4.0]],[[13.0,0.0]],[[0.0,4.0]],[[5.0,28.0]],[[4.0,4.0]],[[3.0,0.0]],[[1.0,4.0]],[[0.0,4.0]],[[1.0,0.0]],[[1.0,24.0]],[[0.0,24.0]],[[1.0,0.0]],[[6.0,0.0]],[[0.0,440.0]],[[252.0,0.0]]],"weighted_n_node_samples":[7088.0,3581.0,908.0,600.0,387.0,233.0,175.0,18.0,157.0,55.0,2.0,53.0,9.0,8.0,1.0,44.0,102.0,52.0,44.0,31.0,8.0,23.0,20.0,2.0,18.0,17.0,12.0,5.0,1.0,4.0,1.0,3.0,13.0,8.0,50.0,46.0,30.0,28.0,7.0,3.0,4.0,21.0,5.0,1.0,4.0,16.0,2.0,16.0,4.0,58.0,154.0,142.0,12.0,213.0,308.0,286.0,245.0,243.0,56.0,187.0,94.0,2.0,92.0,52.0,43.0,1.0,42.0,41.0,36.0,5.0,4.0,1.0,1.0,9.0,5.0,4.0,40.0,93.0,88.0,5.0,4.0,1.0,2.0,41.0,8.0,33.0,6.0,27.0,5.0,22.0,6.0,4.0,2.0,16.0,22.0,2673.0,1330.0,1343.0,294.0,34.0,4.0,30.0,260.0,158.0,155.0,13.0,8.0,5.0,142.0,2.0,140.0,24.0,116.0,6.0,110.0,109.0,20.0,89.0,1.0,88.0,87.0,1.0,86.0,85.0,57.0,5.0,4.0,1.0,52.0,28.0,21.0,1.0,20.0,7.0,3.0,4.0,1.0,1.0,1.0,3.0,102.0,58.0,20.0,38.0,26.0,24.0,17.0,1.0,16.0,7.0,3.0,4.0,2.0,12.0,44.0,1049.0,326.0,723.0,506.0,291.0,227.0,4.0,223.0,219.0,160.0,156.0,2.0,154.0,2.0,152.0,150.0,20.0,130.0,110.0,108.0,2.0,106.0,40.0,36.0,33.0,7.0,4.0,3.0,26.0,1.0,25.0,20.0,5.0,4.0,1.0,3.0,4.0,66.0,40.0,26.0,3.0,23.0,11.0,3.0,8.0,12.0,2.0,20.0,2.0,4.0,59.0,58.0,1.0,57.0,48.0,9.0,1.0,8.0,1.0,4.0,64.0,215.0,217.0,3507.0,3255.0,2815.0,1123.0,587.0,124.0,463.0,212.0,210.0,93.0,88.0,35.0,10.0,4.0,6.0,25.0,24.0,1.0,53.0,44.0,9.0,1.0,8.0,5.0,117.0,85.0,5.0,1.0,4.0,80.0,32.0,3.0,29.0,24.0,5.0,4.0,1.0,2.0,251.0,1.0,250.0,249.0,212.0,37.0,1.0,36.0,1.0,536.0,1692.0,1321.0,1224.0,781.0,664.0,275.0,8.0,267.0,4.0,263.0,32.0,231.0,3.0,228.0,2.0,226.0,96.0,85.0,25.0,24.0,1.0,60.0,11.0,3.0,8.0,130.0,7.0,123.0,19.0,14.0,12.0,2.0,5.0,104.0,60.0,58.0,46.0,45.0,1.0,44.0,1.0,12.0,4.0,8.0,2.0,44.0,389.0,190.0,99.0,22.0,77.0,54.0,6.0,48.0,18.0,3.0,15.0,2.0,13.0,12.0,1.0,30.0,6.0,2.0,4.0,24.0,23.0,19.0,4.0,91.0,199.0,174.0,6.0,168.0,129.0,15.0,11.0,7.0,4.0,3.0,4.0,4.0,114.0,82.0,81.0,41.0,39.0,38.0,1.0,37.0,13.0,12.0,1.0,24.0,1.0,2.0,40.0,1.0,32.0,22.0,6.0,4.0,2.0,16.0,10.0,6.0,4.0,39.0,11.0,28.0,17.0,12.0,5.0,4.0,1.0,11.0,7.0,4.0,25.0,12.0,4.0,8.0,13.0,117.0,443.0,428.0,132.0,296.0,70.0,68.0,37.0,1.0,36.0,31.0,2.0,29.0,17.0,3.0,14.0,13.0,1.0,12.0,1.0,12.0,2.0,226.0,1.0,225.0,76.0,75.0,74.0,56.0,18.0,2.0,16.0,1.0,1.0,149.0,25.0,24.0,1.0,124.0,15.0,11.0,4.0,97.0,371.0,215.0,156.0,48.0,19.0,13.0,10.0,1.0,9.0,1.0,8.0,3.0,6.0,29.0,108.0,102.0,69.0,6.0,63.0,46.0,8.0,38.0,4.0,34.0,26.0,22.0,14.0,5.0,9.0,8.0,1.0,8.0,4.0,8.0,17.0,13.0,4.0,33.0,8.0,3.0,5.0,4.0,1.0,25.0,24.0,1.0,6.0,440.0,252.0]}},"precision":{"ccp_alpha":0.0,"class_weight":{"0":1,"1":4},"classes_":[0,1],"criterion":"entropy","feature_importances_":[0.5824187031,0.1294814652,0.0382721168,0.0548686784,0.0184766818,0.0452301456,0.0887426659,0.0425095431],"max_depth":70,"max_features":null,"max_features_":8,"max_leaf_nodes":null,"min_impurity_decrease":0.0,"min_samples_leaf":1,"min_samples_split":2,"min_weight_fraction_leaf":0.0,"n_classes_":2,"n_features_":8,"n_features_in_":8,"n_outputs_":1,"random_state":null,"splitter":"best","tree_":{"capacity":481,"children_left":[1,2,3,4,5,6,7,-1,9,10,-1,12,13,-1,-1,-1,17,18,19,20,-1,22,23,-1,25,26,-1,28,-1,-1,-1,-1,-1,-1,35,36,37,38,39,-1,-1,42,43,-1,-1,-1,-1,-1,-1,-1,51,-1,-1,-1,55,56,57,58,-1,60,61,-1,63,64,65,-1,67,68,-1,70,-1,-1,-1,74,-1,-1,-1,78,-1,80,-1,-1,-1,84,-1,86,-1,88,-1,90,91,-1,-1,-1,-1,96,-1,98,99,100,-1,-1,103,104,105,106,-1,-1,109,-1,111,-1,113,-1,115,116,-1,118,-1,120,121,-1,123,124,125,126,-1,-1,-1,130,131,-1,-1,134,-1,-1,-1,-1,-1,-1,141,142,-1,144,145,146,147,-1,-1,150,-1,-1,-1,-1,-1,156,-1,158,159,160,161,-1,163,164,165,166,-1,168,-1,170,171,-1,173,174,175,-1,177,178,179,180,181,-1,-1,184,-1,186,-1,188,-1,-1,-1,-1,193,-1,195,-1,197,198,-1,-1,-1,-1,-1,-1,-1,206,207,-1,209,-1,211,-1,-1,-1,-1,-1,-1,-1,219,220,221,222,223,-1,225,226,227,228,229,230,231,-1,-1,234,-1,-1,237,-1,239,-1,-1,-1,243,244,245,-1,-1,-1,249,-1,251,-1,253,-1,-1,-1,257,-1,259,260,-1,262,-1,-1,-1,-1,267,268,269,270,271,272,-1,274,-1,276,-1,278,-1,280,-1,282,283,284,285,-1,-1,-1,289,-1,-1,292,-1,294,295,296,-1,-1,-1,300,301,302,303,304,-1,-1,-1,308,-1,-1,-1,-1,313,314,315,-1,317,318,-1,320,321,-1,323,-1,325,-1,-1,328,329,-1,-1,-1,333,-1,-1,-1,337,338,-1,340,341,342,343,344,-1,-1,-1,-1,349,350,351,352,353,354,-1,356,357,-1,-1,-1,-1,-1,-1,-1,365,366,367,-1,-1,-1,371,-1,-1,374,-1,376,377,-1,379,-1,-1,382,-1,-1,385,386,-1,-1,-1,-1,391,392,-1,394,395,396,397,-1,-1,400,-1,402,403,-1,405,406,-1,-1,-1,-1,-1,412,-1,414,415,416,417,-1,419,-1,-1,-1,-1,424,425,-1,-1,-1,429,-1,-1,-1,433,-1,435,436,437,438,439,-1,441,-1,-1,-1,-1,-1,447,448,449,-1,451,452,-1,454,-1,456,457,458,459,-1,461,-1,-1,-1,-1,-1,467,-1,-1,470,471,-1,473,-1,-1,476,-1,-1,-1,-1,-1],"children_right":[218,95,54,53,50,49,8,-1,16,11,-1,15,14,-1,-1,-1,34,33,32,21,-1,31,24,-1,30,27,-1,29,-1,-1,-1,-1,-1,-1,48,47,46,41,40,-1,-1,45,44,-1,-1,-1,-1,-1,-1,-1,52,-1,-1,-1,94,83,82,59,-1,77,62,-1,76,73,66,-1,72,69,-1,71,-1,-1,-1,75,-1,-1,-1,79,-1,81,-1,-1,-1,85,-1,87,-1,89,-1,93,92,-1,-1,-1,-1,97,-1,155,102,101,-1,-1,140,139,108,107,-1,-1,110,-1,112,-1,114,-1,138,117,-1,119,-1,137,122,-1,136,129,128,127,-1,-1,-1,133,132,-1,-1,135,-1,-1,-1,-1,-1,-1,154,143,-1,153,152,149,148,-1,-1,151,-1,-1,-1,-1,-1,157,-1,217,216,215,162,-1,214,205,204,167,-1,169,-1,203,172,-1,202,201,176,-1,192,191,190,183,182,-1,-1,185,-1,187,-1,189,-1,-1,-1,-1,194,-1,196,-1,200,199,-1,-1,-1,-1,-1,-1,-1,213,208,-1,210,-1,212,-1,-1,-1,-1,-1,-1,-1,480,479,266,265,224,-1,256,255,242,241,236,233,232,-1,-1,235,-1,-1,238,-1,240,-1,-1,-1,248,247,246,-1,-1,-1,250,-1,252,-1,254,-1,-1,-1,258,-1,264,261,-1,263,-1,-1,-1,-1,432,431,390,389,312,273,-1,275,-1,277,-1,279,-1,281,-1,291,288,287,286,-1,-1,-1,290,-1,-1,293,-1,299,298,297,-1,-1,-1,311,310,307,306,305,-1,-1,-1,309,-1,-1,-1,-1,336,335,316,-1,332,319,-1,327,322,-1,324,-1,326,-1,-1,331,330,-1,-1,-1,334,-1,-1,-1,384,339,-1,373,348,347,346,345,-1,-1,-1,-1,364,363,362,361,360,355,-1,359,358,-1,-1,-1,-1,-1,-1,-1,370,369,368,-1,-1,-1,372,-1,-1,375,-1,381,378,-1,380,-1,-1,383,-1,-1,388,387,-1,-1,-1,-1,428,393,-1,411,410,399,398,-1,-1,401,-1,409,404,-1,408,407,-1,-1,-1,-1,-1,413,-1,423,422,421,418,-1,420,-1,-1,-1,-1,427,426,-1,-1,-1,430,-1,-1,-1,434,-1,446,445,444,443,440,-1,442,-1,-1,-1,-1,-1,478,469,450,-1,466,453,-1,455,-1,465,464,463,460,-1,462,-1,-1,-1,-1,-1,468,-1,-1,475,472,-1,474,-1,-1,477,-1,-1,-1,-1,-1],"feature":[0,0,0,0,3,1,3,-2,2,6,-2,4,3,-2,-2,-2,6,3,3,3,-2,7,2,-2,5,4,-2,3,-2,-2,-2,-2,-2,-2,6,6,6,4,7,-2,-2,5,3,-2,-2,-2,-2,-2,-2,-2,6,-2,-2,-2,5,6,4,6,-2,2,4,-2,3,6,3,-2,3,7,-2,3,-2,-2,-2,7,-2,-2,-2,5,-2,6,-2,-2,-2,5,-2,5,-2,3,-2,6,7,-2,-2,-2,-2,0,-2,0,6,3,-2,-2,3,2,5,3,-2,-2,2,-2,7,-2,7,-2,7,6,-2,4,-2,2,6,-2,5,6,6,7,-2,-2,-2,5,7,-2,-2,5,-2,-2,-2,-2,-2,-2,5,7,-2,2,7,3,7,-2,-2,6,-2,-2,-2,-2,-2,0,-2,0,1,6,3,-2,5,7,7,4,-2,6,-2,6,6,-2,6,3,6,-2,5,5,7,5,2,-2,-2,3,-2,3,-2,4,-2,-2,-2,-2,6,-2,3,-2,7,4,-2,-2,-2,-2,-2,-2,-2,7,3,-2,6,-2,6,-2,-2,-2,-2,-2,-2,-2,0,0,0,0,1,-2,5,5,4,4,5,3,6,-2,-2,5,-2,-2,6,-2,6,-2,-2,-2,7,5,4,-2,-2,-2,2,-2,2,-2,6,-2,-2,-2,2,-2,6,6,-2,6,-2,-2,-2,-2,1,6,0,0,2,6,-2,3,-2,2,-2,2,-2,7,-2,7,3,2,2,-2,-2,-2,7,-2,-2,7,-2,4,5,7,-2,-2,-2,3,2,4,3,5,-2,-2,-2,4,-2,-2,-2,-2,0,5,3,-2,2,6,-2,5,3,-2,2,-2,7,-2,-2,6,4,-2,-2,-2,7,-2,-2,-2,6,7,-2,5,7,7,4,5,-2,-2,-2,-2,3,2,5,4,6,4,-2,3,3,-2,-2,-2,-2,-2,-2,-2,6,2,2,-2,-2,-2,2,-2,-2,3,-2,7,4,-2,7,-2,-2,5,-2,-2,7,7,-2,-2,-2,-2,6,5,-2,3,6,3,5,-2,-2,7,-2,4,6,-2,3,7,-2,-2,-2,-2,-2,2,-2,5,5,7,2,-2,2,-2,-2,-2,-2,3,3,-2,-2,-2,6,-2,-2,-2,0,-2,7,4,2,7,3,-2,6,-2,-2,-2,-2,-2,6,5,6,-2,6,3,-2,3,-2,7,2,2,3,-2,5,-2,-2,-2,-2,-2,6,-2,-2,2,3,-2,7,-2,-2,7,-2,-2,-2,-2,-2],"impurity":[0.9925439047,0.7989928742,0.9847010803,0.7478061583,0.9156901528,0.9999867128,0.9220583384,0.0,0.8284715284,0.3054005709,0.0,0.1350362028,0.5032583348,0.0,0.0,0.0,0.9526092095,0.9957274521,0.9456603046,0.999249248,0.0,0.8865408928,0.7219280949,0.0,0.5032583348,0.3227569589,0.0,0.7219280949,0.0,0.0,0.0,0.0,0.0,0.0,0.7219280949,0.5586293735,0.7219280949,0.5916727786,0.985228136,0.0,0.0,0.2761954276,0.7219280949,0.0,0.0,0.0,0.0,0.0,0.0,0.0,0.394814846,0.0,0.0,0.0,0.624274101,0.4394969869,0.2992611749,0.2659427971,0.0,0.3227569589,0.4889085914,0.0,0.426228657,0.6193821947,0.3650551896,0.0,0.2761954276,0.165427034,0.0,0.7219280949,0.0,0.0,0.0,0.9910760598,0.0,0.0,0.0,0.0857426825,0.0,0.7219280949,0.0,0.0,0.0,0.901170196,0.0,0.9672947789,0.0,0.8256265262,0.0,0.4394969869,0.9182958341,0.0,0.0,0.0,0.0,0.6791431616,0.0,0.9405112436,0.7431697526,0.5225593745,0.0,0.0,0.5381411852,0.6451006442,0.6057892521,0.9612366047,0.0,0.0,0.5484866088,0.0,0.512709142,0.0,0.5787946246,0.0,0.4394969869,0.41116649,0.0,0.4725472219,0.0,0.4394969869,0.4037971505,0.0,0.3650551896,0.3227569589,0.1274185118,0.7219280949,0.0,0.0,0.0,0.5916727786,0.2761954276,0.0,0.0,0.985228136,0.0,0.0,0.0,0.0,0.0,0.0,0.3227569589,0.4798320236,0.0,0.6292492239,0.7793498373,0.6500224216,0.3227569589,0.0,0.0,0.985228136,0.0,0.0,0.0,0.0,0.0,0.78902862,0.0,0.9276748743,0.9997182449,0.6042221834,0.7002719042,0.0,0.6687649831,0.6338724226,0.7219280949,0.6789538995,0.0,0.6550239909,0.0,0.6292492239,0.6014353864,0.0,0.6559420758,0.7219280949,0.6912898694,0.0,0.6572729785,0.8812908992,0.7642045065,0.6136190196,0.985228136,0.0,0.0,0.3912435636,0.0,0.2422921891,0.0,0.7219280949,0.0,0.0,0.0,0.0,0.4394969869,0.0,0.7793498373,0.0,0.5586293735,0.8453509366,0.0,0.0,0.0,0.0,0.0,0.0,0.0,0.289986047,0.2163969325,0.0,0.1274185118,0.0,0.5032583348,0.0,0.0,0.0,0.0,0.0,0.0,0.0,0.9244416559,0.8667486989,0.9185324785,0.55989958,0.8119524535,0.0,0.2850191415,0.4507913884,0.4220005169,0.583675328,0.4394969869,0.7219280949,0.9709505945,0.0,0.0,0.2422921891,0.0,0.0,0.1350362028,0.0,0.5032583348,0.0,0.0,0.0,0.2546947047,0.0922772477,0.7219280949,0.0,0.0,0.0,0.5435644432,0.0,0.2163969325,0.0,0.7219280949,0.0,0.0,0.0,0.0934735441,0.0,0.0672215448,0.0377501852,0.0,0.1792560669,0.0,0.0,0.0,0.0,0.9970590569,0.9530990721,0.9081783473,0.9978122433,0.9577009405,0.6255388072,0.0,0.5604094281,0.0,0.5232091927,0.0,0.5688428787,0.0,0.5373760853,0.0,0.5149459065,0.2498822928,0.0922772477,0.2422921891,0.0,0.0,0.0,0.8453509366,0.0,0.0,0.6559420758,0.0,0.5349436991,0.9494520154,0.5916727786,0.0,0.0,0.0,0.3912435636,0.5665095066,0.4798320236,0.2580186687,0.1537421803,0.0,0.0,0.0,0.9182958341,0.0,0.0,0.0,0.0,0.9959872294,0.7807536251,0.9910760598,0.0,0.985228136,0.8256265262,0.0,0.6500224216,0.9182958341,0.0,0.7219280949,0.0,0.3912435636,0.0,0.0,0.353359335,0.9182958341,0.0,0.0,0.0,0.666578358,0.0,0.0,0.0,0.9006267231,0.8332661971,0.0,0.7918583526,0.6409441848,0.996791632,0.8453509366,0.985228136,0.0,0.0,0.0,0.0,0.5373760853,0.3776463214,0.3342681326,0.5349436991,0.3912435636,0.2974722489,0.0,0.1792560669,0.3912435636,0.0,0.0,0.0,0.0,0.0,0.0,0.0,0.8112781245,0.4394969869,0.9182958341,0.0,0.0,0.0,0.9709505945,0.0,0.0,0.9995256893,0.0,0.8631205686,0.3227569589,0.0,0.7219280949,0.0,0.0,0.9456603046,0.0,0.0,0.9043814577,0.9182958341,0.0,0.0,0.0,0.0,0.3311970075,0.2301627406,0.0,0.3033748361,0.5916727786,0.5225593745,0.1792560669,0.0,0.0,0.7706290694,0.0,0.6631968402,0.8739810481,0.0,0.5916727786,0.3912435636,0.0,0.0,0.0,0.0,0.0,0.176776697,0.0,0.1537421803,0.2974722489,0.2422921891,0.1792560669,0.0,0.5032583348,0.0,0.0,0.0,0.0,0.0581007479,0.2422921891,0.0,0.0,0.0,0.8366407419,0.0,0.0,0.0,0.7099085284,0.0,0.9957274521,0.6500224216,0.9819407869,0.9612366047,0.7219280949,0.0,0.5032583348,0.0,0.0,0.0,0.0,0.0,0.9751190649,0.9526092095,0.9986359642,0.0,0.985228136,0.8865408928,0.0,0.9494520154,0.0,0.8739810481,0.9612366047,0.8453509366,0.985228136,0.0,0.5032583348,0.0,0.0,0.0,0.0,0.0,0.7871265862,0.0,0.0,0.6136190196,1.0,0.0,0.7219280949,0.0,0.0,0.2422921891,0.0,0.0,0.0,0.0,0.0],"max_depth":26,"max_n_classes":2,"n_classes":[2],"n_features":8,"n_leaves":241,"n_node_samples":[4700,2930,617,504,291,146,88,18,70,16,2,14,3,2,1,11,54,34,32,19,8,11,8,2,6,5,3,2,1,1,1,3,13,2,20,16,12,10,4,3,1,6,2,1,1,4,2,4,4,58,145,142,3,213,113,91,71,69,14,55,31,2,29,19,13,1,12,11,9,2,1,1,1,6,5,1,10,24,22,2,1,1,2,20,2,18,6,12,5,7,3,1,2,4,22,2313,1330,983,120,31,1,30,89,59,56,7,2,5,49,2,47,6,41,6,35,34,5,29,1,28,27,1,26,25,15,2,1,1,13,10,6,1,5,4,3,1,1,1,1,3,30,19,5,14,11,9,5,1,4,4,3,1,2,3,11,863,326,537,320,105,89,4,85,81,64,60,2,58,2,56,54,5,49,44,42,2,40,19,15,12,4,1,3,8,1,7,5,2,1,1,3,4,21,10,11,3,8,5,3,2,3,2,5,2,4,17,16,1,15,12,3,1,2,1,4,16,215,217,1770,1518,1408,391,257,124,133,68,66,33,28,14,7,1,6,7,6,1,14,11,3,1,2,5,33,22,2,1,1,20,11,3,8,6,2,1,1,2,65,1,64,63,53,10,1,9,1,134,1017,700,603,472,355,101,8,93,4,89,8,81,3,78,2,76,27,22,7,6,1,15,5,3,2,49,7,42,10,5,3,2,5,32,21,19,13,12,1,11,1,6,4,2,2,11,254,157,66,22,44,24,6,18,9,3,6,2,4,3,1,9,3,2,1,6,20,19,1,91,97,78,6,72,48,9,5,4,1,3,1,4,39,25,24,14,12,11,1,10,4,3,1,6,1,2,10,1,14,7,3,1,2,4,7,6,1,24,11,13,5,3,2,1,1,8,7,1,19,6,4,2,13,117,131,119,33,86,25,23,10,1,9,13,2,11,8,3,5,4,1,3,1,3,2,61,1,60,22,21,20,14,6,2,4,1,1,38,7,6,1,31,12,11,1,97,317,215,102,42,13,7,4,1,3,1,2,3,6,29,60,54,42,6,36,22,2,20,4,16,14,10,8,5,3,2,1,2,4,2,14,13,1,12,5,3,2,1,1,7,6,1,6,110,252],"n_outputs":1,"node_count":481,"threshold":[0.3052310944,-0.9349800944,-1.0477266014,-1.4423393011,-0.5033921301,0.3895468414,-0.9142864645,-2.0,-0.3384258896,-0.0767990015,-2.0,0.3955717683,-0.8317217827,-2.0,-2.0,-2.0,1.0708014369,-0.5076361299,-0.7472280264,-0.8106948137,-2.0,-0.1766627356,-0.2396534383,-2.0,1.5383712053,0.7200520337,-2.0,-0.7657472193,-2.0,-2.0,-2.0,-2.0,-2.0,-2.0,1.4284905195,1.298802495,1.2861673236,-0.2236573771,-0.0220668167,-2.0,-2.0,0.2500106469,-0.5292418301,-2.0,-2.0,-2.0,-2.0,-2.0,-2.0,-2.0,1.9118924141,-2.0,-2.0,-2.0,0.0054022695,-0.4461294413,1.8363201618,-1.5417695045,-2.0,-0.7492518127,0.1105001643,-2.0,-0.6191370189,-1.1859970689,-0.8685672581,-2.0,-0.6444079876,-0.7848274708,-2.0,-0.7796366215,-2.0,-2.0,-2.0,-1.1115609407,-2.0,-2.0,-2.0,-0.4013302475,-2.0,-0.6563134789,-2.0,-2.0,-2.0,-1.5005709529,-2.0,-0.8585613072,-2.0,-0.490853101,-2.0,-0.299831152,-0.9713371098,-2.0,-2.0,-2.0,-2.0,-0.2585012689,-2.0,-0.0893815653,-0.4212140143,-0.5068644881,-2.0,-2.0,0.4711797684,0.6899034679,-1.1201854348,0.0741748223,-2.0,-2.0,-0.5784021914,-2.0,-0.5086969435,-2.0,-0.3557950854,-2.0,1.1546982527,-0.2801685482,-2.0,-0.5536175519,-2.0,0.3417411149,-0.2668235302,-2.0,0.1683747172,0.0125700217,-0.1991756484,0.2558123767,-2.0,-2.0,-2.0,-0.5153510869,-0.161143031,-2.0,-2.0,-0.049687013,-2.0,-2.0,-2.0,-2.0,-2.0,-2.0,0.2172265351,0.0520342989,-2.0,0.918358624,0.5716164708,1.0693879128,0.1220369041,-2.0,-2.0,0.5611353964,-2.0,-2.0,-2.0,-2.0,-2.0,0.0797381429,-2.0,0.1924846172,0.3895468414,-0.143949993,-0.8434891701,-2.0,1.1613789201,0.3413346857,0.1776127443,0.2360715792,-2.0,-1.4791615605,-2.0,-0.2298407927,-1.1857841015,-2.0,-0.4138316661,-0.1499844305,-1.1620754004,-2.0,-0.3005827516,-0.5267781317,-0.6558609009,-0.9932406247,-0.7332346737,-2.0,-2.0,-0.8031713665,-2.0,-0.5381155908,-2.0,0.5831710249,-2.0,-2.0,-2.0,-2.0,-0.8158148229,-2.0,-0.6307115257,-2.0,-0.4450333714,0.8871307969,-2.0,-2.0,-2.0,-2.0,-2.0,-2.0,-2.0,1.7658686042,-0.4476417005,-2.0,-0.2252978086,-2.0,-0.1936388835,-2.0,-2.0,-2.0,-2.0,-2.0,-2.0,-2.0,1.3763226271,1.2072029114,0.7562170029,0.5307240486,0.3895468414,-2.0,0.579398632,0.5575924516,-0.1160413921,-0.234150812,0.2569466978,-0.0529516395,-0.2009502575,-2.0,-2.0,0.2463679537,-2.0,-2.0,0.95743981,-2.0,1.0245198309,-2.0,-2.0,-2.0,0.6012350619,-0.81729424,0.8217217326,-2.0,-2.0,-2.0,-0.3385663778,-2.0,0.01465399,-2.0,0.8766598701,-2.0,-2.0,-2.0,-0.822453022,-2.0,1.0954329371,0.9068991244,-2.0,0.91747576,-2.0,-2.0,-2.0,-2.0,0.3895468414,1.5500863194,1.0944564342,0.9817099571,-0.4335452914,-1.7791404724,-2.0,-0.9594269693,-2.0,-0.7996917963,-2.0,-0.7915427387,-2.0,-1.048006624,-2.0,-0.507822603,0.0645294174,-0.7193250358,-0.7423672378,-2.0,-2.0,-2.0,-0.5315393507,-2.0,-2.0,-0.4459077418,-2.0,0.482783854,-0.6660481989,-0.1168790869,-2.0,-2.0,-2.0,-0.3965210319,-0.4520914704,1.0194646716,-0.438382104,-1.3363011479,-2.0,-2.0,-2.0,1.1851443052,-2.0,-2.0,-2.0,-2.0,0.86896348,0.2350906283,-0.353116706,-2.0,-0.0190663317,-1.4500579834,-2.0,-0.2679483294,-0.197246924,-2.0,-0.1883704439,-2.0,0.4874603599,-2.0,-2.0,-1.2017555237,0.3109247386,-2.0,-2.0,-2.0,1.7823172808,-2.0,-2.0,-2.0,0.4084485322,-0.5620869398,-2.0,1.0457612872,-0.3912608922,-0.4930133224,0.1366171539,-1.2133482099,-2.0,-2.0,-2.0,-2.0,0.6164396107,1.2083534002,-0.0405553617,-0.2997930646,0.2405000739,-0.7130011618,-2.0,0.3280419409,0.1972502172,-2.0,-2.0,-2.0,-2.0,-2.0,-2.0,-2.0,-0.149344787,0.3515762091,-0.0682418048,-2.0,-2.0,-2.0,0.9229951501,-2.0,-2.0,0.7638214231,-2.0,0.4388792962,-0.7810918689,-2.0,-0.1140374579,-2.0,-2.0,1.8137178421,-2.0,-2.0,0.1877770573,-0.0045251846,-2.0,-2.0,-2.0,-2.0,0.8527382314,0.0520584974,-2.0,-0.1426539272,0.17079366,-0.2983307838,0.0605913457,-2.0,-2.0,-0.7758653462,-2.0,0.083333835,-0.2781809866,-2.0,-0.1814284623,-0.2436051145,-2.0,-2.0,-2.0,-2.0,-2.0,-0.5266976953,-2.0,0.5460656285,0.541574657,1.202131778,0.0445807772,-2.0,0.2263895199,-2.0,-2.0,-2.0,-2.0,-0.014948739,-0.0325033804,-2.0,-2.0,-2.0,1.5381609797,-2.0,-2.0,-2.0,0.9817099571,-2.0,-0.1679192409,-0.3178650886,-0.056018183,-0.3417508453,-0.3683564514,-2.0,0.418244347,-2.0,-2.0,-2.0,-2.0,-2.0,1.4693064094,1.2283942103,0.7256056368,-2.0,1.2629555464,-0.3722146153,-2.0,-0.3045038581,-2.0,0.9070388079,0.0711355284,-0.1110947132,-0.0103189433,-2.0,0.6032506824,-2.0,-2.0,-2.0,-2.0,-2.0,1.4207532406,-2.0,-2.0,0.1056988612,-0.237950556,-2.0,0.1604536362,-2.0,-2.0,2.07167238,-2.0,-2.0,-2.0,-2.0,-2.0],"value":[[[3904.0,3184.0]],[[2713.0,868.0]],[[520.0,388.0]],[[472.0,128.0]],[[259.0,128.0]],[[117.0,116.0]],[[59.0,116.0]],[[18.0,0.0]],[[41.0,116.0]],[[3.0,52.0]],[[2.0,0.0]],[[1.0,52.0]],[[1.0,8.0]],[[0.0,8.0]],[[1.0,0.0]],[[0.0,44.0]],[[38.0,64.0]],[[28.0,24.0]],[[28.0,16.0]],[[15.0,16.0]],[[8.0,0.0]],[[7.0,16.0]],[[4.0,16.0]],[[2.0,0.0]],[[2.0,16.0]],[[1.0,16.0]],[[0.0,12.0]],[[1.0,4.0]],[[1.0,0.0]],[[0.0,4.0]],[[1.0,0.0]],[[3.0,0.0]],[[13.0,0.0]],[[0.0,8.0]],[[10.0,40.0]],[[6.0,40.0]],[[6.0,24.0]],[[4.0,24.0]],[[3.0,4.0]],[[3.0,0.0]],[[0.0,4.0]],[[1.0,20.0]],[[1.0,4.0]],[[1.0,0.0]],[[0.0,4.0]],[[0.0,16.0]],[[2.0,0.0]],[[0.0,16.0]],[[4.0,0.0]],[[58.0,0.0]],[[142.0,12.0]],[[142.0,0.0]],[[0.0,12.0]],[[213.0,0.0]],[[48.0,260.0]],[[26.0,260.0]],[[13.0,232.0]],[[11.0,232.0]],[[0.0,56.0]],[[11.0,176.0]],[[10.0,84.0]],[[2.0,0.0]],[[8.0,84.0]],[[8.0,44.0]],[[3.0,40.0]],[[1.0,0.0]],[[2.0,40.0]],[[1.0,40.0]],[[0.0,36.0]],[[1.0,4.0]],[[0.0,4.0]],[[1.0,0.0]],[[1.0,0.0]],[[5.0,4.0]],[[5.0,0.0]],[[0.0,4.0]],[[0.0,40.0]],[[1.0,92.0]],[[0.0,88.0]],[[1.0,4.0]],[[0.0,4.0]],[[1.0,0.0]],[[2.0,0.0]],[[13.0,28.0]],[[0.0,8.0]],[[13.0,20.0]],[[6.0,0.0]],[[7.0,20.0]],[[5.0,0.0]],[[2.0,20.0]],[[2.0,4.0]],[[0.0,4.0]],[[2.0,0.0]],[[0.0,16.0]],[[22.0,0.0]],[[2193.0,480.0]],[[1330.0,0.0]],[[863.0,480.0]],[[62.0,232.0]],[[30.0,4.0]],[[0.0,4.0]],[[30.0,0.0]],[[32.0,228.0]],[[26.0,132.0]],[[23.0,132.0]],[[5.0,8.0]],[[0.0,8.0]],[[5.0,0.0]],[[18.0,124.0]],[[2.0,0.0]],[[16.0,124.0]],[[0.0,24.0]],[[16.0,100.0]],[[6.0,0.0]],[[10.0,100.0]],[[9.0,100.0]],[[0.0,20.0]],[[9.0,80.0]],[[1.0,0.0]],[[8.0,80.0]],[[7.0,80.0]],[[1.0,0.0]],[[6.0,80.0]],[[5.0,80.0]],[[1.0,56.0]],[[1.0,4.0]],[[0.0,4.0]],[[1.0,0.0]],[[0.0,52.0]],[[4.0,24.0]],[[1.0,20.0]],[[1.0,0.0]],[[0.0,20.0]],[[3.0,4.0]],[[3.0,0.0]],[[0.0,4.0]],[[1.0,0.0]],[[1.0,0.0]],[[1.0,0.0]],[[3.0,0.0]],[[6.0,96.0]],[[6.0,52.0]],[[0.0,20.0]],[[6.0,32.0]],[[6.0,20.0]],[[4.0,20.0]],[[1.0,16.0]],[[1.0,0.0]],[[0.0,16.0]],[[3.0,4.0]],[[3.0,0.0]],[[0.0,4.0]],[[2.0,0.0]],[[0.0,12.0]],[[0.0,44.0]],[[801.0,248.0]],[[326.0,0.0]],[[475.0,248.0]],[[258.0,248.0]],[[43.0,248.0]],[[43.0,184.0]],[[4.0,0.0]],[[39.0,184.0]],[[35.0,184.0]],[[32.0,128.0]],[[28.0,128.0]],[[2.0,0.0]],[[26.0,128.0]],[[2.0,0.0]],[[24.0,128.0]],[[22.0,128.0]],[[0.0,20.0]],[[22.0,108.0]],[[22.0,88.0]],[[20.0,88.0]],[[2.0,0.0]],[[18.0,88.0]],[[12.0,28.0]],[[8.0,28.0]],[[5.0,28.0]],[[3.0,4.0]],[[0.0,4.0]],[[3.0,0.0]],[[2.0,24.0]],[[1.0,0.0]],[[1.0,24.0]],[[0.0,20.0]],[[1.0,4.0]],[[0.0,4.0]],[[1.0,0.0]],[[3.0,0.0]],[[4.0,0.0]],[[6.0,60.0]],[[0.0,40.0]],[[6.0,20.0]],[[3.0,0.0]],[[3.0,20.0]],[[3.0,8.0]],[[3.0,0.0]],[[0.0,8.0]],[[0.0,12.0]],[[2.0,0.0]],[[0.0,20.0]],[[2.0,0.0]],[[4.0,0.0]],[[3.0,56.0]],[[2.0,56.0]],[[1.0,0.0]],[[1.0,56.0]],[[0.0,48.0]],[[1.0,8.0]],[[1.0,0.0]],[[0.0,8.0]],[[1.0,0.0]],[[4.0,0.0]],[[0.0,64.0]],[[215.0,0.0]],[[217.0,0.0]],[[1191.0,2316.0]],[[939.0,2316.0]],[[939.0,1876.0]],[[147.0,976.0]],[[147.0,440.0]],[[124.0,0.0]],[[23.0,440.0]],[[20.0,192.0]],[[18.0,192.0]],[[13.0,80.0]],[[8.0,80.0]],[[7.0,28.0]],[[6.0,4.0]],[[0.0,4.0]],[[6.0,0.0]],[[1.0,24.0]],[[0.0,24.0]],[[1.0,0.0]],[[1.0,52.0]],[[0.0,44.0]],[[1.0,8.0]],[[1.0,0.0]],[[0.0,8.0]],[[5.0,0.0]],[[5.0,112.0]],[[1.0,84.0]],[[1.0,4.0]],[[1.0,0.0]],[[0.0,4.0]],[[0.0,80.0]],[[4.0,28.0]],[[3.0,0.0]],[[1.0,28.0]],[[0.0,24.0]],[[1.0,4.0]],[[0.0,4.0]],[[1.0,0.0]],[[2.0,0.0]],[[3.0,248.0]],[[1.0,0.0]],[[2.0,248.0]],[[1.0,248.0]],[[0.0,212.0]],[[1.0,36.0]],[[1.0,0.0]],[[0.0,36.0]],[[1.0,0.0]],[[0.0,536.0]],[[792.0,900.0]],[[493.0,828.0]],[[396.0,828.0]],[[369.0,412.0]],[[252.0,412.0]],[[43.0,232.0]],[[8.0,0.0]],[[35.0,232.0]],[[4.0,0.0]],[[31.0,232.0]],[[0.0,32.0]],[[31.0,200.0]],[[3.0,0.0]],[[28.0,200.0]],[[2.0,0.0]],[[26.0,200.0]],[[4.0,92.0]],[[1.0,84.0]],[[1.0,24.0]],[[0.0,24.0]],[[1.0,0.0]],[[0.0,60.0]],[[3.0,8.0]],[[3.0,0.0]],[[0.0,8.0]],[[22.0,108.0]],[[7.0,0.0]],[[15.0,108.0]],[[7.0,12.0]],[[2.0,12.0]],[[0.0,12.0]],[[2.0,0.0]],[[5.0,0.0]],[[8.0,96.0]],[[8.0,52.0]],[[6.0,52.0]],[[2.0,44.0]],[[1.0,44.0]],[[1.0,0.0]],[[0.0,44.0]],[[1.0,0.0]],[[4.0,8.0]],[[4.0,0.0]],[[0.0,8.0]],[[2.0,0.0]],[[0.0,44.0]],[[209.0,180.0]],[[146.0,44.0]],[[55.0,44.0]],[[22.0,0.0]],[[33.0,44.0]],[[14.0,40.0]],[[6.0,0.0]],[[8.0,40.0]],[[6.0,12.0]],[[3.0,0.0]],[[3.0,12.0]],[[2.0,0.0]],[[1.0,12.0]],[[0.0,12.0]],[[1.0,0.0]],[[2.0,28.0]],[[2.0,4.0]],[[2.0,0.0]],[[0.0,4.0]],[[0.0,24.0]],[[19.0,4.0]],[[19.0,0.0]],[[0.0,4.0]],[[91.0,0.0]],[[63.0,136.0]],[[46.0,128.0]],[[6.0,0.0]],[[40.0,128.0]],[[21.0,108.0]],[[7.0,8.0]],[[3.0,8.0]],[[3.0,4.0]],[[0.0,4.0]],[[3.0,0.0]],[[0.0,4.0]],[[4.0,0.0]],[[14.0,100.0]],[[6.0,76.0]],[[5.0,76.0]],[[5.0,36.0]],[[3.0,36.0]],[[2.0,36.0]],[[1.0,0.0]],[[1.0,36.0]],[[1.0,12.0]],[[0.0,12.0]],[[1.0,0.0]],[[0.0,24.0]],[[1.0,0.0]],[[2.0,0.0]],[[0.0,40.0]],[[1.0,0.0]],[[8.0,24.0]],[[2.0,20.0]],[[2.0,4.0]],[[0.0,4.0]],[[2.0,0.0]],[[0.0,16.0]],[[6.0,4.0]],[[6.0,0.0]],[[0.0,4.0]],[[19.0,20.0]],[[11.0,0.0]],[[8.0,20.0]],[[1.0,16.0]],[[0.0,12.0]],[[1.0,4.0]],[[0.0,4.0]],[[1.0,0.0]],[[7.0,4.0]],[[7.0,0.0]],[[0.0,4.0]],[[17.0,8.0]],[[4.0,8.0]],[[4.0,0.0]],[[0.0,8.0]],[[13.0,0.0]],[[117.0,0.0]],[[27.0,416.0]],[[16.0,412.0]],[[0.0,132.0]],[[16.0,280.0]],[[10.0,60.0]],[[8.0,60.0]],[[1.0,36.0]],[[1.0,0.0]],[[0.0,36.0]],[[7.0,24.0]],[[2.0,0.0]],[[5.0,24.0]],[[5.0,12.0]],[[3.0,0.0]],[[2.0,12.0]],[[1.0,12.0]],[[1.0,0.0]],[[0.0,12.0]],[[1.0,0.0]],[[0.0,12.0]],[[2.0,0.0]],[[6.0,220.0]],[[1.0,0.0]],[[5.0,220.0]],[[4.0,72.0]],[[3.0,72.0]],[[2.0,72.0]],[[0.0,56.0]],[[2.0,16.0]],[[2.0,0.0]],[[0.0,16.0]],[[1.0,0.0]],[[1.0,0.0]],[[1.0,148.0]],[[1.0,24.0]],[[0.0,24.0]],[[1.0,0.0]],[[0.0,124.0]],[[11.0,4.0]],[[11.0,0.0]],[[0.0,4.0]],[[97.0,0.0]],[[299.0,72.0]],[[215.0,0.0]],[[84.0,72.0]],[[40.0,8.0]],[[11.0,8.0]],[[5.0,8.0]],[[2.0,8.0]],[[1.0,0.0]],[[1.0,8.0]],[[1.0,0.0]],[[0.0,8.0]],[[3.0,0.0]],[[6.0,0.0]],[[29.0,0.0]],[[44.0,64.0]],[[38.0,64.0]],[[33.0,36.0]],[[6.0,0.0]],[[27.0,36.0]],[[14.0,32.0]],[[0.0,8.0]],[[14.0,24.0]],[[4.0,0.0]],[[10.0,24.0]],[[10.0,16.0]],[[6.0,16.0]],[[6.0,8.0]],[[5.0,0.0]],[[1.0,8.0]],[[0.0,8.0]],[[1.0,0.0]],[[0.0,8.0]],[[4.0,0.0]],[[0.0,8.0]],[[13.0,4.0]],[[13.0,0.0]],[[0.0,4.0]],[[5.0,28.0]],[[4.0,4.0]],[[3.0,0.0]],[[1.0,4.0]],[[0.0,4.0]],[[1.0,0.0]],[[1.0,24.0]],[[0.0,24.0]],[[1.0,0.0]],[[6.0,0.0]],[[0.0,440.0]],[[252.0,0.0]]],"weighted_n_node_samples":[7088.0,3581.0,908.0,600.0,387.0,233.0,175.0,18.0,157.0,55.0,2.0,53.0,9.0,8.0,1.0,44.0,102.0,52.0,44.0,31.0,8.0,23.0,20.0,2.0,18.0,17.0,12.0,5.0,1.0,4.0,1.0,3.0,13.0,8.0,50.0,46.0,30.0,28.0,7.0,3.0,4.0,21.0,5.0,1.0,4.0,16.0,2.0,16.0,4.0,58.0,154.0,142.0,12.0,213.0,308.0,286.0,245.0,243.0,56.0,187.0,94.0,2.0,92.0,52.0,43.0,1.0,42.0,41.0,36.0,5.0,4.0,1.0,1.0,9.0,5.0,4.0,40.0,93.0,88.0,5.0,4.0,1.0,2.0,41.0,8.0,33.0,6.0,27.0,5.0,22.0,6.0,4.0,2.0,16.0,22.0,2673.0,1330.0,1343.0,294.0,34.0,4.0,30.0,260.0,158.0,155.0,13.0,8.0,5.0,142.0,2.0,140.0,24.0,116.0,6.0,110.0,109.0,20.0,89.0,1.0,88.0,87.0,1.0,86.0,85.0,57.0,5.0,4.0,1.0,52.0,28.0,21.0,1.0,20.0,7.0,3.0,4.0,1.0,1.0,1.0,3.0,102.0,58.0,20.0,38.0,26.0,24.0,17.0,1.0,16.0,7.0,3.0,4.0,2.0,12.0,44.0,1049.0,326.0,723.0,506.0,291.0,227.0,4.0,223.0,219.0,160.0,156.0,2.0,154.0,2.0,152.0,150.0,20.0,130.0,110.0,108.0,2.0,106.0,40.0,36.0,33.0,7.0,4.0,3.0,26.0,1.0,25.0,20.0,5.0,4.0,1.0,3.0,4.0,66.0,40.0,26.0,3.0,23.0,11.0,3.0,8.0,12.0,2.0,20.0,2.0,4.0,59.0,58.0,1.0,57.0,48.0,9.0,1.0,8.0,1.0,4.0,64.0,215.0,217.0,3507.0,3255.0,2815.0,1123.0,587.0,124.0,463.0,212.0,210.0,93.0,88.0,35.0,10.0,4.0,6.0,25.0,24.0,1.0,53.0,44.0,9.0,1.0,8.0,5.0,117.0,85.0,5.0,1.0,4.0,80.0,32.0,3.0,29.0,24.0,5.0,4.0,1.0,2.0,251.0,1.0,250.0,249.0,212.0,37.0,1.0,36.0,1.0,536.0,1692.0,1321.0,1224.0,781.0,664.0,275.0,8.0,267.0,4.0,263.0,32.0,231.0,3.0,228.0,2.0,226.0,96.0,85.0,25.0,24.0,1.0,60.0,11.0,3.0,8.0,130.0,7.0,123.0,19.0,14.0,12.0,2.0,5.0,104.0,60.0,58.0,46.0,45.0,1.0,44.0,1.0,12.0,4.0,8.0,2.0,44.0,389.0,190.0,99.0,22.0,77.0,54.0,6.0,48.0,18.0,3.0,15.0,2.0,13.0,12.0,1.0,30.0,6.0,2.0,4.0,24.0,23.0,19.0,4.0,91.0,199.0,174.0,6.0,168.0,129.0,15.0,11.0,7.0,4.0,3.0,4.0,4.0,114.0,82.0,81.0,41.0,39.0,38.0,1.0,37.0,13.0,12.0,1.0,24.0,1.0,2.0,40.0,1.0,32.0,22.0,6.0,4.0,2.0,16.0,10.0,6.0,4.0,39.0,11.0,28.0,17.0,12.0,5.0,4.0,1.0,11.0,7.0,4.0,25.0,12.0,4.0,8.0,13.0,117.0,443.0,428.0,132.0,296.0,70.0,68.0,37.0,1.0,36.0,31.0,2.0,29.0,17.0,3.0,14.0,13.0,1.0,12.0,1.0,12.0,2.0,226.0,1.0,225.0,76.0,75.0,74.0,56.0,18.0,2.0,16.0,1.0,1.0,149.0,25.0,24.0,1.0,124.0,15.0,11.0,4.0,97.0,371.0,215.0,156.0,48.0,19.0,13.0,10.0,1.0,9.0,1.0,8.0,3.0,6.0,29.0,108.0,102.0,69.0,6.0,63.0,46.0,8.0,38.0,4.0,34.0,26.0,22.0,14.0,5.0,9.0,8.0,1.0,8.0,4.0,8.0,17.0,13.0,4.0,33.0,8.0,3.0,5.0,4.0,1.0,25.0,24.0,1.0,6.0,440.0,252.0]}},"recall":{"ccp_alpha":0.0,"class_weight":{"0":1,"1":4},"classes_":[0,1],"criterion":"entropy","feature_importances_":[0.5824187031,0.1294814652,0.0382721168,0.0548686784,0.0184766818,0.0452301456,0.0887426659,0.0425095431],"max_depth":70,"max_features":null,"max_features_":8,"max_leaf_nodes":null,"min_impurity_decrease":0.0,"min_samples_leaf":1,"min_samples_split":2,"min_weight_fraction_leaf":0.0,"n_classes_":2,"n_features_":8,"n_features_in_":8,"n_outputs_":1,"random_state":null,"splitter":"best","tree_":{"capacity":481,"children_left":[1,2,3,4,5,6,7,-1,9,10,-1,12,13,-1,-1,-1,17,18,19,20,-1,22,23,-1,25,26,-1,28,-1,-1,-1,-1,-1,-1,35,36,37,38,39,-1,-1,42,43,-1,-1,-1,-1,-1,-1,-1,51,-1,-1,-1,55,56,57,58,-1,60,61,-1,63,64,65,-1,67,68,-1,70,-1,-1,-1,74,-1,-1,-1,78,-1,80,-1,-1,-1,84,-1,86,-1,88,-1,90,91,-1,-1,-1,-1,96,-1,98,99,100,-1,-1,103,104,105,106,-1,-1,109,-1,111,-1,113,-1,115,116,-1,118,-1,120,121,-1,123,124,125,126,-1,-1,-1,130,131,-1,-1,134,-1,-1,-1,-1,-1,-1,141,142,-1,144,145,146,147,-1,-1,150,-1,-1,-1,-1,-1,156,-1,158,159,160,161,-1,163,164,165,166,-1,168,-1,170,171,-1,173,174,175,-1,177,178,179,180,181,-1,-1,184,-1,186,-1,188,-1,-1,-1,-1,193,-1,195,-1,197,198,-1,-1,-1,-1,-1,-1,-1,206,207,-1,209,-1,211,-1,-1,-1,-1,-1,-1,-1,219,220,221,222,223,-1,225,226,227,228,229,230,231,-1,-1,234,-1,-1,237,-1,239,-1,-1,-1,243,244,245,-1,-1,-1,249,-1,251,-1,253,-1,-1,-1,257,-1,259,260,-1,262,-1,-1,-1,-1,267,268,269,270,271,272,-1,274,-1,276,-1,278,-1,280,-1,282,283,284,285,-1,-1,-1,289,-1,-1,292,-1,294,295,296,-1,-1,-1,300,301,302,303,304,-1,-1,-1,308,-1,-1,-1,-1,313,314,315,-1,317,318,-1,320,321,-1,323,-1,325,-1,-1,328,329,-1,-1,-1,333,-1,-1,-1,337,338,-1,340,341,342,343,344,-1,-1,-1,-1,349,350,351,352,353,354,-1,356,357,-1,-1,-1,-1,-1,-1,-1,365,366,367,-1,-1,-1,371,-1,-1,374,-1,376,377,-1,379,-1,-1,382,-1,-1,385,386,-1,-1,-1,-1,391,392,-1,394,395,396,397,-1,-1,400,-1,402,403,-1,405,406,-1,-1,-1,-1,-1,412,-1,414,415,416,417,-1,419,-1,-1,-1,-1,424,425,-1,-1,-1,429,-1,-1,-1,433,-1,435,436,437,438,439,-1,441,-1,-1,-1,-1,-1,447,448,449,-1,451,452,-1,454,-1,456,457,458,459,-1,461,-1,-1,-1,-1,-1,467,-1,-1,470,471,-1,473,-1,-1,476,-1,-1,-1,-1,-1],"children_right":[218,95,54,53,50,49,8,-1,16,11,-1,15,14,-1,-1,-1,34,33,32,21,-1,31,24,-1,30,27,-1,29,-1,-1,-1,-1,-1,-1,48,47,46,41,40,-1,-1,45,44,-1,-1,-1,-1,-1,-1,-1,52,-1,-1,-1,94,83,82,59,-1,77,62,-1,76,73,66,-1,72,69,-1,71,-1,-1,-1,75,-1,-1,-1,79,-1,81,-1,-1,-1,85,-1,87,-1,89,-1,93,92,-1,-1,-1,-1,97,-1,155,102,101,-1,-1,140,139,108,107,-1,-1,110,-1,112,-1,114,-1,138,117,-1,119,-1,137,122,-1,136,129,128,127,-1,-1,-1,133,132,-1,-1,135,-1,-1,-1,-1,-1,-1,154,143,-1,153,152,149,148,-1,-1,151,-1,-1,-1,-1,-1,157,-1,217,216,215,162,-1,214,205,204,167,-1,169,-1,203,172,-1,202,201,176,-1,192,191,190,183,182,-1,-1,185,-1,187,-1,189,-1,-1,-1,-1,194,-1,196,-1,200,199,-1,-1,-1,-1,-1,-1,-1,213,208,-1,210,-1,212,-1,-1,-1,-1,-1,-1,-1,480,479,266,265,224,-1,256,255,242,241,236,233,232,-1,-1,235,-1,-1,238,-1,240,-1,-1,-1,248,247,246,-1,-1,-1,250,-1,252,-1,254,-1,-1,-1,258,-1,264,261,-1,263,-1,-1,-1,-1,432,431,390,389,312,273,-1,275,-1,277,-1,279,-1,281,-1,291,288,287,286,-1,-1,-1,290,-1,-1,293,-1,299,298,297,-1,-1,-1,311,310,307,306,305,-1,-1,-1,309,-1,-1,-1,-1,336,335,316,-1,332,319,-1,327,322,-1,324,-1,326,-1,-1,331,330,-1,-1,-1,334,-1,-1,-1,384,339,-1,373,348,347,346,345,-1,-1,-1,-1,364,363,362,361,360,355,-1,359,358,-1,-1,-1,-1,-1,-1,-1,370,369,368,-1,-1,-1,372,-1,-1,375,-1,381,378,-1,380,-1,-1,383,-1,-1,388,387,-1,-1,-1,-1,428,393,-1,411,410,399,398,-1,-1,401,-1,409,404,-1,408,407,-1,-1,-1,-1,-1,413,-1,423,422,421,418,-1,420,-1,-1,-1,-1,427,426,-1,-1,-1,430,-1,-1,-1,434,-1,446,445,444,443,440,-1,442,-1,-1,-1,-1,-1,478,469,450,-1,466,453,-1,455,-1,465,464,463,460,-1,462,-1,-1,-1,-1,-1,468,-1,-1,475,472,-1,474,-1,-1,477,-1,-1,-1,-1,-1],"feature":[0,0,0,0,3,1,3,-2,2,6,-2,4,3,-2,-2,-2,6,3,3,3,-2,7,2,-2,5,4,-2,3,-2,-2,-2,-2,-2,-2,6,6,6,4,7,-2,-2,5,3,-2,-2,-2,-2,-2,-2,-2,6,-2,-2,-2,5,6,4,6,-2,2,4,-2,3,6,3,-2,3,7,-2,3,-2,-2,-2,7,-2,-2,-2,5,-2,6,-2,-2,-2,5,-2,5,-2,3,-2,6,7,-2,-2,-2,-2,0,-2,0,6,3,-2,-2,3,2,5,3,-2,-2,2,-2,7,-2,7,-2,7,6,-2,4,-2,2,6,-2,5,6,6,7,-2,-2,-2,5,7,-2,-2,5,-2,-2,-2,-2,-2,-2,5,7,-2,2,7,3,7,-2,-2,6,-2,-2,-2,-2,-2,0,-2,0,1,6,3,-2,5,7,7,4,-2,6,-2,6,6,-2,6,3,6,-2,5,5,7,5,2,-2,-2,3,-2,3,-2,4,-2,-2,-2,-2,6,-2,3,-2,7,4,-2,-2,-2,-2,-2,-2,-2,7,3,-2,6,-2,6,-2,-2,-2,-2,-2,-2,-2,0,0,0,0,1,-2,5,5,4,4,5,3,6,-2,-2,5,-2,-2,6,-2,6,-2,-2,-2,7,5,4,-2,-2,-2,2,-2,2,-2,6,-2,-2,-2,2,-2,6,6,-2,6,-2,-2,-2,-2,1,6,0,0,2,6,-2,3,-2,2,-2,2,-2,7,-2,7,3,2,2,-2,-2,-2,7,-2,-2,7,-2,4,5,7,-2,-2,-2,3,2,4,3,5,-2,-2,-2,4,-2,-2,-2,-2,0,5,3,-2,2,6,-2,5,3,-2,2,-2,7,-2,-2,6,4,-2,-2,-2,7,-2,-2,-2,6,7,-2,5,7,7,4,5,-2,-2,-2,-2,3,2,5,4,6,4,-2,3,3,-2,-2,-2,-2,-2,-2,-2,6,2,2,-2,-2,-2,2,-2,-2,3,-2,7,4,-2,7,-2,-2,5,-2,-2,7,7,-2,-2,-2,-2,6,5,-2,3,6,3,5,-2,-2,7,-2,4,6,-2,3,7,-2,-2,-2,-2,-2,2,-2,5,5,7,2,-2,2,-2,-2,-2,-2,3,3,-2,-2,-2,6,-2,-2,-2,0,-2,7,4,2,7,3,-2,6,-2,-2,-2,-2,-2,6,5,6,-2,6,3,-2,3,-2,7,2,2,3,-2,5,-2,-2,-2,-2,-2,6,-2,-2,2,3,-2,7,-2,-2,7,-2,-2,-2,-2,-2],"impurity":[0.9925439047,0.7989928742,0.9847010803,0.7478061583,0.9156901528,0.9999867128,0.9220583384,0.0,0.8284715284,0.3054005709,0.0,0.1350362028,0.5032583348,0.0,0.0,0.0,0.9526092095,0.9957274521,0.9456603046,0.999249248,0.0,0.8865408928,0.7219280949,0.0,0.5032583348,0.3227569589,0.0,0.7219280949,0.0,0.0,0.0,0.0,0.0,0.0,0.7219280949,0.5586293735,0.7219280949,0.5916727786,0.985228136,0.0,0.0,0.2761954276,0.7219280949,0.0,0.0,0.0,0.0,0.0,0.0,0.0,0.394814846,0.0,0.0,0.0,0.624274101,0.4394969869,0.2992611749,0.2659427971,0.0,0.3227569589,0.4889085914,0.0,0.426228657,0.6193821947,0.3650551896,0.0,0.2761954276,0.165427034,0.0,0.7219280949,0.0,0.0,0.0,0.9910760598,0.0,0.0,0.0,0.0857426825,0.0,0.7219280949,0.0,0.0,0.0,0.901170196,0.0,0.9672947789,0.0,0.8256265262,0.0,0.4394969869,0.9182958341,0.0,0.0,0.0,0.0,0.6791431616,0.0,0.9405112436,0.7431697526,0.5225593745,0.0,0.0,0.5381411852,0.6451006442,0.6057892521,0.9612366047,0.0,0.0,0.5484866088,0.0,0.512709142,0.0,0.5787946246,0.0,0.4394969869,0.41116649,0.0,0.4725472219,0.0,0.4394969869,0.4037971505,0.0,0.3650551896,0.3227569589,0.1274185118,0.7219280949,0.0,0.0,0.0,0.5916727786,0.2761954276,0.0,0.0,0.985228136,0.0,0.0,0.0,0.0,0.0,0.0,0.3227569589,0.4798320236,0.0,0.6292492239,0.7793498373,0.6500224216,0.3227569589,0.0,0.0,0.985228136,0.0,0.0,0.0,0.0,0.0,0.78902862,0.0,0.9276748743,0.9997182449,0.6042221834,0.7002719042,0.0,0.6687649831,0.6338724226,0.7219280949,0.6789538995,0.0,0.6550239909,0.0,0.6292492239,0.6014353864,0.0,0.6559420758,0.7219280949,0.6912898694,0.0,0.6572729785,0.8812908992,0.7642045065,0.6136190196,0.985228136,0.0,0.0,0.3912435636,0.0,0.2422921891,0.0,0.7219280949,0.0,0.0,0.0,0.0,0.4394969869,0.0,0.7793498373,0.0,0.5586293735,0.8453509366,0.0,0.0,0.0,0.0,0.0,0.0,0.0,0.289986047,0.2163969325,0.0,0.1274185118,0.0,0.5032583348,0.0,0.0,0.0,0.0,0.0,0.0,0.0,0.9244416559,0.8667486989,0.9185324785,0.55989958,0.8119524535,0.0,0.2850191415,0.4507913884,0.4220005169,0.583675328,0.4394969869,0.7219280949,0.9709505945,0.0,0.0,0.2422921891,0.0,0.0,0.1350362028,0.0,0.5032583348,0.0,0.0,0.0,0.2546947047,0.0922772477,0.7219280949,0.0,0.0,0.0,0.5435644432,0.0,0.2163969325,0.0,0.7219280949,0.0,0.0,0.0,0.0934735441,0.0,0.0672215448,0.0377501852,0.0,0.1792560669,0.0,0.0,0.0,0.0,0.9970590569,0.9530990721,0.9081783473,0.9978122433,0.9577009405,0.6255388072,0.0,0.5604094281,0.0,0.5232091927,0.0,0.5688428787,0.0,0.5373760853,0.0,0.5149459065,0.2498822928,0.0922772477,0.2422921891,0.0,0.0,0.0,0.8453509366,0.0,0.0,0.6559420758,0.0,0.5349436991,0.9494520154,0.5916727786,0.0,0.0,0.0,0.3912435636,0.5665095066,0.4798320236,0.2580186687,0.1537421803,0.0,0.0,0.0,0.9182958341,0.0,0.0,0.0,0.0,0.9959872294,0.7807536251,0.9910760598,0.0,0.985228136,0.8256265262,0.0,0.6500224216,0.9182958341,0.0,0.7219280949,0.0,0.3912435636,0.0,0.0,0.353359335,0.9182958341,0.0,0.0,0.0,0.666578358,0.0,0.0,0.0,0.9006267231,0.8332661971,0.0,0.7918583526,0.6409441848,0.996791632,0.8453509366,0.985228136,0.0,0.0,0.0,0.0,0.5373760853,0.3776463214,0.3342681326,0.5349436991,0.3912435636,0.2974722489,0.0,0.1792560669,0.3912435636,0.0,0.0,0.0,0.0,0.0,0.0,0.0,0.8112781245,0.4394969869,0.9182958341,0.0,0.0,0.0,0.9709505945,0.0,0.0,0.9995256893,0.0,0.8631205686,0.3227569589,0.0,0.7219280949,0.0,0.0,0.9456603046,0.0,0.0,0.9043814577,0.9182958341,0.0,0.0,0.0,0.0,0.3311970075,0.2301627406,0.0,0.3033748361,0.5916727786,0.5225593745,0.1792560669,0.0,0.0,0.7706290694,0.0,0.6631968402,0.8739810481,0.0,0.5916727786,0.3912435636,0.0,0.0,0.0,0.0,0.0,0.176776697,0.0,0.1537421803,0.2974722489,0.2422921891,0.1792560669,0.0,0.5032583348,0.0,0.0,0.0,0.0,0.0581007479,0.2422921891,0.0,0.0,0.0,0.8366407419,0.0,0.0,0.0,0.7099085284,0.0,0.9957274521,0.6500224216,0.9819407869,0.9612366047,0.7219280949,0.0,0.5032583348,0.0,0.0,0.0,0.0,0.0,0.9751190649,0.9526092095,0.9986359642,0.0,0.985228136,0.8865408928,0.0,0.9494520154,0.0,0.8739810481,0.9612366047,0.8453509366,0.985228136,0.0,0.5032583348,0.0,0.0,0.0,0.0,0.0,0.7871265862,0.0,0.0,0.6136190196,1.0,0.0,0.7219280949,0.0,0.0,0.2422921891,0.0,0.0,0.0,0.0,0.0],"max_depth":26,"max_n_classes":2,"n_classes":[2],"n_features":8,"n_leaves":241,"n_node_samples":[4700,2930,617,504,291,146,88,18,70,16,2,14,3,2,1,11,54,34,32,19,8,11,8,2,6,5,3,2,1,1,1,3,13,2,20,16,12,10,4,3,1,6,2,1,1,4,2,4,4,58,145,142,3,213,113,91,71,69,14,55,31,2,29,19,13,1,12,11,9,2,1,1,1,6,5,1,10,24,22,2,1,1,2,20,2,18,6,12,5,7,3,1,2,4,22,2313,1330,983,120,31,1,30,89,59,56,7,2,5,49,2,47,6,41,6,35,34,5,29,1,28,27,1,26,25,15,2,1,1,13,10,6,1,5,4,3,1,1,1,1,3,30,19,5,14,11,9,5,1,4,4,3,1,2,3,11,863,326,537,320,105,89,4,85,81,64,60,2,58,2,56,54,5,49,44,42,2,40,19,15,12,4,1,3,8,1,7,5,2,1,1,3,4,21,10,11,3,8,5,3,2,3,2,5,2,4,17,16,1,15,12,3,1,2,1,4,16,215,217,1770,1518,1408,391,257,124,133,68,66,33,28,14,7,1,6,7,6,1,14,11,3,1,2,5,33,22,2,1,1,20,11,3,8,6,2,1,1,2,65,1,64,63,53,10,1,9,1,134,1017,700,603,472,355,101,8,93,4,89,8,81,3,78,2,76,27,22,7,6,1,15,5,3,2,49,7,42,10,5,3,2,5,32,21,19,13,12,1,11,1,6,4,2,2,11,254,157,66,22,44,24,6,18,9,3,6,2,4,3,1,9,3,2,1,6,20,19,1,91,97,78,6,72,48,9,5,4,1,3,1,4,39,25,24,14,12,11,1,10,4,3,1,6,1,2,10,1,14,7,3,1,2,4,7,6,1,24,11,13,5,3,2,1,1,8,7,1,19,6,4,2,13,117,131,119,33,86,25,23,10,1,9,13,2,11,8,3,5,4,1,3,1,3,2,61,1,60,22,21,20,14,6,2,4,1,1,38,7,6,1,31,12,11,1,97,317,215,102,42,13,7,4,1,3,1,2,3,6,29,60,54,42,6,36,22,2,20,4,16,14,10,8,5,3,2,1,2,4,2,14,13,1,12,5,3,2,1,1,7,6,1,6,110,252],"n_outputs":1,"node_count":481,"threshold":[0.3052310944,-0.9349800944,-1.0477266014,-1.4423393011,-0.5033921301,0.3895468414,-0.9142864645,-2.0,-0.3384258896,-0.0767990015,-2.0,0.3955717683,-0.8317217827,-2.0,-2.0,-2.0,1.0708014369,-0.5076361299,-0.7472280264,-0.8106948137,-2.0,-0.1766627356,-0.2396534383,-2.0,1.5383712053,0.7200520337,-2.0,-0.7657472193,-2.0,-2.0,-2.0,-2.0,-2.0,-2.0,1.4284905195,1.298802495,1.2861673236,-0.2236573771,-0.0220668167,-2.0,-2.0,0.2500106469,-0.5292418301,-2.0,-2.0,-2.0,-2.0,-2.0,-2.0,-2.0,1.9118924141,-2.0,-2.0,-2.0,0.0054022695,-0.4461294413,1.8363201618,-1.5417695045,-2.0,-0.7492518127,0.1105001643,-2.0,-0.6191370189,-1.1859970689,-0.8685672581,-2.0,-0.6444079876,-0.7848274708,-2.0,-0.7796366215,-2.0,-2.0,-2.0,-1.1115609407,-2.0,-2.0,-2.0,-0.4013302475,-2.0,-0.6563134789,-2.0,-2.0,-2.0,-1.5005709529,-2.0,-0.8585613072,-2.0,-0.490853101,-2.0,-0.299831152,-0.9713371098,-2.0,-2.0,-2.0,-2.0,-0.2585012689,-2.0,-0.0893815653,-0.4212140143,-0.5068644881,-2.0,-2.0,0.4711797684,0.6899034679,-1.1201854348,0.0741748223,-2.0,-2.0,-0.5784021914,-2.0,-0.5086969435,-2.0,-0.3557950854,-2.0,1.1546982527,-0.2801685482,-2.0,-0.5536175519,-2.0,0.3417411149,-0.2668235302,-2.0,0.1683747172,0.0125700217,-0.1991756484,0.2558123767,-2.0,-2.0,-2.0,-0.5153510869,-0.161143031,-2.0,-2.0,-0.049687013,-2.0,-2.0,-2.0,-2.0,-2.0,-2.0,0.2172265351,0.0520342989,-2.0,0.918358624,0.5716164708,1.0693879128,0.1220369041,-2.0,-2.0,0.5611353964,-2.0,-2.0,-2.0,-2.0,-2.0,0.0797381429,-2.0,0.1924846172,0.3895468414,-0.143949993,-0.8434891701,-2.0,1.1613789201,0.3413346857,0.1776127443,0.2360715792,-2.0,-1.4791615605,-2.0,-0.2298407927,-1.1857841015,-2.0,-0.4138316661,-0.1499844305,-1.1620754004,-2.0,-0.3005827516,-0.5267781317,-0.6558609009,-0.9932406247,-0.7332346737,-2.0,-2.0,-0.8031713665,-2.0,-0.5381155908,-2.0,0.5831710249,-2.0,-2.0,-2.0,-2.0,-0.8158148229,-2.0,-0.6307115257,-2.0,-0.4450333714,0.8871307969,-2.0,-2.0,-2.0,-2.0,-2.0,-2.0,-2.0,1.7658686042,-0.4476417005,-2.0,-0.2252978086,-2.0,-0.1936388835,-2.0,-2.0,-2.0,-2.0,-2.0,-2.0,-2.0,1.3763226271,1.2072029114,0.7562170029,0.5307240486,0.3895468414,-2.0,0.579398632,0.5575924516,-0.1160413921,-0.234150812,0.2569466978,-0.0529516395,-0.2009502575,-2.0,-2.0,0.2463679537,-2.0,-2.0,0.95743981,-2.0,1.0245198309,-2.0,-2.0,-2.0,0.6012350619,-0.81729424,0.8217217326,-2.0,-2.0,-2.0,-0.3385663778,-2.0,0.01465399,-2.0,0.8766598701,-2.0,-2.0,-2.0,-0.822453022,-2.0,1.0954329371,0.9068991244,-2.0,0.91747576,-2.0,-2.0,-2.0,-2.0,0.3895468414,1.5500863194,1.0944564342,0.9817099571,-0.4335452914,-1.7791404724,-2.0,-0.9594269693,-2.0,-0.7996917963,-2.0,-0.7915427387,-2.0,-1.048006624,-2.0,-0.507822603,0.0645294174,-0.7193250358,-0.7423672378,-2.0,-2.0,-2.0,-0.5315393507,-2.0,-2.0,-0.4459077418,-2.0,0.482783854,-0.6660481989,-0.1168790869,-2.0,-2.0,-2.0,-0.3965210319,-0.4520914704,1.0194646716,-0.438382104,-1.3363011479,-2.0,-2.0,-2.0,1.1851443052,-2.0,-2.0,-2.0,-2.0,0.86896348,0.2350906283,-0.353116706,-2.0,-0.0190663317,-1.4500579834,-2.0,-0.2679483294,-0.197246924,-2.0,-0.1883704439,-2.0,0.4874603599,-2.0,-2.0,-1.2017555237,0.3109247386,-2.0,-2.0,-2.0,1.7823172808,-2.0,-2.0,-2.0,0.4084485322,-0.5620869398,-2.0,1.0457612872,-0.3912608922,-0.4930133224,0.1366171539,-1.2133482099,-2.0,-2.0,-2.0,-2.0,0.6164396107,1.2083534002,-0.0405553617,-0.2997930646,0.2405000739,-0.7130011618,-2.0,0.3280419409,0.1972502172,-2.0,-2.0,-2.0,-2.0,-2.0,-2.0,-2.0,-0.149344787,0.3515762091,-0.0682418048,-2.0,-2.0,-2.0,0.9229951501,-2.0,-2.0,0.7638214231,-2.0,0.4388792962,-0.7810918689,-2.0,-0.1140374579,-2.0,-2.0,1.8137178421,-2.0,-2.0,0.1877770573,-0.0045251846,-2.0,-2.0,-2.0,-2.0,0.8527382314,0.0520584974,-2.0,-0.1426539272,0.17079366,-0.2983307838,0.0605913457,-2.0,-2.0,-0.7758653462,-2.0,0.083333835,-0.2781809866,-2.0,-0.1814284623,-0.2436051145,-2.0,-2.0,-2.0,-2.0,-2.0,-0.5266976953,-2.0,0.5460656285,0.541574657,1.202131778,0.0445807772,-2.0,0.2263895199,-2.0,-2.0,-2.0,-2.0,-0.014948739,-0.0325033804,-2.0,-2.0,-2.0,1.5381609797,-2.0,-2.0,-2.0,0.9817099571,-2.0,-0.1679192409,-0.3178650886,-0.056018183,-0.3417508453,-0.3683564514,-2.0,0.418244347,-2.0,-2.0,-2.0,-2.0,-2.0,1.4693064094,1.2283942103,0.7256056368,-2.0,1.2629555464,-0.3722146153,-2.0,-0.3045038581,-2.0,0.9070388079,0.0711355284,-0.1110947132,-0.0103189433,-2.0,0.6032506824,-2.0,-2.0,-2.0,-2.0,-2.0,1.4207532406,-2.0,-2.0,0.1056988612,-0.237950556,-2.0,0.1604536362,-2.0,-2.0,2.07167238,-2.0,-2.0,-2.0,-2.0,-2.0],"value":[[[3904.0,3184.0]],[[2713.0,868.0]],[[520.0,388.0]],[[472.0,128.0]],[[259.0,128.0]],[[117.0,116.0]],[[59.0,116.0]],[[18.0,0.0]],[[41.0,116.0]],[[3.0,52.0]],[[2.0,0.0]],[[1.0,52.0]],[[1.0,8.0]],[[0.0,8.0]],[[1.0,0.0]],[[0.0,44.0]],[[38.0,64.0]],[[28.0,24.0]],[[28.0,16.0]],[[15.0,16.0]],[[8.0,0.0]],[[7.0,16.0]],[[4.0,16.0]],[[2.0,0.0]],[[2.0,16.0]],[[1.0,16.0]],[[0.0,12.0]],[[1.0,4.0]],[[1.0,0.0]],[[0.0,4.0]],[[1.0,0.0]],[[3.0,0.0]],[[13.0,0.0]],[[0.0,8.0]],[[10.0,40.0]],[[6.0,40.0]],[[6.0,24.0]],[[4.0,24.0]],[[3.0,4.0]],[[3.0,0.0]],[[0.0,4.0]],[[1.0,20.0]],[[1.0,4.0]],[[1.0,0.0]],[[0.0,4.0]],[[0.0,16.0]],[[2.0,0.0]],[[0.0,16.0]],[[4.0,0.0]],[[58.0,0.0]],[[142.0,12.0]],[[142.0,0.0]],[[0.0,12.0]],[[213.0,0.0]],[[48.0,260.0]],[[26.0,260.0]],[[13.0,232.0]],[[11.0,232.0]],[[0.0,56.0]],[[11.0,176.0]],[[10.0,84.0]],[[2.0,0.0]],[[8.0,84.0]],[[8.0,44.0]],[[3.0,40.0]],[[1.0,0.0]],[[2.0,40.0]],[[1.0,40.0]],[[0.0,36.0]],[[1.0,4.0]],[[0.0,4.0]],[[1.0,0.0]],[[1.0,0.0]],[[5.0,4.0]],[[5.0,0.0]],[[0.0,4.0]],[[0.0,40.0]],[[1.0,92.0]],[[0.0,88.0]],[[1.0,4.0]],[[0.0,4.0]],[[1.0,0.0]],[[2.0,0.0]],[[13.0,28.0]],[[0.0,8.0]],[[13.0,20.0]],[[6.0,0.0]],[[7.0,20.0]],[[5.0,0.0]],[[2.0,20.0]],[[2.0,4.0]],[[0.0,4.0]],[[2.0,0.0]],[[0.0,16.0]],[[22.0,0.0]],[[2193.0,480.0]],[[1330.0,0.0]],[[863.0,480.0]],[[62.0,232.0]],[[30.0,4.0]],[[0.0,4.0]],[[30.0,0.0]],[[32.0,228.0]],[[26.0,132.0]],[[23.0,132.0]],[[5.0,8.0]],[[0.0,8.0]],[[5.0,0.0]],[[18.0,124.0]],[[2.0,0.0]],[[16.0,124.0]],[[0.0,24.0]],[[16.0,100.0]],[[6.0,0.0]],[[10.0,100.0]],[[9.0,100.0]],[[0.0,20.0]],[[9.0,80.0]],[[1.0,0.0]],[[8.0,80.0]],[[7.0,80.0]],[[1.0,0.0]],[[6.0,80.0]],[[5.0,80.0]],[[1.0,56.0]],[[1.0,4.0]],[[0.0,4.0]],[[1.0,0.0]],[[0.0,52.0]],[[4.0,24.0]],[[1.0,20.0]],[[1.0,0.0]],[[0.0,20.0]],[[3.0,4.0]],[[3.0,0.0]],[[0.0,4.0]],[[1.0,0.0]],[[1.0,0.0]],[[1.0,0.0]],[[3.0,0.0]],[[6.0,96.0]],[[6.0,52.0]],[[0.0,20.0]],[[6.0,32.0]],[[6.0,20.0]],[[4.0,20.0]],[[1.0,16.0]],[[1.0,0.0]],[[0.0,16.0]],[[3.0,4.0]],[[3.0,0.0]],[[0.0,4.0]],[[2.0,0.0]],[[0.0,12.0]],[[0.0,44.0]],[[801.0,248.0]],[[326.0,0.0]],[[475.0,248.0]],[[258.0,248.0]],[[43.0,248.0]],[[43.0,184.0]],[[4.0,0.0]],[[39.0,184.0]],[[35.0,184.0]],[[32.0,128.0]],[[28.0,128.0]],[[2.0,0.0]],[[26.0,128.0]],[[2.0,0.0]],[[24.0,128.0]],[[22.0,128.0]],[[0.0,20.0]],[[22.0,108.0]],[[22.0,88.0]],[[20.0,88.0]],[[2.0,0.0]],[[18.0,88.0]],[[12.0,28.0]],[[8.0,28.0]],[[5.0,28.0]],[[3.0,4.0]],[[0.0,4.0]],[[3.0,0.0]],[[2.0,24.0]],[[1.0,0.0]],[[1.0,24.0]],[[0.0,20.0]],[[1.0,4.0]],[[0.0,4.0]],[[1.0,0.0]],[[3.0,0.0]],[[4.0,0.0]],[[6.0,60.0]],[[0.0,40.0]],[[6.0,20.0]],[[3.0,0.0]],[[3.0,20.0]],[[3.0,8.0]],[[3.0,0.0]],[[0.0,8.0]],[[0.0,12.0]],[[2.0,0.0]],[[0.0,20.0]],[[2.0,0.0]],[[4.0,0.0]],[[3.0,56.0]],[[2.0,56.0]],[[1.0,0.0]],[[1.0,56.0]],[[0.0,48.0]],[[1.0,8.0]],[[1.0,0.0]],[[0.0,8.0]],[[1.0,0.0]],[[4.0,0.0]],[[0.0,64.0]],[[215.0,0.0]],[[217.0,0.0]],[[1191.0,2316.0]],[[939.0,2316.0]],[[939.0,1876.0]],[[147.0,976.0]],[[147.0,440.0]],[[124.0,0.0]],[[23.0,440.0]],[[20.0,192.0]],[[18.0,192.0]],[[13.0,80.0]],[[8.0,80.0]],[[7.0,28.0]],[[6.0,4.0]],[[0.0,4.0]],[[6.0,0.0]],[[1.0,24.0]],[[0.0,24.0]],[[1.0,0.0]],[[1.0,52.0]],[[0.0,44.0]],[[1.0,8.0]],[[1.0,0.0]],[[0.0,8.0]],[[5.0,0.0]],[[5.0,112.0]],[[1.0,84.0]],[[1.0,4.0]],[[1.0,0.0]],[[0.0,4.0]],[[0.0,80.0]],[[4.0,28.0]],[[3.0,0.0]],[[1.0,28.0]],[[0.0,24.0]],[[1.0,4.0]],[[0.0,4.0]],[[1.0,0.0]],[[2.0,0.0]],[[3.0,248.0]],[[1.0,0.0]],[[2.0,248.0]],[[1.0,248.0]],[[0.0,212.0]],[[1.0,36.0]],[[1.0,0.0]],[[0.0,36.0]],[[1.0,0.0]],[[0.0,536.0]],[[792.0,900.0]],[[493.0,828.0]],[[396.0,828.0]],[[369.0,412.0]],[[252.0,412.0]],[[43.0,232.0]],[[8.0,0.0]],[[35.0,232.0]],[[4.0,0.0]],[[31.0,232.0]],[[0.0,32.0]],[[31.0,200.0]],[[3.0,0.0]],[[28.0,200.0]],[[2.0,0.0]],[[26.0,200.0]],[[4.0,92.0]],[[1.0,84.0]],[[1.0,24.0]],[[0.0,24.0]],[[1.0,0.0]],[[0.0,60.0]],[[3.0,8.0]],[[3.0,0.0]],[[0.0,8.0]],[[22.0,108.0]],[[7.0,0.0]],[[15.0,108.0]],[[7.0,12.0]],[[2.0,12.0]],[[0.0,12.0]],[[2.0,0.0]],[[5.0,0.0]],[[8.0,96.0]],[[8.0,52.0]],[[6.0,52.0]],[[2.0,44.0]],[[1.0,44.0]],[[1.0,0.0]],[[0.0,44.0]],[[1.0,0.0]],[[4.0,8.0]],[[4.0,0.0]],[[0.0,8.0]],[[2.0,0.0]],[[0.0,44.0]],[[209.0,180.0]],[[146.0,44.0]],[[55.0,44.0]],[[22.0,0.0]],[[33.0,44.0]],[[14.0,40.0]],[[6.0,0.0]],[[8.0,40.0]],[[6.0,12.0]],[[3.0,0.0]],[[3.0,12.0]],[[2.0,0.0]],[[1.0,12.0]],[[0.0,12.0]],[[1.0,0.0]],[[2.0,28.0]],[[2.0,4.0]],[[2.0,0.0]],[[0.0,4.0]],[[0.0,24.0]],[[19.0,4.0]],[[19.0,0.0]],[[0.0,4.0]],[[91.0,0.0]],[[63.0,136.0]],[[46.0,128.0]],[[6.0,0.0]],[[40.0,128.0]],[[21.0,108.0]],[[7.0,8.0]],[[3.0,8.0]],[[3.0,4.0]],[[0.0,4.0]],[[3.0,0.0]],[[0.0,4.0]],[[4.0,0.0]],[[14.0,100.0]],[[6.0,76.0]],[[5.0,76.0]],[[5.0,36.0]],[[3.0,36.0]],[[2.0,36.0]],[[1.0,0.0]],[[1.0,36.0]],[[1.0,12.0]],[[0.0,12.0]],[[1.0,0.0]],[[0.0,24.0]],[[1.0,0.0]],[[2.0,0.0]],[[0.0,40.0]],[[1.0,0.0]],[[8.0,24.0]],[[2.0,20.0]],[[2.0,4.0]],[[0.0,4.0]],[[2.0,0.0]],[[0.0,16.0]],[[6.0,4.0]],[[6.0,0.0]],[[0.0,4.0]],[[19.0,20.0]],[[11.0,0.0]],[[8.0,20.0]],[[1.0,16.0]],[[0.0,12.0]],[[1.0,4.0]],[[0.0,4.0]],[[1.0,0.0]],[[7.0,4.0]],[[7.0,0.0]],[[0.0,4.0]],[[17.0,8.0]],[[4.0,8.0]],[[4.0,0.0]],[[0.0,8.0]],[[13.0,0.0]],[[117.0,0.0]],[[27.0,416.0]],[[16.0,412.0]],[[0.0,132.0]],[[16.0,280.0]],[[10.0,60.0]],[[8.0,60.0]],[[1.0,36.0]],[[1.0,0.0]],[[0.0,36.0]],[[7.0,24.0]],[[2.0,0.0]],[[5.0,24.0]],[[5.0,12.0]],[[3.0,0.0]],[[2.0,12.0]],[[1.0,12.0]],[[1.0,0.0]],[[0.0,12.0]],[[1.0,0.0]],[[0.0,12.0]],[[2.0,0.0]],[[6.0,220.0]],[[1.0,0.0]],[[5.0,220.0]],[[4.0,72.0]],[[3.0,72.0]],[[2.0,72.0]],[[0.0,56.0]],[[2.0,16.0]],[[2.0,0.0]],[[0.0,16.0]],[[1.0,0.0]],[[1.0,0.0]],[[1.0,148.0]],[[1.0,24.0]],[[0.0,24.0]],[[1.0,0.0]],[[0.0,124.0]],[[11.0,4.0]],[[11.0,0.0]],[[0.0,4.0]],[[97.0,0.0]],[[299.0,72.0]],[[215.0,0.0]],[[84.0,72.0]],[[40.0,8.0]],[[11.0,8.0]],[[5.0,8.0]],[[2.0,8.0]],[[1.0,0.0]],[[1.0,8.0]],[[1.0,0.0]],[[0.0,8.0]],[[3.0,0.0]],[[6.0,0.0]],[[29.0,0.0]],[[44.0,64.0]],[[38.0,64.0]],[[33.0,36.0]],[[6.0,0.0]],[[27.0,36.0]],[[14.0,32.0]],[[0.0,8.0]],[[14.0,24.0]],[[4.0,0.0]],[[10.0,24.0]],[[10.0,16.0]],[[6.0,16.0]],[[6.0,8.0]],[[5.0,0.0]],[[1.0,8.0]],[[0.0,8.0]],[[1.0,0.0]],[[0.0,8.0]],[[4.0,0.0]],[[0.0,8.0]],[[13.0,4.0]],[[13.0,0.0]],[[0.0,4.0]],[[5.0,28.0]],[[4.0,4.0]],[[3.0,0.0]],[[1.0,4.0]],[[0.0,4.0]],[[1.0,0.0]],[[1.0,24.0]],[[0.0,24.0]],[[1.0,0.0]],[[6.0,0.0]],[[0.0,440.0]],[[252.0,0.0]]],"weighted_n_node_samples":[7088.0,3581.0,908.0,600.0,387.0,233.0,175.0,18.0,157.0,55.0,2.0,53.0,9.0,8.0,1.0,44.0,102.0,52.0,44.0,31.0,8.0,23.0,20.0,2.0,18.0,17.0,12.0,5.0,1.0,4.0,1.0,3.0,13.0,8.0,50.0,46.0,30.0,28.0,7.0,3.0,4.0,21.0,5.0,1.0,4.0,16.0,2.0,16.0,4.0,58.0,154.0,142.0,12.0,213.0,308.0,286.0,245.0,243.0,56.0,187.0,94.0,2.0,92.0,52.0,43.0,1.0,42.0,41.0,36.0,5.0,4.0,1.0,1.0,9.0,5.0,4.0,40.0,93.0,88.0,5.0,4.0,1.0,2.0,41.0,8.0,33.0,6.0,27.0,5.0,22.0,6.0,4.0,2.0,16.0,22.0,2673.0,1330.0,1343.0,294.0,34.0,4.0,30.0,260.0,158.0,155.0,13.0,8.0,5.0,142.0,2.0,140.0,24.0,116.0,6.0,110.0,109.0,20.0,89.0,1.0,88.0,87.0,1.0,86.0,85.0,57.0,5.0,4.0,1.0,52.0,28.0,21.0,1.0,20.0,7.0,3.0,4.0,1.0,1.0,1.0,3.0,102.0,58.0,20.0,38.0,26.0,24.0,17.0,1.0,16.0,7.0,3.0,4.0,2.0,12.0,44.0,1049.0,326.0,723.0,506.0,291.0,227.0,4.0,223.0,219.0,160.0,156.0,2.0,154.0,2.0,152.0,150.0,20.0,130.0,110.0,108.0,2.0,106.0,40.0,36.0,33.0,7.0,4.0,3.0,26.0,1.0,25.0,20.0,5.0,4.0,1.0,3.0,4.0,66.0,40.0,26.0,3.0,23.0,11.0,3.0,8.0,12.0,2.0,20.0,2.0,4.0,59.0,58.0,1.0,57.0,48.0,9.0,1.0,8.0,1.0,4.0,64.0,215.0,217.0,3507.0,3255.0,2815.0,1123.0,587.0,124.0,463.0,212.0,210.0,93.0,88.0,35.0,10.0,4.0,6.0,25.0,24.0,1.0,53.0,44.0,9.0,1.0,8.0,5.0,117.0,85.0,5.0,1.0,4.0,80.0,32.0,3.0,29.0,24.0,5.0,4.0,1.0,2.0,251.0,1.0,250.0,249.0,212.0,37.0,1.0,36.0,1.0,536.0,1692.0,1321.0,1224.0,781.0,664.0,275.0,8.0,267.0,4.0,263.0,32.0,231.0,3.0,228.0,2.0,226.0,96.0,85.0,25.0,24.0,1.0,60.0,11.0,3.0,8.0,130.0,7.0,123.0,19.0,14.0,12.0,2.0,5.0,104.0,60.0,58.0,46.0,45.0,1.0,44.0,1.0,12.0,4.0,8.0,2.0,44.0,389.0,190.0,99.0,22.0,77.0,54.0,6.0,48.0,18.0,3.0,15.0,2.0,13.0,12.0,1.0,30.0,6.0,2.0,4.0,24.0,23.0,19.0,4.0,91.0,199.0,174.0,6.0,168.0,129.0,15.0,11.0,7.0,4.0,3.0,4.0,4.0,114.0,82.0,81.0,41.0,39.0,38.0,1.0,37.0,13.0,12.0,1.0,24.0,1.0,2.0,40.0,1.0,32.0,22.0,6.0,4.0,2.0,16.0,10.0,6.0,4.0,39.0,11.0,28.0,17.0,12.0,5.0,4.0,1.0,11.0,7.0,4.0,25.0,12.0,4.0,8.0,13.0,117.0,443.0,428.0,132.0,296.0,70.0,68.0,37.0,1.0,36.0,31.0,2.0,29.0,17.0,3.0,14.0,13.0,1.0,12.0,1.0,12.0,2.0,226.0,1.0,225.0,76.0,75.0,74.0,56.0,18.0,2.0,16.0,1.0,1.0,149.0,25.0,24.0,1.0,124.0,15.0,11.0,4.0,97.0,371.0,215.0,156.0,48.0,19.0,13.0,10.0,1.0,9.0,1.0,8.0,3.0,6.0,29.0,108.0,102.0,69.0,6.0,63.0,46.0,8.0,38.0,4.0,34.0,26.0,22.0,14.0,5.0,9.0,8.0,1.0,8.0,4.0,8.0,17.0,13.0,4.0,33.0,8.0,3.0,5.0,4.0,1.0,25.0,24.0,1.0,6.0,440.0,252.0]}}},"evaluation":{"acc":0.8755082742,"f1":0.6268946242,"precision":0.6384959746,"recall":0.6191950983},"name":{"acc":"tree-entropy-best-70-None-1-2-None","f1":"tree-entropy-best-70-None-1-2-None","precision":"tree-entropy-best-70-None-1-2-None","recall":"tree-entropy-best-70-None-1-2-None"}}