{"model":{"mae":{"ccp_alpha":0.0,"class_weight":null,"criterion":"squared_error","feature_importances_":[0.5482485052,0.0492896572,0.1227621918,0.0739394524,0.0545970286,0.0131092333,0.072544528,0.0655094035],"max_depth":10,"max_features":null,"max_features_":8,"max_leaf_nodes":null,"min_impurity_decrease":0.0,"min_samples_leaf":1,"min_samples_split":2,"min_weight_fraction_leaf":0.0,"n_features_":8,"n_features_in_":8,"n_outputs_":1,"random_state":null,"splitter":"best","tree_":{"capacity":533,"children_left":[1,2,3,4,5,6,7,-1,-1,-1,11,-1,13,-1,15,16,-1,-1,-1,20,21,22,23,-1,-1,26,27,-1,29,-1,-1,32,33,-1,-1,36,-1,-1,39,40,-1,-1,43,44,-1,-1,47,48,-1,-1,51,-1,-1,54,55,56,57,58,-1,-1,-1,62,63,-1,-1,-1,67,68,69,-1,-1,72,-1,-1,75,76,-1,-1,-1,80,81,82,-1,-1,85,86,-1,-1,-1,-1,91,92,93,94,-1,96,-1,-1,99,-1,101,102,-1,104,-1,-1,107,-1,-1,110,111,112,-1,114,115,-1,-1,118,-1,-1,121,122,123,-1,-1,-1,127,-1,-1,130,131,132,-1,-1,135,136,-1,-1,-1,140,141,142,-1,-1,-1,146,147,-1,-1,150,-1,-1,153,154,155,156,-1,-1,159,-1,-1,-1,163,164,165,-1,-1,-1,169,170,171,-1,173,-1,-1,176,-1,178,-1,-1,181,182,183,-1,-1,186,-1,-1,189,-1,-1,192,193,-1,195,196,-1,198,-1,-1,201,202,203,-1,205,-1,-1,208,209,-1,-1,-1,213,214,215,216,-1,-1,219,-1,-1,222,-1,224,-1,-1,-1,228,229,230,231,-1,-1,-1,235,236,-1,-1,-1,-1,241,242,243,244,245,-1,-1,248,249,250,-1,-1,253,-1,255,-1,257,-1,-1,260,261,-1,-1,-1,265,266,267,268,269,-1,271,-1,-1,274,-1,-1,277,-1,-1,280,281,282,-1,-1,-1,286,287,-1,-1,-1,291,-1,-1,294,295,296,297,298,299,300,-1,-1,303,-1,-1,306,-1,-1,309,-1,311,-1,-1,314,-1,-1,317,318,-1,-1,321,-1,323,-1,-1,326,327,328,-1,330,331,-1,-1,334,-1,-1,337,338,339,340,-1,-1,343,-1,-1,346,347,-1,-1,-1,351,352,353,-1,-1,-1,357,358,-1,-1,361,-1,-1,364,365,366,-1,-1,369,370,-1,-1,373,-1,-1,-1,377,378,379,380,381,-1,-1,384,385,-1,387,-1,389,-1,-1,392,393,-1,-1,-1,397,398,399,-1,-1,402,403,404,-1,-1,-1,-1,-1,410,411,412,413,-1,-1,416,417,418,-1,-1,421,-1,-1,424,425,-1,-1,428,-1,-1,431,432,-1,-1,-1,436,437,438,439,440,-1,-1,443,-1,-1,-1,447,448,449,-1,-1,452,-1,-1,455,-1,457,-1,-1,-1,461,462,463,464,465,466,-1,-1,469,470,-1,-1,-1,-1,475,476,477,-1,-1,-1,481,482,-1,484,-1,-1,487,-1,-1,490,-1,492,493,494,-1,496,-1,-1,499,-1,-1,502,503,-1,505,-1,-1,508,-1,-1,511,512,513,-1,-1,-1,517,518,519,-1,-1,522,-1,524,-1,526,-1,-1,529,530,-1,-1,-1],"children_right":[240,191,90,19,10,9,8,-1,-1,-1,12,-1,14,-1,18,17,-1,-1,-1,53,38,25,24,-1,-1,31,28,-1,30,-1,-1,35,34,-1,-1,37,-1,-1,42,41,-1,-1,46,45,-1,-1,50,49,-1,-1,52,-1,-1,79,66,61,60,59,-1,-1,-1,65,64,-1,-1,-1,74,71,70,-1,-1,73,-1,-1,78,77,-1,-1,-1,89,84,83,-1,-1,88,87,-1,-1,-1,-1,152,109,98,95,-1,97,-1,-1,100,-1,106,103,-1,105,-1,-1,108,-1,-1,129,120,113,-1,117,116,-1,-1,119,-1,-1,126,125,124,-1,-1,-1,128,-1,-1,139,134,133,-1,-1,138,137,-1,-1,-1,145,144,143,-1,-1,-1,149,148,-1,-1,151,-1,-1,162,161,158,157,-1,-1,160,-1,-1,-1,168,167,166,-1,-1,-1,180,175,172,-1,174,-1,-1,177,-1,179,-1,-1,188,185,184,-1,-1,187,-1,-1,190,-1,-1,227,194,-1,200,197,-1,199,-1,-1,212,207,204,-1,206,-1,-1,211,210,-1,-1,-1,226,221,218,217,-1,-1,220,-1,-1,223,-1,225,-1,-1,-1,239,234,233,232,-1,-1,-1,238,237,-1,-1,-1,-1,376,293,264,247,246,-1,-1,259,252,251,-1,-1,254,-1,256,-1,258,-1,-1,263,262,-1,-1,-1,290,279,276,273,270,-1,272,-1,-1,275,-1,-1,278,-1,-1,285,284,283,-1,-1,-1,289,288,-1,-1,-1,292,-1,-1,325,316,313,308,305,302,301,-1,-1,304,-1,-1,307,-1,-1,310,-1,312,-1,-1,315,-1,-1,320,319,-1,-1,322,-1,324,-1,-1,363,336,329,-1,333,332,-1,-1,335,-1,-1,350,345,342,341,-1,-1,344,-1,-1,349,348,-1,-1,-1,356,355,354,-1,-1,-1,360,359,-1,-1,362,-1,-1,375,368,367,-1,-1,372,371,-1,-1,374,-1,-1,-1,460,409,396,383,382,-1,-1,391,386,-1,388,-1,390,-1,-1,395,394,-1,-1,-1,408,401,400,-1,-1,407,406,405,-1,-1,-1,-1,-1,435,430,415,414,-1,-1,423,420,419,-1,-1,422,-1,-1,427,426,-1,-1,429,-1,-1,434,433,-1,-1,-1,459,446,445,442,441,-1,-1,444,-1,-1,-1,454,451,450,-1,-1,453,-1,-1,456,-1,458,-1,-1,-1,510,489,474,473,468,467,-1,-1,472,471,-1,-1,-1,-1,480,479,478,-1,-1,-1,486,483,-1,485,-1,-1,488,-1,-1,491,-1,501,498,495,-1,497,-1,-1,500,-1,-1,507,504,-1,506,-1,-1,509,-1,-1,516,515,514,-1,-1,-1,528,521,520,-1,-1,523,-1,525,-1,527,-1,-1,532,531,-1,-1,-1],"feature":[0,0,6,2,0,6,6,-2,-2,-2,2,-2,7,-2,6,4,-2,-2,-2,2,1,0,4,-2,-2,3,2,-2,3,-2,-2,3,2,-2,-2,4,-2,-2,4,7,-2,-2,2,3,-2,-2,4,5,-2,-2,7,-2,-2,0,4,3,4,2,-2,-2,-2,3,2,-2,-2,-2,3,7,3,-2,-2,5,-2,-2,1,7,-2,-2,-2,3,3,2,-2,-2,4,5,-2,-2,-2,-2,1,0,3,7,-2,4,-2,-2,5,-2,6,5,-2,6,-2,-2,5,-2,-2,0,0,7,-2,6,4,-2,-2,7,-2,-2,6,3,6,-2,-2,-2,2,-2,-2,0,2,3,-2,-2,2,5,-2,-2,-2,0,2,5,-2,-2,-2,5,5,-2,-2,7,-2,-2,4,7,4,0,-2,-2,7,-2,-2,-2,3,6,4,-2,-2,-2,0,3,0,-2,2,-2,-2,5,-2,3,-2,-2,4,4,6,-2,-2,3,-2,-2,3,-2,-2,4,6,-2,2,4,-2,7,-2,-2,5,6,4,-2,4,-2,-2,3,3,-2,-2,-2,4,5,4,4,-2,-2,4,-2,-2,6,-2,6,-2,-2,-2,6,2,7,5,-2,-2,-2,3,7,-2,-2,-2,-2,7,0,7,5,4,-2,-2,2,3,4,-2,-2,2,-2,7,-2,4,-2,-2,2,5,-2,-2,-2,4,3,3,6,4,-2,5,-2,-2,6,-2,-2,4,-2,-2,4,6,4,-2,-2,-2,3,2,-2,-2,-2,4,-2,-2,0,6,4,5,2,7,5,-2,-2,3,-2,-2,6,-2,-2,2,-2,5,-2,-2,5,-2,-2,5,3,-2,-2,7,-2,2,-2,-2,0,4,6,-2,2,7,-2,-2,0,-2,-2,0,2,0,6,-2,-2,1,-2,-2,3,7,-2,-2,-2,2,3,6,-2,-2,-2,3,3,-2,-2,7,-2,-2,5,6,5,-2,-2,2,4,-2,-2,6,-2,-2,-2,2,0,0,3,2,-2,-2,5,4,-2,2,-2,2,-2,-2,4,6,-2,-2,-2,6,4,4,-2,-2,7,4,6,-2,-2,-2,-2,-2,0,4,2,2,-2,-2,3,0,2,-2,-2,4,-2,-2,2,5,-2,-2,0,-2,-2,7,5,-2,-2,-2,0,4,3,2,5,-2,-2,5,-2,-2,-2,2,5,6,-2,-2,3,-2,-2,5,-2,5,-2,-2,-2,3,2,3,6,3,6,-2,-2,7,5,-2,-2,-2,-2,0,7,1,-2,-2,-2,7,4,-2,1,-2,-2,2,-2,-2,0,-2,5,2,0,-2,0,-2,-2,5,-2,-2,0,7,-2,0,-2,-2,4,-2,-2,6,7,7,-2,-2,-2,1,6,5,-2,-2,5,-2,3,-2,7,-2,-2,6,7,-2,-2,-2],"impurity":[0.9753184012,0.8211431202,0.7073007541,0.6555911777,0.3747668047,0.0654519082,0.0061435815,0.0,4.440892099e-16,-4.440892099e-16,0.3237188096,0.0,0.0426997778,0.0,0.0029572955,0.0010925972,0.0,0.0,0.0,0.4957224101,0.348196454,0.1703541489,0.0279917538,0.0,0.0,0.0801397631,0.0176498894,0.0,0.0009764998,0.0001617088,0.00018572,0.0954071099,0.0308684925,0.0,-4.770489559e-18,0.0119549563,0.0,-5.551115123e-17,0.2440710122,0.1423473764,0.0,-2.775557562e-17,0.1440323431,0.2527932111,0.0,0.0,0.0429693658,0.0049771711,0.0,-8.881784197e-16,0.0152003119,0.0,0.0004066549,0.3394892701,0.3021295615,0.1214233262,0.0264634249,0.0057583355,0.0025821707,0.0004415309,-2.220446049e-16,0.0415331295,0.0120944479,0.0026541039,-1.040834086e-17,5.551115123e-17,0.3389881149,0.2366270341,0.0385546389,0.0,0.0,0.0361634339,0.0140487372,0.0046729924,0.1968679188,0.0970333797,0.0748286219,0.0005549543,-5.551115123e-16,0.0032836264,0.0014029652,0.0001677139,0.0,-5.551115123e-17,0.0001606538,3.330669074e-16,0.0,0.0,-2.220446049e-16,-1.110223025e-16,0.6061119627,0.5128225971,0.1304612473,0.00793567,0.0,0.001606783,0.0,1.040834086e-17,0.1075380369,0.0,0.0783921856,0.0455550272,0.0,0.0335423061,0.0064974755,0.0116334932,0.1345465114,0.0,-2.775557562e-17,0.4106311738,0.1517075763,0.0616086183,0.0,0.03032378,0.0493215811,0.0055588266,0.0067070998,0.0008212622,0.0016767437,-8.326672685e-17,0.0932228974,0.0695830733,0.0483053513,0.0052351867,0.1294728687,-0.0,0.0089258185,0.0,0.0,0.467345186,0.0322053217,0.013044051,0.0,0.0,0.0160099816,0.0096052953,0.0074139124,0.0051344708,4.770489559e-18,0.470851114,0.0128713139,0.0106540151,0.009907344,0.0007497573,0.0,0.1166638652,0.006353356,0.0011830825,-1.110223025e-16,0.0007873237,0.0,-1.084202172e-19,0.388282238,0.697564392,0.040573963,0.0144758829,0.0,8.67361738e-19,0.0114084409,0.0,5.551115123e-17,-4.440892099e-16,0.1187430067,0.0344828087,0.0003942388,0.0,0.0,-8.881784197e-16,0.1104075033,0.083549602,0.042417152,0.0,0.0095971233,0.005459148,4.440892099e-16,0.024686047,0.0,0.0043997916,0.0,4.440892099e-16,0.0518884335,0.0067681022,0.0017341876,0.0001857441,0.0002301446,0.0022140101,0.0,-4.440892099e-16,0.0784903012,0.0,1.110223025e-16,0.189151,0.1027445999,0.0,0.0945494812,0.0160131713,0.0,0.004994589,0.0,2.220446049e-16,0.0540255207,0.0214828972,0.0000865233,0.0,0.0000001369,0.0,0.0,0.0001711367,4.440892099e-16,0.0,0.0,-0.0,0.0450525858,0.0051738273,0.0032355181,0.0016755143,0.0000935024,4.440892099e-16,0.0002392983,0.0000759303,-4.440892099e-16,0.0034482497,-8.881784197e-16,0.0004288278,0.0,0.0000197697,0.0,0.0961347146,0.0131441934,0.0263396533,0.0070651638,0.0,-1.110223025e-16,4.440892099e-16,0.0008451193,0.0021392082,0.0,0.0,-2.220446049e-16,0.0,0.7905041339,0.6390085319,0.2381267624,0.2126231807,0.0507214966,0.0,0.0,0.1054632238,0.0404722855,0.0000231377,0.0,-1.387778781e-17,0.0050072379,0.0,0.000049906,0.0,0.0000000038,0.0,-1.665334537e-16,0.0149657136,0.0051970817,0.0,0.0,0.0,0.1439239276,0.1142091033,0.0722981141,0.0559424308,0.0080453699,0.0,0.0019225149,0.0,0.0,0.002260681,0.0,0.0,0.0046100449,0.0,0.0,0.0797736296,0.0341607319,0.0000123561,0.0,-1.110223025e-16,0.0,0.0028359803,0.0008152532,0.0,-5.551115123e-17,5.551115123e-17,0.0042409032,0.0,2.775557562e-17,0.6638315506,0.2462554926,0.0061688803,0.0050233705,0.0042840697,0.0017140536,0.0000720583,0.0,-2.081668171e-17,0.0000777683,0.0,-3.469446952e-18,0.0002650564,0.0,-1.387778781e-17,0.0002468965,0.0,0.0000380304,0.0,-5.204170428e-18,0.0002338242,0.0,-1.734723476e-18,0.0051747841,0.0009748248,0.0,-2.220446049e-16,0.0028761742,0.0,0.000654978,0.0,-6.661338148e-16,0.6563845221,0.6328343326,0.3458926202,0.0,0.0490006938,0.0172539974,0.0,-2.220446049e-16,0.0117669037,0.0,1.110223025e-16,0.5801153011,0.7200130283,0.6935707435,0.4422552322,0.1116989144,0.8608117089,0.1524696345,0.0085796661,0.0803731279,0.1840808831,0.0321527131,0.0127784611,-4.440892099e-16,-5.551115123e-16,0.2756390771,0.1490559462,0.0199770086,0.0038615244,0.0085498199,7.771561172e-16,0.2039254051,0.1031915191,0.1506891818,0.0262709147,0.2847246621,0.0,0.1510070537,0.0101106987,0.004749798,0.0000216351,-2.220446049e-16,0.0,0.0029481908,0.0001774345,0.0,0.0,0.0004093893,0.0,0.0,-4.163336342e-16,0.8170574899,0.6450304348,0.3400845683,0.0762074154,0.0055312736,0.0,1.110223025e-16,0.0556295543,0.0110091106,0.0,0.0056204455,0.0,0.0009019624,0.0,2.775557562e-17,0.042630372,0.0015094253,0.0,-1.110223025e-16,2.498001805e-16,0.1293674789,0.0104823161,0.0009737143,0.0,-1.734723476e-18,0.0062774969,0.0012666884,0.0001942439,0.0,6.938893904e-18,3.469446952e-18,1.387778781e-17,-2.220446049e-16,0.3729436977,0.258487054,0.0433252516,0.0215419214,0.0,0.0,0.0208858928,0.004804988,0.0008915772,0.0003287193,-8.881784197e-16,0.0007667742,0.0,0.0004035614,0.0171650251,0.0137130609,0.0097282264,0.0082467507,0.000349153,0.0,-4.440892099e-16,0.5748001047,0.0034684646,0.0,-8.67361738e-19,4.440892099e-16,0.2294319178,0.118740064,0.0647715293,0.0139429101,0.0022489676,0.0,-6.661338148e-16,0.0047280304,0.0,-4.440892099e-16,-0.0,0.0915335179,0.0243489297,0.006904379,0.0026794473,-5.551115123e-16,0.0000419285,0.0,-2.220446049e-16,0.1142029459,0.0,0.0165452483,0.0043622391,-1.665334537e-16,0.0,0.8082170247,0.6213619686,0.5646426199,0.2157797245,0.0545380381,0.0034322407,0.0,2.775557562e-17,0.0193803463,0.0066767064,0.0,-5.149960319e-19,0.0,0.0,0.1533176206,0.0555695098,0.0180569744,0.0,-2.220446049e-16,-8.881784197e-16,0.0356666331,0.0010058614,0.0,0.0001178029,0.0,0.0,0.0019496496,0.0,2.220446049e-16,0.369786267,0.0,0.2149609746,0.0967328646,0.0610345041,0.0,0.0172864145,0.0,-3.330669074e-16,0.0000007606,-1.110223025e-16,1.110223025e-16,0.1681377158,0.0216971888,0.0,0.0012582539,1.110223025e-16,-1.387778781e-16,0.0076576465,0.0,0.0,0.2543840263,0.0401993796,0.0088444373,0.0,1.665334537e-16,-5.551115123e-17,0.1247466664,0.0349132397,0.0007262621,0.0,0.0,0.0113456328,0.0,0.006582083,0.0,0.0009775668,0.0,-6.661338148e-16,0.0156936757,0.0045349844,0.0,4.440892099e-16,-8.881784197e-16],"max_depth":10,"max_n_classes":1,"n_classes":[1],"n_features":8,"n_leaves":267,"n_node_samples":[470,235,195,79,8,3,2,1,1,1,5,1,4,1,3,2,1,1,1,71,24,15,2,1,1,13,9,1,8,5,3,4,2,1,1,2,1,1,9,2,1,1,7,2,1,1,5,2,1,1,3,1,2,47,41,14,6,5,2,3,1,8,7,6,1,1,27,10,2,1,1,8,2,6,17,16,14,2,1,6,5,2,1,1,3,2,1,1,1,1,116,86,20,3,1,2,1,1,17,1,16,14,2,12,10,2,2,1,1,66,32,14,2,12,5,2,3,7,2,5,18,16,15,11,4,1,2,1,1,34,15,2,1,1,13,12,7,5,1,19,13,12,8,4,1,6,4,3,1,2,1,1,30,5,4,2,1,1,2,1,1,1,25,4,3,1,2,1,21,13,10,1,9,8,1,3,1,2,1,1,8,6,4,2,2,2,1,1,2,1,1,40,27,5,22,3,1,2,1,1,19,6,3,1,2,1,1,3,2,1,1,1,13,12,6,3,2,1,3,2,1,6,3,3,1,2,1,13,12,3,2,1,1,1,9,2,1,1,7,1,235,131,26,11,2,1,1,9,6,2,1,1,4,1,3,1,2,1,1,3,2,1,1,1,15,13,7,5,3,1,2,1,1,2,1,1,2,1,1,6,3,2,1,1,1,3,2,1,1,1,2,1,1,105,19,13,10,7,5,3,1,2,2,1,1,2,1,1,3,1,2,1,1,3,1,2,6,3,2,1,3,1,2,1,1,86,77,5,1,4,2,1,1,2,1,1,72,40,30,14,11,3,16,2,14,10,9,8,1,1,32,12,11,5,6,1,20,14,5,9,6,2,4,9,8,3,2,1,5,2,1,1,3,1,2,1,104,62,17,9,2,1,1,7,4,1,3,1,2,1,1,3,2,1,1,1,8,7,2,1,1,5,3,2,1,1,1,2,1,45,29,26,2,1,1,24,10,3,2,1,7,1,6,14,12,7,5,2,1,1,3,2,1,1,1,16,15,5,4,2,1,1,2,1,1,1,10,6,4,3,1,2,1,1,4,1,3,2,1,1,42,30,15,6,5,2,1,1,3,2,1,1,1,1,9,3,2,1,1,1,6,4,2,2,1,1,2,1,1,15,1,14,6,3,1,2,1,1,3,2,1,8,6,1,5,4,1,2,1,1,12,3,2,1,1,1,9,6,2,1,1,4,1,3,1,2,1,1,3,2,1,1,1],"n_outputs":1,"node_count":533,"threshold":[0.0797381429,-0.0893815653,-0.2360164151,-0.9001502395,-0.8222336471,-0.801192075,-1.3078768253,-2.0,-2.0,-2.0,-1.0298330188,-2.0,-1.2838022709,-2.0,-1.1307713985,1.4250941277,-2.0,-2.0,-2.0,-0.6656535268,0.3895468414,-0.9913533628,1.0198144317,-2.0,-2.0,-0.6426718235,-0.8407181799,-2.0,-0.7271655798,-2.0,-2.0,-0.5556702614,-0.7426482737,-2.0,-2.0,0.8956421316,-2.0,-2.0,0.2436501756,-1.2589544058,-2.0,-2.0,-0.8223125339,-0.646722883,-2.0,-2.0,0.5452780724,-0.8203880154,-2.0,-2.0,-1.1907715499,-2.0,-2.0,-0.2585012689,-0.4591766447,3.3347080946,-0.4901905656,0.4583572298,-2.0,-2.0,-2.0,6.5597465038,6.2752535343,-2.0,-2.0,-2.0,-0.5163169801,-0.8222058713,-0.6822179854,-2.0,-2.0,-1.4268192053,-2.0,-2.0,0.3895468414,0.3315529004,-2.0,-2.0,-2.0,0.3454036564,-0.2884924859,0.0967067815,-2.0,-2.0,0.2495964468,0.1560494974,-2.0,-2.0,-2.0,-2.0,0.3895468414,-1.4423393011,-0.9974299073,-1.4295618534,-2.0,1.1060937941,-2.0,-2.0,-0.2571200952,-2.0,1.3758202791,0.2500106469,-2.0,1.1862926483,-2.0,-2.0,0.3235129118,-2.0,-2.0,-0.7094871998,-0.934980154,-1.1968919933,-2.0,0.1027908549,0.33983998,-2.0,-2.0,0.0347112566,-2.0,-2.0,1.5781960487,1.0711240768,1.3644627929,-2.0,-2.0,-2.0,0.2490102388,-2.0,-2.0,-0.5967407227,-0.48145625,-0.4239139967,-2.0,-2.0,0.9586825073,1.4594798088,-2.0,-2.0,-2.0,-0.4839942306,0.5450465679,0.9703628421,-2.0,-2.0,-2.0,0.8362823129,0.3963664919,-2.0,-2.0,1.4349819124,-2.0,-2.0,0.0181579553,3.2141739726,-1.1714475229,-0.6531139165,-2.0,-2.0,-0.6018151939,-2.0,-2.0,-2.0,-0.7481925786,-0.1118651591,1.0419672132,-2.0,-2.0,-2.0,-0.8222336471,-0.3515734375,-2.0624448359,-2.0,-0.3690551668,-2.0,-2.0,-0.5157003999,-2.0,-0.3035393059,-2.0,-2.0,0.8107619286,0.72156775,0.7290838659,-2.0,-2.0,-0.5849922895,-2.0,-2.0,-0.5413950533,-2.0,-2.0,1.331119597,-0.5181783587,-2.0,-0.3958909363,0.4963087142,-2.0,-0.9163077474,-2.0,-2.0,0.2795512751,0.2311301604,0.2066899762,-2.0,0.6763293967,-2.0,-2.0,-0.6926350296,-0.7626606822,-2.0,-2.0,-2.0,0.3148889244,0.8624297678,-0.8604921997,-0.9072462618,-2.0,-2.0,-0.494854331,-2.0,-2.0,0.8917084932,-2.0,0.9687972963,-2.0,-2.0,-2.0,-0.4675666392,-0.985856086,-1.8961638808,-1.4913395047,-2.0,-2.0,-2.0,-0.9430297911,-1.2213464379,-2.0,-2.0,-2.0,-2.0,0.2698566169,0.1924846172,-1.1485022306,-1.4528169036,1.540055573,-2.0,-2.0,-0.8487267494,-0.8151316941,1.2191897035,-2.0,-2.0,-0.9439866841,-2.0,-1.3783959746,-2.0,0.8745386899,-2.0,-2.0,-0.6650915146,-0.3785260916,-2.0,-2.0,-2.0,1.2395935655,-0.3567819595,-0.4597949088,-0.1743311957,0.1474603787,-2.0,-0.5537239686,-2.0,-2.0,0.4557949528,-2.0,-2.0,0.8585653305,-2.0,-2.0,0.188851133,0.2052919269,-0.467454806,-2.0,-2.0,-2.0,-0.2043845318,-0.5939978063,-2.0,-2.0,-2.0,1.4803595543,-2.0,-2.0,0.3052310944,0.6490847394,0.3355260193,0.1044032946,-0.4237101972,-0.1511426568,-0.6725850701,-2.0,-2.0,-0.238143459,-2.0,-2.0,-0.2915969808,-2.0,-2.0,-0.479348734,-2.0,0.2528050244,-2.0,-2.0,-0.7598097622,-2.0,-2.0,-0.6207392812,-0.1239418387,-2.0,-2.0,-0.3373244554,-2.0,-0.0588282112,-2.0,-2.0,1.8836817145,-0.8158367872,-0.7554073036,-2.0,-0.3700386882,-0.5398456752,-2.0,-2.0,0.9817099571,-2.0,-2.0,0.9817099571,-0.1078631779,0.86896348,0.2908278103,-2.0,-2.0,0.3895468414,-2.0,-2.0,0.7719235718,0.1849354208,-2.0,-2.0,-2.0,-0.4121890962,1.2381824851,-0.4702640623,-2.0,-2.0,-2.0,0.0757180844,-0.3590968549,-2.0,-2.0,-0.2309817001,-2.0,-2.0,0.8208633363,-0.8065868616,0.2435236871,-2.0,-2.0,-0.4214621931,0.1929319166,-2.0,-2.0,-0.7129588127,-2.0,-2.0,-2.0,0.4694568366,0.3052310944,0.1924846172,-0.0616325103,-0.299788028,-2.0,-2.0,0.6678708196,-1.337010622,-2.0,-0.5712366253,-2.0,-0.3410954177,-2.0,-2.0,-0.9450226128,-1.3502543569,-2.0,-2.0,-2.0,0.7449133247,-0.5614293218,-0.667529583,-2.0,-2.0,0.7826626003,0.1693799943,-0.2466640249,-2.0,-2.0,-2.0,-2.0,-2.0,0.7562170029,0.2305916771,-0.4855307937,-0.5850057304,-2.0,-2.0,-0.0884467401,0.5307240486,-0.1609726846,-2.0,-2.0,-0.6332510561,-2.0,-2.0,0.3862800449,0.1519078091,-2.0,-2.0,0.5307240486,-2.0,-2.0,0.6638603508,0.3553489149,-2.0,-2.0,-2.0,1.8836817145,-0.5923266411,0.5558664501,0.0798466131,0.4104382154,-2.0,-2.0,0.2265078723,-2.0,-2.0,-2.0,0.2622173578,0.0547530949,-0.9394692034,-2.0,-2.0,-0.0743644387,-2.0,-2.0,-0.2059728894,-2.0,0.8312424421,-2.0,-2.0,-2.0,0.6964964569,0.9961963892,-0.0205430761,2.1886595488,-0.447834596,0.762304455,-2.0,-2.0,1.5072796941,0.0368889864,-2.0,-2.0,-2.0,-2.0,0.6434705257,1.9936366081,0.3895468414,-2.0,-2.0,-2.0,0.9375863671,-0.5958244652,-2.0,0.3895468414,-2.0,-2.0,0.764790684,-2.0,-2.0,0.1924846172,-2.0,0.7673209012,1.6727103591,0.5307240486,-2.0,1.5454422832,-2.0,-2.0,0.4997586906,-2.0,-2.0,0.9817099571,1.1943719387,-2.0,0.5870972872,-2.0,-2.0,-1.0225574076,-2.0,-2.0,-0.2103911415,1.9741277099,1.4772785902,-2.0,-2.0,-2.0,0.3895468414,0.9140685238,0.9651233554,-2.0,-2.0,0.0414298596,-2.0,0.7829193175,-2.0,1.6199615598,-2.0,-2.0,0.3907734752,2.3931596875,-2.0,-2.0,-2.0],"value":[[[0.0607453619]],[[-0.3509520685]],[[-0.1473747946]],[[0.1978022915]],[[-1.0381355101]],[[-1.5346199562]],[[-1.3594683259]],[[-1.2810873239]],[[-1.437849328]],[[-1.8849232168]],[[-0.7402448424]],[[-1.8164585524]],[[-0.4711914149]],[[-0.8196816138]],[[-0.3550280153]],[[-0.3216446564]],[[-0.2885901976]],[[-0.3546991152]],[[-0.421794733]],[[0.3370628888]],[[0.8849612876]],[[0.5847628719]],[[-0.2099625205]],[[-0.0426551573]],[[-0.3772698837]],[[0.7070283169]],[[0.8379474183]],[[0.4715390168]],[[0.8837484685]],[[0.9057364672]],[[0.8471018041]],[[0.4124603386]],[[0.1404394101]],[[0.3161337255]],[[-0.0352549053]],[[0.6844812672]],[[0.79381999]],[[0.5751425443]],[[1.3852919804]],[[0.7924632771]],[[1.1697527898]],[[0.4151737643]],[[1.55467161]],[[1.2340733132]],[[0.7312878608]],[[1.7368587655]],[[1.6829109287]],[[1.9015143718]],[[1.830965303]],[[1.9720634405]],[[1.5371753]],[[1.3643794166]],[[1.6235732417]],[[0.0572849831]],[[-0.0478353337]],[[0.2208466716]],[[0.5601570341]],[[0.4943317929]],[[0.5761292446]],[[0.4398001584]],[[0.8892832403]],[[-0.0336361002]],[[-0.1001304476]],[[-0.1405851583]],[[0.1425978169]],[[0.4318243313]],[[-0.187151929]],[[0.278219768]],[[-0.6161746847]],[[-0.4198213325]],[[-0.8125280369]],[[0.5018183811]],[[0.7975201159]],[[0.4032511362]],[[-0.4608999861]],[[-0.5421182049]],[[-0.6091884944]],[[-0.0726261778]],[[0.8385915143]],[[0.7756071476]],[[0.7550426697]],[[0.7119238682]],[[0.7248743091]],[[0.6989734273]],[[0.7837885373]],[[0.7748260099]],[[0.7748260099]],[[0.7748260099]],[[0.8017135921]],[[0.8784295374]],[[-0.3824522929]],[[-0.173219409]],[[0.569913033]],[[0.1067065949]],[[-0.0104640612]],[[0.165291923]],[[0.2053766211]],[[0.1252072248]],[[0.6516553456]],[[1.3865801725]],[[0.6057225439]],[[0.6614171485]],[[0.3438846704]],[[0.7143392282]],[[0.6419668196]],[[1.0762012712]],[[0.2158603114]],[[0.5826661338]],[[-0.1509455111]],[[-0.3984110581]],[[-0.7183212876]],[[-0.413398971]],[[-0.8756768536]],[[-0.3363526572]],[[-0.22228394]],[[0.0319023813]],[[-0.3917414876]],[[-0.4178303123]],[[-0.4470789273]],[[-0.4061308664]],[[-0.9554830894]],[[-1.0171064607]],[[-1.0573530394]],[[-1.1174744804]],[[-0.8920190767]],[[-0.4134077808]],[[-0.4624961189]],[[-0.556972669]],[[-0.3680195688]],[[-0.0973190773]],[[0.393277241]],[[0.7216675333]],[[0.8358780886]],[[0.6074569779]],[[0.3427556576]],[[0.3671543516]],[[0.4145218374]],[[0.3008398715]],[[0.0499713298]],[[-0.4846319603]],[[-0.9276304174]],[[-0.9117222476]],[[-0.9553066482]],[[-0.8245534463]],[[-1.1185284557]],[[0.4751980303]],[[0.7120163713]],[[0.6693313069]],[[0.8400715647]],[[0.0015613482]],[[-0.0264979405]],[[0.0296206369]],[[-0.9822532268]],[[-0.0520140093]],[[0.3557559079]],[[0.1895277481]],[[0.3098435114]],[[0.0692119849]],[[0.5219840677]],[[0.4151737643]],[[0.6287943711]],[[-1.6830936782]],[[-1.1683010703]],[[-1.4962311491]],[[-1.3894804589]],[[-1.4175603039]],[[-1.3754405364]],[[-1.8164832199]],[[-1.1058381982]],[[-1.2605971647]],[[-1.144118527]],[[-0.5927405535]],[[-1.2053827462]],[[-1.1810297504]],[[-1.400206713]],[[-1.6488592903]],[[-1.4402790774]],[[-1.7531493968]],[[-1.8194803219]],[[-1.6868184717]],[[-0.8543548777]],[[-0.9495560358]],[[-0.9001901883]],[[-0.9392573518]],[[-0.8611230248]],[[-1.0482877308]],[[-1.001234462]],[[-1.0953409995]],[[-0.5687514033]],[[-0.2885901976]],[[-0.848912609]],[[-1.3433912785]],[[-1.5498795499]],[[-1.8861812596]],[[-1.4734473431]],[[-0.935413332]],[[-0.7761434647]],[[-1.0150482657]],[[-0.9443758594]],[[-1.0857206719]],[[-1.5584000817]],[[-1.7469948539]],[[-1.8931251627]],[[-1.9062729437]],[[-1.8865512722]],[[-1.8861812596]],[[-1.8869212848]],[[-1.6008645451]],[[-1.5916142301]],[[-1.5916142301]],[[-1.5916142301]],[[-1.619365175]],[[-1.4713563407]],[[-1.529290747]],[[-1.5720919543]],[[-1.5243623847]],[[-1.5527629073]],[[-1.4675613397]],[[-1.6198215239]],[[-1.6295343546]],[[-1.6003958625]],[[-1.4864895397]],[[-1.4296227146]],[[-1.5433563648]],[[-1.5721885687]],[[-1.5289402628]],[[-0.7761434647]],[[-0.9145310227]],[[-0.8308642167]],[[-0.9641920897]],[[-0.8601979933]],[[-0.7761434647]],[[-0.9442525219]],[[-1.1721802824]],[[-0.7864215924]],[[-0.8223950395]],[[-0.8686466143]],[[-0.7761434647]],[[-0.7761434647]],[[-1.9185326945]],[[0.4724427923]],[[0.2322020637]],[[0.7230859149]],[[0.4250519795]],[[1.1510054849]],[[0.92579115]],[[1.3762198197]],[[0.2637289783]],[[0.4554229125]],[[0.1829291901]],[[0.1877393539]],[[0.1781190264]],[[0.5916697737]],[[0.4695656163]],[[0.6323711596]],[[0.6423614997]],[[0.6273759895]],[[0.6274376582]],[[0.6273143207]],[[-0.1196588903]],[[-0.0438268639]],[[0.028263924]],[[-0.1159176518]],[[-0.2713229431]],[[0.9416441342]],[[1.0242714262]],[[1.205837828]],[[1.0944428923]],[[0.9114839962]],[[0.7951767028]],[[0.9696376429]],[[0.92579115]],[[1.0134841358]],[[1.3688812365]],[[1.4164278554]],[[1.3213346176]],[[1.4843251672]],[[1.552222479]],[[1.4164278554]],[[0.8124439574]],[[1.0599823857]],[[0.9293062697]],[[0.9328213894]],[[0.92579115]],[[1.3213346176]],[[0.5649055291]],[[0.5310493764]],[[0.5596020152]],[[0.5024967375]],[[0.6326178346]],[[0.4045667365]],[[0.4696889538]],[[0.3394445192]],[[0.110649872]],[[-0.4973162518]],[[-0.1642185271]],[[-0.1902038478]],[[-0.2191159274]],[[-0.1845673225]],[[-0.2176300038]],[[-0.229634857]],[[-0.2116275772]],[[-0.1349733006]],[[-0.1437919342]],[[-0.126154667]],[[-0.3054874396]],[[-0.2892068853]],[[-0.321767994]],[[-0.1227423286]],[[-0.1437919342]],[[-0.1122175258]],[[-0.1060506491]],[[-0.1183844024]],[[-0.0776007916]],[[-0.0559756108]],[[-0.088413382]],[[-1.2190279886]],[[-1.276030485]],[[-1.2981079034]],[[-1.2318756483]],[[-1.1620254922]],[[-1.2318756483]],[[-1.1271004142]],[[-1.1526929522]],[[-1.1015078761]],[[0.2449679691]],[[0.3467999212]],[[-0.6422235716]],[[0.4653721402]],[[-0.9191224996]],[[-1.1048379895]],[[-0.9734835171]],[[-1.2361924619]],[[-0.7334070096]],[[-0.6249316495]],[[-0.8418823697]],[[0.4154821082]],[[0.2008162158]],[[0.4272485088]],[[1.1083130789]],[[1.3236556057]],[[0.3187238137]],[[-0.16868299]],[[0.5846395344]],[[-0.2763004935]],[[-0.4784806631]],[[-0.6097748372]],[[-0.5587918976]],[[-1.0176383539]],[[0.7031669034]],[[0.6838144736]],[[0.2916203909]],[[0.4006423605]],[[0.2730889266]],[[0.5069368887]],[[-0.9076212746]],[[0.9191309232]],[[1.0599559562]],[[0.8181421514]],[[1.1942969589]],[[0.5905391797]],[[1.1972570596]],[[0.2871802397]],[[-0.626260954]],[[-0.6533917852]],[[-0.722902763]],[[-0.7261917639]],[[-0.7163247613]],[[-0.6116851985]],[[-0.6745133377]],[[-0.6878337912]],[[-0.6611928842]],[[-0.5697997724]],[[-0.59841408]],[[-0.5554926186]],[[-0.4092143047]],[[0.77505371]],[[1.0431786415]],[[0.1805785219]],[[0.6413610953]],[[0.9745094755]],[[1.0488820077]],[[0.9001369432]],[[0.5461758438]],[[0.3935280273]],[[0.2507648332]],[[0.4411157587]],[[0.3409245696]],[[0.4912113533]],[[0.5212440425]],[[0.4611786641]],[[0.7497062657]],[[0.8939700666]],[[0.9328213894]],[[0.8551187437]],[[0.4611786641]],[[-0.3378018732]],[[-0.2067645545]],[[-0.0871800066]],[[-0.0559756108]],[[-0.1183844024]],[[-0.2545983736]],[[-0.1939491975]],[[-0.2177944538]],[[-0.231731595]],[[-0.2038573126]],[[-0.1462586848]],[[-0.3455721378]],[[-1.2550631044]],[[1.3690497978]],[[1.6314391992]],[[1.7673895486]],[[1.2490588234]],[[1.3958304874]],[[1.1022871594]],[[1.8105837757]],[[1.9220254035]],[[2.0186439154]],[[2.0003077355]],[[2.0553162751]],[[1.8806174698]],[[1.9308687046]],[[1.872242264]],[[1.7309826131]],[[1.701090881]],[[1.7584252141]],[[1.6208228147]],[[1.9103330054]],[[1.9290186416]],[[1.8916473692]],[[0.4532028369]],[[-0.081814824]],[[-0.1407084959]],[[-0.0229211521]],[[1.5232381588]],[[0.8934690078]],[[0.9822057375]],[[1.2510075564]],[[1.3667844984]],[[1.2645376838]],[[1.2171144024]],[[1.3119609651]],[[1.4690313131]],[[1.4002706386]],[[1.5377919876]],[[0.7878997884]],[[0.847804828]],[[0.9921261864]],[[0.89279836]],[[0.933191402]],[[0.7716192341]],[[1.1907818392]],[[1.1972570596]],[[1.1843066187]],[[0.6313227905]],[[0.0787089749]],[[0.8155273957]],[[0.8981018739]],[[0.6503784393]],[[-0.4375819372]],[[0.3792502396]],[[0.037662244]],[[0.4302785009]],[[-0.3309771964]],[[-0.1464066899]],[[-0.3960171887]],[[-0.3374318606]],[[-0.4546025168]],[[0.0200003093]],[[-0.0663976324]],[[-0.1481087478]],[[0.0153134831]],[[0.1927961928]],[[-1.2538297291]],[[0.937782299]],[[1.4089864909]],[[1.2614542455]],[[1.1270780035]],[[1.3958304874]],[[1.7040509818]],[[0.7021802031]],[[0.5711340745]],[[0.5403613601]],[[0.601906789]],[[0.5910530861]],[[0.6127604918]],[[0.9642724602]],[[1.008427297]],[[0.9201176235]],[[-0.3549540128]],[[1.1839366061]],[[-0.4648747713]],[[-0.7861749174]],[[-1.0434981232]],[[-1.3581732818]],[[-0.8861605439]],[[-1.0176383539]],[[-0.754682734]],[[-0.5288517115]],[[-0.5294683992]],[[-0.5276183362]],[[-0.2238996617]],[[-0.4474694961]],[[-0.126154667]],[[-0.5117324619]],[[-0.5294683992]],[[-0.4407887131]],[[0.4468098415]],[[0.359301862]],[[0.534317821]],[[1.2332202286]],[[0.5606709405]],[[0.6916348441]],[[0.7856797128]],[[0.5975899753]],[[0.2987431334]],[[1.4574033246]],[[1.2380406705]],[[1.4708813761]],[[1.4439321252]],[[1.497830627]],[[1.1216203177]],[[1.2602825389]],[[1.0753995773]],[[1.1843066187]],[[1.0209460566]],[[0.989679992]],[[1.0522121211]],[[1.8961286328]],[[1.8165348117]],[[1.7491925188]],[[1.8838771046]],[[2.0553162751]]],"weighted_n_node_samples":[470.0,235.0,195.0,79.0,8.0,3.0,2.0,1.0,1.0,1.0,5.0,1.0,4.0,1.0,3.0,2.0,1.0,1.0,1.0,71.0,24.0,15.0,2.0,1.0,1.0,13.0,9.0,1.0,8.0,5.0,3.0,4.0,2.0,1.0,1.0,2.0,1.0,1.0,9.0,2.0,1.0,1.0,7.0,2.0,1.0,1.0,5.0,2.0,1.0,1.0,3.0,1.0,2.0,47.0,41.0,14.0,6.0,5.0,2.0,3.0,1.0,8.0,7.0,6.0,1.0,1.0,27.0,10.0,2.0,1.0,1.0,8.0,2.0,6.0,17.0,16.0,14.0,2.0,1.0,6.0,5.0,2.0,1.0,1.0,3.0,2.0,1.0,1.0,1.0,1.0,116.0,86.0,20.0,3.0,1.0,2.0,1.0,1.0,17.0,1.0,16.0,14.0,2.0,12.0,10.0,2.0,2.0,1.0,1.0,66.0,32.0,14.0,2.0,12.0,5.0,2.0,3.0,7.0,2.0,5.0,18.0,16.0,15.0,11.0,4.0,1.0,2.0,1.0,1.0,34.0,15.0,2.0,1.0,1.0,13.0,12.0,7.0,5.0,1.0,19.0,13.0,12.0,8.0,4.0,1.0,6.0,4.0,3.0,1.0,2.0,1.0,1.0,30.0,5.0,4.0,2.0,1.0,1.0,2.0,1.0,1.0,1.0,25.0,4.0,3.0,1.0,2.0,1.0,21.0,13.0,10.0,1.0,9.0,8.0,1.0,3.0,1.0,2.0,1.0,1.0,8.0,6.0,4.0,2.0,2.0,2.0,1.0,1.0,2.0,1.0,1.0,40.0,27.0,5.0,22.0,3.0,1.0,2.0,1.0,1.0,19.0,6.0,3.0,1.0,2.0,1.0,1.0,3.0,2.0,1.0,1.0,1.0,13.0,12.0,6.0,3.0,2.0,1.0,3.0,2.0,1.0,6.0,3.0,3.0,1.0,2.0,1.0,13.0,12.0,3.0,2.0,1.0,1.0,1.0,9.0,2.0,1.0,1.0,7.0,1.0,235.0,131.0,26.0,11.0,2.0,1.0,1.0,9.0,6.0,2.0,1.0,1.0,4.0,1.0,3.0,1.0,2.0,1.0,1.0,3.0,2.0,1.0,1.0,1.0,15.0,13.0,7.0,5.0,3.0,1.0,2.0,1.0,1.0,2.0,1.0,1.0,2.0,1.0,1.0,6.0,3.0,2.0,1.0,1.0,1.0,3.0,2.0,1.0,1.0,1.0,2.0,1.0,1.0,105.0,19.0,13.0,10.0,7.0,5.0,3.0,1.0,2.0,2.0,1.0,1.0,2.0,1.0,1.0,3.0,1.0,2.0,1.0,1.0,3.0,1.0,2.0,6.0,3.0,2.0,1.0,3.0,1.0,2.0,1.0,1.0,86.0,77.0,5.0,1.0,4.0,2.0,1.0,1.0,2.0,1.0,1.0,72.0,40.0,30.0,14.0,11.0,3.0,16.0,2.0,14.0,10.0,9.0,8.0,1.0,1.0,32.0,12.0,11.0,5.0,6.0,1.0,20.0,14.0,5.0,9.0,6.0,2.0,4.0,9.0,8.0,3.0,2.0,1.0,5.0,2.0,1.0,1.0,3.0,1.0,2.0,1.0,104.0,62.0,17.0,9.0,2.0,1.0,1.0,7.0,4.0,1.0,3.0,1.0,2.0,1.0,1.0,3.0,2.0,1.0,1.0,1.0,8.0,7.0,2.0,1.0,1.0,5.0,3.0,2.0,1.0,1.0,1.0,2.0,1.0,45.0,29.0,26.0,2.0,1.0,1.0,24.0,10.0,3.0,2.0,1.0,7.0,1.0,6.0,14.0,12.0,7.0,5.0,2.0,1.0,1.0,3.0,2.0,1.0,1.0,1.0,16.0,15.0,5.0,4.0,2.0,1.0,1.0,2.0,1.0,1.0,1.0,10.0,6.0,4.0,3.0,1.0,2.0,1.0,1.0,4.0,1.0,3.0,2.0,1.0,1.0,42.0,30.0,15.0,6.0,5.0,2.0,1.0,1.0,3.0,2.0,1.0,1.0,1.0,1.0,9.0,3.0,2.0,1.0,1.0,1.0,6.0,4.0,2.0,2.0,1.0,1.0,2.0,1.0,1.0,15.0,1.0,14.0,6.0,3.0,1.0,2.0,1.0,1.0,3.0,2.0,1.0,8.0,6.0,1.0,5.0,4.0,1.0,2.0,1.0,1.0,12.0,3.0,2.0,1.0,1.0,1.0,9.0,6.0,2.0,1.0,1.0,4.0,1.0,3.0,1.0,2.0,1.0,1.0,3.0,2.0,1.0,1.0,1.0]}},"r2":{"ccp_alpha":0.0,"class_weight":null,"criterion":"squared_error","feature_importances_":[0.5482485052,0.0492896572,0.1227621918,0.0739394524,0.0545970286,0.0131092333,0.072544528,0.0655094035],"max_depth":10,"max_features":null,"max_features_":8,"max_leaf_nodes":null,"min_impurity_decrease":0.0,"min_samples_leaf":1,"min_samples_split":2,"min_weight_fraction_leaf":0.0,"n_features_":8,"n_features_in_":8,"n_outputs_":1,"random_state":null,"splitter":"best","tree_":{"capacity":533,"children_left":[1,2,3,4,5,6,7,-1,-1,-1,11,-1,13,-1,15,16,-1,-1,-1,20,21,22,23,-1,-1,26,27,-1,29,-1,-1,32,33,-1,-1,36,-1,-1,39,40,-1,-1,43,44,-1,-1,47,48,-1,-1,51,-1,-1,54,55,56,57,58,-1,-1,-1,62,63,-1,-1,-1,67,68,69,-1,-1,72,-1,-1,75,76,-1,-1,-1,80,81,82,-1,-1,85,86,-1,-1,-1,-1,91,92,93,94,-1,96,-1,-1,99,-1,101,102,-1,104,-1,-1,107,-1,-1,110,111,112,-1,114,115,-1,-1,118,-1,-1,121,122,123,-1,-1,-1,127,-1,-1,130,131,132,-1,-1,135,136,-1,-1,-1,140,141,142,-1,-1,-1,146,147,-1,-1,150,-1,-1,153,154,155,156,-1,-1,159,-1,-1,-1,163,164,165,-1,-1,-1,169,170,171,-1,173,-1,-1,176,-1,178,-1,-1,181,182,183,-1,-1,186,-1,-1,189,-1,-1,192,193,-1,195,196,-1,198,-1,-1,201,202,203,-1,205,-1,-1,208,209,-1,-1,-1,213,214,215,216,-1,-1,219,-1,-1,222,-1,224,-1,-1,-1,228,229,230,231,-1,-1,-1,235,236,-1,-1,-1,-1,241,242,243,244,245,-1,-1,248,249,250,-1,-1,253,-1,255,-1,257,-1,-1,260,261,-1,-1,-1,265,266,267,268,269,-1,271,-1,-1,274,-1,-1,277,-1,-1,280,281,282,-1,-1,-1,286,287,-1,-1,-1,291,-1,-1,294,295,296,297,298,299,300,-1,-1,303,-1,-1,306,-1,-1,309,-1,311,-1,-1,314,-1,-1,317,318,-1,-1,321,-1,323,-1,-1,326,327,328,-1,330,331,-1,-1,334,-1,-1,337,338,339,340,-1,-1,343,-1,-1,346,347,-1,-1,-1,351,352,353,-1,-1,-1,357,358,-1,-1,361,-1,-1,364,365,366,-1,-1,369,370,-1,-1,373,-1,-1,-1,377,378,379,380,381,-1,-1,384,385,-1,387,-1,389,-1,-1,392,393,-1,-1,-1,397,398,399,-1,-1,402,403,404,-1,-1,-1,-1,-1,410,411,412,413,-1,-1,416,417,418,-1,-1,421,-1,-1,424,425,-1,-1,428,-1,-1,431,432,-1,-1,-1,436,437,438,439,440,-1,-1,443,-1,-1,-1,447,448,449,-1,-1,452,-1,-1,455,-1,457,-1,-1,-1,461,462,463,464,465,466,-1,-1,469,470,-1,-1,-1,-1,475,476,477,-1,-1,-1,481,482,-1,484,-1,-1,487,-1,-1,490,-1,492,493,494,-1,496,-1,-1,499,-1,-1,502,503,-1,505,-1,-1,508,-1,-1,511,512,513,-1,-1,-1,517,518,519,-1,-1,522,-1,524,-1,526,-1,-1,529,530,-1,-1,-1],"children_right":[240,191,90,19,10,9,8,-1,-1,-1,12,-1,14,-1,18,17,-1,-1,-1,53,38,25,24,-1,-1,31,28,-1,30,-1,-1,35,34,-1,-1,37,-1,-1,42,41,-1,-1,46,45,-1,-1,50,49,-1,-1,52,-1,-1,79,66,61,60,59,-1,-1,-1,65,64,-1,-1,-1,74,71,70,-1,-1,73,-1,-1,78,77,-1,-1,-1,89,84,83,-1,-1,88,87,-1,-1,-1,-1,152,109,98,95,-1,97,-1,-1,100,-1,106,103,-1,105,-1,-1,108,-1,-1,129,120,113,-1,117,116,-1,-1,119,-1,-1,126,125,124,-1,-1,-1,128,-1,-1,139,134,133,-1,-1,138,137,-1,-1,-1,145,144,143,-1,-1,-1,149,148,-1,-1,151,-1,-1,162,161,158,157,-1,-1,160,-1,-1,-1,168,167,166,-1,-1,-1,180,175,172,-1,174,-1,-1,177,-1,179,-1,-1,188,185,184,-1,-1,187,-1,-1,190,-1,-1,227,194,-1,200,197,-1,199,-1,-1,212,207,204,-1,206,-1,-1,211,210,-1,-1,-1,226,221,218,217,-1,-1,220,-1,-1,223,-1,225,-1,-1,-1,239,234,233,232,-1,-1,-1,238,237,-1,-1,-1,-1,376,293,264,247,246,-1,-1,259,252,251,-1,-1,254,-1,256,-1,258,-1,-1,263,262,-1,-1,-1,290,279,276,273,270,-1,272,-1,-1,275,-1,-1,278,-1,-1,285,284,283,-1,-1,-1,289,288,-1,-1,-1,292,-1,-1,325,316,313,308,305,302,301,-1,-1,304,-1,-1,307,-1,-1,310,-1,312,-1,-1,315,-1,-1,320,319,-1,-1,322,-1,324,-1,-1,363,336,329,-1,333,332,-1,-1,335,-1,-1,350,345,342,341,-1,-1,344,-1,-1,349,348,-1,-1,-1,356,355,354,-1,-1,-1,360,359,-1,-1,362,-1,-1,375,368,367,-1,-1,372,371,-1,-1,374,-1,-1,-1,460,409,396,383,382,-1,-1,391,386,-1,388,-1,390,-1,-1,395,394,-1,-1,-1,408,401,400,-1,-1,407,406,405,-1,-1,-1,-1,-1,435,430,415,414,-1,-1,423,420,419,-1,-1,422,-1,-1,427,426,-1,-1,429,-1,-1,434,433,-1,-1,-1,459,446,445,442,441,-1,-1,444,-1,-1,-1,454,451,450,-1,-1,453,-1,-1,456,-1,458,-1,-1,-1,510,489,474,473,468,467,-1,-1,472,471,-1,-1,-1,-1,480,479,478,-1,-1,-1,486,483,-1,485,-1,-1,488,-1,-1,491,-1,501,498,495,-1,497,-1,-1,500,-1,-1,507,504,-1,506,-1,-1,509,-1,-1,516,515,514,-1,-1,-1,528,521,520,-1,-1,523,-1,525,-1,527,-1,-1,532,531,-1,-1,-1],"feature":[0,0,6,2,0,6,6,-2,-2,-2,2,-2,7,-2,6,4,-2,-2,-2,2,1,0,4,-2,-2,3,2,-2,3,-2,-2,3,2,-2,-2,4,-2,-2,4,7,-2,-2,2,3,-2,-2,4,5,-2,-2,7,-2,-2,0,4,3,4,2,-2,-2,-2,3,2,-2,-2,-2,3,7,3,-2,-2,5,-2,-2,1,7,-2,-2,-2,3,3,2,-2,-2,4,5,-2,-2,-2,-2,1,0,3,7,-2,4,-2,-2,5,-2,6,5,-2,6,-2,-2,5,-2,-2,0,0,7,-2,6,4,-2,-2,7,-2,-2,6,3,6,-2,-2,-2,2,-2,-2,0,2,3,-2,-2,2,5,-2,-2,-2,0,2,5,-2,-2,-2,5,5,-2,-2,7,-2,-2,4,7,4,0,-2,-2,7,-2,-2,-2,3,6,4,-2,-2,-2,0,3,0,-2,2,-2,-2,5,-2,3,-2,-2,4,4,6,-2,-2,3,-2,-2,3,-2,-2,4,6,-2,2,4,-2,7,-2,-2,5,6,4,-2,4,-2,-2,3,3,-2,-2,-2,4,5,4,4,-2,-2,4,-2,-2,6,-2,6,-2,-2,-2,6,2,7,5,-2,-2,-2,3,7,-2,-2,-2,-2,7,0,7,5,4,-2,-2,2,3,4,-2,-2,2,-2,7,-2,4,-2,-2,2,5,-2,-2,-2,4,3,3,6,4,-2,5,-2,-2,6,-2,-2,4,-2,-2,4,6,4,-2,-2,-2,3,2,-2,-2,-2,4,-2,-2,0,6,4,5,2,7,5,-2,-2,3,-2,-2,6,-2,-2,2,-2,5,-2,-2,5,-2,-2,5,3,-2,-2,7,-2,2,-2,-2,0,4,6,-2,2,7,-2,-2,0,-2,-2,0,2,0,6,-2,-2,1,-2,-2,3,7,-2,-2,-2,2,3,6,-2,-2,-2,3,3,-2,-2,7,-2,-2,5,6,5,-2,-2,2,4,-2,-2,6,-2,-2,-2,2,0,0,3,2,-2,-2,5,4,-2,2,-2,2,-2,-2,4,6,-2,-2,-2,6,4,4,-2,-2,7,4,6,-2,-2,-2,-2,-2,0,4,2,2,-2,-2,3,0,2,-2,-2,4,-2,-2,2,5,-2,-2,0,-2,-2,7,5,-2,-2,-2,0,4,3,2,5,-2,-2,5,-2,-2,-2,2,5,6,-2,-2,3,-2,-2,5,-2,5,-2,-2,-2,3,2,3,6,3,6,-2,-2,7,5,-2,-2,-2,-2,0,7,1,-2,-2,-2,7,4,-2,1,-2,-2,2,-2,-2,0,-2,5,2,0,-2,0,-2,-2,5,-2,-2,0,7,-2,0,-2,-2,4,-2,-2,6,7,7,-2,-2,-2,1,6,5,-2,-2,5,-2,3,-2,7,-2,-2,6,7,-2,-2,-2],"impurity":[0.9753184012,0.8211431202,0.7073007541,0.6555911777,0.3747668047,0.0654519082,0.0061435815,0.0,4.440892099e-16,-4.440892099e-16,0.3237188096,0.0,0.0426997778,0.0,0.0029572955,0.0010925972,0.0,0.0,0.0,0.4957224101,0.348196454,0.1703541489,0.0279917538,0.0,0.0,0.0801397631,0.0176498894,0.0,0.0009764998,0.0001617088,0.00018572,0.0954071099,0.0308684925,0.0,-4.770489559e-18,0.0119549563,0.0,-5.551115123e-17,0.2440710122,0.1423473764,0.0,-2.775557562e-17,0.1440323431,0.2527932111,0.0,0.0,0.0429693658,0.0049771711,0.0,-8.881784197e-16,0.0152003119,0.0,0.0004066549,0.3394892701,0.3021295615,0.1214233262,0.0264634249,0.0057583355,0.0025821707,0.0004415309,-2.220446049e-16,0.0415331295,0.0120944479,0.0026541039,-1.040834086e-17,5.551115123e-17,0.3389881149,0.2366270341,0.0385546389,0.0,0.0,0.0361634339,0.0140487372,0.0046729924,0.1968679188,0.0970333797,0.0748286219,0.0005549543,-5.551115123e-16,0.0032836264,0.0014029652,0.0001677139,0.0,-5.551115123e-17,0.0001606538,3.330669074e-16,0.0,0.0,-2.220446049e-16,-1.110223025e-16,0.6061119627,0.5128225971,0.1304612473,0.00793567,0.0,0.001606783,0.0,1.040834086e-17,0.1075380369,0.0,0.0783921856,0.0455550272,0.0,0.0335423061,0.0064974755,0.0116334932,0.1345465114,0.0,-2.775557562e-17,0.4106311738,0.1517075763,0.0616086183,0.0,0.03032378,0.0493215811,0.0055588266,0.0067070998,0.0008212622,0.0016767437,-8.326672685e-17,0.0932228974,0.0695830733,0.0483053513,0.0052351867,0.1294728687,-0.0,0.0089258185,0.0,0.0,0.467345186,0.0322053217,0.013044051,0.0,0.0,0.0160099816,0.0096052953,0.0074139124,0.0051344708,4.770489559e-18,0.470851114,0.0128713139,0.0106540151,0.009907344,0.0007497573,0.0,0.1166638652,0.006353356,0.0011830825,-1.110223025e-16,0.0007873237,0.0,-1.084202172e-19,0.388282238,0.697564392,0.040573963,0.0144758829,0.0,8.67361738e-19,0.0114084409,0.0,5.551115123e-17,-4.440892099e-16,0.1187430067,0.0344828087,0.0003942388,0.0,0.0,-8.881784197e-16,0.1104075033,0.083549602,0.042417152,0.0,0.0095971233,0.005459148,4.440892099e-16,0.024686047,0.0,0.0043997916,0.0,4.440892099e-16,0.0518884335,0.0067681022,0.0017341876,0.0001857441,0.0002301446,0.0022140101,0.0,-4.440892099e-16,0.0784903012,0.0,1.110223025e-16,0.189151,0.1027445999,0.0,0.0945494812,0.0160131713,0.0,0.004994589,0.0,2.220446049e-16,0.0540255207,0.0214828972,0.0000865233,0.0,0.0000001369,0.0,0.0,0.0001711367,4.440892099e-16,0.0,0.0,-0.0,0.0450525858,0.0051738273,0.0032355181,0.0016755143,0.0000935024,4.440892099e-16,0.0002392983,0.0000759303,-4.440892099e-16,0.0034482497,-8.881784197e-16,0.0004288278,0.0,0.0000197697,0.0,0.0961347146,0.0131441934,0.0263396533,0.0070651638,0.0,-1.110223025e-16,4.440892099e-16,0.0008451193,0.0021392082,0.0,0.0,-2.220446049e-16,0.0,0.7905041339,0.6390085319,0.2381267624,0.2126231807,0.0507214966,0.0,0.0,0.1054632238,0.0404722855,0.0000231377,0.0,-1.387778781e-17,0.0050072379,0.0,0.000049906,0.0,0.0000000038,0.0,-1.665334537e-16,0.0149657136,0.0051970817,0.0,0.0,0.0,0.1439239276,0.1142091033,0.0722981141,0.0559424308,0.0080453699,0.0,0.0019225149,0.0,0.0,0.002260681,0.0,0.0,0.0046100449,0.0,0.0,0.0797736296,0.0341607319,0.0000123561,0.0,-1.110223025e-16,0.0,0.0028359803,0.0008152532,0.0,-5.551115123e-17,5.551115123e-17,0.0042409032,0.0,2.775557562e-17,0.6638315506,0.2462554926,0.0061688803,0.0050233705,0.0042840697,0.0017140536,0.0000720583,0.0,-2.081668171e-17,0.0000777683,0.0,-3.469446952e-18,0.0002650564,0.0,-1.387778781e-17,0.0002468965,0.0,0.0000380304,0.0,-5.204170428e-18,0.0002338242,0.0,-1.734723476e-18,0.0051747841,0.0009748248,0.0,-2.220446049e-16,0.0028761742,0.0,0.000654978,0.0,-6.661338148e-16,0.6563845221,0.6328343326,0.3458926202,0.0,0.0490006938,0.0172539974,0.0,-2.220446049e-16,0.0117669037,0.0,1.110223025e-16,0.5801153011,0.7200130283,0.6935707435,0.4422552322,0.1116989144,0.8608117089,0.1524696345,0.0085796661,0.0803731279,0.1840808831,0.0321527131,0.0127784611,-4.440892099e-16,-5.551115123e-16,0.2756390771,0.1490559462,0.0199770086,0.0038615244,0.0085498199,7.771561172e-16,0.2039254051,0.1031915191,0.1506891818,0.0262709147,0.2847246621,0.0,0.1510070537,0.0101106987,0.004749798,0.0000216351,-2.220446049e-16,0.0,0.0029481908,0.0001774345,0.0,0.0,0.0004093893,0.0,0.0,-4.163336342e-16,0.8170574899,0.6450304348,0.3400845683,0.0762074154,0.0055312736,0.0,1.110223025e-16,0.0556295543,0.0110091106,0.0,0.0056204455,0.0,0.0009019624,0.0,2.775557562e-17,0.042630372,0.0015094253,0.0,-1.110223025e-16,2.498001805e-16,0.1293674789,0.0104823161,0.0009737143,0.0,-1.734723476e-18,0.0062774969,0.0012666884,0.0001942439,0.0,6.938893904e-18,3.469446952e-18,1.387778781e-17,-2.220446049e-16,0.3729436977,0.258487054,0.0433252516,0.0215419214,0.0,0.0,0.0208858928,0.004804988,0.0008915772,0.0003287193,-8.881784197e-16,0.0007667742,0.0,0.0004035614,0.0171650251,0.0137130609,0.0097282264,0.0082467507,0.000349153,0.0,-4.440892099e-16,0.5748001047,0.0034684646,0.0,-8.67361738e-19,4.440892099e-16,0.2294319178,0.118740064,0.0647715293,0.0139429101,0.0022489676,0.0,-6.661338148e-16,0.0047280304,0.0,-4.440892099e-16,-0.0,0.0915335179,0.0243489297,0.006904379,0.0026794473,-5.551115123e-16,0.0000419285,0.0,-2.220446049e-16,0.1142029459,0.0,0.0165452483,0.0043622391,-1.665334537e-16,0.0,0.8082170247,0.6213619686,0.5646426199,0.2157797245,0.0545380381,0.0034322407,0.0,2.775557562e-17,0.0193803463,0.0066767064,0.0,-5.149960319e-19,0.0,0.0,0.1533176206,0.0555695098,0.0180569744,0.0,-2.220446049e-16,-8.881784197e-16,0.0356666331,0.0010058614,0.0,0.0001178029,0.0,0.0,0.0019496496,0.0,2.220446049e-16,0.369786267,0.0,0.2149609746,0.0967328646,0.0610345041,0.0,0.0172864145,0.0,-3.330669074e-16,0.0000007606,-1.110223025e-16,1.110223025e-16,0.1681377158,0.0216971888,0.0,0.0012582539,1.110223025e-16,-1.387778781e-16,0.0076576465,0.0,0.0,0.2543840263,0.0401993796,0.0088444373,0.0,1.665334537e-16,-5.551115123e-17,0.1247466664,0.0349132397,0.0007262621,0.0,0.0,0.0113456328,0.0,0.006582083,0.0,0.0009775668,0.0,-6.661338148e-16,0.0156936757,0.0045349844,0.0,4.440892099e-16,-8.881784197e-16],"max_depth":10,"max_n_classes":1,"n_classes":[1],"n_features":8,"n_leaves":267,"n_node_samples":[470,235,195,79,8,3,2,1,1,1,5,1,4,1,3,2,1,1,1,71,24,15,2,1,1,13,9,1,8,5,3,4,2,1,1,2,1,1,9,2,1,1,7,2,1,1,5,2,1,1,3,1,2,47,41,14,6,5,2,3,1,8,7,6,1,1,27,10,2,1,1,8,2,6,17,16,14,2,1,6,5,2,1,1,3,2,1,1,1,1,116,86,20,3,1,2,1,1,17,1,16,14,2,12,10,2,2,1,1,66,32,14,2,12,5,2,3,7,2,5,18,16,15,11,4,1,2,1,1,34,15,2,1,1,13,12,7,5,1,19,13,12,8,4,1,6,4,3,1,2,1,1,30,5,4,2,1,1,2,1,1,1,25,4,3,1,2,1,21,13,10,1,9,8,1,3,1,2,1,1,8,6,4,2,2,2,1,1,2,1,1,40,27,5,22,3,1,2,1,1,19,6,3,1,2,1,1,3,2,1,1,1,13,12,6,3,2,1,3,2,1,6,3,3,1,2,1,13,12,3,2,1,1,1,9,2,1,1,7,1,235,131,26,11,2,1,1,9,6,2,1,1,4,1,3,1,2,1,1,3,2,1,1,1,15,13,7,5,3,1,2,1,1,2,1,1,2,1,1,6,3,2,1,1,1,3,2,1,1,1,2,1,1,105,19,13,10,7,5,3,1,2,2,1,1,2,1,1,3,1,2,1,1,3,1,2,6,3,2,1,3,1,2,1,1,86,77,5,1,4,2,1,1,2,1,1,72,40,30,14,11,3,16,2,14,10,9,8,1,1,32,12,11,5,6,1,20,14,5,9,6,2,4,9,8,3,2,1,5,2,1,1,3,1,2,1,104,62,17,9,2,1,1,7,4,1,3,1,2,1,1,3,2,1,1,1,8,7,2,1,1,5,3,2,1,1,1,2,1,45,29,26,2,1,1,24,10,3,2,1,7,1,6,14,12,7,5,2,1,1,3,2,1,1,1,16,15,5,4,2,1,1,2,1,1,1,10,6,4,3,1,2,1,1,4,1,3,2,1,1,42,30,15,6,5,2,1,1,3,2,1,1,1,1,9,3,2,1,1,1,6,4,2,2,1,1,2,1,1,15,1,14,6,3,1,2,1,1,3,2,1,8,6,1,5,4,1,2,1,1,12,3,2,1,1,1,9,6,2,1,1,4,1,3,1,2,1,1,3,2,1,1,1],"n_outputs":1,"node_count":533,"threshold":[0.0797381429,-0.0893815653,-0.2360164151,-0.9001502395,-0.8222336471,-0.801192075,-1.3078768253,-2.0,-2.0,-2.0,-1.0298330188,-2.0,-1.2838022709,-2.0,-1.1307713985,1.4250941277,-2.0,-2.0,-2.0,-0.6656535268,0.3895468414,-0.9913533628,1.0198144317,-2.0,-2.0,-0.6426718235,-0.8407181799,-2.0,-0.7271655798,-2.0,-2.0,-0.5556702614,-0.7426482737,-2.0,-2.0,0.8956421316,-2.0,-2.0,0.2436501756,-1.2589544058,-2.0,-2.0,-0.8223125339,-0.646722883,-2.0,-2.0,0.5452780724,-0.8203880154,-2.0,-2.0,-1.1907715499,-2.0,-2.0,-0.2585012689,-0.4591766447,3.3347080946,-0.4901905656,0.4583572298,-2.0,-2.0,-2.0,6.5597465038,6.2752535343,-2.0,-2.0,-2.0,-0.5163169801,-0.8222058713,-0.6822179854,-2.0,-2.0,-1.4268192053,-2.0,-2.0,0.3895468414,0.3315529004,-2.0,-2.0,-2.0,0.3454036564,-0.2884924859,0.0967067815,-2.0,-2.0,0.2495964468,0.1560494974,-2.0,-2.0,-2.0,-2.0,0.3895468414,-1.4423393011,-0.9974299073,-1.4295618534,-2.0,1.1060937941,-2.0,-2.0,-0.2571200952,-2.0,1.3758202791,0.2500106469,-2.0,1.1862926483,-2.0,-2.0,0.3235129118,-2.0,-2.0,-0.7094871998,-0.934980154,-1.1968919933,-2.0,0.1027908549,0.33983998,-2.0,-2.0,0.0347112566,-2.0,-2.0,1.5781960487,1.0711240768,1.3644627929,-2.0,-2.0,-2.0,0.2490102388,-2.0,-2.0,-0.5967407227,-0.48145625,-0.4239139967,-2.0,-2.0,0.9586825073,1.4594798088,-2.0,-2.0,-2.0,-0.4839942306,0.5450465679,0.9703628421,-2.0,-2.0,-2.0,0.8362823129,0.3963664919,-2.0,-2.0,1.4349819124,-2.0,-2.0,0.0181579553,3.2141739726,-1.1714475229,-0.6531139165,-2.0,-2.0,-0.6018151939,-2.0,-2.0,-2.0,-0.7481925786,-0.1118651591,1.0419672132,-2.0,-2.0,-2.0,-0.8222336471,-0.3515734375,-2.0624448359,-2.0,-0.3690551668,-2.0,-2.0,-0.5157003999,-2.0,-0.3035393059,-2.0,-2.0,0.8107619286,0.72156775,0.7290838659,-2.0,-2.0,-0.5849922895,-2.0,-2.0,-0.5413950533,-2.0,-2.0,1.331119597,-0.5181783587,-2.0,-0.3958909363,0.4963087142,-2.0,-0.9163077474,-2.0,-2.0,0.2795512751,0.2311301604,0.2066899762,-2.0,0.6763293967,-2.0,-2.0,-0.6926350296,-0.7626606822,-2.0,-2.0,-2.0,0.3148889244,0.8624297678,-0.8604921997,-0.9072462618,-2.0,-2.0,-0.494854331,-2.0,-2.0,0.8917084932,-2.0,0.9687972963,-2.0,-2.0,-2.0,-0.4675666392,-0.985856086,-1.8961638808,-1.4913395047,-2.0,-2.0,-2.0,-0.9430297911,-1.2213464379,-2.0,-2.0,-2.0,-2.0,0.2698566169,0.1924846172,-1.1485022306,-1.4528169036,1.540055573,-2.0,-2.0,-0.8487267494,-0.8151316941,1.2191897035,-2.0,-2.0,-0.9439866841,-2.0,-1.3783959746,-2.0,0.8745386899,-2.0,-2.0,-0.6650915146,-0.3785260916,-2.0,-2.0,-2.0,1.2395935655,-0.3567819595,-0.4597949088,-0.1743311957,0.1474603787,-2.0,-0.5537239686,-2.0,-2.0,0.4557949528,-2.0,-2.0,0.8585653305,-2.0,-2.0,0.188851133,0.2052919269,-0.467454806,-2.0,-2.0,-2.0,-0.2043845318,-0.5939978063,-2.0,-2.0,-2.0,1.4803595543,-2.0,-2.0,0.3052310944,0.6490847394,0.3355260193,0.1044032946,-0.4237101972,-0.1511426568,-0.6725850701,-2.0,-2.0,-0.238143459,-2.0,-2.0,-0.2915969808,-2.0,-2.0,-0.479348734,-2.0,0.2528050244,-2.0,-2.0,-0.7598097622,-2.0,-2.0,-0.6207392812,-0.1239418387,-2.0,-2.0,-0.3373244554,-2.0,-0.0588282112,-2.0,-2.0,1.8836817145,-0.8158367872,-0.7554073036,-2.0,-0.3700386882,-0.5398456752,-2.0,-2.0,0.9817099571,-2.0,-2.0,0.9817099571,-0.1078631779,0.86896348,0.2908278103,-2.0,-2.0,0.3895468414,-2.0,-2.0,0.7719235718,0.1849354208,-2.0,-2.0,-2.0,-0.4121890962,1.2381824851,-0.4702640623,-2.0,-2.0,-2.0,0.0757180844,-0.3590968549,-2.0,-2.0,-0.2309817001,-2.0,-2.0,0.8208633363,-0.8065868616,0.2435236871,-2.0,-2.0,-0.4214621931,0.1929319166,-2.0,-2.0,-0.7129588127,-2.0,-2.0,-2.0,0.4694568366,0.3052310944,0.1924846172,-0.0616325103,-0.299788028,-2.0,-2.0,0.6678708196,-1.337010622,-2.0,-0.5712366253,-2.0,-0.3410954177,-2.0,-2.0,-0.9450226128,-1.3502543569,-2.0,-2.0,-2.0,0.7449133247,-0.5614293218,-0.667529583,-2.0,-2.0,0.7826626003,0.1693799943,-0.2466640249,-2.0,-2.0,-2.0,-2.0,-2.0,0.7562170029,0.2305916771,-0.4855307937,-0.5850057304,-2.0,-2.0,-0.0884467401,0.5307240486,-0.1609726846,-2.0,-2.0,-0.6332510561,-2.0,-2.0,0.3862800449,0.1519078091,-2.0,-2.0,0.5307240486,-2.0,-2.0,0.6638603508,0.3553489149,-2.0,-2.0,-2.0,1.8836817145,-0.5923266411,0.5558664501,0.0798466131,0.4104382154,-2.0,-2.0,0.2265078723,-2.0,-2.0,-2.0,0.2622173578,0.0547530949,-0.9394692034,-2.0,-2.0,-0.0743644387,-2.0,-2.0,-0.2059728894,-2.0,0.8312424421,-2.0,-2.0,-2.0,0.6964964569,0.9961963892,-0.0205430761,2.1886595488,-0.447834596,0.762304455,-2.0,-2.0,1.5072796941,0.0368889864,-2.0,-2.0,-2.0,-2.0,0.6434705257,1.9936366081,0.3895468414,-2.0,-2.0,-2.0,0.9375863671,-0.5958244652,-2.0,0.3895468414,-2.0,-2.0,0.764790684,-2.0,-2.0,0.1924846172,-2.0,0.7673209012,1.6727103591,0.5307240486,-2.0,1.5454422832,-2.0,-2.0,0.4997586906,-2.0,-2.0,0.9817099571,1.1943719387,-2.0,0.5870972872,-2.0,-2.0,-1.0225574076,-2.0,-2.0,-0.2103911415,1.9741277099,1.4772785902,-2.0,-2.0,-2.0,0.3895468414,0.9140685238,0.9651233554,-2.0,-2.0,0.0414298596,-2.0,0.7829193175,-2.0,1.6199615598,-2.0,-2.0,0.3907734752,2.3931596875,-2.0,-2.0,-2.0],"value":[[[0.0607453619]],[[-0.3509520685]],[[-0.1473747946]],[[0.1978022915]],[[-1.0381355101]],[[-1.5346199562]],[[-1.3594683259]],[[-1.2810873239]],[[-1.437849328]],[[-1.8849232168]],[[-0.7402448424]],[[-1.8164585524]],[[-0.4711914149]],[[-0.8196816138]],[[-0.3550280153]],[[-0.3216446564]],[[-0.2885901976]],[[-0.3546991152]],[[-0.421794733]],[[0.3370628888]],[[0.8849612876]],[[0.5847628719]],[[-0.2099625205]],[[-0.0426551573]],[[-0.3772698837]],[[0.7070283169]],[[0.8379474183]],[[0.4715390168]],[[0.8837484685]],[[0.9057364672]],[[0.8471018041]],[[0.4124603386]],[[0.1404394101]],[[0.3161337255]],[[-0.0352549053]],[[0.6844812672]],[[0.79381999]],[[0.5751425443]],[[1.3852919804]],[[0.7924632771]],[[1.1697527898]],[[0.4151737643]],[[1.55467161]],[[1.2340733132]],[[0.7312878608]],[[1.7368587655]],[[1.6829109287]],[[1.9015143718]],[[1.830965303]],[[1.9720634405]],[[1.5371753]],[[1.3643794166]],[[1.6235732417]],[[0.0572849831]],[[-0.0478353337]],[[0.2208466716]],[[0.5601570341]],[[0.4943317929]],[[0.5761292446]],[[0.4398001584]],[[0.8892832403]],[[-0.0336361002]],[[-0.1001304476]],[[-0.1405851583]],[[0.1425978169]],[[0.4318243313]],[[-0.187151929]],[[0.278219768]],[[-0.6161746847]],[[-0.4198213325]],[[-0.8125280369]],[[0.5018183811]],[[0.7975201159]],[[0.4032511362]],[[-0.4608999861]],[[-0.5421182049]],[[-0.6091884944]],[[-0.0726261778]],[[0.8385915143]],[[0.7756071476]],[[0.7550426697]],[[0.7119238682]],[[0.7248743091]],[[0.6989734273]],[[0.7837885373]],[[0.7748260099]],[[0.7748260099]],[[0.7748260099]],[[0.8017135921]],[[0.8784295374]],[[-0.3824522929]],[[-0.173219409]],[[0.569913033]],[[0.1067065949]],[[-0.0104640612]],[[0.165291923]],[[0.2053766211]],[[0.1252072248]],[[0.6516553456]],[[1.3865801725]],[[0.6057225439]],[[0.6614171485]],[[0.3438846704]],[[0.7143392282]],[[0.6419668196]],[[1.0762012712]],[[0.2158603114]],[[0.5826661338]],[[-0.1509455111]],[[-0.3984110581]],[[-0.7183212876]],[[-0.413398971]],[[-0.8756768536]],[[-0.3363526572]],[[-0.22228394]],[[0.0319023813]],[[-0.3917414876]],[[-0.4178303123]],[[-0.4470789273]],[[-0.4061308664]],[[-0.9554830894]],[[-1.0171064607]],[[-1.0573530394]],[[-1.1174744804]],[[-0.8920190767]],[[-0.4134077808]],[[-0.4624961189]],[[-0.556972669]],[[-0.3680195688]],[[-0.0973190773]],[[0.393277241]],[[0.7216675333]],[[0.8358780886]],[[0.6074569779]],[[0.3427556576]],[[0.3671543516]],[[0.4145218374]],[[0.3008398715]],[[0.0499713298]],[[-0.4846319603]],[[-0.9276304174]],[[-0.9117222476]],[[-0.9553066482]],[[-0.8245534463]],[[-1.1185284557]],[[0.4751980303]],[[0.7120163713]],[[0.6693313069]],[[0.8400715647]],[[0.0015613482]],[[-0.0264979405]],[[0.0296206369]],[[-0.9822532268]],[[-0.0520140093]],[[0.3557559079]],[[0.1895277481]],[[0.3098435114]],[[0.0692119849]],[[0.5219840677]],[[0.4151737643]],[[0.6287943711]],[[-1.6830936782]],[[-1.1683010703]],[[-1.4962311491]],[[-1.3894804589]],[[-1.4175603039]],[[-1.3754405364]],[[-1.8164832199]],[[-1.1058381982]],[[-1.2605971647]],[[-1.144118527]],[[-0.5927405535]],[[-1.2053827462]],[[-1.1810297504]],[[-1.400206713]],[[-1.6488592903]],[[-1.4402790774]],[[-1.7531493968]],[[-1.8194803219]],[[-1.6868184717]],[[-0.8543548777]],[[-0.9495560358]],[[-0.9001901883]],[[-0.9392573518]],[[-0.8611230248]],[[-1.0482877308]],[[-1.001234462]],[[-1.0953409995]],[[-0.5687514033]],[[-0.2885901976]],[[-0.848912609]],[[-1.3433912785]],[[-1.5498795499]],[[-1.8861812596]],[[-1.4734473431]],[[-0.935413332]],[[-0.7761434647]],[[-1.0150482657]],[[-0.9443758594]],[[-1.0857206719]],[[-1.5584000817]],[[-1.7469948539]],[[-1.8931251627]],[[-1.9062729437]],[[-1.8865512722]],[[-1.8861812596]],[[-1.8869212848]],[[-1.6008645451]],[[-1.5916142301]],[[-1.5916142301]],[[-1.5916142301]],[[-1.619365175]],[[-1.4713563407]],[[-1.529290747]],[[-1.5720919543]],[[-1.5243623847]],[[-1.5527629073]],[[-1.4675613397]],[[-1.6198215239]],[[-1.6295343546]],[[-1.6003958625]],[[-1.4864895397]],[[-1.4296227146]],[[-1.5433563648]],[[-1.5721885687]],[[-1.5289402628]],[[-0.7761434647]],[[-0.9145310227]],[[-0.8308642167]],[[-0.9641920897]],[[-0.8601979933]],[[-0.7761434647]],[[-0.9442525219]],[[-1.1721802824]],[[-0.7864215924]],[[-0.8223950395]],[[-0.8686466143]],[[-0.7761434647]],[[-0.7761434647]],[[-1.9185326945]],[[0.4724427923]],[[0.2322020637]],[[0.7230859149]],[[0.4250519795]],[[1.1510054849]],[[0.92579115]],[[1.3762198197]],[[0.2637289783]],[[0.4554229125]],[[0.1829291901]],[[0.1877393539]],[[0.1781190264]],[[0.5916697737]],[[0.4695656163]],[[0.6323711596]],[[0.6423614997]],[[0.6273759895]],[[0.6274376582]],[[0.6273143207]],[[-0.1196588903]],[[-0.0438268639]],[[0.028263924]],[[-0.1159176518]],[[-0.2713229431]],[[0.9416441342]],[[1.0242714262]],[[1.205837828]],[[1.0944428923]],[[0.9114839962]],[[0.7951767028]],[[0.9696376429]],[[0.92579115]],[[1.0134841358]],[[1.3688812365]],[[1.4164278554]],[[1.3213346176]],[[1.4843251672]],[[1.552222479]],[[1.4164278554]],[[0.8124439574]],[[1.0599823857]],[[0.9293062697]],[[0.9328213894]],[[0.92579115]],[[1.3213346176]],[[0.5649055291]],[[0.5310493764]],[[0.5596020152]],[[0.5024967375]],[[0.6326178346]],[[0.4045667365]],[[0.4696889538]],[[0.3394445192]],[[0.110649872]],[[-0.4973162518]],[[-0.1642185271]],[[-0.1902038478]],[[-0.2191159274]],[[-0.1845673225]],[[-0.2176300038]],[[-0.229634857]],[[-0.2116275772]],[[-0.1349733006]],[[-0.1437919342]],[[-0.126154667]],[[-0.3054874396]],[[-0.2892068853]],[[-0.321767994]],[[-0.1227423286]],[[-0.1437919342]],[[-0.1122175258]],[[-0.1060506491]],[[-0.1183844024]],[[-0.0776007916]],[[-0.0559756108]],[[-0.088413382]],[[-1.2190279886]],[[-1.276030485]],[[-1.2981079034]],[[-1.2318756483]],[[-1.1620254922]],[[-1.2318756483]],[[-1.1271004142]],[[-1.1526929522]],[[-1.1015078761]],[[0.2449679691]],[[0.3467999212]],[[-0.6422235716]],[[0.4653721402]],[[-0.9191224996]],[[-1.1048379895]],[[-0.9734835171]],[[-1.2361924619]],[[-0.7334070096]],[[-0.6249316495]],[[-0.8418823697]],[[0.4154821082]],[[0.2008162158]],[[0.4272485088]],[[1.1083130789]],[[1.3236556057]],[[0.3187238137]],[[-0.16868299]],[[0.5846395344]],[[-0.2763004935]],[[-0.4784806631]],[[-0.6097748372]],[[-0.5587918976]],[[-1.0176383539]],[[0.7031669034]],[[0.6838144736]],[[0.2916203909]],[[0.4006423605]],[[0.2730889266]],[[0.5069368887]],[[-0.9076212746]],[[0.9191309232]],[[1.0599559562]],[[0.8181421514]],[[1.1942969589]],[[0.5905391797]],[[1.1972570596]],[[0.2871802397]],[[-0.626260954]],[[-0.6533917852]],[[-0.722902763]],[[-0.7261917639]],[[-0.7163247613]],[[-0.6116851985]],[[-0.6745133377]],[[-0.6878337912]],[[-0.6611928842]],[[-0.5697997724]],[[-0.59841408]],[[-0.5554926186]],[[-0.4092143047]],[[0.77505371]],[[1.0431786415]],[[0.1805785219]],[[0.6413610953]],[[0.9745094755]],[[1.0488820077]],[[0.9001369432]],[[0.5461758438]],[[0.3935280273]],[[0.2507648332]],[[0.4411157587]],[[0.3409245696]],[[0.4912113533]],[[0.5212440425]],[[0.4611786641]],[[0.7497062657]],[[0.8939700666]],[[0.9328213894]],[[0.8551187437]],[[0.4611786641]],[[-0.3378018732]],[[-0.2067645545]],[[-0.0871800066]],[[-0.0559756108]],[[-0.1183844024]],[[-0.2545983736]],[[-0.1939491975]],[[-0.2177944538]],[[-0.231731595]],[[-0.2038573126]],[[-0.1462586848]],[[-0.3455721378]],[[-1.2550631044]],[[1.3690497978]],[[1.6314391992]],[[1.7673895486]],[[1.2490588234]],[[1.3958304874]],[[1.1022871594]],[[1.8105837757]],[[1.9220254035]],[[2.0186439154]],[[2.0003077355]],[[2.0553162751]],[[1.8806174698]],[[1.9308687046]],[[1.872242264]],[[1.7309826131]],[[1.701090881]],[[1.7584252141]],[[1.6208228147]],[[1.9103330054]],[[1.9290186416]],[[1.8916473692]],[[0.4532028369]],[[-0.081814824]],[[-0.1407084959]],[[-0.0229211521]],[[1.5232381588]],[[0.8934690078]],[[0.9822057375]],[[1.2510075564]],[[1.3667844984]],[[1.2645376838]],[[1.2171144024]],[[1.3119609651]],[[1.4690313131]],[[1.4002706386]],[[1.5377919876]],[[0.7878997884]],[[0.847804828]],[[0.9921261864]],[[0.89279836]],[[0.933191402]],[[0.7716192341]],[[1.1907818392]],[[1.1972570596]],[[1.1843066187]],[[0.6313227905]],[[0.0787089749]],[[0.8155273957]],[[0.8981018739]],[[0.6503784393]],[[-0.4375819372]],[[0.3792502396]],[[0.037662244]],[[0.4302785009]],[[-0.3309771964]],[[-0.1464066899]],[[-0.3960171887]],[[-0.3374318606]],[[-0.4546025168]],[[0.0200003093]],[[-0.0663976324]],[[-0.1481087478]],[[0.0153134831]],[[0.1927961928]],[[-1.2538297291]],[[0.937782299]],[[1.4089864909]],[[1.2614542455]],[[1.1270780035]],[[1.3958304874]],[[1.7040509818]],[[0.7021802031]],[[0.5711340745]],[[0.5403613601]],[[0.601906789]],[[0.5910530861]],[[0.6127604918]],[[0.9642724602]],[[1.008427297]],[[0.9201176235]],[[-0.3549540128]],[[1.1839366061]],[[-0.4648747713]],[[-0.7861749174]],[[-1.0434981232]],[[-1.3581732818]],[[-0.8861605439]],[[-1.0176383539]],[[-0.754682734]],[[-0.5288517115]],[[-0.5294683992]],[[-0.5276183362]],[[-0.2238996617]],[[-0.4474694961]],[[-0.126154667]],[[-0.5117324619]],[[-0.5294683992]],[[-0.4407887131]],[[0.4468098415]],[[0.359301862]],[[0.534317821]],[[1.2332202286]],[[0.5606709405]],[[0.6916348441]],[[0.7856797128]],[[0.5975899753]],[[0.2987431334]],[[1.4574033246]],[[1.2380406705]],[[1.4708813761]],[[1.4439321252]],[[1.497830627]],[[1.1216203177]],[[1.2602825389]],[[1.0753995773]],[[1.1843066187]],[[1.0209460566]],[[0.989679992]],[[1.0522121211]],[[1.8961286328]],[[1.8165348117]],[[1.7491925188]],[[1.8838771046]],[[2.0553162751]]],"weighted_n_node_samples":[470.0,235.0,195.0,79.0,8.0,3.0,2.0,1.0,1.0,1.0,5.0,1.0,4.0,1.0,3.0,2.0,1.0,1.0,1.0,71.0,24.0,15.0,2.0,1.0,1.0,13.0,9.0,1.0,8.0,5.0,3.0,4.0,2.0,1.0,1.0,2.0,1.0,1.0,9.0,2.0,1.0,1.0,7.0,2.0,1.0,1.0,5.0,2.0,1.0,1.0,3.0,1.0,2.0,47.0,41.0,14.0,6.0,5.0,2.0,3.0,1.0,8.0,7.0,6.0,1.0,1.0,27.0,10.0,2.0,1.0,1.0,8.0,2.0,6.0,17.0,16.0,14.0,2.0,1.0,6.0,5.0,2.0,1.0,1.0,3.0,2.0,1.0,1.0,1.0,1.0,116.0,86.0,20.0,3.0,1.0,2.0,1.0,1.0,17.0,1.0,16.0,14.0,2.0,12.0,10.0,2.0,2.0,1.0,1.0,66.0,32.0,14.0,2.0,12.0,5.0,2.0,3.0,7.0,2.0,5.0,18.0,16.0,15.0,11.0,4.0,1.0,2.0,1.0,1.0,34.0,15.0,2.0,1.0,1.0,13.0,12.0,7.0,5.0,1.0,19.0,13.0,12.0,8.0,4.0,1.0,6.0,4.0,3.0,1.0,2.0,1.0,1.0,30.0,5.0,4.0,2.0,1.0,1.0,2.0,1.0,1.0,1.0,25.0,4.0,3.0,1.0,2.0,1.0,21.0,13.0,10.0,1.0,9.0,8.0,1.0,3.0,1.0,2.0,1.0,1.0,8.0,6.0,4.0,2.0,2.0,2.0,1.0,1.0,2.0,1.0,1.0,40.0,27.0,5.0,22.0,3.0,1.0,2.0,1.0,1.0,19.0,6.0,3.0,1.0,2.0,1.0,1.0,3.0,2.0,1.0,1.0,1.0,13.0,12.0,6.0,3.0,2.0,1.0,3.0,2.0,1.0,6.0,3.0,3.0,1.0,2.0,1.0,13.0,12.0,3.0,2.0,1.0,1.0,1.0,9.0,2.0,1.0,1.0,7.0,1.0,235.0,131.0,26.0,11.0,2.0,1.0,1.0,9.0,6.0,2.0,1.0,1.0,4.0,1.0,3.0,1.0,2.0,1.0,1.0,3.0,2.0,1.0,1.0,1.0,15.0,13.0,7.0,5.0,3.0,1.0,2.0,1.0,1.0,2.0,1.0,1.0,2.0,1.0,1.0,6.0,3.0,2.0,1.0,1.0,1.0,3.0,2.0,1.0,1.0,1.0,2.0,1.0,1.0,105.0,19.0,13.0,10.0,7.0,5.0,3.0,1.0,2.0,2.0,1.0,1.0,2.0,1.0,1.0,3.0,1.0,2.0,1.0,1.0,3.0,1.0,2.0,6.0,3.0,2.0,1.0,3.0,1.0,2.0,1.0,1.0,86.0,77.0,5.0,1.0,4.0,2.0,1.0,1.0,2.0,1.0,1.0,72.0,40.0,30.0,14.0,11.0,3.0,16.0,2.0,14.0,10.0,9.0,8.0,1.0,1.0,32.0,12.0,11.0,5.0,6.0,1.0,20.0,14.0,5.0,9.0,6.0,2.0,4.0,9.0,8.0,3.0,2.0,1.0,5.0,2.0,1.0,1.0,3.0,1.0,2.0,1.0,104.0,62.0,17.0,9.0,2.0,1.0,1.0,7.0,4.0,1.0,3.0,1.0,2.0,1.0,1.0,3.0,2.0,1.0,1.0,1.0,8.0,7.0,2.0,1.0,1.0,5.0,3.0,2.0,1.0,1.0,1.0,2.0,1.0,45.0,29.0,26.0,2.0,1.0,1.0,24.0,10.0,3.0,2.0,1.0,7.0,1.0,6.0,14.0,12.0,7.0,5.0,2.0,1.0,1.0,3.0,2.0,1.0,1.0,1.0,16.0,15.0,5.0,4.0,2.0,1.0,1.0,2.0,1.0,1.0,1.0,10.0,6.0,4.0,3.0,1.0,2.0,1.0,1.0,4.0,1.0,3.0,2.0,1.0,1.0,42.0,30.0,15.0,6.0,5.0,2.0,1.0,1.0,3.0,2.0,1.0,1.0,1.0,1.0,9.0,3.0,2.0,1.0,1.0,1.0,6.0,4.0,2.0,2.0,1.0,1.0,2.0,1.0,1.0,15.0,1.0,14.0,6.0,3.0,1.0,2.0,1.0,1.0,3.0,2.0,1.0,8.0,6.0,1.0,5.0,4.0,1.0,2.0,1.0,1.0,12.0,3.0,2.0,1.0,1.0,1.0,9.0,6.0,2.0,1.0,1.0,4.0,1.0,3.0,1.0,2.0,1.0,1.0,3.0,2.0,1.0,1.0,1.0]}},"rve":{"ccp_alpha":0.0,"class_weight":null,"criterion":"squared_error","feature_importances_":[0.5482485052,0.0492896572,0.1227621918,0.0739394524,0.0545970286,0.0131092333,0.072544528,0.0655094035],"max_depth":10,"max_features":null,"max_features_":8,"max_leaf_nodes":null,"min_impurity_decrease":0.0,"min_samples_leaf":1,"min_samples_split":2,"min_weight_fraction_leaf":0.0,"n_features_":8,"n_features_in_":8,"n_outputs_":1,"random_state":null,"splitter":"best","tree_":{"capacity":533,"children_left":[1,2,3,4,5,6,7,-1,-1,-1,11,-1,13,-1,15,16,-1,-1,-1,20,21,22,23,-1,-1,26,27,-1,29,-1,-1,32,33,-1,-1,36,-1,-1,39,40,-1,-1,43,44,-1,-1,47,48,-1,-1,51,-1,-1,54,55,56,57,58,-1,-1,-1,62,63,-1,-1,-1,67,68,69,-1,-1,72,-1,-1,75,76,-1,-1,-1,80,81,82,-1,-1,85,86,-1,-1,-1,-1,91,92,93,94,-1,96,-1,-1,99,-1,101,102,-1,104,-1,-1,107,-1,-1,110,111,112,-1,114,115,-1,-1,118,-1,-1,121,122,123,-1,-1,-1,127,-1,-1,130,131,132,-1,-1,135,136,-1,-1,-1,140,141,142,-1,-1,-1,146,147,-1,-1,150,-1,-1,153,154,155,156,-1,-1,159,-1,-1,-1,163,164,165,-1,-1,-1,169,170,171,-1,173,-1,-1,176,-1,178,-1,-1,181,182,183,-1,-1,186,-1,-1,189,-1,-1,192,193,-1,195,196,-1,198,-1,-1,201,202,203,-1,205,-1,-1,208,209,-1,-1,-1,213,214,215,216,-1,-1,219,-1,-1,222,-1,224,-1,-1,-1,228,229,230,231,-1,-1,-1,235,236,-1,-1,-1,-1,241,242,243,244,245,-1,-1,248,249,250,-1,-1,253,-1,255,-1,257,-1,-1,260,261,-1,-1,-1,265,266,267,268,269,-1,271,-1,-1,274,-1,-1,277,-1,-1,280,281,282,-1,-1,-1,286,287,-1,-1,-1,291,-1,-1,294,295,296,297,298,299,300,-1,-1,303,-1,-1,306,-1,-1,309,-1,311,-1,-1,314,-1,-1,317,318,-1,-1,321,-1,323,-1,-1,326,327,328,-1,330,331,-1,-1,334,-1,-1,337,338,339,340,-1,-1,343,-1,-1,346,347,-1,-1,-1,351,352,353,-1,-1,-1,357,358,-1,-1,361,-1,-1,364,365,366,-1,-1,369,370,-1,-1,373,-1,-1,-1,377,378,379,380,381,-1,-1,384,385,-1,387,-1,389,-1,-1,392,393,-1,-1,-1,397,398,399,-1,-1,402,403,404,-1,-1,-1,-1,-1,410,411,412,413,-1,-1,416,417,418,-1,-1,421,-1,-1,424,425,-1,-1,428,-1,-1,431,432,-1,-1,-1,436,437,438,439,440,-1,-1,443,-1,-1,-1,447,448,449,-1,-1,452,-1,-1,455,-1,457,-1,-1,-1,461,462,463,464,465,466,-1,-1,469,470,-1,-1,-1,-1,475,476,477,-1,-1,-1,481,482,-1,484,-1,-1,487,-1,-1,490,-1,492,493,494,-1,496,-1,-1,499,-1,-1,502,503,-1,505,-1,-1,508,-1,-1,511,512,513,-1,-1,-1,517,518,519,-1,-1,522,-1,524,-1,526,-1,-1,529,530,-1,-1,-1],"children_right":[240,191,90,19,10,9,8,-1,-1,-1,12,-1,14,-1,18,17,-1,-1,-1,53,38,25,24,-1,-1,31,28,-1,30,-1,-1,35,34,-1,-1,37,-1,-1,42,41,-1,-1,46,45,-1,-1,50,49,-1,-1,52,-1,-1,79,66,61,60,59,-1,-1,-1,65,64,-1,-1,-1,74,71,70,-1,-1,73,-1,-1,78,77,-1,-1,-1,89,84,83,-1,-1,88,87,-1,-1,-1,-1,152,109,98,95,-1,97,-1,-1,100,-1,106,103,-1,105,-1,-1,108,-1,-1,129,120,113,-1,117,116,-1,-1,119,-1,-1,126,125,124,-1,-1,-1,128,-1,-1,139,134,133,-1,-1,138,137,-1,-1,-1,145,144,143,-1,-1,-1,149,148,-1,-1,151,-1,-1,162,161,158,157,-1,-1,160,-1,-1,-1,168,167,166,-1,-1,-1,180,175,172,-1,174,-1,-1,177,-1,179,-1,-1,188,185,184,-1,-1,187,-1,-1,190,-1,-1,227,194,-1,200,197,-1,199,-1,-1,212,207,204,-1,206,-1,-1,211,210,-1,-1,-1,226,221,218,217,-1,-1,220,-1,-1,223,-1,225,-1,-1,-1,239,234,233,232,-1,-1,-1,238,237,-1,-1,-1,-1,376,293,264,247,246,-1,-1,259,252,251,-1,-1,254,-1,256,-1,258,-1,-1,263,262,-1,-1,-1,290,279,276,273,270,-1,272,-1,-1,275,-1,-1,278,-1,-1,285,284,283,-1,-1,-1,289,288,-1,-1,-1,292,-1,-1,325,316,313,308,305,302,301,-1,-1,304,-1,-1,307,-1,-1,310,-1,312,-1,-1,315,-1,-1,320,319,-1,-1,322,-1,324,-1,-1,363,336,329,-1,333,332,-1,-1,335,-1,-1,350,345,342,341,-1,-1,344,-1,-1,349,348,-1,-1,-1,356,355,354,-1,-1,-1,360,359,-1,-1,362,-1,-1,375,368,367,-1,-1,372,371,-1,-1,374,-1,-1,-1,460,409,396,383,382,-1,-1,391,386,-1,388,-1,390,-1,-1,395,394,-1,-1,-1,408,401,400,-1,-1,407,406,405,-1,-1,-1,-1,-1,435,430,415,414,-1,-1,423,420,419,-1,-1,422,-1,-1,427,426,-1,-1,429,-1,-1,434,433,-1,-1,-1,459,446,445,442,441,-1,-1,444,-1,-1,-1,454,451,450,-1,-1,453,-1,-1,456,-1,458,-1,-1,-1,510,489,474,473,468,467,-1,-1,472,471,-1,-1,-1,-1,480,479,478,-1,-1,-1,486,483,-1,485,-1,-1,488,-1,-1,491,-1,501,498,495,-1,497,-1,-1,500,-1,-1,507,504,-1,506,-1,-1,509,-1,-1,516,515,514,-1,-1,-1,528,521,520,-1,-1,523,-1,525,-1,527,-1,-1,532,531,-1,-1,-1],"feature":[0,0,6,2,0,6,6,-2,-2,-2,2,-2,7,-2,6,4,-2,-2,-2,2,1,0,4,-2,-2,3,2,-2,3,-2,-2,3,2,-2,-2,4,-2,-2,4,7,-2,-2,2,3,-2,-2,4,5,-2,-2,7,-2,-2,0,4,3,4,2,-2,-2,-2,3,2,-2,-2,-2,3,7,3,-2,-2,5,-2,-2,1,7,-2,-2,-2,3,3,2,-2,-2,4,5,-2,-2,-2,-2,1,0,3,7,-2,4,-2,-2,5,-2,6,5,-2,6,-2,-2,5,-2,-2,0,0,7,-2,6,4,-2,-2,7,-2,-2,6,3,6,-2,-2,-2,2,-2,-2,0,2,3,-2,-2,2,5,-2,-2,-2,0,2,5,-2,-2,-2,5,5,-2,-2,7,-2,-2,4,7,4,0,-2,-2,7,-2,-2,-2,3,6,4,-2,-2,-2,0,3,0,-2,2,-2,-2,5,-2,3,-2,-2,4,4,6,-2,-2,3,-2,-2,3,-2,-2,4,6,-2,2,4,-2,7,-2,-2,5,6,4,-2,4,-2,-2,3,3,-2,-2,-2,4,5,4,4,-2,-2,4,-2,-2,6,-2,6,-2,-2,-2,6,2,7,5,-2,-2,-2,3,7,-2,-2,-2,-2,7,0,7,5,4,-2,-2,2,3,4,-2,-2,2,-2,7,-2,4,-2,-2,2,5,-2,-2,-2,4,3,3,6,4,-2,5,-2,-2,6,-2,-2,4,-2,-2,4,6,4,-2,-2,-2,3,2,-2,-2,-2,4,-2,-2,0,6,4,5,2,7,5,-2,-2,3,-2,-2,6,-2,-2,2,-2,5,-2,-2,5,-2,-2,5,3,-2,-2,7,-2,2,-2,-2,0,4,6,-2,2,7,-2,-2,0,-2,-2,0,2,0,6,-2,-2,1,-2,-2,3,7,-2,-2,-2,2,3,6,-2,-2,-2,3,3,-2,-2,7,-2,-2,5,6,5,-2,-2,2,4,-2,-2,6,-2,-2,-2,2,0,0,3,2,-2,-2,5,4,-2,2,-2,2,-2,-2,4,6,-2,-2,-2,6,4,4,-2,-2,7,4,6,-2,-2,-2,-2,-2,0,4,2,2,-2,-2,3,0,2,-2,-2,4,-2,-2,2,5,-2,-2,0,-2,-2,7,5,-2,-2,-2,0,4,3,2,5,-2,-2,5,-2,-2,-2,2,5,6,-2,-2,3,-2,-2,5,-2,5,-2,-2,-2,3,2,3,6,3,6,-2,-2,7,5,-2,-2,-2,-2,0,7,1,-2,-2,-2,7,4,-2,1,-2,-2,2,-2,-2,0,-2,5,2,0,-2,0,-2,-2,5,-2,-2,0,7,-2,0,-2,-2,4,-2,-2,6,7,7,-2,-2,-2,1,6,5,-2,-2,5,-2,3,-2,7,-2,-2,6,7,-2,-2,-2],"impurity":[0.9753184012,0.8211431202,0.7073007541,0.6555911777,0.3747668047,0.0654519082,0.0061435815,0.0,4.440892099e-16,-4.440892099e-16,0.3237188096,0.0,0.0426997778,0.0,0.0029572955,0.0010925972,0.0,0.0,0.0,0.4957224101,0.348196454,0.1703541489,0.0279917538,0.0,0.0,0.0801397631,0.0176498894,0.0,0.0009764998,0.0001617088,0.00018572,0.0954071099,0.0308684925,0.0,-4.770489559e-18,0.0119549563,0.0,-5.551115123e-17,0.2440710122,0.1423473764,0.0,-2.775557562e-17,0.1440323431,0.2527932111,0.0,0.0,0.0429693658,0.0049771711,0.0,-8.881784197e-16,0.0152003119,0.0,0.0004066549,0.3394892701,0.3021295615,0.1214233262,0.0264634249,0.0057583355,0.0025821707,0.0004415309,-2.220446049e-16,0.0415331295,0.0120944479,0.0026541039,-1.040834086e-17,5.551115123e-17,0.3389881149,0.2366270341,0.0385546389,0.0,0.0,0.0361634339,0.0140487372,0.0046729924,0.1968679188,0.0970333797,0.0748286219,0.0005549543,-5.551115123e-16,0.0032836264,0.0014029652,0.0001677139,0.0,-5.551115123e-17,0.0001606538,3.330669074e-16,0.0,0.0,-2.220446049e-16,-1.110223025e-16,0.6061119627,0.5128225971,0.1304612473,0.00793567,0.0,0.001606783,0.0,1.040834086e-17,0.1075380369,0.0,0.0783921856,0.0455550272,0.0,0.0335423061,0.0064974755,0.0116334932,0.1345465114,0.0,-2.775557562e-17,0.4106311738,0.1517075763,0.0616086183,0.0,0.03032378,0.0493215811,0.0055588266,0.0067070998,0.0008212622,0.0016767437,-8.326672685e-17,0.0932228974,0.0695830733,0.0483053513,0.0052351867,0.1294728687,-0.0,0.0089258185,0.0,0.0,0.467345186,0.0322053217,0.013044051,0.0,0.0,0.0160099816,0.0096052953,0.0074139124,0.0051344708,4.770489559e-18,0.470851114,0.0128713139,0.0106540151,0.009907344,0.0007497573,0.0,0.1166638652,0.006353356,0.0011830825,-1.110223025e-16,0.0007873237,0.0,-1.084202172e-19,0.388282238,0.697564392,0.040573963,0.0144758829,0.0,8.67361738e-19,0.0114084409,0.0,5.551115123e-17,-4.440892099e-16,0.1187430067,0.0344828087,0.0003942388,0.0,0.0,-8.881784197e-16,0.1104075033,0.083549602,0.042417152,0.0,0.0095971233,0.005459148,4.440892099e-16,0.024686047,0.0,0.0043997916,0.0,4.440892099e-16,0.0518884335,0.0067681022,0.0017341876,0.0001857441,0.0002301446,0.0022140101,0.0,-4.440892099e-16,0.0784903012,0.0,1.110223025e-16,0.189151,0.1027445999,0.0,0.0945494812,0.0160131713,0.0,0.004994589,0.0,2.220446049e-16,0.0540255207,0.0214828972,0.0000865233,0.0,0.0000001369,0.0,0.0,0.0001711367,4.440892099e-16,0.0,0.0,-0.0,0.0450525858,0.0051738273,0.0032355181,0.0016755143,0.0000935024,4.440892099e-16,0.0002392983,0.0000759303,-4.440892099e-16,0.0034482497,-8.881784197e-16,0.0004288278,0.0,0.0000197697,0.0,0.0961347146,0.0131441934,0.0263396533,0.0070651638,0.0,-1.110223025e-16,4.440892099e-16,0.0008451193,0.0021392082,0.0,0.0,-2.220446049e-16,0.0,0.7905041339,0.6390085319,0.2381267624,0.2126231807,0.0507214966,0.0,0.0,0.1054632238,0.0404722855,0.0000231377,0.0,-1.387778781e-17,0.0050072379,0.0,0.000049906,0.0,0.0000000038,0.0,-1.665334537e-16,0.0149657136,0.0051970817,0.0,0.0,0.0,0.1439239276,0.1142091033,0.0722981141,0.0559424308,0.0080453699,0.0,0.0019225149,0.0,0.0,0.002260681,0.0,0.0,0.0046100449,0.0,0.0,0.0797736296,0.0341607319,0.0000123561,0.0,-1.110223025e-16,0.0,0.0028359803,0.0008152532,0.0,-5.551115123e-17,5.551115123e-17,0.0042409032,0.0,2.775557562e-17,0.6638315506,0.2462554926,0.0061688803,0.0050233705,0.0042840697,0.0017140536,0.0000720583,0.0,-2.081668171e-17,0.0000777683,0.0,-3.469446952e-18,0.0002650564,0.0,-1.387778781e-17,0.0002468965,0.0,0.0000380304,0.0,-5.204170428e-18,0.0002338242,0.0,-1.734723476e-18,0.0051747841,0.0009748248,0.0,-2.220446049e-16,0.0028761742,0.0,0.000654978,0.0,-6.661338148e-16,0.6563845221,0.6328343326,0.3458926202,0.0,0.0490006938,0.0172539974,0.0,-2.220446049e-16,0.0117669037,0.0,1.110223025e-16,0.5801153011,0.7200130283,0.6935707435,0.4422552322,0.1116989144,0.8608117089,0.1524696345,0.0085796661,0.0803731279,0.1840808831,0.0321527131,0.0127784611,-4.440892099e-16,-5.551115123e-16,0.2756390771,0.1490559462,0.0199770086,0.0038615244,0.0085498199,7.771561172e-16,0.2039254051,0.1031915191,0.1506891818,0.0262709147,0.2847246621,0.0,0.1510070537,0.0101106987,0.004749798,0.0000216351,-2.220446049e-16,0.0,0.0029481908,0.0001774345,0.0,0.0,0.0004093893,0.0,0.0,-4.163336342e-16,0.8170574899,0.6450304348,0.3400845683,0.0762074154,0.0055312736,0.0,1.110223025e-16,0.0556295543,0.0110091106,0.0,0.0056204455,0.0,0.0009019624,0.0,2.775557562e-17,0.042630372,0.0015094253,0.0,-1.110223025e-16,2.498001805e-16,0.1293674789,0.0104823161,0.0009737143,0.0,-1.734723476e-18,0.0062774969,0.0012666884,0.0001942439,0.0,6.938893904e-18,3.469446952e-18,1.387778781e-17,-2.220446049e-16,0.3729436977,0.258487054,0.0433252516,0.0215419214,0.0,0.0,0.0208858928,0.004804988,0.0008915772,0.0003287193,-8.881784197e-16,0.0007667742,0.0,0.0004035614,0.0171650251,0.0137130609,0.0097282264,0.0082467507,0.000349153,0.0,-4.440892099e-16,0.5748001047,0.0034684646,0.0,-8.67361738e-19,4.440892099e-16,0.2294319178,0.118740064,0.0647715293,0.0139429101,0.0022489676,0.0,-6.661338148e-16,0.0047280304,0.0,-4.440892099e-16,-0.0,0.0915335179,0.0243489297,0.006904379,0.0026794473,-5.551115123e-16,0.0000419285,0.0,-2.220446049e-16,0.1142029459,0.0,0.0165452483,0.0043622391,-1.665334537e-16,0.0,0.8082170247,0.6213619686,0.5646426199,0.2157797245,0.0545380381,0.0034322407,0.0,2.775557562e-17,0.0193803463,0.0066767064,0.0,-5.149960319e-19,0.0,0.0,0.1533176206,0.0555695098,0.0180569744,0.0,-2.220446049e-16,-8.881784197e-16,0.0356666331,0.0010058614,0.0,0.0001178029,0.0,0.0,0.0019496496,0.0,2.220446049e-16,0.369786267,0.0,0.2149609746,0.0967328646,0.0610345041,0.0,0.0172864145,0.0,-3.330669074e-16,0.0000007606,-1.110223025e-16,1.110223025e-16,0.1681377158,0.0216971888,0.0,0.0012582539,1.110223025e-16,-1.387778781e-16,0.0076576465,0.0,0.0,0.2543840263,0.0401993796,0.0088444373,0.0,1.665334537e-16,-5.551115123e-17,0.1247466664,0.0349132397,0.0007262621,0.0,0.0,0.0113456328,0.0,0.006582083,0.0,0.0009775668,0.0,-6.661338148e-16,0.0156936757,0.0045349844,0.0,4.440892099e-16,-8.881784197e-16],"max_depth":10,"max_n_classes":1,"n_classes":[1],"n_features":8,"n_leaves":267,"n_node_samples":[470,235,195,79,8,3,2,1,1,1,5,1,4,1,3,2,1,1,1,71,24,15,2,1,1,13,9,1,8,5,3,4,2,1,1,2,1,1,9,2,1,1,7,2,1,1,5,2,1,1,3,1,2,47,41,14,6,5,2,3,1,8,7,6,1,1,27,10,2,1,1,8,2,6,17,16,14,2,1,6,5,2,1,1,3,2,1,1,1,1,116,86,20,3,1,2,1,1,17,1,16,14,2,12,10,2,2,1,1,66,32,14,2,12,5,2,3,7,2,5,18,16,15,11,4,1,2,1,1,34,15,2,1,1,13,12,7,5,1,19,13,12,8,4,1,6,4,3,1,2,1,1,30,5,4,2,1,1,2,1,1,1,25,4,3,1,2,1,21,13,10,1,9,8,1,3,1,2,1,1,8,6,4,2,2,2,1,1,2,1,1,40,27,5,22,3,1,2,1,1,19,6,3,1,2,1,1,3,2,1,1,1,13,12,6,3,2,1,3,2,1,6,3,3,1,2,1,13,12,3,2,1,1,1,9,2,1,1,7,1,235,131,26,11,2,1,1,9,6,2,1,1,4,1,3,1,2,1,1,3,2,1,1,1,15,13,7,5,3,1,2,1,1,2,1,1,2,1,1,6,3,2,1,1,1,3,2,1,1,1,2,1,1,105,19,13,10,7,5,3,1,2,2,1,1,2,1,1,3,1,2,1,1,3,1,2,6,3,2,1,3,1,2,1,1,86,77,5,1,4,2,1,1,2,1,1,72,40,30,14,11,3,16,2,14,10,9,8,1,1,32,12,11,5,6,1,20,14,5,9,6,2,4,9,8,3,2,1,5,2,1,1,3,1,2,1,104,62,17,9,2,1,1,7,4,1,3,1,2,1,1,3,2,1,1,1,8,7,2,1,1,5,3,2,1,1,1,2,1,45,29,26,2,1,1,24,10,3,2,1,7,1,6,14,12,7,5,2,1,1,3,2,1,1,1,16,15,5,4,2,1,1,2,1,1,1,10,6,4,3,1,2,1,1,4,1,3,2,1,1,42,30,15,6,5,2,1,1,3,2,1,1,1,1,9,3,2,1,1,1,6,4,2,2,1,1,2,1,1,15,1,14,6,3,1,2,1,1,3,2,1,8,6,1,5,4,1,2,1,1,12,3,2,1,1,1,9,6,2,1,1,4,1,3,1,2,1,1,3,2,1,1,1],"n_outputs":1,"node_count":533,"threshold":[0.0797381429,-0.0893815653,-0.2360164151,-0.9001502395,-0.8222336471,-0.801192075,-1.3078768253,-2.0,-2.0,-2.0,-1.0298330188,-2.0,-1.2838022709,-2.0,-1.1307713985,1.4250941277,-2.0,-2.0,-2.0,-0.6656535268,0.3895468414,-0.9913533628,1.0198144317,-2.0,-2.0,-0.6426718235,-0.8407181799,-2.0,-0.7271655798,-2.0,-2.0,-0.5556702614,-0.7426482737,-2.0,-2.0,0.8956421316,-2.0,-2.0,0.2436501756,-1.2589544058,-2.0,-2.0,-0.8223125339,-0.646722883,-2.0,-2.0,0.5452780724,-0.8203880154,-2.0,-2.0,-1.1907715499,-2.0,-2.0,-0.2585012689,-0.4591766447,3.3347080946,-0.4901905656,0.4583572298,-2.0,-2.0,-2.0,6.5597465038,6.2752535343,-2.0,-2.0,-2.0,-0.5163169801,-0.8222058713,-0.6822179854,-2.0,-2.0,-1.4268192053,-2.0,-2.0,0.3895468414,0.3315529004,-2.0,-2.0,-2.0,0.3454036564,-0.2884924859,0.0967067815,-2.0,-2.0,0.2495964468,0.1560494974,-2.0,-2.0,-2.0,-2.0,0.3895468414,-1.4423393011,-0.9974299073,-1.4295618534,-2.0,1.1060937941,-2.0,-2.0,-0.2571200952,-2.0,1.3758202791,0.2500106469,-2.0,1.1862926483,-2.0,-2.0,0.3235129118,-2.0,-2.0,-0.7094871998,-0.934980154,-1.1968919933,-2.0,0.1027908549,0.33983998,-2.0,-2.0,0.0347112566,-2.0,-2.0,1.5781960487,1.0711240768,1.3644627929,-2.0,-2.0,-2.0,0.2490102388,-2.0,-2.0,-0.5967407227,-0.48145625,-0.4239139967,-2.0,-2.0,0.9586825073,1.4594798088,-2.0,-2.0,-2.0,-0.4839942306,0.5450465679,0.9703628421,-2.0,-2.0,-2.0,0.8362823129,0.3963664919,-2.0,-2.0,1.4349819124,-2.0,-2.0,0.0181579553,3.2141739726,-1.1714475229,-0.6531139165,-2.0,-2.0,-0.6018151939,-2.0,-2.0,-2.0,-0.7481925786,-0.1118651591,1.0419672132,-2.0,-2.0,-2.0,-0.8222336471,-0.3515734375,-2.0624448359,-2.0,-0.3690551668,-2.0,-2.0,-0.5157003999,-2.0,-0.3035393059,-2.0,-2.0,0.8107619286,0.72156775,0.7290838659,-2.0,-2.0,-0.5849922895,-2.0,-2.0,-0.5413950533,-2.0,-2.0,1.331119597,-0.5181783587,-2.0,-0.3958909363,0.4963087142,-2.0,-0.9163077474,-2.0,-2.0,0.2795512751,0.2311301604,0.2066899762,-2.0,0.6763293967,-2.0,-2.0,-0.6926350296,-0.7626606822,-2.0,-2.0,-2.0,0.3148889244,0.8624297678,-0.8604921997,-0.9072462618,-2.0,-2.0,-0.494854331,-2.0,-2.0,0.8917084932,-2.0,0.9687972963,-2.0,-2.0,-2.0,-0.4675666392,-0.985856086,-1.8961638808,-1.4913395047,-2.0,-2.0,-2.0,-0.9430297911,-1.2213464379,-2.0,-2.0,-2.0,-2.0,0.2698566169,0.1924846172,-1.1485022306,-1.4528169036,1.540055573,-2.0,-2.0,-0.8487267494,-0.8151316941,1.2191897035,-2.0,-2.0,-0.9439866841,-2.0,-1.3783959746,-2.0,0.8745386899,-2.0,-2.0,-0.6650915146,-0.3785260916,-2.0,-2.0,-2.0,1.2395935655,-0.3567819595,-0.4597949088,-0.1743311957,0.1474603787,-2.0,-0.5537239686,-2.0,-2.0,0.4557949528,-2.0,-2.0,0.8585653305,-2.0,-2.0,0.188851133,0.2052919269,-0.467454806,-2.0,-2.0,-2.0,-0.2043845318,-0.5939978063,-2.0,-2.0,-2.0,1.4803595543,-2.0,-2.0,0.3052310944,0.6490847394,0.3355260193,0.1044032946,-0.4237101972,-0.1511426568,-0.6725850701,-2.0,-2.0,-0.238143459,-2.0,-2.0,-0.2915969808,-2.0,-2.0,-0.479348734,-2.0,0.2528050244,-2.0,-2.0,-0.7598097622,-2.0,-2.0,-0.6207392812,-0.1239418387,-2.0,-2.0,-0.3373244554,-2.0,-0.0588282112,-2.0,-2.0,1.8836817145,-0.8158367872,-0.7554073036,-2.0,-0.3700386882,-0.5398456752,-2.0,-2.0,0.9817099571,-2.0,-2.0,0.9817099571,-0.1078631779,0.86896348,0.2908278103,-2.0,-2.0,0.3895468414,-2.0,-2.0,0.7719235718,0.1849354208,-2.0,-2.0,-2.0,-0.4121890962,1.2381824851,-0.4702640623,-2.0,-2.0,-2.0,0.0757180844,-0.3590968549,-2.0,-2.0,-0.2309817001,-2.0,-2.0,0.8208633363,-0.8065868616,0.2435236871,-2.0,-2.0,-0.4214621931,0.1929319166,-2.0,-2.0,-0.7129588127,-2.0,-2.0,-2.0,0.4694568366,0.3052310944,0.1924846172,-0.0616325103,-0.299788028,-2.0,-2.0,0.6678708196,-1.337010622,-2.0,-0.5712366253,-2.0,-0.3410954177,-2.0,-2.0,-0.9450226128,-1.3502543569,-2.0,-2.0,-2.0,0.7449133247,-0.5614293218,-0.667529583,-2.0,-2.0,0.7826626003,0.1693799943,-0.2466640249,-2.0,-2.0,-2.0,-2.0,-2.0,0.7562170029,0.2305916771,-0.4855307937,-0.5850057304,-2.0,-2.0,-0.0884467401,0.5307240486,-0.1609726846,-2.0,-2.0,-0.6332510561,-2.0,-2.0,0.3862800449,0.1519078091,-2.0,-2.0,0.5307240486,-2.0,-2.0,0.6638603508,0.3553489149,-2.0,-2.0,-2.0,1.8836817145,-0.5923266411,0.5558664501,0.0798466131,0.4104382154,-2.0,-2.0,0.2265078723,-2.0,-2.0,-2.0,0.2622173578,0.0547530949,-0.9394692034,-2.0,-2.0,-0.0743644387,-2.0,-2.0,-0.2059728894,-2.0,0.8312424421,-2.0,-2.0,-2.0,0.6964964569,0.9961963892,-0.0205430761,2.1886595488,-0.447834596,0.762304455,-2.0,-2.0,1.5072796941,0.0368889864,-2.0,-2.0,-2.0,-2.0,0.6434705257,1.9936366081,0.3895468414,-2.0,-2.0,-2.0,0.9375863671,-0.5958244652,-2.0,0.3895468414,-2.0,-2.0,0.764790684,-2.0,-2.0,0.1924846172,-2.0,0.7673209012,1.6727103591,0.5307240486,-2.0,1.5454422832,-2.0,-2.0,0.4997586906,-2.0,-2.0,0.9817099571,1.1943719387,-2.0,0.5870972872,-2.0,-2.0,-1.0225574076,-2.0,-2.0,-0.2103911415,1.9741277099,1.4772785902,-2.0,-2.0,-2.0,0.3895468414,0.9140685238,0.9651233554,-2.0,-2.0,0.0414298596,-2.0,0.7829193175,-2.0,1.6199615598,-2.0,-2.0,0.3907734752,2.3931596875,-2.0,-2.0,-2.0],"value":[[[0.0607453619]],[[-0.3509520685]],[[-0.1473747946]],[[0.1978022915]],[[-1.0381355101]],[[-1.5346199562]],[[-1.3594683259]],[[-1.2810873239]],[[-1.437849328]],[[-1.8849232168]],[[-0.7402448424]],[[-1.8164585524]],[[-0.4711914149]],[[-0.8196816138]],[[-0.3550280153]],[[-0.3216446564]],[[-0.2885901976]],[[-0.3546991152]],[[-0.421794733]],[[0.3370628888]],[[0.8849612876]],[[0.5847628719]],[[-0.2099625205]],[[-0.0426551573]],[[-0.3772698837]],[[0.7070283169]],[[0.8379474183]],[[0.4715390168]],[[0.8837484685]],[[0.9057364672]],[[0.8471018041]],[[0.4124603386]],[[0.1404394101]],[[0.3161337255]],[[-0.0352549053]],[[0.6844812672]],[[0.79381999]],[[0.5751425443]],[[1.3852919804]],[[0.7924632771]],[[1.1697527898]],[[0.4151737643]],[[1.55467161]],[[1.2340733132]],[[0.7312878608]],[[1.7368587655]],[[1.6829109287]],[[1.9015143718]],[[1.830965303]],[[1.9720634405]],[[1.5371753]],[[1.3643794166]],[[1.6235732417]],[[0.0572849831]],[[-0.0478353337]],[[0.2208466716]],[[0.5601570341]],[[0.4943317929]],[[0.5761292446]],[[0.4398001584]],[[0.8892832403]],[[-0.0336361002]],[[-0.1001304476]],[[-0.1405851583]],[[0.1425978169]],[[0.4318243313]],[[-0.187151929]],[[0.278219768]],[[-0.6161746847]],[[-0.4198213325]],[[-0.8125280369]],[[0.5018183811]],[[0.7975201159]],[[0.4032511362]],[[-0.4608999861]],[[-0.5421182049]],[[-0.6091884944]],[[-0.0726261778]],[[0.8385915143]],[[0.7756071476]],[[0.7550426697]],[[0.7119238682]],[[0.7248743091]],[[0.6989734273]],[[0.7837885373]],[[0.7748260099]],[[0.7748260099]],[[0.7748260099]],[[0.8017135921]],[[0.8784295374]],[[-0.3824522929]],[[-0.173219409]],[[0.569913033]],[[0.1067065949]],[[-0.0104640612]],[[0.165291923]],[[0.2053766211]],[[0.1252072248]],[[0.6516553456]],[[1.3865801725]],[[0.6057225439]],[[0.6614171485]],[[0.3438846704]],[[0.7143392282]],[[0.6419668196]],[[1.0762012712]],[[0.2158603114]],[[0.5826661338]],[[-0.1509455111]],[[-0.3984110581]],[[-0.7183212876]],[[-0.413398971]],[[-0.8756768536]],[[-0.3363526572]],[[-0.22228394]],[[0.0319023813]],[[-0.3917414876]],[[-0.4178303123]],[[-0.4470789273]],[[-0.4061308664]],[[-0.9554830894]],[[-1.0171064607]],[[-1.0573530394]],[[-1.1174744804]],[[-0.8920190767]],[[-0.4134077808]],[[-0.4624961189]],[[-0.556972669]],[[-0.3680195688]],[[-0.0973190773]],[[0.393277241]],[[0.7216675333]],[[0.8358780886]],[[0.6074569779]],[[0.3427556576]],[[0.3671543516]],[[0.4145218374]],[[0.3008398715]],[[0.0499713298]],[[-0.4846319603]],[[-0.9276304174]],[[-0.9117222476]],[[-0.9553066482]],[[-0.8245534463]],[[-1.1185284557]],[[0.4751980303]],[[0.7120163713]],[[0.6693313069]],[[0.8400715647]],[[0.0015613482]],[[-0.0264979405]],[[0.0296206369]],[[-0.9822532268]],[[-0.0520140093]],[[0.3557559079]],[[0.1895277481]],[[0.3098435114]],[[0.0692119849]],[[0.5219840677]],[[0.4151737643]],[[0.6287943711]],[[-1.6830936782]],[[-1.1683010703]],[[-1.4962311491]],[[-1.3894804589]],[[-1.4175603039]],[[-1.3754405364]],[[-1.8164832199]],[[-1.1058381982]],[[-1.2605971647]],[[-1.144118527]],[[-0.5927405535]],[[-1.2053827462]],[[-1.1810297504]],[[-1.400206713]],[[-1.6488592903]],[[-1.4402790774]],[[-1.7531493968]],[[-1.8194803219]],[[-1.6868184717]],[[-0.8543548777]],[[-0.9495560358]],[[-0.9001901883]],[[-0.9392573518]],[[-0.8611230248]],[[-1.0482877308]],[[-1.001234462]],[[-1.0953409995]],[[-0.5687514033]],[[-0.2885901976]],[[-0.848912609]],[[-1.3433912785]],[[-1.5498795499]],[[-1.8861812596]],[[-1.4734473431]],[[-0.935413332]],[[-0.7761434647]],[[-1.0150482657]],[[-0.9443758594]],[[-1.0857206719]],[[-1.5584000817]],[[-1.7469948539]],[[-1.8931251627]],[[-1.9062729437]],[[-1.8865512722]],[[-1.8861812596]],[[-1.8869212848]],[[-1.6008645451]],[[-1.5916142301]],[[-1.5916142301]],[[-1.5916142301]],[[-1.619365175]],[[-1.4713563407]],[[-1.529290747]],[[-1.5720919543]],[[-1.5243623847]],[[-1.5527629073]],[[-1.4675613397]],[[-1.6198215239]],[[-1.6295343546]],[[-1.6003958625]],[[-1.4864895397]],[[-1.4296227146]],[[-1.5433563648]],[[-1.5721885687]],[[-1.5289402628]],[[-0.7761434647]],[[-0.9145310227]],[[-0.8308642167]],[[-0.9641920897]],[[-0.8601979933]],[[-0.7761434647]],[[-0.9442525219]],[[-1.1721802824]],[[-0.7864215924]],[[-0.8223950395]],[[-0.8686466143]],[[-0.7761434647]],[[-0.7761434647]],[[-1.9185326945]],[[0.4724427923]],[[0.2322020637]],[[0.7230859149]],[[0.4250519795]],[[1.1510054849]],[[0.92579115]],[[1.3762198197]],[[0.2637289783]],[[0.4554229125]],[[0.1829291901]],[[0.1877393539]],[[0.1781190264]],[[0.5916697737]],[[0.4695656163]],[[0.6323711596]],[[0.6423614997]],[[0.6273759895]],[[0.6274376582]],[[0.6273143207]],[[-0.1196588903]],[[-0.0438268639]],[[0.028263924]],[[-0.1159176518]],[[-0.2713229431]],[[0.9416441342]],[[1.0242714262]],[[1.205837828]],[[1.0944428923]],[[0.9114839962]],[[0.7951767028]],[[0.9696376429]],[[0.92579115]],[[1.0134841358]],[[1.3688812365]],[[1.4164278554]],[[1.3213346176]],[[1.4843251672]],[[1.552222479]],[[1.4164278554]],[[0.8124439574]],[[1.0599823857]],[[0.9293062697]],[[0.9328213894]],[[0.92579115]],[[1.3213346176]],[[0.5649055291]],[[0.5310493764]],[[0.5596020152]],[[0.5024967375]],[[0.6326178346]],[[0.4045667365]],[[0.4696889538]],[[0.3394445192]],[[0.110649872]],[[-0.4973162518]],[[-0.1642185271]],[[-0.1902038478]],[[-0.2191159274]],[[-0.1845673225]],[[-0.2176300038]],[[-0.229634857]],[[-0.2116275772]],[[-0.1349733006]],[[-0.1437919342]],[[-0.126154667]],[[-0.3054874396]],[[-0.2892068853]],[[-0.321767994]],[[-0.1227423286]],[[-0.1437919342]],[[-0.1122175258]],[[-0.1060506491]],[[-0.1183844024]],[[-0.0776007916]],[[-0.0559756108]],[[-0.088413382]],[[-1.2190279886]],[[-1.276030485]],[[-1.2981079034]],[[-1.2318756483]],[[-1.1620254922]],[[-1.2318756483]],[[-1.1271004142]],[[-1.1526929522]],[[-1.1015078761]],[[0.2449679691]],[[0.3467999212]],[[-0.6422235716]],[[0.4653721402]],[[-0.9191224996]],[[-1.1048379895]],[[-0.9734835171]],[[-1.2361924619]],[[-0.7334070096]],[[-0.6249316495]],[[-0.8418823697]],[[0.4154821082]],[[0.2008162158]],[[0.4272485088]],[[1.1083130789]],[[1.3236556057]],[[0.3187238137]],[[-0.16868299]],[[0.5846395344]],[[-0.2763004935]],[[-0.4784806631]],[[-0.6097748372]],[[-0.5587918976]],[[-1.0176383539]],[[0.7031669034]],[[0.6838144736]],[[0.2916203909]],[[0.4006423605]],[[0.2730889266]],[[0.5069368887]],[[-0.9076212746]],[[0.9191309232]],[[1.0599559562]],[[0.8181421514]],[[1.1942969589]],[[0.5905391797]],[[1.1972570596]],[[0.2871802397]],[[-0.626260954]],[[-0.6533917852]],[[-0.722902763]],[[-0.7261917639]],[[-0.7163247613]],[[-0.6116851985]],[[-0.6745133377]],[[-0.6878337912]],[[-0.6611928842]],[[-0.5697997724]],[[-0.59841408]],[[-0.5554926186]],[[-0.4092143047]],[[0.77505371]],[[1.0431786415]],[[0.1805785219]],[[0.6413610953]],[[0.9745094755]],[[1.0488820077]],[[0.9001369432]],[[0.5461758438]],[[0.3935280273]],[[0.2507648332]],[[0.4411157587]],[[0.3409245696]],[[0.4912113533]],[[0.5212440425]],[[0.4611786641]],[[0.7497062657]],[[0.8939700666]],[[0.9328213894]],[[0.8551187437]],[[0.4611786641]],[[-0.3378018732]],[[-0.2067645545]],[[-0.0871800066]],[[-0.0559756108]],[[-0.1183844024]],[[-0.2545983736]],[[-0.1939491975]],[[-0.2177944538]],[[-0.231731595]],[[-0.2038573126]],[[-0.1462586848]],[[-0.3455721378]],[[-1.2550631044]],[[1.3690497978]],[[1.6314391992]],[[1.7673895486]],[[1.2490588234]],[[1.3958304874]],[[1.1022871594]],[[1.8105837757]],[[1.9220254035]],[[2.0186439154]],[[2.0003077355]],[[2.0553162751]],[[1.8806174698]],[[1.9308687046]],[[1.872242264]],[[1.7309826131]],[[1.701090881]],[[1.7584252141]],[[1.6208228147]],[[1.9103330054]],[[1.9290186416]],[[1.8916473692]],[[0.4532028369]],[[-0.081814824]],[[-0.1407084959]],[[-0.0229211521]],[[1.5232381588]],[[0.8934690078]],[[0.9822057375]],[[1.2510075564]],[[1.3667844984]],[[1.2645376838]],[[1.2171144024]],[[1.3119609651]],[[1.4690313131]],[[1.4002706386]],[[1.5377919876]],[[0.7878997884]],[[0.847804828]],[[0.9921261864]],[[0.89279836]],[[0.933191402]],[[0.7716192341]],[[1.1907818392]],[[1.1972570596]],[[1.1843066187]],[[0.6313227905]],[[0.0787089749]],[[0.8155273957]],[[0.8981018739]],[[0.6503784393]],[[-0.4375819372]],[[0.3792502396]],[[0.037662244]],[[0.4302785009]],[[-0.3309771964]],[[-0.1464066899]],[[-0.3960171887]],[[-0.3374318606]],[[-0.4546025168]],[[0.0200003093]],[[-0.0663976324]],[[-0.1481087478]],[[0.0153134831]],[[0.1927961928]],[[-1.2538297291]],[[0.937782299]],[[1.4089864909]],[[1.2614542455]],[[1.1270780035]],[[1.3958304874]],[[1.7040509818]],[[0.7021802031]],[[0.5711340745]],[[0.5403613601]],[[0.601906789]],[[0.5910530861]],[[0.6127604918]],[[0.9642724602]],[[1.008427297]],[[0.9201176235]],[[-0.3549540128]],[[1.1839366061]],[[-0.4648747713]],[[-0.7861749174]],[[-1.0434981232]],[[-1.3581732818]],[[-0.8861605439]],[[-1.0176383539]],[[-0.754682734]],[[-0.5288517115]],[[-0.5294683992]],[[-0.5276183362]],[[-0.2238996617]],[[-0.4474694961]],[[-0.126154667]],[[-0.5117324619]],[[-0.5294683992]],[[-0.4407887131]],[[0.4468098415]],[[0.359301862]],[[0.534317821]],[[1.2332202286]],[[0.5606709405]],[[0.6916348441]],[[0.7856797128]],[[0.5975899753]],[[0.2987431334]],[[1.4574033246]],[[1.2380406705]],[[1.4708813761]],[[1.4439321252]],[[1.497830627]],[[1.1216203177]],[[1.2602825389]],[[1.0753995773]],[[1.1843066187]],[[1.0209460566]],[[0.989679992]],[[1.0522121211]],[[1.8961286328]],[[1.8165348117]],[[1.7491925188]],[[1.8838771046]],[[2.0553162751]]],"weighted_n_node_samples":[470.0,235.0,195.0,79.0,8.0,3.0,2.0,1.0,1.0,1.0,5.0,1.0,4.0,1.0,3.0,2.0,1.0,1.0,1.0,71.0,24.0,15.0,2.0,1.0,1.0,13.0,9.0,1.0,8.0,5.0,3.0,4.0,2.0,1.0,1.0,2.0,1.0,1.0,9.0,2.0,1.0,1.0,7.0,2.0,1.0,1.0,5.0,2.0,1.0,1.0,3.0,1.0,2.0,47.0,41.0,14.0,6.0,5.0,2.0,3.0,1.0,8.0,7.0,6.0,1.0,1.0,27.0,10.0,2.0,1.0,1.0,8.0,2.0,6.0,17.0,16.0,14.0,2.0,1.0,6.0,5.0,2.0,1.0,1.0,3.0,2.0,1.0,1.0,1.0,1.0,116.0,86.0,20.0,3.0,1.0,2.0,1.0,1.0,17.0,1.0,16.0,14.0,2.0,12.0,10.0,2.0,2.0,1.0,1.0,66.0,32.0,14.0,2.0,12.0,5.0,2.0,3.0,7.0,2.0,5.0,18.0,16.0,15.0,11.0,4.0,1.0,2.0,1.0,1.0,34.0,15.0,2.0,1.0,1.0,13.0,12.0,7.0,5.0,1.0,19.0,13.0,12.0,8.0,4.0,1.0,6.0,4.0,3.0,1.0,2.0,1.0,1.0,30.0,5.0,4.0,2.0,1.0,1.0,2.0,1.0,1.0,1.0,25.0,4.0,3.0,1.0,2.0,1.0,21.0,13.0,10.0,1.0,9.0,8.0,1.0,3.0,1.0,2.0,1.0,1.0,8.0,6.0,4.0,2.0,2.0,2.0,1.0,1.0,2.0,1.0,1.0,40.0,27.0,5.0,22.0,3.0,1.0,2.0,1.0,1.0,19.0,6.0,3.0,1.0,2.0,1.0,1.0,3.0,2.0,1.0,1.0,1.0,13.0,12.0,6.0,3.0,2.0,1.0,3.0,2.0,1.0,6.0,3.0,3.0,1.0,2.0,1.0,13.0,12.0,3.0,2.0,1.0,1.0,1.0,9.0,2.0,1.0,1.0,7.0,1.0,235.0,131.0,26.0,11.0,2.0,1.0,1.0,9.0,6.0,2.0,1.0,1.0,4.0,1.0,3.0,1.0,2.0,1.0,1.0,3.0,2.0,1.0,1.0,1.0,15.0,13.0,7.0,5.0,3.0,1.0,2.0,1.0,1.0,2.0,1.0,1.0,2.0,1.0,1.0,6.0,3.0,2.0,1.0,1.0,1.0,3.0,2.0,1.0,1.0,1.0,2.0,1.0,1.0,105.0,19.0,13.0,10.0,7.0,5.0,3.0,1.0,2.0,2.0,1.0,1.0,2.0,1.0,1.0,3.0,1.0,2.0,1.0,1.0,3.0,1.0,2.0,6.0,3.0,2.0,1.0,3.0,1.0,2.0,1.0,1.0,86.0,77.0,5.0,1.0,4.0,2.0,1.0,1.0,2.0,1.0,1.0,72.0,40.0,30.0,14.0,11.0,3.0,16.0,2.0,14.0,10.0,9.0,8.0,1.0,1.0,32.0,12.0,11.0,5.0,6.0,1.0,20.0,14.0,5.0,9.0,6.0,2.0,4.0,9.0,8.0,3.0,2.0,1.0,5.0,2.0,1.0,1.0,3.0,1.0,2.0,1.0,104.0,62.0,17.0,9.0,2.0,1.0,1.0,7.0,4.0,1.0,3.0,1.0,2.0,1.0,1.0,3.0,2.0,1.0,1.0,1.0,8.0,7.0,2.0,1.0,1.0,5.0,3.0,2.0,1.0,1.0,1.0,2.0,1.0,45.0,29.0,26.0,2.0,1.0,1.0,24.0,10.0,3.0,2.0,1.0,7.0,1.0,6.0,14.0,12.0,7.0,5.0,2.0,1.0,1.0,3.0,2.0,1.0,1.0,1.0,16.0,15.0,5.0,4.0,2.0,1.0,1.0,2.0,1.0,1.0,1.0,10.0,6.0,4.0,3.0,1.0,2.0,1.0,1.0,4.0,1.0,3.0,2.0,1.0,1.0,42.0,30.0,15.0,6.0,5.0,2.0,1.0,1.0,3.0,2.0,1.0,1.0,1.0,1.0,9.0,3.0,2.0,1.0,1.0,1.0,6.0,4.0,2.0,2.0,1.0,1.0,2.0,1.0,1.0,15.0,1.0,14.0,6.0,3.0,1.0,2.0,1.0,1.0,3.0,2.0,1.0,8.0,6.0,1.0,5.0,4.0,1.0,2.0,1.0,1.0,12.0,3.0,2.0,1.0,1.0,1.0,9.0,6.0,2.0,1.0,1.0,4.0,1.0,3.0,1.0,2.0,1.0,1.0,3.0,2.0,1.0,1.0,1.0]}}},"evaluation":{"mae":3.6428602556,"r2":0.4889247798,"rve":0.490341753},"name":{"mae":"tree-squared_error-best-10","r2":"tree-squared_error-best-10","rve":"tree-squared_error-best-10"}}